svm_type c_svc
kernel_type rbf
gamma 0.0285714
nr_class 2
total_sv 997
rho -0.176617
label 1 -1
nr_sv 501 496
SV
1 1:0 2:0.372865 3:0.0227704 4:0.372865 5:0.0437735 6:-0.859485 7:0.0161474 8:-0.00459058 9:-0.733031 10:-0.00733484 11:0.025567 12:0.0023707 13:0.0669445 14:0 15:0.0121562 16:-0.00124075 17:0 18:-0.0220886 19:0.0138395 20:0 21:0 22:0 23:0 24:0 25:0 26:0 27:0 28:1 29:0 30:0 31:0 32:1 33:0 34:0 35:0 
1 1:0 2:0.249364 3:0.0559796 4:0.249364 5:0.00737457 6:0.00790223 7:0.0105849 8:0.0184523 9:0.181919 10:0.00890847 11:0.00732539 12:-0.000129959 13:0.0111695 14:0 15:-0.000517298 16:-0.00347876 17:0 18:0.00550033 19:0.00404864 20:0 21:0 22:0 23:0 24:0 25:0 26:0 27:0 28:0 29:0 30:0 31:0 32:0 33:0 34:0 35:0 
1 1:0 2:0.0935193 3:-0.0442986 4:0.0935193 5:0.0106812 6:-0.0374189 7:-0.00737515 8:-0.00459058 9:0.0126272 10:0.00890847 11:-0.00480468 12:0.00217649 13:-0.0674412 14:0 15:0.00574903 16:-0.00293144 17:0 18:0.0184896 19:0.00272342 20:0 21:0 22:0 23:0 24:0 25:0 26:0 27:0 28:0 29:0 30:0 31:0 32:0 33:0 34:0 35:1 
1 1:0 2:0.214404 3:0.0362837 4:0.214404 5:-0.00855676 6:-0.22968 7:0.00636562 8:0.0100182 9:0.0500956 10:-0.00123088 11:0.00388373 12:-0.00317909 13:-0.0116227 14:0 15:0.00165974 16:0.00605498 17:0 18:0.00705266 19:-0.00601379 20:0 21:0 22:0 23:0 24:0 25:0 26:0 27:0 28:0 29:0 30:1 31:0 32:0 33:2 34:0 35:0 
1 1:0 2:-5.55112e-017 3:-0.0759494 4:-5.55112e-017 5:0.0106812 6:-0.0993394 7:-0.013301 8:-0.00459058 9:0.105245 10:0.00180655 11:-0.00737899 12:-0.0105182 13:0.0674106 14:0 15:0.00574903 16:-0.0143477 17:1 18:-0.0194217 19:-0.00207511 20:0 21:0 22:0 23:0 24:0 25:0 26:0 27:0 28:0 29:0 30:0 31:0 32:0 33:0 34:0 35:0 
1 1:0 2:0.100246 3:-0.044226 4:0.100246 5:0.00197725 6:-0.0596288 7:0.0105849 8:-0.00209975 9:0.930797 10:0.00128145 11:0.025567 12:0.00218961 13:0.218154 14:1 15:-0.00790929 16:0.00605498 17:0 18:-0.00903743 19:0.00276726 20:0 21:0 22:1 23:0 24:0 25:0 26:0 27:0 28:0 29:0 30:0 31:0 32:0 33:0 34:0 35:0 
1 1:0 2:0.186763 3:-0.0471822 4:0.186763 5:0.0106812 6:-0.258205 7:-0.00516551 8:-0.00624256 9:-0.310713 10:-0.000769924 11:-0.00480468 12:-0.0105182 13:0.0507641 14:0 15:0.0012351 16:-0.00347876 17:0 18:-0.0157994 19:0.00276726 20:0 21:0 22:0 23:0 24:2 25:0 26:0 27:0 28:1 29:0 30:0 31:1 32:0 33:0 34:0 35:0 
1 1:0 2:0.443038 3:0.101266 4:0.443038 5:-0.00118857 6:-0.794548 7:0.0137208 8:-0.00209975 9:-0.482737 10:-0.000769924 11:0.0136848 12:-0.0105182 13:-0.0142624 14:0 15:0.0121562 16:0.00605498 17:0 18:0.00789593 19:-0.0057122 20:0 21:0 22:0 23:0 24:0 25:0 26:0 27:0 28:0 29:0 30:2 31:0 32:0 33:0 34:0 35:0 
1 1:0 2:0.33033 3:0.03003 4:0.33033 5:-0.00118857 6:-1.02303 7:0.00140932 8:-0.00209975 9:-0.798945 10:-0.000769924 11:0.0136848 12:-0.000129959 13:0.0315219 14:0 15:-0.00036086 16:0.00443894 17:0 18:-0.00238501 19:0.00958784 20:0 21:0 22:0 23:0 24:0 25:0 26:0 27:0 28:0 29:0 30:0 31:0 32:0 33:0 34:0 35:0 
1 1:0 2:0.555773 3:0.0978474 4:0.555773 5:-0.00118857 6:-0.655511 7:0.0161474 8:-0.00624256 9:-0.319152 10:-0.000769924 11:0.0136848 12:0.0023707 13:-0.0449181 14:0 15:0.00646052 16:-0.0060947 17:0 18:0.00804483 19:0.000369551 20:0 21:0 22:0 23:0 24:0 25:0 26:0 27:0 28:2 29:0 30:0 31:0 32:0 33:0 34:0 35:0 
1 1:0 2:0.272128 3:0.00859353 4:0.272128 5:0.0437735 6:-0.566447 7:-0.00737515 8:-0.00630459 9:-0.294782 10:-0.00332328 11:-0.00198275 12:-0.00109699 13:-0.0468732 14:0 15:-0.000517298 16:0.00471629 17:0 18:0.0165457 19:0.00272342 20:0 21:0 22:0 23:0 24:0 25:0 26:0 27:0 28:2 29:1 30:0 31:0 32:0 33:0 34:0 35:0 
1 1:0 2:0.0766871 3:-0.0122699 4:0.0766871 5:0.00737457 6:-0.098667 7:0.000868714 8:-0.00459058 9:0.0263212 10:-0.00381029 11:0.00388373 12:-0.00279944 13:-0.0075986 14:0 15:-0.0106865 16:-0.00483205 17:0 18:0.0180211 19:0.000803702 20:0 21:0 22:1 23:0 24:0 25:0 26:0 27:0 28:0 29:1 30:0 31:0 32:0 33:0 34:0 35:0 
1 1:0 2:0.175631 3:-0.0131723 4:0.175631 5:-0.0102445 6:-0.00325062 7:-0.00737515 8:-0.000155678 9:-0.0635265 10:-0.00335283 11:0.0136848 12:0.00155162 13:-0.120022 14:0 15:0.00574903 16:-0.00483205 17:0 18:-0.00706248 19:-0.00405298 20:0 21:0 22:1 23:0 24:0 25:0 26:0 27:0 28:0 29:1 30:0 31:0 32:0 33:0 34:0 35:0 
1 1:0 2:0.627195 3:0.0525487 4:0.627195 5:-0.0181781 6:-1.07647 7:0.0105849 8:-0.00566043 9:0.219287 10:0.0194542 11:-0.037011 12:0.0023707 13:-0.0587029 14:0 15:0.0048917 16:-0.00483205 17:0 18:-0.0277982 19:-0.00207511 20:0 21:0 22:0 23:0 24:0 25:0 26:0 27:2 28:0 29:0 30:0 31:0 32:0 33:0 34:0 35:0 
1 1:0 2:0.378571 3:0.0714286 4:0.378571 5:-0.0102445 6:-0.408974 7:-0.00737515 8:-0.00624256 9:0.12463 10:-0.00325732 11:0.00232889 12:0.0221073 13:-0.117411 14:0 15:-0.000517298 16:0.00443894 17:0 18:-0.0120321 19:0.000347898 20:0 21:0 22:0 23:0 24:0 25:0 26:0 27:0 28:1 29:1 30:1 31:0 32:0 33:0 34:0 35:0 
1 1:0 2:0.167598 3:0.0111732 4:0.167598 5:-0.0058672 6:-0.321202 7:-0.00347661 8:-0.00209975 9:0.061823 10:-0.00476114 11:-0.00198275 12:0.00677998 13:-0.0412332 14:0 15:0.00574903 16:-0.0143477 17:0 18:-0.0127798 19:-0.00671981 20:0 21:0 22:0 23:0 24:0 25:0 26:0 27:0 28:0 29:0 30:0 31:0 32:0 33:0 34:0 35:0 
1 1:0 2:0.238361 3:0.0484171 4:0.238361 5:-0.00855676 6:-0.308794 7:0.00636562 8:-0.0025261 9:0.54352 10:0.0100219 11:0.00732539 12:0.00677998 13:0.102398 14:0 15:-0.00492854 16:-0.0143477 17:0 18:0.0143221 19:-0.00207511 20:0 21:0 22:0 23:0 24:0 25:0 26:0 27:0 28:1 29:0 30:0 31:0 32:0 33:0 34:0 35:0 
1 1:0 2:0.137733 3:-0.00860832 4:0.137733 5:-0.00855676 6:-0.375844 7:0.00636562 8:-0.0025261 9:-0.000938859 10:-0.00381029 11:0.00732539 12:0.00155162 13:-0.00220379 14:0 15:-0.0106865 16:0.00471629 17:0 18:-0.0020874 19:0.00220689 20:0 21:0 22:0 23:0 24:1 25:0 26:0 27:0 28:0 29:0 30:0 31:0 32:0 33:0 34:0 35:0 
1 1:0 2:0.443038 3:0.101266 4:0.443038 5:-0.0102445 6:-0.117811 7:-0.000966364 8:-0.0102524 9:0.0377337 10:-0.000769924 11:0.00388373 12:0.00218961 13:0.0137235 14:0 15:0.00165974 16:0.00443894 17:0 18:-0.00218405 19:0.00623806 20:0 21:0 22:0 23:0 24:1 25:0 26:0 27:0 28:0 29:0 30:0 31:0 32:0 33:0 34:0 35:0 
1 1:0 2:0.0631229 3:-0.0199336 4:0.0631229 5:0.00115378 6:-0.0714752 7:0.00857851 8:0.0184523 9:1.11022e-016 10:-0.00332328 11:-0.00268771 12:0.00218961 13:-0.0466725 14:0 15:0.0142631 16:-0.0143477 17:0 18:0.00263658 19:0.00623806 20:0 21:0 22:0 23:0 24:0 25:0 26:0 27:0 28:0 29:0 30:0 31:0 32:0 33:0 34:0 35:1 
1 1:0 2:0.214404 3:0.0362837 4:0.214404 5:-0.0181781 6:-0.0776154 7:-0.00516551 8:0.00111369 9:0.943541 10:-0.00286363 11:0.00732539 12:7.55969e-005 13:0.282551 14:0 15:-0.0106865 16:-0.00360034 17:0 18:0.00936728 19:0.00623806 20:0 21:0 22:0 23:0 24:0 25:0 26:0 27:0 28:0 29:0 30:0 31:0 32:0 33:0 34:0 35:0 
1 1:0 2:0.461643 3:0.0656257 4:0.461643 5:0.0130167 6:-0.556875 7:-0.00516551 8:-0.00630459 9:0.130804 10:-0.00123088 11:0.0141877 12:-0.00223244 13:-0.0742407 14:0 15:0.0121562 16:-0.00196836 17:0 18:-0.0153521 19:0.000803702 20:0 21:0 22:0 23:0 24:0 25:0 26:0 27:1 28:0 29:0 30:0 31:0 32:0 33:0 34:0 35:0 
1 1:0 2:0.12846 3:-0.0156658 4:0.12846 5:-0.00118857 6:-0.0210408 7:-0.013301 8:0.000578213 9:0.0888708 10:-0.00123088 11:0.0136848 12:0.00218961 13:0.035406 14:0 15:-0.00036086 16:0.00732772 17:0 18:-0.017862 19:-0.00671981 20:0 21:0 22:0 23:0 24:0 25:0 26:0 27:0 28:1 29:0 30:0 31:0 32:0 33:0 34:0 35:0 
1 1:0 2:0.117851 3:-0.0242634 4:0.117851 5:-0.00855676 6:-0.0351857 7:-0.00347661 8:-0.0025261 9:0.0305563 10:0.0037796 11:0.0136848 12:0.00217649 13:-0.00216105 14:0 15:0.0048917 16:0.00605498 17:0 18:-0.0141696 19:0.00623806 20:0 21:0 22:0 23:0 24:0 25:0 26:0 27:0 28:0 29:0 30:0 31:0 32:0 33:0 34:0 35:0 
1 1:0 2:0.483696 3:0.0978261 4:0.483696 5:-0.0181781 6:-0.937449 7:-0.00347661 8:-0.00566043 9:-0.587953 10:0.00890847 11:0.00232889 12:0.00155162 13:0.10551 14:0 15:-0.0106865 16:-0.0060947 17:0 18:0.00453087 19:0.00958784 20:0 21:0 22:0 23:0 24:1 25:0 26:0 27:0 28:0 29:0 30:0 31:0 32:0 33:0 34:0 35:0 
0.6580227979703143 1:0 2:0.0333333 3:-0.111111 4:0.0333333 5:-0.0058672 6:0.00124493 7:-0.0196727 8:0.0184523 9:-0.0360643 10:-0.00286363 11:0.00232889 12:-0.0117779 13:-0.120801 14:0 15:-0.00492854 16:-0.00479611 17:0 18:0.0175845 19:0.00272342 20:0 21:0 22:0 23:0 24:0 25:0 26:0 27:0 28:0 29:0 30:1 31:0 32:0 33:0 34:0 35:0 
0.7389103591945457 1:0 2:0.429916 3:0.0585093 4:0.429916 5:-0.00118857 6:-0.34669 7:0.0137208 8:-0.00459058 9:0.0613038 10:-0.00273061 11:-0.00198275 12:-0.00347617 13:-0.0380172 14:0 15:0.00331034 16:0.00732772 17:0 18:-0.0109867 19:0.00623806 20:0 21:0 22:0 23:0 24:0 25:0 26:0 27:0 28:0 29:0 30:0 31:0 32:2 33:1 34:0 35:0 
1 1:0 2:0.178886 3:-0.0117302 4:0.178886 5:0.0130167 6:-0.264428 7:-0.00516551 8:0.0184523 9:-0.165799 10:-0.00381029 11:0.0136848 12:0.0135939 13:-0.118999 14:0 15:0.0121562 16:-0.0143477 17:0 18:0.0320602 19:-0.00601379 20:0 21:0 22:0 23:0 24:1 25:0 26:0 27:1 28:0 29:0 30:0 31:0 32:0 33:1 34:0 35:0 
1 1:0 2:0.250489 3:0.0234834 4:0.250489 5:0.00115378 6:-0.369588 7:-0.013301 8:-0.0102524 9:-0.146939 10:-0.000769924 11:-0.0122162 12:0.00155162 13:-0.0785107 14:0 15:-0.00530999 16:0.00443894 17:0 18:0.0113651 19:0.000803702 20:0 21:0 22:0 23:0 24:1 25:0 26:0 27:0 28:0 29:0 30:0 31:0 32:0 33:0 34:0 35:0 
1 1:0 2:0.122117 3:-0.0587969 4:0.122117 5:-0.00855676 6:-0.0853404 7:0.00140932 8:-0.0102524 9:-0.259167 10:0.0194542 11:-0.037011 12:0.00155162 13:0.0352516 14:0 15:0.00646052 16:-0.0060947 17:0 18:-0.0079707 19:0.0138395 20:0 21:0 22:0 23:0 24:0 25:0 26:0 27:0 28:0 29:0 30:0 31:0 32:0 33:0 34:0 35:1 
1 1:0 2:0.220588 3:0.00980392 4:0.220588 5:-0.0058672 6:-0.351523 7:-0.00680823 8:-0.00566043 9:-0.25685 10:-0.00286363 11:-0.0122162 12:-0.00255595 13:0.0197463 14:0 15:-0.00349054 16:0.0289366 17:0 18:-0.0149897 19:0.00623806 20:0 21:0 22:0 23:0 24:1 25:0 26:0 27:0 28:0 29:0 30:0 31:0 32:0 33:0 34:0 35:0 
0.7412267824915286 1:0 2:0.124107 3:-0.0203084 4:0.124107 5:0.0130167 6:-0.171289 7:-0.00347661 8:0.0184523 9:0.0830052 10:-0.00335283 11:-0.00480468 12:0.0221073 13:0.00432663 14:0 15:0.00646052 16:-0.00360034 17:0 18:-0.0263444 19:0.00623806 20:0 21:0 22:0 23:0 24:0 25:0 26:0 27:1 28:0 29:0 30:0 31:0 32:0 33:1 34:0 35:0 
1 1:0 2:0.238095 3:0.017316 4:0.238095 5:0.0106812 6:-0.0701563 7:0.0105849 8:-0.0018813 9:0.546764 10:0.0100219 11:-0.0122162 12:-0.000129959 13:-0.0300407 14:0 15:-0.00492854 16:-0.0143477 17:0 18:0.023458 19:-0.00601379 20:0 21:0 22:1 23:0 24:0 25:0 26:0 27:0 28:0 29:0 30:0 31:0 32:0 33:1 34:0 35:0 
1 1:0 2:0.0746335 3:-0.0346513 4:0.0746335 5:-0.00229984 6:-0.00987088 7:-0.0196727 8:0.0184523 9:-0.255186 10:0.0100219 11:0.0136848 12:0.0023707 13:0.0480876 14:0 15:0.0121562 16:0.00732772 17:0 18:-0.00538507 19:-0.00207511 20:0 21:0 22:0 23:0 24:1 25:0 26:0 27:0 28:0 29:0 30:0 31:0 32:1 33:0 34:0 35:0 
1 1:0 2:0.2 3:-6.93889e-018 4:0.2 5:-0.00573529 6:-0.196474 7:0.0161474 8:-0.00630459 9:-0.0676018 10:-0.00733484 11:-0.037011 12:-0.0105182 13:-0.0747566 14:0 15:0.0121562 16:0.00605498 17:0 18:0.012376 19:-0.00601379 20:1 21:0 22:0 23:0 24:1 25:0 26:0 27:0 28:0 29:1 30:1 31:0 32:0 33:1 34:0 35:0 
1 1:0 2:0.416185 3:0.0847784 4:0.416185 5:-0.0146811 6:-0.541166 7:0.00305708 8:-0.00566043 9:-0.165236 10:-0.00123088 11:0.00732539 12:-0.000129959 13:0.0359118 14:0 15:-0.00790929 16:-0.00196836 17:0 18:-0.0120678 19:0.00958784 20:0 21:0 22:0 23:0 24:0 25:0 26:0 27:0 28:2 29:0 30:0 31:0 32:0 33:0 34:0 35:0 
1 1:0 2:0.150134 3:-0.0321716 4:0.150134 5:-0.0102445 6:-0.104991 7:0.00857851 8:-0.0025261 9:0.0998785 10:-0.00325732 11:0.0141877 12:0.00677998 13:-0.0478291 14:0 15:-0.00036086 16:0.00252779 17:0 18:-0.00930643 19:0.000803702 20:0 21:0 22:0 23:0 24:0 25:0 26:0 27:0 28:0 29:0 30:0 31:0 32:0 33:0 34:0 35:1 
1 1:0 2:0.298063 3:0.0417288 4:0.298063 5:-0.00118857 6:-0.198404 7:0.0161474 8:0.0100182 9:0.536371 10:0.0037796 11:0.00699454 12:0.00677998 13:0.0966693 14:0 15:-0.00790929 16:-0.00269397 17:0 18:0.0119501 19:0.00276726 20:0 21:0 22:0 23:0 24:0 25:0 26:0 27:0 28:0 29:1 30:0 31:0 32:0 33:0 34:0 35:0 
1 1:0 2:0.300473 3:0.0185223 4:0.300473 5:0.00115378 6:-0.404095 7:-0.0196727 8:0.0101539 9:-0.296131 10:0.0100219 11:0.00699454 12:0.0221073 13:0.031619 14:0 15:-0.00251503 16:-0.00124075 17:0 18:0.0109047 19:-0.00601379 20:0 21:0 22:0 23:0 24:0 25:0 26:0 27:2 28:0 29:0 30:1 31:0 32:0 33:1 34:0 35:0 
1 1:0 2:0.404858 3:0.052943 4:0.404858 5:-0.0181781 6:-0.0507277 7:0.00636562 8:0.000253862 9:-0.0414754 10:-0.00332328 11:0.0136848 12:-0.00571812 13:-0.215927 14:0 15:0.00646052 16:0.0289366 17:0 18:-0.00291839 19:-0.0057122 20:1 21:0 22:0 23:0 24:1 25:0 26:0 27:0 28:0 29:0 30:1 31:0 32:0 33:0 34:0 35:0 
1 1:0 2:0.188608 3:-0.0264051 4:0.188608 5:-0.00855852 6:-0.0486227 7:-0.00737515 8:-0.0102524 9:0.019232 10:-0.00733484 11:-0.00268771 12:-0.00317909 13:-0.125206 14:0 15:0.0048917 16:0.00732772 17:0 18:0.0282849 19:0.00272342 20:0 21:0 22:0 23:0 24:2 25:0 26:0 27:0 28:1 29:0 30:0 31:0 32:0 33:0 34:0 35:0 
1 1:0 2:0.130573 3:0.0254777 4:0.130573 5:-0.00855676 6:-0.0558892 7:0.00636562 8:-0.00459058 9:0.11218 10:-0.000710021 11:0.0136848 12:-0.00571812 13:0.0405421 14:0 15:0.0048917 16:-0.00347876 17:0 18:-0.00649573 19:0.000369551 20:0 21:0 22:0 23:0 24:0 25:0 26:0 27:0 28:0 29:1 30:0 31:0 32:0 33:0 34:0 35:0 
1 1:0 2:0.0982496 3:-0.0440429 4:0.0982496 5:-0.0181781 6:-0.042148 7:-0.00516551 8:0.0044492 9:0.297384 10:-0.000769924 11:-0.00185013 12:0.0023707 13:0.120894 14:0 15:-0.0106865 16:0.00443894 17:0 18:0.00793696 19:0.00276726 20:0 21:0 22:0 23:0 24:0 25:0 26:0 27:0 28:0 29:0 30:0 31:0 32:0 33:0 34:0 35:0 
1 1:0 2:0.0474453 3:-0.0291971 4:0.0474453 5:-0.00855852 6:-0.188708 7:0.000868714 8:-0.0102524 9:-0.0173226 10:0.00128145 11:-0.000258585 12:-0.000129959 13:0.119422 14:0 15:-0.00790929 16:-0.00483205 17:0 18:-0.0184403 19:0.000803702 20:0 21:0 22:0 23:0 24:0 25:0 26:0 27:0 28:1 29:0 30:0 31:0 32:0 33:0 34:0 35:0 
1 1:0 2:0.121827 3:-0.0473773 4:0.121827 5:0.00737457 6:-0.0836358 7:0.000933507 8:-0.00566043 9:0.0722407 10:-0.000769924 11:0.00388373 12:0.0221073 13:-0.00914407 14:0 15:-0.000517298 16:-0.00483205 17:0 18:0.00214013 19:0.00220689 20:0 21:0 22:0 23:0 24:0 25:0 26:0 27:0 28:0 29:0 30:0 31:0 32:0 33:0 34:0 35:0 
0.7009301388494638 1:0 2:0.358368 3:0.0958013 4:0.358368 5:-0.00424959 6:-0.126363 7:0.00305708 8:-0.00566043 9:-0.0169157 10:-0.00286363 11:-0.00480468 12:0.00218961 13:-0.0033268 14:0 15:0.0048917 16:-0.00483205 17:0 18:0.011623 19:-0.013254 20:0 21:0 22:0 23:0 24:0 25:0 26:0 27:0 28:1 29:0 30:1 31:0 32:0 33:0 34:0 35:0 
1 1:0 2:0.223718 3:0.0403936 4:0.223718 5:0.00737457 6:-0.139152 7:0.00636562 8:-0.0025261 9:-0.00960458 10:-0.00273061 11:-0.00480468 12:-0.00571812 13:-0.143727 14:0 15:0.00574903 16:-0.00293144 17:0 18:0.0224403 19:0.000803702 20:0 21:0 22:0 23:0 24:0 25:0 26:0 27:0 28:1 29:0 30:0 31:0 32:0 33:0 34:0 35:0 
1 1:0 2:0.168028 3:0.00700117 4:0.168028 5:-0.0102445 6:-0.0135066 7:-0.013301 8:-0.0025261 9:0.123092 10:-0.00286363 11:-0.00185013 12:-0.000334465 13:0.0363145 14:0 15:-0.00790929 16:-0.00483205 17:0 18:-0.00946221 19:-0.00671981 20:0 21:0 22:1 23:0 24:0 25:0 26:0 27:0 28:0 29:0 30:0 31:0 32:0 33:0 34:0 35:0 
1 1:0 2:-0.0385852 3:-0.0900322 4:-0.0385852 5:-0.00855852 6:0.178344 7:0.0137208 8:-0.00209975 9:-0.0147951 10:0.00128145 11:0.00732539 12:-0.00317909 13:0.0184976 14:0 15:0.00646052 16:0.00732772 17:0 18:-0.0139139 19:0.00272342 20:0 21:0 22:0 23:0 24:0 25:0 26:0 27:0 28:0 29:0 30:2 31:0 32:1 33:0 34:0 35:0 
1 1:0 2:0.286207 3:0.0344828 4:0.286207 5:-0.00855852 6:-0.514189 7:-0.00347661 8:-0.00566043 9:-0.311565 10:0.0100219 11:-0.037011 12:-0.00109699 13:0.0226132 14:0 15:0.0121562 16:-0.0143477 17:0 18:-0.000299758 19:0.00623806 20:0 21:0 22:0 23:0 24:0 25:0 26:0 27:1 28:0 29:0 30:0 31:0 32:0 33:0 34:0 35:0 
1 1:0 2:0.206235 3:0.0335731 4:0.206235 5:-0.00424959 6:-0.198904 7:-0.00680823 8:-0.00209975 9:-0.0557797 10:-0.00325732 11:-0.00737899 12:0.00217649 13:0.0266669 14:0 15:-0.00530999 16:-0.00479611 17:0 18:-0.00955203 19:0.00623806 20:0 21:0 22:0 23:0 24:0 25:0 26:0 27:0 28:1 29:0 30:0 31:0 32:0 33:0 34:0 35:0 
1 1:0 2:0.0342466 3:-0.109589 4:0.0342466 5:0.0106812 6:-0.0490587 7:-0.00516551 8:0.0100182 9:0.133656 10:0.0194542 11:0.025567 12:0.00677998 13:0.00827159 14:0 15:-0.00530999 16:-0.00382903 17:0 18:-0.00393672 19:0.00623806 20:0 21:0 22:0 23:0 24:0 25:0 26:0 27:0 28:0 29:1 30:0 31:0 32:0 33:0 34:0 35:0 
1 1:0 2:0.318966 3:0.0517241 4:0.318966 5:-0.00118857 6:-0.269439 7:0.000933507 8:0.00263785 9:0.0597393 10:0.00890847 11:0.00732539 12:0.00217649 13:0.0016221 14:0 15:0.00574903 16:-0.00159909 17:0 18:0.00389512 19:0.000347898 20:0 21:0 22:0 23:0 24:0 25:0 26:0 27:0 28:0 29:1 30:0 31:0 32:0 33:0 34:0 35:0 
1 1:0 2:0.189825 3:0.0230868 4:0.189825 5:-0.0102445 6:-0.0756787 7:0.00636562 8:0.0101539 9:0.225336 10:0.0100219 11:0.0136848 12:-0.00109699 13:0.0911064 14:0 15:-0.000517298 16:-0.0143477 17:0 18:0.0187735 19:0.00958784 20:0 21:0 22:1 23:0 24:0 25:0 26:0 27:0 28:0 29:0 30:0 31:0 32:0 33:0 34:0 35:0 
1 1:0 2:0.0497238 3:-0.0773481 4:0.0497238 5:-0.0181781 6:0.0330941 7:0.0105849 8:0.0184523 9:0.0942196 10:0.0100219 11:-0.00268771 12:-0.00317909 13:-0.00796541 14:0 15:0.00574903 16:0.00443894 17:0 18:0.00985862 19:-0.00671981 20:0 21:0 22:2 23:0 24:0 25:0 26:0 27:0 28:0 29:0 30:0 31:0 32:0 33:0 34:0 35:0 
1 1:0 2:0.384134 3:0.0751566 4:0.384134 5:-0.0102445 6:-0.261278 7:-0.0196727 8:-0.00459058 9:0.138521 10:0.0100219 11:-0.00185013 12:0.00677998 13:0.00821376 14:0 15:-0.00036086 16:0.000647573 17:0 18:-0.00267895 19:0.000803702 20:0 21:0 22:0 23:0 24:0 25:0 26:0 27:0 28:0 29:2 30:0 31:0 32:0 33:1 34:0 35:0 
0.5389198749410497 1:0 2:0.0270096 3:-0.0578778 4:0.0270096 5:-0.00855852 6:0.102903 7:0.0137208 8:-0.0025261 9:0.280664 10:-0.00381029 11:-0.00268771 12:-0.0105182 13:-0.00877901 14:0 15:0.000310067 16:0.00471629 17:0 18:-0.0132124 19:0.0138395 20:0 21:0 22:1 23:0 24:0 25:0 26:0 27:0 28:0 29:1 30:0 31:1 32:0 33:0 34:0 35:1 
1 1:0 2:0.664109 3:0.112683 4:0.664109 5:-0.00424959 6:-1.00875 7:-0.00737515 8:0.0100182 9:-0.548637 10:0.0037796 11:-0.037011 12:0.00217649 13:0.0758986 14:0 15:0.00574903 16:-0.0060947 17:0 18:-0.0195807 19:0.00623806 20:0 21:0 22:0 23:0 24:1 25:0 26:0 27:0 28:0 29:0 30:0 31:0 32:0 33:0 34:0 35:0 
1 1:0 2:0.705202 3:0.134875 4:0.705202 5:0.0437735 6:-1.26747 7:-0.00737515 8:0.0184523 9:-0.790022 10:-0.00123088 11:0.00388373 12:0.00155162 13:0.166979 14:0 15:0.000310067 16:-0.0060947 17:0 18:-0.0109111 19:0.000803702 20:0 21:0 22:0 23:0 24:0 25:0 26:0 27:0 28:0 29:0 30:0 31:0 32:0 33:0 34:0 35:0 
1 1:0 2:0.161027 3:0.00700117 4:0.161027 5:-0.0181781 6:-0.163352 7:-0.00347661 8:0.0184523 9:-0.102454 10:0.00890847 11:0.0136848 12:-0.000334465 13:0.0789597 14:0 15:0.0121562 16:0.00605498 17:0 18:-0.00861183 19:0.00623806 20:0 21:0 22:0 23:0 24:0 25:0 26:0 27:0 28:1 29:0 30:0 31:0 32:0 33:0 34:0 35:0 
1 1:0 2:0.154096 3:-0.0297378 4:0.154096 5:0.00737457 6:-0.169388 7:0.000868714 8:0.0101539 9:0.606021 10:0.00180655 11:0.0136848 12:0.00155162 13:0.112346 14:0 15:0.00646052 16:0.0289366 17:0 18:0.00684752 19:0.00958784 20:0 21:0 22:0 23:0 24:0 25:0 26:0 27:0 28:0 29:0 30:0 31:0 32:0 33:0 34:0 35:0 
1 1:0 2:0.0527704 3:0.00527704 4:0.0527704 5:0.00737457 6:0.00986 7:-0.013301 8:-0.0025261 9:0.139065 10:-0.00286363 11:0.025567 12:0.00155162 13:-0.0322004 14:0 15:0.00165974 16:-0.0060947 17:0 18:0.012812 19:-0.00207511 20:0 21:0 22:0 23:0 24:0 25:0 26:0 27:0 28:0 29:0 30:0 31:0 32:0 33:1 34:0 35:0 
1 1:0 2:0 3:-0.121212 4:0 5:-0.0181781 6:0.149242 7:-0.000966364 8:-0.00624256 9:-0.191907 10:-0.00332328 11:-0.00185013 12:-0.00571812 13:0.0327583 14:0 15:-0.00349054 16:-0.00382903 17:0 18:-0.00485669 19:0.0138395 20:0 21:0 22:0 23:0 24:0 25:0 26:0 27:0 28:0 29:0 30:0 31:0 32:0 33:0 34:0 35:1 
1 1:0 2:0.244335 3:0.0197044 4:0.244335 5:-0.0102445 6:0.0626159 7:-0.000665361 8:0.0100182 9:0.454012 10:0.0037796 11:0.0136848 12:0.00217649 13:0.0600936 14:0 15:0.0142631 16:-0.00293144 17:0 18:-0.00212953 19:0.00404864 20:1 21:0 22:0 23:0 24:0 25:0 26:0 27:0 28:0 29:1 30:0 31:0 32:0 33:0 34:0 35:0 
1 1:0 2:0.422833 3:0.122622 4:0.422833 5:0.00737457 6:-0.245916 7:-0.013301 8:-0.00566043 9:-0.641046 10:-0.00270045 11:-0.00737899 12:-0.00317909 13:0.0454322 14:0 15:0.0121562 16:-0.0143477 17:0 18:-0.031337 19:-0.00553567 20:0 21:0 22:0 23:0 24:0 25:0 26:0 27:0 28:0 29:0 30:0 31:0 32:0 33:2 34:0 35:0 
1 1:0 2:0.228833 3:0.00915332 4:0.228833 5:0.0129942 6:-0.0615874 7:-0.013301 8:-0.0025261 9:0.198416 10:0.00890847 11:-0.0122162 12:0.0135939 13:0.146565 14:0 15:-0.0106865 16:0.00443894 17:0 18:0.0199629 19:-0.0057122 20:0 21:0 22:0 23:0 24:0 25:0 26:0 27:0 28:0 29:0 30:0 31:0 32:0 33:0 34:0 35:1 
1 1:0 2:0.106806 3:-0.0314136 4:0.106806 5:-0.00118857 6:0.0283797 7:-0.00516551 8:0.000578213 9:0.0120987 10:-0.00286363 11:0.00732539 12:-0.0117779 13:-0.142003 14:0 15:0.00165974 16:-0.00382903 17:0 18:0.0198247 19:0.00272342 20:0 21:0 22:0 23:0 24:1 25:0 26:0 27:0 28:0 29:0 30:1 31:0 32:0 33:0 34:0 35:0 
1 1:0 2:0.156271 3:0.00411241 4:0.156271 5:-0.00424959 6:-0.0708005 7:0.00140932 8:-0.0102524 9:0.0301243 10:-0.00325732 11:-0.00737899 12:0.00218961 13:0.0119277 14:0 15:0.0121562 16:0.00732772 17:0 18:0.000377794 19:0.00220689 20:0 21:0 22:0 23:0 24:0 25:0 26:0 27:0 28:2 29:0 30:0 31:0 32:0 33:0 34:0 35:0 
1 1:0 2:0.338129 3:0.057554 4:0.338129 5:-0.0102445 6:-0.424068 7:-0.013301 8:0.000578213 9:0.0106833 10:0.0100219 11:0.00732539 12:0.00677998 13:-0.0187761 14:0 15:0.0121562 16:-0.00347876 17:0 18:-0.0120605 19:-0.0057122 20:0 21:0 22:0 23:0 24:0 25:0 26:0 27:0 28:1 29:0 30:0 31:0 32:0 33:0 34:0 35:0 
1 1:0 2:0.154359 3:0.0028585 4:0.154359 5:-0.0146811 6:-0.0149029 7:0.0161474 8:-0.0025261 9:0.45649 10:-0.00325732 11:0.00232889 12:0.0221073 13:0.0786774 14:0 15:-7.70143e-005 16:-0.00159909 17:0 18:0.0020412 19:0.00958784 20:0 21:0 22:1 23:0 24:0 25:0 26:0 27:0 28:0 29:0 30:0 31:0 32:0 33:0 34:0 35:0 
1 1:0 2:0.127321 3:-0.0159151 4:0.127321 5:-0.00855676 6:-0.274046 7:-0.013301 8:-0.00459058 9:-0.421003 10:-0.000769924 11:-0.00737899 12:-0.0117779 13:0.0637762 14:0 15:-0.0106865 16:-0.0143477 17:0 18:-0.024452 19:0.00404864 20:0 21:0 22:0 23:0 24:1 25:0 26:0 27:0 28:0 29:0 30:0 31:0 32:0 33:1 34:0 35:0 
1 1:0 2:0.224138 3:0.0114943 4:0.224138 5:0.0106812 6:-0.0969567 7:0.0137208 8:0.000578213 9:0.0792038 10:-0.000710021 11:-0.037011 12:0.0135939 13:-0.142538 14:0 15:-0.0106865 16:-0.00479611 17:0 18:-0.00672456 19:0.00220689 20:0 21:0 22:0 23:0 24:0 25:0 26:0 27:0 28:0 29:0 30:0 31:0 32:0 33:0 34:0 35:0 
1 1:0 2:0.310388 3:0.0450563 4:0.310388 5:0.00737457 6:-0.241448 7:0.0105849 8:-0.0018813 9:-0.13906 10:-0.00325732 11:-0.00185013 12:-0.0117779 13:-0.0617627 14:0 15:0.0142631 16:0.00443894 17:0 18:0.00788371 19:0.00220689 20:0 21:0 22:0 23:0 24:0 25:0 26:0 27:0 28:1 29:0 30:0 31:0 32:0 33:0 34:0 35:2 
1 1:0 2:0.0766871 3:-0.0122699 4:0.0766871 5:-0.00118857 6:-0.0344552 7:0.0105849 8:0.0100182 9:0.0434262 10:-0.00733484 11:0.0141877 12:0.00677998 13:-0.0127013 14:0 15:-7.70143e-005 16:-0.00382903 17:0 18:0.0114525 19:0.000803702 20:0 21:0 22:0 23:0 24:1 25:0 26:0 27:0 28:1 29:1 30:0 31:0 32:0 33:0 34:0 35:0 
0.07833419982974543 1:0 2:0.275168 3:0.120805 4:0.275168 5:0.0106812 6:-0.185784 7:-0.0196727 8:0.00111369 9:0.00249655 10:-0.00733484 11:0.00232889 12:-0.00223244 13:0.0364789 14:0 15:-0.00492397 16:-0.0060947 17:0 18:-0.000989993 19:0.00623806 20:0 21:0 22:0 23:0 24:0 25:0 26:0 27:0 28:0 29:0 30:1 31:0 32:0 33:0 34:0 35:0 
1 1:0 2:0.182232 3:-0.00911162 4:0.182232 5:-0.00424959 6:-0.085687 7:-0.0196727 8:0.000578213 9:0.00227415 10:-0.000769924 11:-0.00185013 12:-0.00317909 13:-0.0137357 14:0 15:0.00574903 16:0.00443894 17:0 18:0.000781793 19:-0.00405298 20:0 21:0 22:1 23:0 24:0 25:0 26:0 27:0 28:1 29:0 30:0 31:0 32:0 33:0 34:0 35:2 
1 1:0 2:0.168812 3:-0.0400928 4:0.168812 5:-0.00855676 6:-0.183544 7:0.0137208 8:-0.00566043 9:1.33732 10:-0.00335283 11:0.00232889 12:0.00218961 13:0.13012 14:0 15:0.0142631 16:0.0289366 17:0 18:0.00713088 19:-0.00405298 20:0 21:0 22:1 23:0 24:0 25:0 26:0 27:0 28:0 29:0 30:0 31:0 32:0 33:0 34:0 35:0 
0.01253830293488122 1:0 2:0.336587 3:0.0235611 4:0.336587 5:-0.00855676 6:-0.818076 7:0.00140932 8:0.0101539 9:-0.221637 10:-0.00325732 11:0.00232889 12:-0.0117779 13:0.0395626 14:0 15:0.00646052 16:0.0289366 17:0 18:-0.0024934 19:0.00958784 20:1 21:0 22:1 23:0 24:0 25:0 26:0 27:1 28:1 29:0 30:0 31:0 32:0 33:0 34:0 35:0 
1 1:0 2:0.263889 3:0.0277778 4:0.263889 5:0.0130167 6:-0.13426 7:-0.00347661 8:-0.00332417 9:0.147119 10:0.0100219 11:-0.00148109 12:-0.00279944 13:-0.126133 14:0 15:0.00574903 16:-0.00159909 17:0 18:-0.0142989 19:0.00623806 20:0 21:0 22:0 23:0 24:1 25:0 26:0 27:1 28:0 29:0 30:0 31:0 32:0 33:0 34:0 35:0 
1 1:0 2:0.2 3:0 4:0.2 5:0.0106812 6:-0.144336 7:-0.013301 8:0.0101539 9:-0.171659 10:-0.00273061 11:0.00732539 12:-0.000129959 13:-0.0772109 14:0 15:-0.00492854 16:-0.00124075 17:0 18:0.027691 19:0.000803702 20:0 21:0 22:0 23:0 24:0 25:0 26:0 27:0 28:1 29:1 30:0 31:0 32:0 33:0 34:0 35:0 
1 1:0 2:0.223718 3:0.0403936 4:0.223718 5:0.0129942 6:-0.00706901 7:0.000868714 8:0.0044492 9:0.638674 10:-0.00270045 11:0.00388373 12:-0.00317909 13:0.188841 14:0 15:-0.00530999 16:-0.00124075 17:0 18:0.00823598 19:-0.00405298 20:0 21:0 22:1 23:0 24:0 25:0 26:0 27:0 28:1 29:0 30:0 31:0 32:1 33:0 34:0 35:0 
1 1:0 2:0.107975 3:-0.0736196 4:0.107975 5:-0.0146811 6:-0.082616 7:0.00305708 8:-0.00624256 9:-0.0230057 10:-0.00733484 11:0.0136848 12:0.0135939 13:-0.0103281 14:0 15:0.000310067 16:0.00605498 17:0 18:1.9082e-017 19:0.00958784 20:0 21:0 22:1 23:0 24:0 25:0 26:0 27:0 28:1 29:0 30:0 31:0 32:0 33:0 34:0 35:0 
1 1:0 2:0.137733 3:-0.00860832 4:0.137733 5:-0.00118857 6:-0.0430365 7:0.00857851 8:0.0100182 9:0.355538 10:-0.00325732 11:-0.00268771 12:-0.0105182 13:0.00595628 14:0 15:0.0048917 16:0.00471629 17:0 18:0.00505726 19:-0.00671981 20:0 21:0 22:1 23:0 24:0 25:0 26:0 27:0 28:0 29:0 30:0 31:0 32:0 33:0 34:0 35:0 
1 1:0 2:0.0628702 3:-0.0410023 4:0.0628702 5:-0.00424959 6:0.0357203 7:0.000933507 8:-0.0025261 9:0.149986 10:-0.00286363 11:-0.00737899 12:0.00218961 13:-0.125845 14:0 15:-0.00492854 16:0.0289366 17:0 18:0.0011501 19:-0.00601379 20:0 21:0 22:0 23:0 24:0 25:0 26:0 27:0 28:1 29:0 30:0 31:0 32:0 33:1 34:0 35:0 
0.1447247762970442 1:0 2:0.1 3:-6.93889e-018 4:0.1 5:0.0130167 6:-0.110015 7:0.0105849 8:-0.000155678 9:0.0345337 10:0.0037796 11:-0.00185013 12:-0.00279944 13:-0.00230374 14:0 15:-0.00790929 16:-0.0143477 17:0 18:-0.0197671 19:-0.00671981 20:0 21:0 22:1 23:0 24:0 25:0 26:0 27:1 28:0 29:0 30:0 31:0 32:0 33:0 34:0 35:0 
1 1:0 2:0.12846 3:-0.0156658 4:0.12846 5:-0.00424959 6:-0.0393334 7:0.00140932 8:-0.00332417 9:0.0829215 10:0.0037796 11:0.00732539 12:0.00218961 13:0.000580182 14:0 15:0.00646052 16:0.0289366 17:0 18:-0.00715506 19:-0.00553567 20:0 21:0 22:0 23:0 24:0 25:0 26:0 27:0 28:1 29:0 30:1 31:0 32:0 33:0 34:0 35:0 
1 1:0 2:0.0945559 3:-0.00573066 4:0.0945559 5:-0.00424959 6:0.0129021 7:0.0105849 8:0.0184523 9:0.9125 10:-0.00286363 11:-0.00185013 12:-0.00279944 13:-0.062552 14:0 15:0.00646052 16:-0.0143477 17:0 18:0.00393012 19:0.00220689 20:0 21:0 22:1 23:0 24:0 25:0 26:0 27:0 28:0 29:0 30:1 31:0 32:0 33:0 34:0 35:0 
1 1:1 2:0.0935193 3:-0.0442986 4:0.0935193 5:-0.00855676 6:-0.0739972 7:-0.00737515 8:0.00263785 9:0.401979 10:0.0100219 11:-0.00148109 12:0.00677998 13:-0.00598583 14:0 15:-0.00790929 16:0.00605498 17:0 18:0.00546591 19:0.0138395 20:0 21:0 22:0 23:0 24:1 25:0 26:0 27:0 28:0 29:0 30:1 31:0 32:0 33:0 34:0 35:0 
1 1:0 2:0.361446 3:0.0401606 4:0.361446 5:-0.00855676 6:-0.673208 7:0.00305708 8:-0.0102524 9:-0.455193 10:-0.00273061 11:-0.000258585 12:0.00218961 13:-0.011275 14:0 15:-0.00251503 16:0.00443894 17:0 18:0.00540712 19:-0.0057122 20:0 21:0 22:0 23:0 24:0 25:0 26:0 27:0 28:1 29:0 30:0 31:0 32:0 33:0 34:0 35:1 
1 1:0 2:0.229167 3:0.0138889 4:0.229167 5:0.0106812 6:0.105036 7:0.0105849 8:-0.0025261 9:0.148165 10:0.0194542 11:-0.037011 12:-0.0105182 13:0.197336 14:0 15:0.0121562 16:-0.00360034 17:0 18:0.0191067 19:-0.00671981 20:0 21:0 22:0 23:0 24:1 25:0 26:0 27:0 28:0 29:0 30:0 31:0 32:0 33:0 34:0 35:0 
1 1:0 2:0.0824629 3:-0.0692688 4:0.0824629 5:-0.0058672 6:-0.175604 7:-0.00166005 8:-0.00209975 9:0.0247973 10:-0.00270045 11:0.00232889 12:0.00218961 13:-0.0251904 14:0 15:0.0142631 16:-0.00479611 17:0 18:-0.00766282 19:0.000803702 20:0 21:0 22:0 23:0 24:1 25:0 26:0 27:0 28:0 29:0 30:0 31:0 32:0 33:0 34:0 35:0 
1 1:0 2:0.495289 3:0.0748973 4:0.495289 5:0.0130167 6:-0.41691 7:0.00305708 8:0.00111369 9:-0.361605 10:-0.0025074 11:-0.000258585 12:-0.00615216 13:0.130066 14:0 15:-0.0106865 16:-0.0042043 17:1 18:-0.00293526 19:-0.00175629 20:0 21:0 22:0 23:0 24:1 25:0 26:0 27:1 28:0 29:0 30:0 31:0 32:0 33:0 34:0 35:0 
1 1:0 2:0.101266 3:-0.039783 4:0.101266 5:-0.0181781 6:-0.011629 7:-0.00516551 8:0.0100182 9:0.362394 10:-0.000769924 11:-0.037011 12:0.00217649 13:0.0340018 14:0 15:0.00331034 16:-0.00124075 17:1 18:0.00205777 19:-0.00207511 20:0 21:0 22:0 23:0 24:0 25:0 26:0 27:0 28:0 29:0 30:0 31:0 32:0 33:0 34:0 35:0 
1 1:0 2:0.214404 3:0.0362837 4:0.214404 5:0.0129942 6:-0.137183 7:-0.000966364 8:-0.00332417 9:0.40119 10:0.00128145 11:0.00232889 12:-0.00279944 13:0.0641489 14:0 15:-7.70143e-005 16:0.00605498 17:0 18:-0.00655958 19:0.00220689 20:0 21:0 22:0 23:0 24:0 25:0 26:0 27:0 28:0 29:0 30:0 31:0 32:0 33:0 34:0 35:0 
1 1:0 2:0.161417 3:0.0472441 4:0.161417 5:-0.0181781 6:-0.156894 7:0.00636562 8:0.0101539 9:-0.0623196 10:-0.00335283 11:0.00388373 12:-0.00317909 13:-0.139753 14:0 15:-7.70143e-005 16:-0.00196836 17:0 18:0.00965787 19:-0.00601379 20:0 21:0 22:0 23:0 24:1 25:0 26:0 27:0 28:0 29:0 30:0 31:0 32:0 33:1 34:0 35:0 
1 1:0 2:0.869565 3:0.186335 4:0.869565 5:0.0437735 6:-0.685469 7:0.0137208 8:0.0184523 9:-0.232809 10:-0.000769924 11:-0.00198275 12:0.0135939 13:-0.123777 14:0 15:-0.00492854 16:-0.00483205 17:0 18:0.0240304 19:0.000369551 20:0 21:0 22:0 23:0 24:1 25:0 26:0 27:0 28:0 29:0 30:0 31:0 32:0 33:1 34:0 35:0 
1 1:0 2:0.886457 3:0.303694 4:0.886457 5:-0.0146811 6:-0.0351795 7:0.00636562 8:0.0100182 9:0.296678 10:-0.00123088 11:-0.00480468 12:-0.0117779 13:-0.00729601 14:0 15:0.0048917 16:-0.00293144 17:0 18:0.0257557 19:0.00958784 20:0 21:0 22:0 23:0 24:0 25:0 26:0 27:0 28:0 29:0 30:0 31:0 32:0 33:0 34:0 35:1 
1 1:0 2:0.0982496 3:-0.0440429 4:0.0982496 5:-0.0181781 6:-0.130422 7:0.00305708 8:-0.00209975 9:-0.049366 10:0.00180655 11:-0.00185013 12:0.00218961 13:-0.044313 14:0 15:0.00574903 16:-0.00196836 17:1 18:-0.00630887 19:-0.00671981 20:0 21:0 22:0 23:0 24:0 25:0 26:0 27:0 28:0 29:1 30:0 31:0 32:0 33:0 34:0 35:0 
1 1:1 2:0.0905856 3:-0.0873504 4:0.0905856 5:0.0437735 6:-0.210416 7:-0.00680823 8:0.000253862 9:-0.118664 10:0.0194542 11:-0.00480468 12:-0.000129959 13:0.0305819 14:0 15:-0.0106865 16:0.00471629 17:0 18:-0.00702703 19:0.000347898 20:0 21:0 22:0 23:0 24:2 25:0 26:0 27:0 28:0 29:0 30:0 31:0 32:0 33:0 34:0 35:0 
1 1:0 2:0.196153 3:-0.0247572 4:0.196153 5:0.0129942 6:-0.467561 7:-0.00347661 8:-0.00566043 9:-0.482814 10:0.0037796 11:0.00232889 12:0.0023707 13:0.221958 14:0 15:0.0142631 16:0.0289366 17:0 18:-0.00906315 19:0.00958784 20:0 21:0 22:0 23:0 24:2 25:0 26:0 27:0 28:0 29:0 30:0 31:0 32:0 33:0 34:0 35:0 
1 1:0 2:0.0766423 3:-0.0291971 4:0.0766423 5:-0.00855852 6:-0.0313678 7:-0.00516551 8:-0.000155678 9:0.305999 10:0.0100219 11:-0.00480468 12:-0.000129959 13:0.00668598 14:0 15:-0.0106865 16:-0.00347876 17:0 18:-0.00159256 19:0.00958784 20:0 21:0 22:0 23:0 24:1 25:0 26:0 27:0 28:0 29:0 30:0 31:0 32:0 33:0 34:0 35:0 
1 1:0 2:0.22043 3:0.0860215 4:0.22043 5:0.0437735 6:-0.217107 7:-0.00347661 8:0.0184523 9:0.0342633 10:-0.00123088 11:-0.000258585 12:-0.0105182 13:0.0578323 14:0 15:-0.00530999 16:-0.00483205 17:0 18:-0.0448316 19:0.00623806 20:0 21:0 22:1 23:0 24:0 25:0 26:0 27:0 28:1 29:0 30:0 31:0 32:0 33:1 34:0 35:0 
1 1:0 2:0.00532623 3:-0.0905459 4:0.00532623 5:-0.0181781 6:-0.0201406 7:-0.000966364 8:0.00111369 9:-0.00158132 10:0.00128145 11:-0.00185013 12:7.55969e-005 13:-0.0792357 14:0 15:0.0142631 16:0.0289366 17:0 18:0.0182018 19:-0.00601379 20:0 21:0 22:1 23:0 24:0 25:0 26:0 27:0 28:0 29:0 30:0 31:0 32:0 33:1 34:0 35:0 
1 1:0 2:0.093929 3:-0.0252005 4:0.093929 5:-0.00118857 6:0.00630266 7:-0.013301 8:0.0100182 9:-0.118587 10:0.0100219 11:0.0136848 12:-0.000129959 13:-0.0925138 14:0 15:-0.0106865 16:0.00605498 17:0 18:0.0497538 19:0.000369551 20:0 21:0 22:0 23:0 24:1 25:0 26:0 27:0 28:1 29:0 30:0 31:0 32:0 33:0 34:0 35:0 
0.1311282882561548 1:0 2:0.339051 3:0.0524723 4:0.339051 5:0.00737457 6:-0.261197 7:-0.00737515 8:-0.00624256 9:0.0197193 10:-0.00325732 11:0.0136848 12:-0.0117779 13:0.00109454 14:0 15:0.0121562 16:-0.00382903 17:0 18:0.00298902 19:0.00958784 20:0 21:0 22:1 23:0 24:0 25:0 26:0 27:0 28:1 29:0 30:0 31:0 32:0 33:0 34:0 35:0 
1 1:0 2:0.130573 3:0.0254777 4:0.130573 5:-0.0102445 6:0.0158647 7:0.0137208 8:-0.00630459 9:0.0707561 10:-0.00667065 11:-0.00185013 12:-0.00279944 13:-0.00162451 14:0 15:-0.00492854 16:-0.00196836 17:0 18:0.00100119 19:0.000803702 20:0 21:0 22:0 23:0 24:0 25:0 26:0 27:0 28:0 29:0 30:0 31:0 32:0 33:0 34:0 35:0 
1 1:0 2:0.0989918 3:-0.0384968 4:0.0989918 5:-0.0058672 6:0.0968995 7:0.0137208 8:-0.00566043 9:0.346943 10:0.0100219 11:0.0136848 12:0.00677998 13:0.0553579 14:0 15:0.00574903 16:0.00471629 17:0 18:0.00599203 19:0.00272342 20:0 21:0 22:0 23:0 24:0 25:0 26:0 27:0 28:0 29:0 30:0 31:0 32:0 33:0 34:0 35:0 
1 1:0 2:0.00951877 3:-0.0729773 4:0.00951877 5:0.0106812 6:0.0410554 7:-0.00516551 8:0.0100182 9:0.275803 10:-0.00381029 11:-0.00185013 12:0.00677998 13:0.0069483 14:0 15:0.00646052 16:0.0289366 17:0 18:0.0120781 19:-0.00405298 20:0 21:0 22:1 23:0 24:0 25:0 26:0 27:1 28:0 29:0 30:0 31:0 32:0 33:0 34:0 35:0 
1 1:0 2:0.366102 3:0.101695 4:0.366102 5:-0.0102445 6:-0.720493 7:-0.00680823 8:-0.000155678 9:-0.0343166 10:0.00890847 11:-0.0122162 12:0.00155162 13:0.0275267 14:0 15:-0.00790929 16:-0.00382903 17:0 18:0.0103449 19:0.00623806 20:0 21:0 22:0 23:0 24:0 25:0 26:0 27:0 28:0 29:0 30:0 31:0 32:0 33:0 34:0 35:1 
1 1:0 2:0.28169 3:0.0684105 4:0.28169 5:0.0106812 6:0.0518683 7:0.00857851 8:0.0044492 9:0.169185 10:0.0037796 11:-0.00185013 12:0.00677998 13:0.00139964 14:0 15:0.0121562 16:0.00605498 17:0 18:0.0128853 19:-0.013254 20:0 21:0 22:0 23:0 24:0 25:0 26:0 27:0 28:0 29:0 30:1 31:0 32:0 33:0 34:0 35:0 
1 1:0 2:0.0830565 3:-0.0199336 4:0.0830565 5:-0.0102445 6:0.287085 7:0.00857851 8:-0.00332417 9:0.952915 10:-0.00335283 11:0.00732539 12:0.00218961 13:0.0632442 14:0 15:0.0142631 16:-0.00483205 17:0 18:-0.00195123 19:0.000421736 20:0 21:0 22:0 23:0 24:0 25:0 26:0 27:0 28:0 29:0 30:0 31:0 32:0 33:0 34:0 35:0 
1 1:0 2:0.14386 3:0.0350877 4:0.14386 5:-0.0102445 6:-0.124205 7:0.0161474 8:-0.00459058 9:0.357263 10:0.0100219 11:-0.00198275 12:0.0135939 13:-0.0838221 14:0 15:0.00165974 16:-0.00479611 17:0 18:0.0217927 19:0.00958784 20:0 21:0 22:0 23:0 24:0 25:0 26:0 27:0 28:1 29:1 30:0 31:0 32:0 33:0 34:0 35:0 
1 1:0 2:0.0896191 3:-0.0492905 4:0.0896191 5:-0.0181781 6:0.047673 7:0.00857851 8:-0.0102524 9:0.10062 10:-0.00733484 11:0.0136848 12:0.0135939 13:0.0819281 14:0 15:-7.70143e-005 16:0.00443894 17:0 18:-0.00266066 19:0.0138395 20:0 21:0 22:0 23:0 24:0 25:0 26:0 27:0 28:0 29:0 30:0 31:0 32:0 33:0 34:0 35:0 
1 1:0 2:0.100246 3:-0.044226 4:0.100246 5:-0.00229984 6:-0.010625 7:0.0105849 8:-0.00630459 9:0.0373222 10:-0.00733484 11:-0.00185013 12:0.0135939 13:0.0014075 14:0 15:-0.00530999 16:0.00605498 17:0 18:0.00102727 19:-0.00601379 20:0 21:0 22:1 23:0 24:0 25:0 26:0 27:0 28:0 29:0 30:0 31:0 32:0 33:1 34:0 35:0 
1 1:0 2:0.259349 3:0.0553667 4:0.259349 5:-0.00855676 6:-0.0287665 7:0.00305708 8:0.00263785 9:0.110148 10:-0.00667065 11:0.00232889 12:0.0135939 13:-0.000774199 14:0 15:0.0048917 16:0.00605498 17:0 18:0.00855933 19:0.000803702 20:0 21:0 22:0 23:0 24:0 25:0 26:0 27:0 28:0 29:0 30:0 31:0 32:0 33:0 34:0 35:0 
1 1:0 2:0.103348 3:-0.0454733 4:0.103348 5:0.0437735 6:0.120058 7:0.0137208 8:0.0044492 9:0.212321 10:-0.00335283 11:-0.0122162 12:0.00218961 13:0.0384044 14:0 15:0.00574903 16:0.00443894 17:0 18:0.00804244 19:0.00260239 20:0 21:0 22:0 23:0 24:0 25:0 26:0 27:0 28:0 29:0 30:0 31:0 32:0 33:0 34:0 35:0 
1 1:0 2:0.0766423 3:-0.0291971 4:0.0766423 5:0.0129942 6:-0.0503864 7:0.00636562 8:-0.0025261 9:0.06592 10:0.0037796 11:0.0136848 12:-0.000129959 13:-0.0563631 14:0 15:-0.000517298 16:0.00252779 17:0 18:0.00902771 19:-0.00601379 20:0 21:0 22:0 23:0 24:0 25:0 26:0 27:0 28:0 29:0 30:0 31:0 32:0 33:1 34:0 35:0 
1 1:0 2:0.28777 3:0.0143885 4:0.28777 5:-0.0102445 6:0.010729 7:0.0137208 8:-0.00566043 9:0.212343 10:0.00180655 11:-0.00148109 12:0.00218961 13:-0.0248579 14:0 15:-0.00492854 16:-0.00124075 17:0 18:0.00381035 19:0.00958784 20:0 21:0 22:0 23:0 24:0 25:0 26:0 27:0 28:0 29:1 30:0 31:0 32:0 33:0 34:0 35:0 
1 1:0 2:0.301428 3:0.0729773 4:0.301428 5:0.00737457 6:-0.0416413 7:0.00636562 8:-0.0102524 9:0.171944 10:0.00890847 11:-0.00198275 12:-0.00317909 13:0.059341 14:0 15:-0.00530999 16:-0.00196836 17:0 18:0.0163473 19:-0.00405298 20:0 21:0 22:1 23:0 24:0 25:0 26:0 27:0 28:0 29:0 30:0 31:0 32:0 33:1 34:0 35:0 
1 1:0 2:0.114094 3:-0.0536913 4:0.114094 5:0.0106812 6:-0.119125 7:0.0161474 8:-0.0025261 9:0.20596 10:0.0037796 11:-0.00148109 12:-0.00279944 13:0.256337 14:0 15:0.0012351 16:0.00605498 17:0 18:-0.00347416 19:0.0138395 20:0 21:0 22:0 23:0 24:0 25:0 26:0 27:0 28:0 29:0 30:0 31:0 32:0 33:0 34:0 35:0 
1 1:0 2:0.248397 3:0.0524781 4:0.248397 5:-0.00424959 6:-0.981496 7:0.00636562 8:-0.00459058 9:0.169137 10:-0.00733484 11:0.025567 12:7.55969e-005 13:0.143652 14:0 15:0.00646052 16:-0.00293144 17:0 18:-0.0188874 19:0.00276726 20:0 21:0 22:0 23:0 24:0 25:0 26:0 27:0 28:0 29:1 30:0 31:0 32:0 33:0 34:0 35:0 
1 1:0 2:0.365381 3:0.0387834 4:0.365381 5:0.0106812 6:-0.121789 7:0.00305708 8:-0.00566043 9:0.533602 10:0.00890847 11:-0.0122162 12:0.0135939 13:0.144882 14:0 15:-0.00530999 16:0.00471629 17:0 18:0.00896043 19:-0.00553567 20:0 21:0 22:1 23:0 24:0 25:0 26:0 27:0 28:0 29:0 30:0 31:0 32:0 33:0 34:0 35:0 
1 1:0 2:0.372727 3:0.181818 4:0.372727 5:-0.00644929 6:-0.032514 7:-0.00174313 8:0.00111369 9:0.326259 10:-0.00335283 11:0.00232889 12:0.00677998 13:0.0433669 14:0 15:-0.00790929 16:-0.00293144 17:0 18:0.00372337 19:0.00404864 20:0 21:0 22:0 23:0 24:0 25:0 26:0 27:0 28:0 29:0 30:1 31:0 32:0 33:0 34:0 35:0 
1 1:0 2:0.248869 3:0.0633484 4:0.248869 5:0.0106812 6:-0.0761703 7:0.00305708 8:0.0100182 9:0.0525871 10:0.00890847 11:-0.00185013 12:0.00155162 13:-0.0291284 14:0 15:-0.00036086 16:0.00252779 17:0 18:0.00268527 19:0.000421736 20:0 21:0 22:0 23:0 24:0 25:0 26:0 27:0 28:1 29:0 30:0 31:0 32:0 33:0 34:0 35:1 
1 1:0 2:0.0889571 3:-0.0122699 4:0.0889571 5:0.00115378 6:0.0122218 7:0.0137208 8:-0.0025261 9:0.239345 10:-0.00286363 11:-0.00148109 12:0.00155162 13:0.0223733 14:0 15:-0.0106865 16:0.00471629 17:0 18:-0.0137973 19:-0.00405298 20:0 21:0 22:2 23:0 24:0 25:0 26:0 27:0 28:0 29:0 30:0 31:0 32:0 33:0 34:0 35:0 
1 1:0 2:0.299237 3:0.0305344 4:0.299237 5:0.0437735 6:-0.653722 7:-0.0196727 8:-0.00624256 9:-0.402109 10:-0.00332328 11:0.0136848 12:-0.0105182 13:0.0353294 14:0 15:-0.00530999 16:0.00732772 17:0 18:-0.00514097 19:0.00404864 20:0 21:0 22:0 23:0 24:1 25:0 26:0 27:0 28:1 29:0 30:0 31:0 32:0 33:0 34:0 35:0 
1 1:0 2:0.170439 3:-0.0159787 4:0.170439 5:0.0437735 6:-0.185701 7:0.00305708 8:0.0101539 9:-0.19848 10:0.00890847 11:-0.00268771 12:0.00155162 13:-0.0621637 14:0 15:0.00165974 16:-0.0143477 17:1 18:0.0106036 19:0.00276726 20:0 21:0 22:1 23:0 24:1 25:0 26:0 27:0 28:0 29:0 30:0 31:0 32:0 33:0 34:0 35:0 
1 1:1 2:0.350589 3:0.0356067 4:0.350589 5:0.0129942 6:-0.46144 7:0.00636562 8:0.0044492 9:-0.177805 10:-0.00123088 11:0.00699454 12:7.55969e-005 13:0.0245334 14:0 15:-0.00251503 16:-0.00382903 17:0 18:0.00836805 19:-0.00601379 20:0 21:0 22:0 23:0 24:1 25:0 26:0 27:0 28:2 29:0 30:0 31:0 32:0 33:1 34:0 35:0 
1 1:0 2:0.372727 3:0.181818 4:0.372727 5:-0.0181781 6:-0.619933 7:0.00636562 8:-0.00630459 9:0.0212241 10:0.0037796 11:-0.00198275 12:0.00155162 13:0.066159 14:0 15:-0.00790929 16:-0.00293144 17:1 18:0.00161079 19:-0.013254 20:0 21:0 22:0 23:0 24:0 25:0 26:0 27:0 28:0 29:0 30:0 31:0 32:0 33:0 34:0 35:0 
1 1:0 2:0.122867 3:-0.0204778 4:0.122867 5:0.0437735 6:-0.0597092 7:-0.00516551 8:-0.0025261 9:0.638182 10:0.00890847 11:-0.0122162 12:0.0135939 13:0.0984421 14:0 15:-0.0106865 16:0.0289366 17:0 18:-0.00439383 19:0.00623806 20:0 21:0 22:0 23:0 24:0 25:0 26:0 27:0 28:0 29:0 30:0 31:0 32:0 33:0 34:0 35:0 
1 1:0 2:0.143187 3:-0.00461894 4:0.143187 5:0.00115378 6:-0.398161 7:-0.00347661 8:0.00111369 9:-0.0288617 10:0.00890847 11:0.00357244 12:-0.000334465 13:-0.131752 14:0 15:0.00646052 16:-0.00293144 17:0 18:0.0088142 19:0.000369551 20:0 21:0 22:0 23:0 24:1 25:0 26:0 27:0 28:0 29:1 30:0 31:0 32:0 33:0 34:0 35:0 
0.2618463031866754 1:0 2:0.3 3:-6.93889e-018 4:0.3 5:-0.00855676 6:-0.342747 7:0.000868714 8:-0.00566043 9:0.119752 10:0.00890847 11:-0.00480468 12:-0.000129959 13:-0.0694529 14:0 15:0.0142631 16:0.00471629 17:1 18:-0.00722908 19:0.00623806 20:0 21:0 22:0 23:0 24:0 25:0 26:0 27:0 28:1 29:0 30:0 31:0 32:0 33:0 34:0 35:0 
1 1:0 2:0.258364 3:0.00331236 4:0.258364 5:-0.0181781 6:-0.453429 7:-0.00680823 8:0.00263785 9:-0.211665 10:-0.00325732 11:-0.00737899 12:-0.00317909 13:0.0299044 14:0 15:0.0048917 16:0.000647573 17:0 18:0.00909576 19:-0.013254 20:1 21:0 22:0 23:0 24:1 25:0 26:0 27:1 28:0 29:0 30:0 31:0 32:0 33:0 34:0 35:0 
0.03469562287480904 1:0 2:0.741436 3:0.107667 4:0.741436 5:0.00115378 6:-1.03708 7:-0.0196727 8:-0.00566043 9:-0.41803 10:-0.00381029 11:-0.00198275 12:0.0221073 13:0.235692 14:0 15:0.0048917 16:0.00443894 17:0 18:-0.00328424 19:-0.00405298 20:0 21:0 22:1 23:0 24:0 25:0 26:0 27:0 28:0 29:0 30:0 31:0 32:1 33:0 34:0 35:0 
1 1:0 2:0.0527704 3:0.00527704 4:0.0527704 5:0.0106812 6:-0.101957 7:-0.013301 8:-0.0102524 9:-0.0451538 10:-0.00332328 11:-0.00480468 12:-0.0117779 13:-0.00608639 14:0 15:-0.00790929 16:-0.00347876 17:1 18:-0.00139162 19:0.000803702 20:0 21:0 22:0 23:0 24:0 25:0 26:0 27:0 28:0 29:0 30:0 31:0 32:0 33:0 34:0 35:0 
0.4148577067229716 1:1 2:0.255873 3:0.00232612 4:0.255873 5:-0.0181781 6:-0.108274 7:0.0161474 8:0.0184523 9:0.123348 10:0.0100219 11:0.00732539 12:-0.000129959 13:0.136734 14:0 15:-0.00790929 16:0.0289366 17:1 18:0.0296946 19:0.000803702 20:0 21:0 22:1 23:0 24:1 25:0 26:0 27:0 28:1 29:0 30:0 31:0 32:0 33:0 34:0 35:0 
1 1:0 2:0.204826 3:0.0317834 4:0.204826 5:0.000589152 6:-0.0867092 7:0.0137208 8:-0.00332417 9:-0.032919 10:0.00128145 11:0.00699454 12:-0.00223244 13:0.152682 14:0 15:-0.00251503 16:0.00252779 17:0 18:0.00387367 19:0.00220689 20:0 21:0 22:0 23:0 24:0 25:0 26:0 27:0 28:1 29:1 30:0 31:0 32:0 33:1 34:0 35:0 
1 1:0 2:0.472574 3:0.0956399 4:0.472574 5:0.0106812 6:-0.0973195 7:0.0161474 8:-0.00363048 9:0.528306 10:-0.000710021 11:-0.00182434 12:0.00155162 13:0.189831 14:0 15:0.00574903 16:-0.00196836 17:0 18:0.0105376 19:0.000369551 20:0 21:0 22:1 23:0 24:0 25:0 26:0 27:0 28:0 29:0 30:0 31:0 32:0 33:0 34:0 35:0 
1 1:0 2:0.109742 3:-0.0357853 4:0.109742 5:-0.00573529 6:-0.106199 7:-0.000966364 8:0.0044492 9:0.102913 10:-0.00381029 11:0.025567 12:-0.000129959 13:-0.00430874 14:0 15:0.0142631 16:-0.00360034 17:0 18:0.0155973 19:-0.00405298 20:0 21:0 22:1 23:0 24:0 25:0 26:0 27:0 28:0 29:0 30:0 31:0 32:0 33:0 34:0 35:0 
1 1:0 2:0.199239 3:0.0269803 4:0.199239 5:-0.0181781 6:-0.190017 7:0.00857851 8:0.0100182 9:-0.121711 10:-0.00273061 11:-0.0122162 12:0.00155162 13:-0.0293244 14:0 15:-0.00036086 16:-0.00360034 17:0 18:0.0142148 19:-0.013254 20:0 21:0 22:0 23:0 24:0 25:0 26:0 27:0 28:1 29:0 30:0 31:0 32:0 33:0 34:0 35:0 
1 1:0 2:0.0982496 3:-0.0440429 4:0.0982496 5:-0.0146811 6:-0.0817484 7:-0.00347661 8:0.0044492 9:0.128741 10:0.0194542 11:0.00388373 12:-0.00255595 13:0.0221322 14:0 15:-0.0106865 16:-0.00347876 17:0 18:-0.00955807 19:0.000347898 20:0 21:0 22:0 23:0 24:0 25:0 26:0 27:0 28:0 29:0 30:0 31:0 32:0 33:0 34:0 35:0 
1 1:0 2:0.292284 3:0.0152376 4:0.292284 5:-0.00229984 6:-0.15902 7:0.000933507 8:0.0101539 9:0.0535425 10:-0.00332328 11:0.0136848 12:0.00155162 13:0.0460092 14:0 15:-0.00343388 16:-0.00196836 17:0 18:0.0189634 19:-0.00671981 20:0 21:0 22:1 23:0 24:0 25:0 26:0 27:0 28:0 29:0 30:0 31:0 32:0 33:0 34:0 35:1 
1 1:0 2:0.0989918 3:-0.0384968 4:0.0989918 5:0.0437735 6:-0.100076 7:0.00140932 8:-0.00566043 9:0.176087 10:-0.00381029 11:0.00357244 12:0.00155162 13:-0.208279 14:0 15:0.00574903 16:0.00443894 17:0 18:0.0171591 19:0.00272342 20:0 21:0 22:0 23:0 24:0 25:0 26:0 27:0 28:0 29:0 30:0 31:0 32:0 33:0 34:0 35:0 
1 1:0 2:0.0527704 3:0.00527704 4:0.0527704 5:-0.0181781 6:-0.0811421 7:-0.000966364 8:-0.00209975 9:0.458308 10:-0.0025074 11:-0.00268771 12:-0.00615216 13:0.0212985 14:0 15:-0.00588288 16:-0.0042043 17:0 18:-0.00929924 19:-0.00175629 20:0 21:0 22:1 23:0 24:0 25:0 26:0 27:0 28:0 29:0 30:0 31:0 32:0 33:1 34:0 35:0 
1 1:0 2:0.429916 3:0.0585093 4:0.429916 5:0.0130167 6:-0.400832 7:0.0105849 8:-0.00209975 9:0.101215 10:0.00890847 11:0.00699454 12:-0.000874371 13:-0.0414157 14:0 15:0.00646052 16:0.00252779 17:1 18:-0.0154872 19:-0.00671981 20:0 21:0 22:0 23:0 24:0 25:0 26:0 27:1 28:0 29:0 30:0 31:0 32:0 33:0 34:0 35:1 
1 1:0 2:0.17196 3:0.0139427 4:0.17196 5:0.00737457 6:-0.0208996 7:0.00305708 8:0.0100182 9:0.648664 10:0.0100219 11:0.00388373 12:-0.00279944 13:0.0577864 14:0 15:-0.00790929 16:0.00732772 17:0 18:0.0196866 19:0.00958784 20:0 21:0 22:1 23:0 24:0 25:0 26:0 27:0 28:0 29:0 30:0 31:0 32:0 33:0 34:0 35:0 
0.8581412565678817 1:0 2:0.0614828 3:-0.039783 4:0.0614828 5:-0.00118857 6:-0.193933 7:-0.000402756 8:-0.0025261 9:0.0458393 10:-0.000769924 11:-0.0122162 12:0.00217649 13:-0.0065711 14:0 15:-0.00492854 16:-0.0060947 17:0 18:0.0071071 19:-0.00405298 20:0 21:0 22:1 23:0 24:0 25:0 26:0 27:0 28:0 29:0 30:0 31:0 32:1 33:0 34:0 35:0 
1 1:0 2:0.382227 3:0.0256959 4:0.382227 5:0.0130167 6:-0.489058 7:0.0105849 8:-0.00332417 9:-0.0541545 10:0.00128145 11:0.0136848 12:-0.00279944 13:-0.00111621 14:0 15:-0.00790929 16:0.00732772 17:0 18:-0.01977 19:0.000347898 20:0 21:0 22:0 23:0 24:0 25:0 26:0 27:2 28:0 29:0 30:1 31:0 32:0 33:0 34:0 35:0 
0.1236207836288559 1:0 2:0.0935875 3:-0.0242634 4:0.0935875 5:0.0437735 6:-0.103078 7:-0.000966364 8:0.0044492 9:-0.0126661 10:-0.00286363 11:0.00232889 12:-0.0105182 13:-0.045086 14:0 15:-0.00349054 16:-0.00196836 17:1 18:-0.00122077 19:0.00404864 20:0 21:0 22:0 23:0 24:0 25:0 26:0 27:0 28:0 29:0 30:1 31:0 32:0 33:0 34:0 35:0 
1 1:1 2:0.211715 3:-0.0164667 4:0.211715 5:0.0437735 6:-0.113988 7:0.00305708 8:-0.0018813 9:0.151141 10:-0.00332328 11:0.00357244 12:-0.00279944 13:0.0313028 14:0 15:0.00646052 16:-0.0143477 17:0 18:0.0159693 19:0.000421736 20:0 21:0 22:0 23:0 24:2 25:0 26:0 27:0 28:0 29:0 30:0 31:0 32:0 33:0 34:0 35:0 
1 1:0 2:0.213239 3:0.0346513 4:0.213239 5:0.0130167 6:-0.463917 7:-0.013301 8:-0.00624256 9:-0.618966 10:-0.00335283 11:-0.00480468 12:-0.0105182 13:0.13836 14:0 15:0.00574903 16:-0.0143477 17:0 18:-0.0113965 19:0.00623806 20:0 21:0 22:0 23:0 24:0 25:0 26:0 27:1 28:0 29:0 30:0 31:0 32:0 33:0 34:0 35:0 
1 1:1 2:0.445682 3:0.100279 4:0.445682 5:-0.0181781 6:-0.748779 7:0.00140932 8:0.0044492 9:-0.0501774 10:-0.00273061 11:0.0141877 12:0.00218961 13:-0.00209814 14:0 15:0.0048917 16:-0.0143477 17:0 18:0.00515331 19:-0.00405298 20:0 21:0 22:1 23:0 24:2 25:0 26:0 27:0 28:0 29:0 30:0 31:0 32:0 33:0 34:0 35:0 
0.9164794608673125 1:0 2:0.187203 3:0.0222105 4:0.187203 5:-0.00855676 6:-0.207973 7:-0.0196727 8:0.0100182 9:0.0165436 10:-0.00733484 11:0.025567 12:0.00217649 13:0.0126111 14:0 15:-0.00251503 16:0.00443894 17:1 18:0.00963436 19:-0.00601379 20:0 21:0 22:0 23:0 24:0 25:0 26:0 27:0 28:0 29:0 30:1 31:0 32:0 33:1 34:0 35:0 
1 1:0 2:0.0527704 3:0.00527704 4:0.0527704 5:-0.00424959 6:0.1146 7:0.0137208 8:0.0184523 9:0.197999 10:-0.00332328 11:-0.00737899 12:0.00218961 13:1.38778e-017 14:0 15:-0.00349054 16:-0.00293144 17:1 18:-0.00143146 19:0.00623806 20:0 21:0 22:0 23:0 24:0 25:0 26:0 27:0 28:0 29:0 30:0 31:0 32:0 33:1 34:0 35:0 
1 1:0 2:0.349788 3:0.0359595 4:0.349788 5:-0.00855676 6:-0.467197 7:0.0137208 8:-0.00209975 9:-0.0847196 10:-0.000769924 11:0.025567 12:0.0135939 13:0.0447896 14:0 15:-0.00036086 16:-0.00347876 17:0 18:-0.021009 19:0.00404864 20:0 21:0 22:0 23:0 24:1 25:0 26:0 27:0 28:0 29:0 30:0 31:0 32:0 33:0 34:0 35:0 
1 1:0 2:0.327577 3:0.0835655 4:0.327577 5:0.0106812 6:-0.195628 7:0.0161474 8:0.00111369 9:0.287862 10:0.00890847 11:0.0136848 12:0.00217649 13:-0.0756419 14:0 15:0.00165974 16:0.00471629 17:0 18:0.0285306 19:0.000803702 20:0 21:0 22:0 23:0 24:0 25:0 26:0 27:0 28:0 29:0 30:0 31:0 32:0 33:0 34:0 35:0 
1 1:0 2:0.112964 3:-0.0290479 4:0.112964 5:0.00115378 6:-0.212024 7:0.0137208 8:-0.00624256 9:-0.131432 10:-0.00325732 11:-0.0122162 12:-0.00571812 13:-0.00721742 14:0 15:0.0048917 16:-0.00124075 17:0 18:-0.00614185 19:0.00623806 20:0 21:0 22:0 23:0 24:0 25:0 26:0 27:0 28:0 29:1 30:0 31:0 32:0 33:0 34:0 35:0 
1 1:0 2:0.2 3:6.93889e-018 4:0.2 5:0.0437735 6:-0.0550469 7:0.00305708 8:0.0184523 9:0.356752 10:-0.00123088 11:0.00732539 12:0.00677998 13:0.0372071 14:0 15:-0.00349054 16:-0.00196836 17:0 18:0.00356699 19:-0.0057122 20:0 21:0 22:0 23:0 24:0 25:0 26:0 27:0 28:0 29:0 30:0 31:0 32:0 33:0 34:0 35:0 
1 1:0 2:0.372727 3:0.181818 4:0.372727 5:-0.0058672 6:-0.730699 7:-0.013301 8:0.00263785 9:-0.415387 10:-0.00335283 11:0.00699454 12:0.00218961 13:0.0436218 14:0 15:0.0048917 16:-0.00382903 17:0 18:-0.0107817 19:0.00276726 20:0 21:0 22:0 23:0 24:1 25:0 26:0 27:0 28:0 29:0 30:0 31:0 32:0 33:0 34:0 35:0 
1 1:0 2:0.0960384 3:-0.0760304 4:0.0960384 5:-0.00118857 6:0.0206557 7:0.000933507 8:0.0044492 9:0.0129428 10:0.00890847 11:-0.00480468 12:-0.000874371 13:-0.00915628 14:0 15:-0.00036086 16:-0.00479611 17:0 18:0.00577699 19:0.00272342 20:0 21:0 22:0 23:0 24:0 25:0 26:0 27:0 28:0 29:0 30:0 31:0 32:0 33:0 34:0 35:0 
1 1:0 2:0.0889571 3:-0.0122699 4:0.0889571 5:-0.00118857 6:-0.0457572 7:-0.000428978 8:0.00111814 9:0.220059 10:-0.00123088 11:-0.000757374 12:0.00155162 13:0.0394295 14:0 15:-0.00036086 16:0.00443894 17:0 18:0.0137186 19:0.000803702 20:0 21:0 22:0 23:0 24:0 25:0 26:0 27:0 28:0 29:0 30:0 31:0 32:0 33:0 34:0 35:0 
1 1:0 2:0.0902806 3:-0.0268402 4:0.0902806 5:0.0130167 6:-0.111507 7:-0.0196727 8:-0.00624256 9:0.232925 10:-0.00123088 11:-0.00185013 12:0.0135939 13:-0.17832 14:0 15:-0.00492397 16:-0.00483205 17:0 18:-0.026555 19:0.00623806 20:0 21:0 22:0 23:0 24:0 25:0 26:0 27:1 28:0 29:0 30:0 31:0 32:0 33:0 34:0 35:0 
1 1:0 2:0.184971 3:-0.00770713 4:0.184971 5:-0.00118857 6:-0.39778 7:-0.00680823 8:0.0044492 9:-0.634741 10:-0.00270045 11:-0.000258585 12:-0.000129959 13:0.0949044 14:0 15:-0.00790929 16:0.000647573 17:1 18:-0.0036241 19:-0.00405298 20:0 21:0 22:1 23:0 24:0 25:0 26:0 27:0 28:1 29:0 30:0 31:0 32:0 33:0 34:0 35:0 
1 1:0 2:0.117647 3:-0.0235294 4:0.117647 5:-0.00573529 6:0.0188512 7:0.00636562 8:-0.00566043 9:0.017808 10:-0.000769924 11:0.0136848 12:0.00155162 13:-0.118991 14:0 15:0.00646052 16:0.00471629 17:0 18:0.00201284 19:-0.00671981 20:0 21:0 22:0 23:0 24:0 25:0 26:0 27:0 28:0 29:0 30:1 31:0 32:0 33:0 34:0 35:0 
1 1:0 2:0.0527704 3:0.00527704 4:0.0527704 5:0.0106812 6:-0.165551 7:-0.000428978 8:0.00111814 9:0.0606892 10:-0.00325732 11:-0.00148109 12:-0.00571812 13:-0.0197073 14:0 15:-0.00530999 16:-0.00293144 17:0 18:0.0118356 19:-0.0057122 20:0 21:0 22:0 23:0 24:0 25:0 26:0 27:0 28:0 29:0 30:0 31:0 32:0 33:0 34:0 35:0 
1 1:0 2:0.372727 3:0.181818 4:0.372727 5:-0.00380335 6:-0.312778 7:0.0105849 8:-0.00624256 9:-0.222859 10:-0.0025074 11:0.00357244 12:-0.00615216 13:0.173372 14:0 15:-0.00588288 16:-0.0042043 17:0 18:-0.018708 19:-0.00175629 20:0 21:0 22:0 23:0 24:1 25:0 26:0 27:0 28:0 29:0 30:0 31:0 32:0 33:0 34:0 35:0 
1 1:1 2:0.221232 3:-0.0291734 4:0.221232 5:-0.0181781 6:-0.0179907 7:0.00636562 8:0.0184523 9:-0.0424285 10:-0.000769924 11:-0.00182434 12:0.0023707 13:-0.0504139 14:0 15:-0.00790929 16:0.000647573 17:0 18:0.0095296 19:0.000369551 20:0 21:0 22:0 23:0 24:2 25:0 26:0 27:0 28:0 29:0 30:0 31:0 32:0 33:0 34:0 35:0 
1 1:1 2:0.254801 3:0.0019015 4:0.254801 5:0.0129942 6:-0.184637 7:-0.013301 8:-0.0018813 9:-0.191181 10:-0.00335283 11:-0.00268771 12:0.00218961 13:-0.114374 14:0 15:0.0012351 16:-0.00360034 17:0 18:0.0168252 19:0.000369551 20:0 21:0 22:0 23:0 24:2 25:0 26:0 27:0 28:0 29:0 30:0 31:0 32:0 33:0 34:0 35:0 
1 1:0 2:0.0935875 3:-0.0242634 4:0.0935875 5:-0.00855676 6:0.322162 7:-0.00516551 8:-0.0025261 9:0.138145 10:0.00890847 11:-0.00185013 12:-0.00255595 13:-0.127756 14:0 15:0.0048917 16:-0.0143477 17:0 18:0.00221878 19:-0.00671981 20:0 21:0 22:0 23:0 24:0 25:0 26:0 27:0 28:0 29:0 30:0 31:0 32:0 33:0 34:0 35:1 
1 1:1 2:0.270408 3:0.0306122 4:0.270408 5:0.0129942 6:-0.362017 7:0.0105849 8:-0.000155678 9:-0.0745454 10:0.0037796 11:-0.0122162 12:-0.000129959 13:0.0342123 14:0 15:0.00331034 16:-0.00382903 17:0 18:-0.006072 19:-0.00405298 20:0 21:0 22:2 23:0 24:1 25:0 26:0 27:0 28:0 29:0 30:0 31:0 32:1 33:0 34:0 35:0 
1 1:1 2:0.543126 3:0.169086 4:0.543126 5:0.0129942 6:-1.16865 7:-0.00516551 8:-0.000155678 9:-0.71094 10:-0.0025074 11:0.025567 12:-0.00615216 13:0.0648715 14:0 15:-0.00588288 16:-0.0042043 17:0 18:-0.0188573 19:-0.00175629 20:0 21:0 22:0 23:0 24:1 25:0 26:0 27:0 28:0 29:0 30:0 31:0 32:0 33:0 34:0 35:0 
1 1:0 2:0.186047 3:-0.00715564 4:0.186047 5:0.0106812 6:-0.181837 7:-0.000402756 8:0.0184523 9:-0.293194 10:0.0100219 11:0.00388373 12:0.00155162 13:-0.077443 14:0 15:0.00574903 16:0.00443894 17:0 18:0.00877352 19:-0.0057122 20:0 21:0 22:0 23:0 24:0 25:0 26:0 27:0 28:2 29:0 30:0 31:0 32:1 33:0 34:0 35:1 
1 1:0 2:0.0906977 3:-0.139535 4:0.0906977 5:0.00737457 6:-0.157102 7:0.00636562 8:0.0184523 9:-0.192704 10:0.0194542 11:-0.000258585 12:-0.000129959 13:-0.0363909 14:0 15:-0.0106865 16:0.00443894 17:0 18:0.0118686 19:0.0138395 20:0 21:0 22:0 23:0 24:1 25:0 26:0 27:1 28:0 29:0 30:0 31:0 32:0 33:0 34:0 35:0 
0.9352955344817405 1:0 2:0.173285 3:-0.0144404 4:0.173285 5:0.0106812 6:-0.121487 7:0.0105849 8:-0.00566043 9:0.171736 10:0.00128145 11:-0.00185013 12:0.00217649 13:-0.105771 14:0 15:0.0142631 16:-0.00347876 17:0 18:-0.0221663 19:0.00623806 20:1 21:0 22:0 23:0 24:0 25:0 26:0 27:0 28:1 29:1 30:0 31:0 32:0 33:0 34:0 35:0 
1 1:0 2:0.0607477 3:-0.0560748 4:0.0607477 5:-0.0181781 6:-0.0459229 7:-0.00516551 8:-0.0102524 9:-0.0344432 10:0.00890847 11:-0.00185013 12:-0.00279944 13:0.00329321 14:0 15:0.0121562 16:0.00732772 17:0 18:-0.013396 19:-0.013254 20:0 21:0 22:1 23:0 24:2 25:0 26:0 27:0 28:0 29:0 30:0 31:0 32:0 33:1 34:0 35:0 
1 1:1 2:0.179197 3:0.0185376 4:0.179197 5:-0.00118857 6:-0.0680847 7:-0.0196727 8:0.0044492 9:-0.176986 10:0.0037796 11:-0.00268771 12:0.0023707 13:-0.282063 14:0 15:0.0121562 16:-0.00124075 17:0 18:-0.0236907 19:-0.00405298 20:0 21:0 22:1 23:0 24:2 25:0 26:0 27:0 28:0 29:0 30:0 31:1 32:0 33:0 34:0 35:0 
1 1:0 2:0.324773 3:0.0060423 4:0.324773 5:-0.0181781 6:-0.145705 7:-0.0196727 8:0.0101539 9:0.494027 10:-0.0025074 11:0.025567 12:0.00218961 13:0.0307936 14:0 15:0.00574903 16:0.0289366 17:0 18:-0.000670764 19:-0.00175629 20:0 21:0 22:0 23:0 24:0 25:0 26:0 27:0 28:1 29:0 30:0 31:0 32:0 33:0 34:0 35:0 
1 1:0 2:0.125 3:-0.0441176 4:0.125 5:-0.0181781 6:-0.0729622 7:0.0137208 8:-0.00624256 9:0.0886562 10:0.0194542 11:0.00732539 12:-0.000874371 13:-0.0555035 14:0 15:0.00165974 16:-0.0143477 17:0 18:-0.0150841 19:0.000347898 20:0 21:0 22:1 23:0 24:0 25:0 26:0 27:0 28:0 29:0 30:0 31:0 32:0 33:0 34:0 35:0 
0.2655226219427676 1:0 2:0.11056 3:-0.0297661 4:0.11056 5:0.0106812 6:-0.158845 7:0.0161474 8:0.000578213 9:-0.0722179 10:-0.000769924 11:-0.00737899 12:-0.00255595 13:-0.0809959 14:0 15:-0.00790929 16:0.00605498 17:0 18:0.0166207 19:0.00958784 20:0 21:0 22:0 23:0 24:0 25:0 26:0 27:0 28:0 29:0 30:0 31:0 32:2 33:0 34:0 35:0 
1 1:0 2:0.0272975 3:-0.158326 4:0.0272975 5:-0.00424959 6:-0.0242134 7:-0.000428978 8:0.00111814 9:0.118146 10:0.0037796 11:-0.00148109 12:-0.00279944 13:-0.0739318 14:0 15:0.0121562 16:-0.00347876 17:0 18:-0.00891384 19:0.00272342 20:0 21:0 22:0 23:0 24:0 25:0 26:0 27:0 28:0 29:0 30:0 31:0 32:0 33:0 34:0 35:0 
1 1:0 2:0.22043 3:0.0860215 4:0.22043 5:-0.0058672 6:-0.290381 7:0.000868714 8:-0.0102524 9:0.079707 10:0.0037796 11:-0.00185013 12:0.00217649 13:0.0238143 14:0 15:0.00574903 16:0.00471629 17:0 18:-0.0137874 19:-0.0057122 20:0 21:0 22:0 23:0 24:0 25:0 26:0 27:0 28:0 29:0 30:0 31:0 32:0 33:0 34:0 35:0 
1 1:0 2:0.101266 3:-0.039783 4:0.101266 5:-0.00118857 6:-0.109275 7:0.00636562 8:-0.00209975 9:-0.095396 10:0.0194542 11:-0.037011 12:-0.00317909 13:-0.0482913 14:0 15:-0.0106865 16:0.00605498 17:0 18:0.0157134 19:0.00958784 20:0 21:0 22:0 23:0 24:1 25:0 26:0 27:0 28:0 29:0 30:0 31:0 32:0 33:0 34:0 35:0 
1 1:0 2:0.0342466 3:-0.109589 4:0.0342466 5:-0.00118857 6:-0.189694 7:-0.000428978 8:0.00111814 9:0.0681436 10:-0.000769924 11:-0.000258585 12:-0.000334465 13:-0.0303018 14:0 15:-0.000517298 16:-0.00347876 17:0 18:-0.0045009 19:0.00404864 20:0 21:0 22:0 23:0 24:0 25:0 26:0 27:0 28:0 29:0 30:0 31:0 32:0 33:0 34:0 35:0 
1 1:0 2:0.131518 3:-0.0139489 4:0.131518 5:-0.00118857 6:-0.214322 7:0.00140932 8:-0.00459058 9:0.0433159 10:-0.00733484 11:-0.00480468 12:0.00155162 13:-0.0236924 14:0 15:0.00646052 16:0.000966796 17:0 18:-0.00643494 19:-0.00405298 20:0 21:0 22:1 23:0 24:0 25:0 26:0 27:0 28:0 29:0 30:0 31:0 32:0 33:0 34:0 35:1 
1 1:0 2:0.170355 3:0.0125261 4:0.170355 5:-0.00424959 6:-0.152511 7:-0.00737515 8:0.0100182 9:-0.0349909 10:0.00890847 11:-0.00198275 12:-0.0105182 13:0.00640555 14:0 15:-0.000517298 16:-0.00124075 17:0 18:0.00247449 19:-0.00671981 20:0 21:0 22:0 23:0 24:0 25:0 26:0 27:0 28:0 29:0 30:0 31:0 32:0 33:0 34:0 35:1 
1 1:1 2:0.18552 3:0.0633484 4:0.18552 5:0.00737457 6:-0.0239419 7:0.000868714 8:0.0044492 9:0.361877 10:0.0037796 11:-0.00198275 12:0.00217649 13:-0.0560277 14:0 15:0.00574903 16:-0.00360034 17:0 18:0.00310936 19:-0.00553567 20:0 21:0 22:0 23:0 24:1 25:0 26:0 27:0 28:0 29:0 30:0 31:0 32:0 33:0 34:0 35:0 
1 1:0 2:0.213084 3:0.0336449 4:0.213084 5:-0.00424959 6:-0.0593637 7:-0.000665361 8:-0.000155678 9:0.0756745 10:-0.00733484 11:-0.037011 12:-0.0117779 13:-0.0282199 14:0 15:0.0048917 16:0.00443894 17:0 18:0.0192171 19:0.00220689 20:0 21:0 22:0 23:0 24:0 25:0 26:0 27:0 28:0 29:0 30:0 31:0 32:0 33:0 34:0 35:1 
1 1:0 2:0.0830565 3:-0.0199336 4:0.0830565 5:-0.0058672 6:0.0396025 7:0.000868714 8:0.000578213 9:0.364425 10:-0.00325732 11:-0.00198275 12:-0.00255595 13:-0.110828 14:0 15:0.0012351 16:-0.0143477 17:0 18:-0.0187681 19:0.00958784 20:0 21:0 22:1 23:0 24:0 25:0 26:0 27:0 28:0 29:0 30:0 31:0 32:0 33:0 34:0 35:0 
1 1:0 2:0.313043 3:0.0767263 4:0.313043 5:0.000589152 6:-0.629533 7:0.0137208 8:0.0101539 9:-0.563681 10:-0.00325732 11:0.0136848 12:0.0135939 13:0.108828 14:0 15:0.000310067 16:-0.00479611 17:0 18:-0.0199046 19:-0.013254 20:0 21:0 22:0 23:0 24:0 25:0 26:0 27:0 28:1 29:0 30:0 31:0 32:0 33:1 34:0 35:0 
1 1:0 2:0.364847 3:0.0399467 4:0.364847 5:0.00115378 6:-0.181989 7:0.00636562 8:0.0101539 9:0.153261 10:0.0194542 11:-0.037011 12:0.00218961 13:0.014711 14:0 15:0.00574903 16:0.00443894 17:0 18:0.00866509 19:0.00404864 20:0 21:0 22:0 23:0 24:0 25:0 26:0 27:0 28:1 29:0 30:0 31:0 32:0 33:0 34:0 35:0 
1 1:1 2:0.289763 3:-0.00347021 4:0.289763 5:-0.00174828 6:-0.0485921 7:-0.00174313 8:-0.0018813 9:0.944077 10:0.00180655 11:0.00232889 12:-0.0105182 13:0.189828 14:0 15:-0.00251503 16:-0.00483205 17:0 18:0.00863696 19:-0.00553567 20:0 21:0 22:0 23:0 24:1 25:0 26:0 27:0 28:0 29:0 30:0 31:0 32:0 33:0 34:0 35:0 
1 1:0 2:0.0342466 3:-0.109589 4:0.0342466 5:0.00115378 6:-0.0242934 7:-0.000966364 8:0.000253862 9:0.368703 10:0.0194542 11:0.00357244 12:0.00217649 13:-0.0636351 14:0 15:0.00574903 16:0.00605498 17:0 18:0.000209971 19:-0.00553567 20:0 21:0 22:0 23:0 24:1 25:0 26:0 27:0 28:0 29:0 30:0 31:0 32:0 33:1 34:0 35:0 
1 1:0 2:0.0989918 3:-0.0384968 4:0.0989918 5:-0.00118857 6:-0.168164 7:0.00857851 8:-0.00566043 9:-0.177575 10:0.00890847 11:0.00357244 12:-0.00571812 13:0.0341642 14:0 15:-0.00349054 16:0.00471629 17:0 18:-0.011214 19:0.00260239 20:0 21:0 22:1 23:0 24:0 25:0 26:0 27:0 28:0 29:0 30:1 31:0 32:0 33:0 34:0 35:1 
1 1:0 2:0.221515 3:0.0267346 4:0.221515 5:0.0437735 6:-0.896837 7:-0.00680823 8:-0.00332417 9:-0.491693 10:-0.00325732 11:-0.00198275 12:0.0221073 13:0.157607 14:0 15:-0.0106865 16:0.00471629 17:0 18:-0.0177871 19:-0.00671981 20:0 21:0 22:0 23:0 24:0 25:0 26:0 27:0 28:1 29:0 30:0 31:0 32:0 33:0 34:0 35:0 
1 1:0 2:0.0607477 3:-0.0560748 4:0.0607477 5:-0.0102445 6:-0.0280564 7:0.0137208 8:-0.0025261 9:0.0414676 10:0.0100219 11:0.00388373 12:-0.0105182 13:-0.00565924 14:0 15:0.0048917 16:0.00732772 17:0 18:0.0193959 19:0.00404864 20:0 21:0 22:2 23:0 24:0 25:0 26:0 27:0 28:0 29:0 30:0 31:0 32:0 33:0 34:0 35:0 
1 1:0 2:0.460314 3:0.0522518 4:0.460314 5:0.0130167 6:-1.22828 7:0.00636562 8:0.0101539 9:-0.139467 10:-0.00270045 11:0.00732539 12:-0.000874371 13:0.0123423 14:0 15:0.00331034 16:0.00471629 17:0 18:-0.00655177 19:-0.00671981 20:0 21:0 22:0 23:0 24:0 25:0 26:0 27:1 28:0 29:1 30:0 31:0 32:0 33:0 34:0 35:0 
1 1:0 2:0.170439 3:-0.0159787 4:0.170439 5:-0.00118857 6:-0.141902 7:-0.00166005 8:-0.00624256 9:0.111814 10:-0.00286363 11:0.00732539 12:-0.000129959 13:-0.00540304 14:0 15:-0.00790929 16:0.00471629 17:0 18:-0.0200084 19:0.00623806 20:0 21:0 22:0 23:0 24:0 25:0 26:0 27:0 28:2 29:0 30:0 31:0 32:1 33:0 34:0 35:0 
1 1:0 2:0.249364 3:0.0559796 4:0.249364 5:-0.00118857 6:-0.0162463 7:0.000868714 8:-0.0025261 9:0.145704 10:-0.00667065 11:0.025567 12:-0.000129959 13:0.00230056 14:0 15:0.00574903 16:-0.00293144 17:0 18:-0.00834002 19:0.00623806 20:0 21:0 22:1 23:0 24:0 25:0 26:0 27:0 28:0 29:0 30:0 31:0 32:0 33:0 34:0 35:0 
1 1:0 2:0.0833333 3:-0.0897436 4:0.0833333 5:0.000589152 6:-0.0863518 7:0.000933507 8:-0.00624256 9:0.105201 10:0.0194542 11:-0.00185013 12:-0.0117779 13:-0.0437017 14:0 15:0.00646052 16:0.00605498 17:0 18:-0.000915968 19:0.00276726 20:0 21:0 22:0 23:0 24:0 25:0 26:0 27:0 28:0 29:0 30:0 31:0 32:0 33:0 34:0 35:0 
1 1:0 2:0.0766423 3:-0.0291971 4:0.0766423 5:0.0106812 6:0.033327 7:0.0105849 8:0.0100182 9:0.179136 10:0.00890847 11:0.00357244 12:-0.000129959 13:-0.0108963 14:0 15:-0.0106865 16:-0.00124075 17:0 18:0.0186231 19:0.00623806 20:0 21:0 22:0 23:0 24:1 25:0 26:0 27:0 28:0 29:0 30:0 31:0 32:0 33:0 34:0 35:0 
1 1:0 2:0.1 3:0 4:0.1 5:0.0130167 6:0.0722875 7:0.000868714 8:0.0184523 9:0.235987 10:-0.00325732 11:-0.00268771 12:-0.00255595 13:-0.0434275 14:0 15:-0.00530999 16:-0.00347876 17:0 18:-0.0082541 19:-0.00553567 20:0 21:0 22:0 23:0 24:0 25:0 26:0 27:1 28:0 29:0 30:0 31:0 32:0 33:0 34:0 35:0 
1 1:0 2:0.12846 3:-0.0156658 4:0.12846 5:0.0106812 6:-0.215875 7:0.00857851 8:-0.00332417 9:0.195724 10:-0.00733484 11:0.00732539 12:0.0135939 13:-0.116382 14:0 15:0.00646052 16:0.00732772 17:0 18:0.00705653 19:-0.00553567 20:0 21:0 22:0 23:0 24:0 25:0 26:0 27:0 28:0 29:1 30:0 31:0 32:0 33:0 34:0 35:0 
1 1:0 2:0.0607477 3:-0.0560748 4:0.0607477 5:-0.0181781 6:-0.0914846 7:-0.00680823 8:0.0100182 9:0.36905 10:-0.00335283 11:0.00357244 12:-0.00109699 13:-0.05697 14:0 15:0.00574903 16:0.00732772 17:0 18:0.0241975 19:0.00276726 20:0 21:0 22:0 23:0 24:0 25:1 26:0 27:0 28:1 29:0 30:0 31:0 32:0 33:0 34:0 35:0 
1 1:0 2:0.26452 3:-0.0126716 4:0.26452 5:0.0130167 6:-0.405385 7:0.0161474 8:-0.0102524 9:-0.187341 10:-0.00332328 11:-0.037011 12:-0.00223244 13:0.0131934 14:0 15:0.0121562 16:-0.00196836 17:0 18:-0.00553806 19:0.00272342 20:0 21:0 22:0 23:0 24:0 25:0 26:0 27:1 28:2 29:0 30:0 31:0 32:0 33:0 34:0 35:1 
1 1:0 2:0.12846 3:-0.0156658 4:0.12846 5:0.00737457 6:-0.0317452 7:-0.013301 8:0.0184523 9:0.121789 10:0.0100219 11:0.0136848 12:0.00677998 13:-0.139609 14:0 15:-0.000517298 16:0.00732772 17:0 18:0.00973437 19:0.000803702 20:0 21:0 22:0 23:0 24:1 25:0 26:0 27:0 28:0 29:1 30:0 31:0 32:0 33:0 34:0 35:0 
1 1:0 2:0.0807938 3:-0.0297661 4:0.0807938 5:0.00115378 6:-0.0506141 7:0.0161474 8:-0.00210731 9:0.105424 10:0.0194542 11:0.00388373 12:0.0135939 13:0.062876 14:0 15:-0.00530999 16:-0.00483205 17:0 18:0.00564561 19:0.00404864 20:0 21:0 22:1 23:0 24:0 25:0 26:0 27:0 28:0 29:0 30:0 31:0 32:0 33:0 34:0 35:0 
1 1:0 2:0.40775 3:0.0312319 4:0.40775 5:-0.00573529 6:-1.01645 7:0.0161474 8:0.0101539 9:-0.542658 10:0.0100219 11:0.00732539 12:-0.0117779 13:0.0685578 14:0 15:-0.00492854 16:0.000966796 17:0 18:-0.00997623 19:0.000369551 20:0 21:0 22:0 23:0 24:0 25:0 26:0 27:0 28:0 29:0 30:0 31:0 32:0 33:0 34:0 35:0 
1 1:0 2:0.601693 3:0.0983757 4:0.601693 5:0.00115378 6:-0.850477 7:0.00140932 8:0.000578213 9:-0.794638 10:0.00890847 11:0.0136848 12:0.0135939 13:0.0487572 14:0 15:0.0121562 16:-0.0060947 17:0 18:0.00224313 19:-0.00553567 20:0 21:0 22:0 23:0 24:0 25:0 26:0 27:0 28:0 29:0 30:2 31:0 32:0 33:0 34:0 35:0 
1 1:0 2:0.243655 3:0.0203046 4:0.243655 5:-0.00118857 6:-0.314783 7:-0.000665361 8:0.0184523 9:-0.470694 10:-0.000769924 11:-0.00480468 12:7.55969e-005 13:0.0359681 14:0 15:0.00646052 16:0.00605498 17:0 18:0.00288662 19:0.000369551 20:0 21:0 22:0 23:0 24:1 25:0 26:0 27:0 28:1 29:0 30:1 31:0 32:0 33:0 34:0 35:1 
1 1:0 2:0.279279 3:0.036036 4:0.279279 5:0.0437735 6:-0.505839 7:0.0137208 8:-0.00566043 9:-0.577892 10:-0.00332328 11:-0.00480468 12:0.00155162 13:0.00336113 14:0 15:0.0048917 16:-0.00483205 17:0 18:0.000376903 19:0.00272342 20:0 21:0 22:0 23:0 24:1 25:0 26:0 27:0 28:1 29:0 30:0 31:0 32:0 33:0 34:0 35:1 
1 1:0 2:0.0242547 3:-0.0636685 4:0.0242547 5:-0.00424959 6:-0.135087 7:0.000868714 8:0.000578213 9:-0.181488 10:0.0100219 11:-0.00185013 12:-0.000129959 13:-0.0193001 14:0 15:0.0121562 16:0.00732772 17:0 18:0.00166133 19:-0.00671981 20:0 21:0 22:0 23:0 24:0 25:0 26:0 27:0 28:1 29:0 30:0 31:0 32:0 33:0 34:0 35:1 
1 1:0 2:0.0497238 3:-0.0773481 4:0.0497238 5:0.00115378 6:-0.0830359 7:0.00636562 8:0.00111369 9:0.131368 10:0.00890847 11:0.00388373 12:-0.00255595 13:-0.0843096 14:0 15:-0.00349054 16:-0.00479611 17:0 18:0.0256079 19:0.000803702 20:0 21:0 22:0 23:0 24:0 25:0 26:0 27:0 28:0 29:0 30:1 31:0 32:0 33:0 34:0 35:0 
1 1:0 2:0.184995 3:-0.0337689 4:0.184995 5:0.0130167 6:-0.373193 7:-0.0196727 8:-0.0102524 9:-0.211747 10:-0.000710021 11:0.00388373 12:0.0221073 13:0.0407182 14:0 15:0.00165974 16:-0.0060947 17:0 18:-0.0128332 19:-0.00405298 20:0 21:0 22:1 23:0 24:1 25:0 26:0 27:1 28:0 29:0 30:0 31:0 32:0 33:0 34:0 35:0 
1 1:1 2:0.195239 3:-0.0240706 4:0.195239 5:-0.0181781 6:-0.374182 7:-0.0196727 8:-0.00209975 9:-0.12273 10:-0.000769924 11:-0.0122162 12:0.0023707 13:-0.106928 14:0 15:0.00646052 16:0.00605498 17:1 18:0.00322028 19:0.000369551 20:0 21:0 22:1 23:0 24:1 25:0 26:0 27:0 28:2 29:0 30:0 31:0 32:1 33:0 34:0 35:0 
1 1:0 2:0.168562 3:-0.0468227 4:0.168562 5:0.0106812 6:-0.137218 7:0.000933507 8:-0.0025261 9:-0.0204377 10:0.0100219 11:-0.00480468 12:-0.000129959 13:0.0285291 14:0 15:-0.00036086 16:0.00732772 17:0 18:0.0263001 19:-0.00405298 20:0 21:0 22:1 23:0 24:1 25:0 26:0 27:1 28:0 29:0 30:0 31:0 32:1 33:0 34:0 35:0 
1 1:0 2:0.105263 3:-0.0350877 4:0.105263 5:-0.00424959 6:-0.160538 7:-0.013301 8:-0.0102524 9:-0.0938946 10:0.0194542 11:-0.00480468 12:0.00218961 13:0.0595543 14:0 15:-0.0106865 16:-0.00360034 17:0 18:-0.0177539 19:0.00958784 20:0 21:0 22:0 23:0 24:1 25:0 26:0 27:0 28:0 29:0 30:0 31:0 32:0 33:0 34:0 35:0 
1 1:0 2:0.648632 3:0.069048 4:0.648632 5:-0.0102445 6:-0.733619 7:-0.00680823 8:-0.00566043 9:-0.534007 10:-0.00332328 11:-0.0122162 12:-0.000334465 13:-0.0353917 14:0 15:0.0121562 16:-0.00479611 17:1 18:0.00874933 19:0.0138395 20:0 21:0 22:0 23:0 24:0 25:0 26:0 27:0 28:1 29:0 30:0 31:0 32:0 33:0 34:0 35:0 
1 1:1 2:0.0396367 3:-0.133774 4:0.0396367 5:-0.00855676 6:-0.167198 7:-0.000428978 8:0.00111814 9:0.150969 10:-0.00286363 11:-0.00148109 12:-0.000874371 13:0.0207592 14:0 15:-0.00036086 16:0.00443894 17:0 18:0.000125165 19:0.00272342 20:0 21:0 22:0 23:0 24:1 25:0 26:0 27:0 28:0 29:1 30:1 31:0 32:0 33:0 34:0 35:0 
1 1:0 2:0.222826 3:0.0108696 4:0.222826 5:-0.0058672 6:-0.220333 7:0.00857851 8:0.000253862 9:0.12477 10:0.00128145 11:0.0136848 12:0.0221073 13:0.0181287 14:0 15:-0.00790929 16:-0.00159909 17:0 18:0.00996908 19:-0.00405298 20:0 21:0 22:1 23:0 24:0 25:0 26:0 27:0 28:0 29:0 30:0 31:0 32:0 33:0 34:0 35:0 
1 1:0 2:0.00633914 3:-0.0824089 4:0.00633914 5:-0.0181781 6:0.177082 7:0.00305708 8:0.0100182 9:-0.0268204 10:0.0037796 11:-0.00185013 12:0.00218961 13:-0.0501917 14:0 15:-7.70143e-005 16:-0.00479611 17:0 18:-0.0075913 19:0.0138395 20:0 21:0 22:1 23:0 24:0 25:0 26:0 27:0 28:0 29:0 30:0 31:0 32:0 33:0 34:0 35:0 
1 1:0 2:0.273191 3:0.0090063 4:0.273191 5:-0.0146811 6:-0.116406 7:-0.00737515 8:0.0044492 9:0.222392 10:0.0100219 11:-0.00268771 12:-0.000874371 13:0.106031 14:0 15:-0.00790929 16:-0.00479611 17:0 18:0.00933937 19:0.00276726 20:0 21:0 22:0 23:0 24:0 25:0 26:0 27:0 28:0 29:0 30:0 31:0 32:1 33:0 34:0 35:1 
1 1:0 2:0.23845 3:0.0178838 4:0.23845 5:-0.00174828 6:-0.188502 7:-0.00680823 8:-0.00459058 9:-0.368638 10:-0.00332328 11:0.0136848 12:0.00155162 13:-0.159582 14:0 15:-7.70143e-005 16:-0.0143477 17:0 18:-0.00279484 19:-0.00553567 20:0 21:0 22:0 23:0 24:1 25:0 26:0 27:0 28:0 29:0 30:0 31:0 32:0 33:0 34:0 35:1 
1 1:0 2:0.0725953 3:-0.0943739 4:0.0725953 5:0.00737457 6:-0.161081 7:-0.013301 8:-0.00630459 9:0.576448 10:0.00128145 11:-0.037011 12:0.0135939 13:0.0434276 14:0 15:-0.00036086 16:0.00732772 17:1 18:0.017339 19:0.00272342 20:0 21:0 22:0 23:0 24:0 25:0 26:0 27:0 28:0 29:0 30:0 31:0 32:1 33:0 34:0 35:0 
1 1:0 2:0.128713 3:-0.039604 4:0.128713 5:0.0437735 6:0.0582658 7:0.00636562 8:-0.00624256 9:-0.0353118 10:-0.00325732 11:-0.00185013 12:-0.00279944 13:-0.025769 14:0 15:-0.00251503 16:-0.0060947 17:0 18:-0.00205717 19:0.0138395 20:0 21:0 22:0 23:0 24:0 25:0 26:0 27:0 28:0 29:0 30:0 31:0 32:0 33:0 34:0 35:1 
1 1:1 2:0.27027 3:0.00787195 4:0.27027 5:-0.0102445 6:-0.884071 7:0.0161474 8:0.000253862 9:-0.854702 10:-0.00123088 11:0.025567 12:-0.0105182 13:0.246763 14:0 15:-0.00251503 16:0.00605498 17:0 18:-0.00706161 19:0.000803702 20:0 21:0 22:0 23:0 24:1 25:0 26:0 27:0 28:0 29:0 30:0 31:0 32:1 33:0 34:0 35:0 
1 1:0 2:0.0628702 3:-0.0410023 4:0.0628702 5:0.0437735 6:-0.216553 7:0.00636562 8:0.000578213 9:-0.15569 10:0.0100219 11:0.00388373 12:0.0135939 13:0.0665078 14:0 15:0.00165974 16:0.0289366 17:0 18:-0.00795242 19:0.00623806 20:0 21:0 22:0 23:0 24:1 25:0 26:0 27:0 28:0 29:0 30:0 31:0 32:0 33:0 34:0 35:0 
1 1:1 2:0.0497238 3:-0.0773481 4:0.0497238 5:-0.00855676 6:-0.117964 7:-0.0196727 8:-0.0102524 9:-0.161781 10:-0.00270045 11:-0.00185013 12:-0.00279944 13:-0.0973622 14:0 15:-0.00492854 16:-0.0143477 17:1 18:0.00685028 19:-0.00671981 20:0 21:0 22:1 23:0 24:2 25:0 26:0 27:0 28:0 29:0 30:0 31:0 32:0 33:0 34:0 35:0 
1 1:1 2:0.193548 3:0.0276498 4:0.193548 5:0.00115378 6:-0.157937 7:0.0105849 8:0.000578213 9:-0.187251 10:-0.000769924 11:0.025567 12:-0.00109699 13:-0.0594681 14:0 15:-7.70143e-005 16:0.00471629 17:0 18:0.00397458 19:-0.00671981 20:0 21:0 22:0 23:0 24:1 25:0 26:0 27:0 28:2 29:0 30:0 31:0 32:0 33:0 34:0 35:0 
1 1:0 2:0.29259 3:0.0721976 4:0.29259 5:0.0130167 6:-0.233184 7:0.00305708 8:0.0044492 9:0.171217 10:-0.00667065 11:0.0136848 12:-0.00279944 13:-0.0499097 14:0 15:-0.00530999 16:0.00605498 17:0 18:-0.00931329 19:-0.013254 20:0 21:0 22:0 23:0 24:1 25:0 26:0 27:1 28:0 29:0 30:0 31:0 32:0 33:0 34:0 35:0 
1 1:0 2:0.187075 3:-0.00680272 4:0.187075 5:-0.00855676 6:-0.117907 7:0.00857851 8:0.00263785 9:0.29985 10:-0.00335283 11:-0.00182434 12:-0.0105182 13:-0.00293443 14:0 15:0.0012351 16:0.00252779 17:0 18:-0.00564657 19:0.00623806 20:0 21:0 22:0 23:0 24:0 25:0 26:0 27:0 28:0 29:0 30:0 31:0 32:1 33:0 34:0 35:0 
1 1:1 2:0.161417 3:0.0472441 4:0.161417 5:0.0437735 6:-0.306735 7:-0.000966364 8:-0.00566043 9:-0.173147 10:-0.00123088 11:-0.000258585 12:-0.00255595 13:0.0526942 14:0 15:0.00574903 16:-0.00382903 17:1 18:-0.00255277 19:-0.00671981 20:0 21:0 22:0 23:0 24:2 25:0 26:0 27:0 28:0 29:0 30:0 31:0 32:0 33:0 34:0 35:0 
1 1:1 2:0.177778 3:0.017094 4:0.177778 5:0.0437735 6:-0.058252 7:0.00305708 8:-0.0025261 9:0.202578 10:-0.00325732 11:0.00357244 12:-0.000129959 13:0.000659812 14:0 15:-0.0106865 16:-0.00293144 17:0 18:0.00599235 19:0.00623806 20:0 21:0 22:0 23:0 24:1 25:0 26:0 27:0 28:0 29:0 30:0 31:0 32:0 33:1 34:0 35:0 
1 1:0 2:0.0818833 3:-0.0921187 4:0.0818833 5:-0.0146811 6:-0.352204 7:-0.00516551 8:0.00263785 9:-0.286125 10:-0.00733484 11:-0.00185013 12:0.0221073 13:0.112692 14:0 15:-7.70143e-005 16:0.000647573 17:0 18:-0.00670385 19:0.00272342 20:1 21:0 22:0 23:0 24:1 25:0 26:0 27:0 28:0 29:1 30:0 31:0 32:0 33:0 34:0 35:0 
1 1:0 2:0.191867 3:-0.00417101 4:0.191867 5:-0.00229984 6:-0.0777094 7:-0.000665361 8:0.0100182 9:0.338717 10:0.00890847 11:0.00388373 12:7.55969e-005 13:-0.0130921 14:0 15:0.00574903 16:-0.00196836 17:0 18:0.00384661 19:-0.00405298 20:0 21:0 22:1 23:0 24:0 25:0 26:0 27:0 28:0 29:0 30:0 31:0 32:0 33:0 34:0 35:0 
0.8442037448541755 1:0 2:0.0828062 3:-0.0655549 4:0.0828062 5:-0.0058672 6:0.0227769 7:0.0137208 8:-0.0025261 9:0.149406 10:0.0194542 11:-0.00268771 12:0.00217649 13:0.0498309 14:0 15:0.0121562 16:-0.00479611 17:0 18:-0.00751179 19:0.00220689 20:1 21:0 22:1 23:0 24:0 25:0 26:0 27:0 28:0 29:0 30:0 31:0 32:1 33:0 34:0 35:0 
0.8608127636199294 1:1 2:0.209774 3:0.00476758 4:0.209774 5:-0.00229984 6:-0.279022 7:0.00857851 8:-0.00624256 9:-0.0108392 10:0.0100219 11:-0.00198275 12:-0.00571812 13:-0.0682793 14:0 15:0.000310067 16:-0.00347876 17:0 18:-0.0102641 19:-0.00405298 20:0 21:0 22:2 23:0 24:1 25:0 26:0 27:0 28:0 29:0 30:0 31:0 32:0 33:0 34:0 35:0 
1 1:0 2:0.436285 3:0.0647948 4:0.436285 5:-0.00855676 6:-1.30995 7:0.0137208 8:-0.00209975 9:-0.418557 10:0.0100219 11:-0.00198275 12:-0.0117779 13:0.0296655 14:0 15:-0.00251503 16:0.00471629 17:0 18:-0.0109188 19:0.00623806 20:0 21:0 22:0 23:0 24:0 25:0 26:0 27:0 28:0 29:0 30:0 31:0 32:0 33:0 34:0 35:0 
1 1:0 2:0.106806 3:-0.0314136 4:0.106806 5:0.0437735 6:-0.00959676 7:0.0105849 8:0.0100182 9:-0.0218371 10:0.0100219 11:-0.000258585 12:0.0135939 13:-0.0117718 14:0 15:0.00165974 16:-0.00382903 17:1 18:-0.00244878 19:0.0138395 20:0 21:0 22:0 23:0 24:1 25:0 26:0 27:0 28:0 29:0 30:0 31:0 32:0 33:0 34:0 35:0 
1 1:0 2:0.135135 3:-0.036036 4:0.135135 5:-0.00118857 6:-0.098606 7:-0.013301 8:0.00263785 9:-0.1477 10:-0.000769924 11:0.00732539 12:-0.000129959 13:0.00132236 14:0 15:-0.00790929 16:0.00443894 17:0 18:0.0019633 19:0.000421736 20:0 21:0 22:0 23:0 24:0 25:0 26:0 27:0 28:2 29:0 30:0 31:0 32:0 33:0 34:0 35:1 
1 1:0 2:0.130573 3:0.0254777 4:0.130573 5:-0.00118857 6:-0.0409793 7:0.00636562 8:-0.00459058 9:1.23599e-017 10:-0.00335283 11:0.00732539 12:-0.00109699 13:-0.0441379 14:0 15:0.00574903 16:0.00605498 17:0 18:0.000963688 19:0.00958784 20:0 21:0 22:0 23:0 24:0 25:0 26:0 27:0 28:0 29:0 30:0 31:0 32:0 33:0 34:0 35:0 
1 1:0 2:0.117647 3:-0.0235294 4:0.117647 5:-0.00424959 6:-0.130048 7:0.00305708 8:0.0101539 9:-0.109139 10:-0.000769924 11:-0.00268771 12:0.00155162 13:-0.0451756 14:0 15:0.0121562 16:0.00605498 17:0 18:0.0128044 19:-0.00405298 20:0 21:0 22:1 23:0 24:0 25:0 26:0 27:0 28:1 29:0 30:1 31:0 32:0 33:0 34:0 35:1 
1 1:0 2:0.0497238 3:-0.0773481 4:0.0497238 5:-0.00424959 6:-0.0279831 7:0.00636562 8:0.0100182 9:0.139642 10:0.0100219 11:0.00699454 12:0.0135939 13:-0.00293912 14:0 15:-0.00790929 16:-0.00196836 17:0 18:-0.00544946 19:-0.00405298 20:0 21:0 22:1 23:0 24:0 25:0 26:0 27:0 28:0 29:0 30:0 31:0 32:0 33:0 34:0 35:0 
1 1:0 2:0.221649 3:0.0103093 4:0.221649 5:-0.0058672 6:-0.324211 7:0.00140932 8:-0.00332417 9:0.149338 10:-0.00335283 11:-0.00480468 12:-0.00279944 13:-0.0814935 14:0 15:0.00574903 16:0.0289366 17:0 18:-0.00239606 19:0.00623806 20:0 21:0 22:0 23:0 24:0 25:0 26:0 27:0 28:0 29:0 30:0 31:0 32:0 33:0 34:0 35:0 
1 1:0 2:0.162594 3:0.00799645 4:0.162594 5:0.00115378 6:-0.343889 7:0.0161474 8:-0.00332417 9:0.107188 10:-0.000710021 11:-0.00268771 12:-0.00279944 13:-0.0715993 14:0 15:-0.00251503 16:-0.00347876 17:0 18:-0.0146659 19:0.000347898 20:0 21:0 22:0 23:0 24:0 25:0 26:0 27:0 28:0 29:0 30:0 31:0 32:0 33:0 34:0 35:0 
1 1:1 2:0.156271 3:0.00411241 4:0.156271 5:0.0129942 6:-0.299461 7:0.0105849 8:-0.000155678 9:-0.168897 10:-0.00270045 11:-0.00480468 12:-0.000334465 13:0.00971038 14:0 15:0.00165974 16:0.00732772 17:0 18:-0.0188422 19:-0.00405298 20:0 21:0 22:1 23:0 24:1 25:0 26:0 27:0 28:0 29:0 30:1 31:0 32:0 33:0 34:0 35:1 
1 1:0 2:0.186047 3:-0.00715564 4:0.186047 5:-0.00855676 6:-0.00770725 7:0.00140932 8:0.000578213 9:0.0852796 10:-0.00325732 11:-0.00185013 12:0.0135939 13:-0.00851813 14:0 15:-0.000517298 16:-0.0060947 17:0 18:0.012104 19:-0.00405298 20:0 21:0 22:1 23:0 24:0 25:0 26:0 27:0 28:0 29:0 30:0 31:0 32:0 33:0 34:0 35:0 
0.8336881273026227 1:0 2:0.00769231 3:-0.0769231 4:0.00769231 5:-0.0146811 6:-0.1345 7:0.0161474 8:0.000578213 9:0.000545193 10:0.0037796 11:-0.00268771 12:-0.00109699 13:0.0517788 14:0 15:0.00165974 16:-0.00196836 17:0 18:-0.0187549 19:0.00272342 20:0 21:0 22:0 23:0 24:0 25:0 26:0 27:0 28:0 29:0 30:0 31:0 32:1 33:0 34:0 35:0 
1 1:0 2:0.492333 3:0.0372112 4:0.492333 5:-0.00855676 6:-0.796114 7:-0.00737515 8:-0.00363048 9:-0.386864 10:-0.00325732 11:-0.00737899 12:-0.000129959 13:0.16349 14:0 15:0.00574903 16:0.00605498 17:0 18:-0.0197715 19:0.0138395 20:0 21:0 22:0 23:0 24:0 25:0 26:0 27:1 28:0 29:0 30:0 31:0 32:0 33:0 34:0 35:0 
1 1:0 2:0.137733 3:-0.00860832 4:0.137733 5:-0.0102445 6:-0.38759 7:-0.000966364 8:0.0184523 9:-0.173779 10:-0.00325732 11:0.025567 12:-0.00571812 13:0.0421707 14:0 15:0.00165974 16:-0.00360034 17:0 18:-0.0200369 19:0.00958784 20:0 21:0 22:1 23:0 24:1 25:0 26:0 27:0 28:0 29:0 30:0 31:0 32:0 33:0 34:0 35:0 
0.2253290282749488 1:1 2:0.184615 3:-0.0307692 4:0.184615 5:-0.00855852 6:-0.217237 7:0.00636562 8:-0.00566043 9:-0.163857 10:-0.00325732 11:0.00699454 12:0.0023707 13:0.0993118 14:0 15:-0.000517298 16:0.0289366 17:1 18:-0.00978066 19:0.00958784 20:0 21:0 22:1 23:0 24:1 25:0 26:0 27:0 28:0 29:1 30:0 31:0 32:1 33:0 34:0 35:1 
1 1:0 2:0.0889571 3:-0.0122699 4:0.0889571 5:-0.0146811 6:-0.108068 7:-0.013301 8:-0.00332417 9:0.258658 10:-0.00332328 11:0.0141877 12:-0.0117779 13:-0.00146296 14:0 15:-0.0106865 16:-0.00124075 17:0 18:-0.00162529 19:-0.00405298 20:0 21:0 22:1 23:0 24:0 25:0 26:0 27:0 28:0 29:0 30:0 31:0 32:0 33:0 34:0 35:0 
1 1:0 2:0.161417 3:0.0472441 4:0.161417 5:0.0106812 6:0.0234357 7:-0.00516551 8:-0.0018813 9:0.000430957 10:-0.00325732 11:0.00357244 12:-0.00255595 13:0.00988719 14:0 15:0.00646052 16:-0.00483205 17:0 18:-0.0184604 19:0.00958784 20:0 21:0 22:1 23:0 24:0 25:0 26:0 27:0 28:0 29:0 30:0 31:0 32:0 33:0 34:0 35:0 
1 1:0 2:0.0989918 3:-0.0384968 4:0.0989918 5:0.0129942 6:-0.19206 7:-0.000402756 8:-0.00566043 9:-0.102502 10:-0.00325732 11:-0.00737899 12:-0.00317909 13:0.0510882 14:0 15:0.00331034 16:-0.00479611 17:0 18:-0.00767722 19:0.0138395 20:0 21:0 22:0 23:0 24:1 25:0 26:0 27:0 28:0 29:0 30:0 31:0 32:0 33:1 34:0 35:0 
0.4886095846594256 1:0 2:0.52151 3:0.163301 4:0.52151 5:0.00737457 6:-0.794746 7:0.00636562 8:-0.00566043 9:-0.271701 10:-0.00667065 11:-0.00737899 12:-0.0117779 13:0.0665935 14:0 15:0.0048917 16:-0.0143477 17:1 18:-0.0141656 19:-0.0057122 20:0 21:0 22:0 23:0 24:0 25:0 26:0 27:0 28:0 29:0 30:0 31:0 32:0 33:0 34:0 35:1 
1 1:1 2:0.1 3:-6.93889e-018 4:0.1 5:0.0130167 6:0.059601 7:-0.013301 8:0.0100182 9:0.195622 10:0.000771071 11:0.00357244 12:-0.00279944 13:-0.189934 14:0 15:0.00574903 16:0.00605498 17:0 18:-0.0121245 19:-0.00405298 20:0 21:0 22:1 23:0 24:1 25:0 26:0 27:1 28:0 29:0 30:0 31:0 32:0 33:0 34:0 35:0 
1 1:0 2:0.274361 3:0.00946074 4:0.274361 5:0.00115378 6:-0.263373 7:0.00857851 8:-0.000155678 9:0.183363 10:-0.00476114 11:0.00357244 12:0.0135939 13:-0.0484134 14:0 15:0.00646052 16:-0.00360034 17:0 18:0.00618129 19:0.00958784 20:0 21:0 22:0 23:0 24:0 25:0 26:0 27:0 28:0 29:0 30:0 31:0 32:0 33:0 34:0 35:0 
1 1:0 2:0.162594 3:0.00799645 4:0.162594 5:0.0129942 6:-0.188353 7:-0.00737515 8:-0.0102524 9:0.0440661 10:-0.000710021 11:-0.00268771 12:7.55969e-005 13:0.11841 14:0 15:-0.00251503 16:0.00605498 17:0 18:-0.021336 19:-0.00207511 20:0 21:0 22:1 23:0 24:1 25:0 26:0 27:0 28:1 29:1 30:0 31:0 32:0 33:1 34:0 35:0 
1 1:0 2:0.164682 3:0.0093216 4:0.164682 5:0.0106812 6:-0.0957698 7:0.00305708 8:0.0101539 9:0.221462 10:-0.00273061 11:0.0141877 12:-0.000129959 13:0.0471713 14:0 15:0.00331034 16:-0.00293144 17:0 18:0.0324496 19:-0.000837017 20:0 21:0 22:0 23:0 24:0 25:0 26:0 27:0 28:0 29:0 30:0 31:0 32:1 33:0 34:0 35:0 
1 1:0 2:0.258421 3:0.0563225 4:0.258421 5:0.0130167 6:-0.559118 7:0.00305708 8:-0.000155678 9:0.0185326 10:0.00128145 11:0.00732539 12:0.0023707 13:-0.0232826 14:0 15:-0.00530999 16:-0.00347876 17:1 18:-0.0305418 19:0.00220689 20:0 21:0 22:0 23:0 24:1 25:0 26:0 27:1 28:0 29:0 30:0 31:0 32:0 33:0 34:0 35:0 
1 1:0 2:0.626255 3:0.0923324 4:0.626255 5:0.0129942 6:-0.929548 7:0.0161474 8:0.0044492 9:-0.377972 10:-0.00273061 11:0.00388373 12:-0.000334465 13:-0.0619911 14:0 15:0.00331034 16:-0.00360034 17:0 18:0.0109293 19:0.00272342 20:0 21:0 22:0 23:0 24:0 25:0 26:0 27:1 28:0 29:0 30:0 31:0 32:0 33:0 34:0 35:0 
1 1:0 2:0.156051 3:0.0254777 4:0.156051 5:-0.0102445 6:0.00638888 7:0.00305708 8:-0.0025261 9:0.121771 10:0.0100219 11:0.00388373 12:-0.0117779 13:-0.0697855 14:0 15:0.0121562 16:-0.00360034 17:0 18:0.0193449 19:0.00958784 20:0 21:0 22:0 23:0 24:0 25:0 26:0 27:0 28:0 29:0 30:0 31:0 32:0 33:0 34:0 35:0 
1 1:0 2:0.225201 3:0.0390655 4:0.225201 5:-0.00118857 6:-0.523028 7:0.0161474 8:0.00111369 9:-0.221968 10:-0.00335283 11:0.00388373 12:-0.00255595 13:0.0379632 14:0 15:0.0121562 16:-0.00293144 17:1 18:0.00683849 19:0.00276726 20:0 21:0 22:0 23:0 24:1 25:0 26:0 27:0 28:0 29:0 30:0 31:0 32:0 33:0 34:0 35:0 
1 1:1 2:0.246073 3:0.0209424 4:0.246073 5:0.0437735 6:-0.07184 7:-0.00737515 8:-0.0018813 9:0.650008 10:0.0037796 11:0.00388373 12:0.00155162 13:0.156176 14:0 15:-0.00036086 16:0.00732772 17:0 18:0.0153309 19:-0.00553567 20:0 21:0 22:0 23:0 24:1 25:0 26:0 27:0 28:0 29:1 30:0 31:0 32:0 33:0 34:0 35:0 
1 1:0 2:0.144534 3:-0.00370599 4:0.144534 5:-0.00855676 6:-0.0751868 7:-0.00166005 8:-0.00566043 9:-0.0201167 10:0.0037796 11:0.00388373 12:-0.00109699 13:-0.0115865 14:0 15:0.0121562 16:0.00732772 17:1 18:-0.021033 19:-0.00405298 20:0 21:0 22:1 23:0 24:0 25:0 26:0 27:0 28:0 29:0 30:0 31:0 32:0 33:0 34:0 35:1 
1 1:0 2:0.0830565 3:-0.0199336 4:0.0830565 5:0.00115378 6:-0.0580947 7:0.00636562 8:0.0100182 9:0.569498 10:-0.00325732 11:0.0141877 12:-0.00317909 13:-0.000221692 14:0 15:-0.00251503 16:-0.00293144 17:0 18:0.00024916 19:-0.000837017 20:0 21:0 22:0 23:0 24:0 25:0 26:0 27:0 28:0 29:0 30:0 31:0 32:0 33:0 34:0 35:0 
1 1:0 2:0.690578 3:0.102784 4:0.690578 5:-0.00855676 6:-0.604694 7:0.00140932 8:0.0044492 9:0.0192089 10:-0.00476114 11:0.00388373 12:-0.00279944 13:0.123429 14:0 15:-0.00349054 16:0.00732772 17:0 18:0.0177512 19:0.000803702 20:0 21:0 22:0 23:0 24:1 25:0 26:0 27:0 28:1 29:0 30:0 31:0 32:0 33:0 34:0 35:0 
1 1:0 2:0.132323 3:-0.0124052 4:0.132323 5:-0.00118857 6:-0.0892261 7:-0.013301 8:0.0101539 9:-0.0158571 10:-0.00273061 11:-0.00185013 12:-0.0105182 13:-0.00554704 14:0 15:-0.00530999 16:0.00471629 17:1 18:0.0106254 19:-0.00405298 20:0 21:0 22:1 23:0 24:0 25:0 26:0 27:0 28:1 29:1 30:0 31:0 32:0 33:0 34:0 35:1 
1 1:0 2:0.260263 3:0.0604183 4:0.260263 5:0.0106812 6:-6.15827e-017 7:0.0137208 8:-0.0025261 9:0.000421825 10:-0.00286363 11:0.00232889 12:-0.0105182 13:-0.0358765 14:0 15:-0.00251503 16:-0.00483205 17:0 18:0.00268162 19:-0.00601379 20:0 21:0 22:1 23:0 24:0 25:0 26:0 27:0 28:0 29:0 30:0 31:0 32:0 33:1 34:0 35:1 
1 1:0 2:0.18552 3:0.0633484 4:0.18552 5:-0.0146811 6:-0.27046 7:-0.013301 8:0.000578213 9:0.0609335 10:0.00890847 11:-0.000258585 12:0.0023707 13:0.0156338 14:0 15:-0.00036086 16:-0.00293144 17:0 18:0.00601045 19:0.00623806 20:0 21:0 22:0 23:0 24:0 25:0 26:0 27:0 28:0 29:0 30:0 31:0 32:0 33:0 34:0 35:0 
1 1:0 2:0.117851 3:-0.0242634 4:0.117851 5:-0.00424959 6:-0.068818 7:0.0137208 8:0.0184523 9:0.29145 10:-0.00123088 11:0.0136848 12:-0.0105182 13:-0.253408 14:0 15:-0.00036086 16:-0.00483205 17:0 18:-0.0195655 19:0.00623806 20:0 21:0 22:0 23:0 24:0 25:0 26:0 27:0 28:0 29:0 30:0 31:0 32:0 33:0 34:0 35:0 
1 1:0 2:0.144534 3:-0.00370599 4:0.144534 5:0.0437735 6:-0.146934 7:0.0137208 8:-0.00566043 9:-0.120237 10:-0.00335283 11:0.00732539 12:-0.00109699 13:-0.00733307 14:0 15:0.00574903 16:0.00732772 17:0 18:0.000120685 19:0.000421736 20:0 21:0 22:0 23:0 24:1 25:0 26:0 27:0 28:0 29:0 30:0 31:0 32:0 33:0 34:0 35:0 
1 1:0 2:0.158516 3:0.00337268 4:0.158516 5:-0.0058672 6:-0.486245 7:0.0105849 8:-0.00566043 9:-0.422589 10:-0.00733484 11:-0.000258585 12:-0.000334465 13:0.15903 14:0 15:0.0121562 16:0.00443894 17:0 18:-0.0124167 19:-0.000837017 20:0 21:0 22:2 23:0 24:0 25:0 26:0 27:0 28:1 29:0 30:0 31:0 32:0 33:0 34:0 35:0 
0.6085689799408464 1:1 2:0.154359 3:0.0028585 4:0.154359 5:0.0129942 6:-0.759986 7:-0.00737515 8:-0.00209975 9:-0.790266 10:-0.00332328 11:-0.00198275 12:-0.000129959 13:0.133403 14:0 15:-0.0106865 16:-0.00483205 17:0 18:-0.00285038 19:-0.0057122 20:0 21:0 22:0 23:0 24:1 25:0 26:0 27:0 28:0 29:0 30:0 31:0 32:0 33:0 34:1 35:1 
0.5127885591699577 1:0 2:0.244641 3:0.0479193 4:0.244641 5:-0.00855676 6:-0.558211 7:0.0137208 8:-0.00566043 9:-0.770618 10:-0.00335283 11:0.00732539 12:-0.00255595 13:0.163499 14:0 15:0.0048917 16:0.00471629 17:0 18:-0.00823227 19:-0.00671981 20:0 21:0 22:0 23:0 24:0 25:0 26:0 27:0 28:0 29:1 30:0 31:0 32:0 33:0 34:0 35:0 
1 1:0 2:0.0501901 3:-0.114068 4:0.0501901 5:0.0129942 6:0.0642948 7:0.00636562 8:0.0100182 9:-0.0803771 10:-0.00733484 11:-0.00737899 12:-0.0105182 13:-0.149022 14:0 15:-0.00251503 16:-0.00196836 17:0 18:0.00233567 19:0.00272342 20:0 21:0 22:0 23:0 24:1 25:0 26:0 27:0 28:0 29:0 30:0 31:0 32:0 33:0 34:0 35:0 
1 1:0 2:0.0342466 3:-0.109589 4:0.0342466 5:0.0437735 6:-0.0785033 7:0.00857851 8:-0.00459058 9:0.158041 10:0.0194542 11:0.00357244 12:-0.00571812 13:-0.0181682 14:0 15:-7.70143e-005 16:-0.00124075 17:1 18:-0.0050954 19:0.00958784 20:0 21:0 22:0 23:0 24:0 25:0 26:0 27:0 28:0 29:0 30:0 31:0 32:0 33:0 34:0 35:0 
1 1:1 2:0.171642 3:-0.0149254 4:0.171642 5:-0.00424959 6:-0.228 7:0.000868714 8:-0.0025261 9:-0.296268 10:-0.00381029 11:0.025567 12:-0.00279944 13:0.0940564 14:0 15:-0.00251503 16:0.00443894 17:0 18:-0.0160943 19:0.00220689 20:0 21:0 22:0 23:0 24:3 25:0 26:0 27:0 28:0 29:0 30:0 31:0 32:0 33:0 34:0 35:0 
1 1:0 2:0.2 3:-6.93889e-018 4:0.2 5:0.0129942 6:-0.399431 7:0.0161474 8:0.00263785 9:-0.436496 10:0.0100219 11:-0.037011 12:-0.0105182 13:0.0674112 14:0 15:-0.00790929 16:-0.00347876 17:0 18:-0.0077273 19:-0.00671981 20:0 21:0 22:0 23:0 24:1 25:0 26:0 27:0 28:0 29:0 30:0 31:0 32:0 33:0 34:0 35:0 
0.5741822060398187 1:0 2:0.239808 3:0.0335731 4:0.239808 5:-0.00118857 6:-0.232034 7:-0.0196727 8:0.000253862 9:0.033659 10:-0.00476114 11:-0.00198275 12:0.00155162 13:0.0489266 14:0 15:-0.00349054 16:-0.00382903 17:0 18:-0.00743536 19:-0.00207511 20:0 21:0 22:0 23:0 24:0 25:0 26:0 27:0 28:0 29:0 30:0 31:0 32:0 33:0 34:0 35:0 
1 1:0 2:0.108592 3:-0.073459 4:0.108592 5:0.0437735 6:-0.0716709 7:-0.00680823 8:-0.0025261 9:-0.0533428 10:-0.000769924 11:-0.00198275 12:-0.000129959 13:-0.131622 14:0 15:-7.70143e-005 16:0.0289366 17:0 18:0.0178609 19:0.000369551 20:0 21:0 22:0 23:0 24:1 25:0 26:0 27:0 28:0 29:0 30:0 31:0 32:1 33:0 34:0 35:0 
1 1:1 2:0.112069 3:-0.0517241 4:0.112069 5:-0.0102445 6:-0.191052 7:-0.013301 8:-0.000155678 9:-0.0152973 10:0.00180655 11:0.0141877 12:-0.0105182 13:-0.00370474 14:0 15:-0.00530999 16:-0.0060947 17:1 18:0.0145762 19:-0.013254 20:0 21:0 22:0 23:0 24:2 25:0 26:0 27:0 28:0 29:0 30:0 31:0 32:0 33:0 34:0 35:0 
1 1:1 2:0.148492 3:-0.0278422 4:0.148492 5:0.0129942 6:-0.279143 7:0.0105849 8:-0.00624256 9:0.168452 10:0.00128145 11:-0.00148109 12:-0.00279944 13:-0.0149 14:0 15:0.0121562 16:0.00443894 17:1 18:-0.0101219 19:0.00260239 20:0 21:0 22:0 23:0 24:1 25:0 26:0 27:0 28:0 29:0 30:1 31:0 32:0 33:0 34:0 35:1 
1 1:0 2:0.04375 3:-0.0625 4:0.04375 5:-0.0058672 6:-0.0634505 7:0.00636562 8:0.000253862 9:0.208053 10:0.00180655 11:0.025567 12:-0.000334465 13:-0.052376 14:0 15:-0.00343388 16:0.00605498 17:1 18:0.00187639 19:-0.00405298 20:0 21:0 22:1 23:0 24:0 25:0 26:0 27:0 28:0 29:0 30:0 31:0 32:0 33:0 34:0 35:1 
1 1:0 2:0.0928074 3:-0.0649652 4:0.0928074 5:-0.0102445 6:-0.172316 7:0.0105849 8:0.00111369 9:0.657892 10:0.0194542 11:-0.00268771 12:-0.00317909 13:0.126942 14:0 15:-0.0106865 16:0.00732772 17:1 18:0.0210723 19:0.00276726 20:0 21:0 22:0 23:0 24:0 25:0 26:0 27:0 28:0 29:0 30:1 31:0 32:0 33:0 34:0 35:0 
1 1:0 2:0.225564 3:0.0451128 4:0.225564 5:-0.00118857 6:-0.48865 7:-0.000966364 8:-0.00624256 9:-0.167869 10:0.00128145 11:-0.00185013 12:0.00218961 13:0.0226728 14:0 15:0.00646052 16:0.00732772 17:1 18:-0.0177253 19:-0.013254 20:0 21:0 22:1 23:0 24:1 25:0 26:0 27:0 28:0 29:0 30:0 31:0 32:0 33:0 34:0 35:0 
1 1:0 2:0.0766423 3:-0.0291971 4:0.0766423 5:0.0106812 6:-0.125367 7:0.00636562 8:0.0100182 9:-0.122384 10:-0.00286363 11:0.0136848 12:-0.000129959 13:-0.0629391 14:0 15:-0.00492854 16:-0.0143477 17:0 18:0.0396934 19:0.00623806 20:0 21:0 22:0 23:0 24:0 25:0 26:0 27:0 28:0 29:0 30:0 31:0 32:0 33:0 34:0 35:1 
1 1:1 2:-0.0953137 3:-0.138205 4:-0.0953137 5:0.0129942 6:0.0651615 7:0.0105849 8:0.00263785 9:-0.0196977 10:-0.000769924 11:-0.000258585 12:-0.00279944 13:-0.0158228 14:0 15:0.0121562 16:0.00732772 17:0 18:0.00812352 19:0.000803702 20:0 21:0 22:2 23:0 24:1 25:0 26:0 27:0 28:0 29:0 30:0 31:0 32:0 33:0 34:0 35:0 
1 1:1 2:0.290909 3:0.040404 4:0.290909 5:0.0437735 6:-0.154019 7:0.000868714 8:-0.00566043 9:-0.224387 10:-0.000769924 11:-0.00737899 12:0.00217649 13:0.00952061 14:0 15:-0.0106865 16:-0.00479611 17:0 18:-0.0137235 19:0.00404864 20:0 21:0 22:1 23:0 24:2 25:0 26:0 27:0 28:0 29:0 30:0 31:0 32:0 33:0 34:0 35:0 
1 1:0 2:0.152318 3:-0.0264901 4:0.152318 5:0.0129942 6:-0.0234395 7:0.0137208 8:-0.00624256 9:-0.0681733 10:-0.0025074 11:0.00232889 12:-0.0105182 13:-0.00212978 14:0 15:0.0121562 16:0.0289366 17:0 18:0.00782606 19:-0.00175629 20:0 21:0 22:0 23:0 24:2 25:0 26:0 27:1 28:0 29:0 30:0 31:0 32:0 33:0 34:0 35:0 
1 1:0 2:0.14386 3:0.0350877 4:0.14386 5:0.0437735 6:-0.158405 7:0.0161474 8:-0.0025261 9:0.25612 10:-0.0025074 11:0.00699454 12:-0.0105182 13:0.0458047 14:0 15:0.00646052 16:-0.0042043 17:0 18:0.0037447 19:-0.00175629 20:0 21:0 22:0 23:0 24:0 25:0 26:0 27:0 28:0 29:0 30:0 31:0 32:0 33:0 34:0 35:0 
1 1:1 2:0.62425 3:0.116046 4:0.62425 5:-0.00855676 6:-1.46286 7:0.0161474 8:0.0184523 9:-0.847843 10:0.00890847 11:-0.00480468 12:0.00155162 13:0.108429 14:0 15:0.00646052 16:-0.00124075 17:0 18:-0.0143785 19:-0.00553567 20:0 21:0 22:0 23:0 24:1 25:0 26:0 27:0 28:1 29:0 30:0 31:0 32:0 33:1 34:0 35:0 
1 1:0 2:0.123077 3:-0.043956 4:0.123077 5:0.0106812 6:-0.0839586 7:0.0105849 8:-0.0025261 9:0.102329 10:-0.00476114 11:-0.00185013 12:0.00217649 13:-0.00749357 14:0 15:-0.00251503 16:-0.0143477 17:0 18:0.00944147 19:0.00260239 20:0 21:0 22:0 23:0 24:0 25:0 26:0 27:0 28:1 29:0 30:0 31:0 32:0 33:1 34:0 35:1 
1 1:0 2:0.0440176 3:-0.116046 4:0.0440176 5:-0.0102445 6:-0.163919 7:0.0105849 8:-0.00332417 9:-0.0158219 10:-0.000769924 11:-0.000258585 12:0.0023707 13:0.0705252 14:0 15:-0.00251503 16:0.000966796 17:1 18:-0.00723018 19:0.0138395 20:0 21:0 22:0 23:0 24:0 25:0 26:0 27:1 28:1 29:0 30:0 31:0 32:0 33:0 34:0 35:0 
1 1:0 2:0.156051 3:0.0254777 4:0.156051 5:-0.00424959 6:-0.124069 7:-0.00347661 8:-0.0025261 9:0.0486062 10:-0.00325732 11:-0.00480468 12:0.00155162 13:-0.0011954 14:0 15:-0.00343388 16:-0.00269397 17:0 18:0.00783372 19:-0.00553567 20:0 21:0 22:0 23:0 24:0 25:0 26:0 27:0 28:0 29:0 30:1 31:0 32:0 33:0 34:0 35:0 
1 1:0 2:0.217549 3:0.0391588 4:0.217549 5:-0.00118857 6:0.0242581 7:0.0137208 8:-0.0025261 9:0.0688705 10:-0.00733484 11:0.00357244 12:-0.000129959 13:0.022703 14:0 15:0.0048917 16:0.00605498 17:0 18:0.0102352 19:-0.00405298 20:0 21:0 22:3 23:0 24:0 25:0 26:0 27:0 28:0 29:0 30:0 31:0 32:0 33:0 34:0 35:0 
1 1:0 2:0.421736 3:0.0567721 4:0.421736 5:0.0106812 6:-0.547874 7:-0.00516551 8:-0.0102524 9:-0.0291745 10:0.00128145 11:-0.00148109 12:-0.00109699 13:0.0994976 14:0 15:0.0048917 16:0.00732772 17:0 18:-0.0228955 19:0.00276726 20:0 21:0 22:0 23:0 24:1 25:0 26:0 27:0 28:0 29:0 30:0 31:0 32:0 33:0 34:0 35:0 
1 1:1 2:0.132323 3:-0.0124052 4:0.132323 5:0.0437735 6:-0.647942 7:-0.013301 8:-0.00566043 9:-0.591433 10:0.0037796 11:0.0141877 12:-0.00317909 13:0.0516615 14:0 15:-0.00530999 16:0.00471629 17:0 18:-0.0156991 19:0.00220689 20:0 21:0 22:0 23:0 24:1 25:0 26:0 27:0 28:1 29:0 30:0 31:0 32:0 33:0 34:0 35:0 
1 1:1 2:0.283186 3:0.0353982 4:0.283186 5:0.0130167 6:-0.152345 7:0.0105849 8:0.0184523 9:0.194074 10:0.0037796 11:0.00699454 12:7.55969e-005 13:-0.0263525 14:0 15:-0.00530999 16:-0.00293144 17:1 18:0.00813916 19:-0.00601379 20:0 21:0 22:0 23:0 24:1 25:0 26:0 27:1 28:1 29:0 30:0 31:0 32:0 33:2 34:0 35:0 
1 1:0 2:0.0766423 3:-0.0291971 4:0.0766423 5:-0.00174828 6:-0.0760478 7:0.0137208 8:0.000253862 9:0.232034 10:-0.00325732 11:-0.00198275 12:0.0221073 13:0.0623112 14:0 15:0.0121562 16:-0.00196836 17:0 18:0.000564306 19:0.00958784 20:0 21:0 22:1 23:0 24:1 25:0 26:0 27:0 28:0 29:0 30:0 31:0 32:0 33:0 34:0 35:0 
0.6376135844384232 1:1 2:0.7753 3:0.120069 4:0.7753 5:-0.00118857 6:-0.665835 7:-0.013301 8:-0.0025261 9:0.120963 10:-0.00733484 11:-0.00268771 12:0.0221073 13:-0.0640875 14:0 15:-0.00790929 16:0.00443894 17:1 18:0.000177527 19:-0.00207511 20:0 21:0 22:0 23:0 24:1 25:0 26:0 27:1 28:0 29:0 30:0 31:0 32:0 33:0 34:0 35:0 
1 1:0 2:0.960396 3:0.237624 4:0.960396 5:0.0106812 6:-0.882022 7:0.0137208 8:-0.00566043 9:0.0106459 10:0.000771071 11:0.00357244 12:-0.0105182 13:-0.0604769 14:0 15:0.00646052 16:-0.00269397 17:0 18:-0.0239969 19:0.000347898 20:0 21:0 22:0 23:0 24:0 25:0 26:0 27:0 28:1 29:0 30:0 31:0 32:0 33:0 34:0 35:0 
1 1:0 2:0.141361 3:-0.0209424 4:0.141361 5:0.0106812 6:-0.0499537 7:0.0105849 8:-0.00566043 9:-0.0433833 10:-0.00381029 11:-0.00268771 12:0.00217649 13:-0.0718144 14:0 15:-0.00251503 16:0.00732772 17:0 18:0.0367811 19:0.000369551 20:0 21:0 22:0 23:0 24:1 25:0 26:0 27:0 28:0 29:0 30:0 31:0 32:0 33:0 34:0 35:0 
1 1:0 2:0.0492207 3:-0.0442986 4:0.0492207 5:-0.00424959 6:0.125513 7:-0.000665361 8:-0.00624256 9:-0.000855858 10:-0.00286363 11:0.025567 12:7.55969e-005 13:-0.0871374 14:0 15:0.0121562 16:-0.0060947 17:0 18:-0.0016211 19:0.0138395 20:0 21:0 22:0 23:0 24:0 25:0 26:0 27:0 28:0 29:0 30:1 31:0 32:0 33:0 34:0 35:0 
1 1:0 2:0.164682 3:0.0093216 4:0.164682 5:0.0106812 6:-0.0149786 7:0.00857851 8:-0.00566043 9:0.435832 10:-0.00332328 11:0.00732539 12:0.0221073 13:0.075239 14:0 15:0.0048917 16:-0.00159909 17:0 18:0.0148205 19:0.00220689 20:0 21:0 22:0 23:0 24:0 25:0 26:0 27:0 28:0 29:0 30:0 31:0 32:0 33:0 34:0 35:0 
1 1:0 2:0.0693878 3:-0.0408163 4:0.0693878 5:-0.0058672 6:-0.0399697 7:-0.000428978 8:0.00111814 9:0.201968 10:-0.00335283 11:-0.00148109 12:0.00218961 13:0.0431237 14:0 15:0.0121562 16:0.00443894 17:0 18:0.0138499 19:0.000369551 20:0 21:0 22:0 23:0 24:0 25:0 26:0 27:0 28:0 29:0 30:0 31:0 32:0 33:0 34:0 35:0 
1 1:1 2:0.180712 3:-0.0104257 4:0.180712 5:-0.00118857 6:-0.0180599 7:0.00140932 8:0.0184523 9:0.493581 10:-0.00733484 11:-0.00182434 12:0.00218961 13:0.0764871 14:0 15:-0.00251503 16:-0.00347876 17:0 18:0.00354261 19:0.00276726 20:0 21:0 22:1 23:0 24:1 25:0 26:0 27:0 28:0 29:0 30:0 31:0 32:0 33:0 34:0 35:0 
1 1:0 2:0.192024 3:-0.0563881 4:0.192024 5:-0.00174828 6:-0.219416 7:-0.00737515 8:0.0184523 9:-0.112295 10:0.0194542 11:-0.037011 12:0.0135939 13:-0.05102 14:0 15:-0.0106865 16:0.00605498 17:0 18:0.000616309 19:0.0138395 20:0 21:0 22:0 23:0 24:0 25:0 26:0 27:3 28:0 29:0 30:0 31:0 32:0 33:1 34:0 35:0 
1 1:1 2:0.708054 3:0.107383 4:0.708054 5:-0.0181781 6:-1.52434 7:0.00140932 8:-0.00209975 9:-0.198637 10:-0.00286363 11:0.00732539 12:-0.000129959 13:0.0740517 14:0 15:-0.0106865 16:-0.0060947 17:0 18:-0.0163423 19:0.00404864 20:0 21:0 22:0 23:0 24:1 25:0 26:0 27:1 28:0 29:0 30:0 31:0 32:0 33:0 34:0 35:0 
1 1:0 2:0.603752 3:0.0622704 4:0.603752 5:-0.00118857 6:-0.708276 7:0.00636562 8:-0.0018813 9:-0.05331 10:0.0100219 11:-0.00268771 12:-0.00279944 13:0.0216361 14:0 15:-0.000517298 16:0.00732772 17:0 18:0.0212899 19:0.000803702 20:0 21:0 22:0 23:0 24:0 25:0 26:0 27:1 28:0 29:0 30:1 31:0 32:0 33:0 34:0 35:0 
1 1:1 2:-0.0391872 3:-0.165457 4:-0.0391872 5:0.0106812 6:0.273874 7:-0.0196727 8:-0.00630459 9:0.0351038 10:0.00180655 11:-0.00268771 12:-0.00279944 13:-0.0182946 14:0 15:-0.00251503 16:-0.0143477 17:1 18:-0.00333245 19:0.0138395 20:0 21:0 22:0 23:0 24:2 25:0 26:0 27:0 28:0 29:0 30:0 31:0 32:0 33:0 34:0 35:0 
1 1:0 2:0.19478 3:0.0267346 4:0.19478 5:0.00115378 6:-0.500876 7:-0.0196727 8:-0.00209975 9:-0.0435362 10:0.0100219 11:0.0141877 12:0.0221073 13:-0.0434515 14:0 15:-0.00530999 16:-0.00483205 17:0 18:0.0195012 19:-0.00601379 20:1 21:0 22:0 23:0 24:0 25:0 26:0 27:0 28:0 29:0 30:0 31:0 32:0 33:2 34:0 35:0 
1 1:0 2:0.0283019 3:-0.132075 4:0.0283019 5:-0.00118857 6:-0.0929309 7:0.00857851 8:-0.00209975 9:-0.013559 10:0.00180655 11:0.00232889 12:-0.0117779 13:-0.00649076 14:0 15:0.0048917 16:-0.00124075 17:0 18:-0.0137602 19:0.0138395 20:0 21:0 22:0 23:0 24:0 25:0 26:0 27:0 28:0 29:0 30:0 31:0 32:0 33:0 34:0 35:1 
1 1:0 2:0.423495 3:0.00580131 4:0.423495 5:-0.00118857 6:-0.413546 7:0.0161474 8:-0.00566043 9:-0.0676171 10:0.0194542 11:-0.00353261 12:-0.0105182 13:0.0426051 14:0 15:-0.00530999 16:0.00471629 17:0 18:-0.00070069 19:0.0138395 20:0 21:0 22:0 23:0 24:0 25:0 26:0 27:1 28:1 29:0 30:0 31:0 32:0 33:0 34:0 35:0 
1 1:0 2:0.122114 3:-0.0117417 4:0.122114 5:-0.00424959 6:-0.0158149 7:0.0105849 8:0.0044492 9:0.0239929 10:-0.00332328 11:-0.00185013 12:0.0221073 13:-0.122152 14:0 15:0.00574903 16:-0.0060947 17:0 18:0.00851251 19:-0.013254 20:0 21:0 22:1 23:0 24:0 25:0 26:0 27:0 28:0 29:0 30:0 31:0 32:0 33:0 34:0 35:0 
1 1:0 2:0.131544 3:-0.0134228 4:0.131544 5:-0.0058672 6:-0.09694 7:0.00636562 8:-0.0025261 9:0.181824 10:0.00890847 11:-0.0122162 12:0.00217649 13:0.0511372 14:0 15:0.00574903 16:0.00471629 17:0 18:-0.00344671 19:0.00220689 20:0 21:0 22:0 23:0 24:0 25:0 26:0 27:0 28:0 29:0 30:1 31:0 32:1 33:0 34:0 35:0 
1 1:0 2:0.204826 3:0.0317834 4:0.204826 5:-0.00573529 6:-0.196246 7:0.0105849 8:0.00111369 9:-0.103533 10:-0.00123088 11:-0.00185013 12:-0.0117779 13:-0.0346693 14:0 15:0.0142631 16:0.00605498 17:0 18:0.0221784 19:0.000803702 20:0 21:0 22:0 23:0 24:0 25:0 26:0 27:0 28:1 29:0 30:0 31:0 32:0 33:0 34:0 35:1 
1 1:0 2:0.344954 3:0.0917431 4:0.344954 5:0.0437735 6:-0.0877561 7:-0.00516551 8:0.0184523 9:0.234539 10:0.0100219 11:-0.00198275 12:0.00217649 13:-0.120291 14:0 15:-0.00036086 16:-0.00360034 17:0 18:0.00876957 19:-0.0057122 20:0 21:0 22:0 23:0 24:0 25:0 26:0 27:0 28:0 29:0 30:0 31:0 32:0 33:1 34:0 35:0 
1 1:0 2:0.0888252 3:-0.00573066 4:0.0888252 5:-0.00855852 6:-0.591532 7:-0.0196727 8:-0.00209975 9:0.164385 10:0.0100219 11:-0.00268771 12:0.0135939 13:0.00498933 14:0 15:-0.0106865 16:-0.00483205 17:0 18:-0.022165 19:-0.00405298 20:0 21:0 22:1 23:0 24:0 25:0 26:0 27:0 28:0 29:0 30:0 31:0 32:0 33:0 34:0 35:0 
0.08796985376489075 1:0 2:0.0868367 3:-0.053756 4:0.0868367 5:-0.0102445 6:-0.370612 7:0.0105849 8:0.0100182 9:0.00915632 10:-0.00381029 11:-0.037011 12:-0.00279944 13:0.0403657 14:0 15:-0.00530999 16:0.00605498 17:0 18:-0.00432232 19:0.00272342 20:0 21:0 22:0 23:0 24:0 25:0 26:0 27:0 28:0 29:0 30:0 31:0 32:0 33:0 34:0 35:0 
1 1:0 2:0.084014 3:-0.0303384 4:0.084014 5:-0.0102445 6:-0.00767833 7:-0.0196727 8:-0.0025261 9:0.187893 10:-0.00123088 11:-0.00268771 12:-0.000129959 13:0.0216874 14:0 15:0.00646052 16:-0.00479611 17:0 18:0.00170263 19:-0.00207511 20:0 21:0 22:0 23:0 24:0 25:0 26:0 27:0 28:0 29:0 30:0 31:0 32:0 33:0 34:0 35:0 
1 1:0 2:0.23011 3:0.0416157 4:0.23011 5:-0.00118857 6:-0.152021 7:0.00636562 8:-0.00566043 9:0.00420398 10:-0.00332328 11:-0.037011 12:7.55969e-005 13:0.0788089 14:0 15:0.00574903 16:-0.0060947 17:0 18:-0.0171824 19:0.00404864 20:0 21:0 22:0 23:0 24:0 25:0 26:0 27:0 28:0 29:0 30:0 31:0 32:0 33:0 34:0 35:0 
