svm_type c_svc
kernel_type rbf
gamma 0.0285714
nr_class 2
total_sv 449
rho -1.43347
label 1 -1
nr_sv 221 228
SV
1 1:0 2:0.249364 3:0.0559796 4:0.249364 5:0.0106812 6:-1.12757 7:0.000868714 8:0.0100182 9:0.150909 10:-0.00123088 11:0.00388373 12:-0.000129959 13:-0.0392932 14:0 15:-0.0106865 16:-0.00360034 17:0 18:-0.012171 19:-0.00405298 20:0 21:0 22:1 23:0 24:1 25:0 26:1 27:0 28:0 29:1 30:0 31:0 32:0 33:0 34:0 35:0 
1 1:0 2:0.327577 3:0.0835655 4:0.327577 5:-0.00644929 6:-0.528245 7:-0.00737515 8:-0.00209975 9:0.0979853 10:-0.00286363 11:0.00732539 12:-0.00347617 13:-0.0306331 14:0 15:0.0048917 16:-0.00360034 17:0 18:-0.00024647 19:-0.000837017 20:0 21:0 22:0 23:0 24:0 25:0 26:1 27:0 28:1 29:0 30:0 31:0 32:0 33:0 34:0 35:0 
1 1:1 2:0.0889571 3:-0.0122699 4:0.0889571 5:0.0129942 6:-0.100696 7:0.0105849 8:0.0100182 9:0.195835 10:-0.00273061 11:-0.00148109 12:-0.00109699 13:-0.00530862 14:0 15:0.0121562 16:-0.00124075 17:1 18:0.00595642 19:-0.00601379 20:0 21:0 22:0 23:1 24:1 25:0 26:1 27:0 28:0 29:0 30:0 31:0 32:0 33:1 34:0 35:0 
1 1:0 2:0.0994764 3:-0.0837696 4:0.0994764 5:-0.00118857 6:-0.136446 7:0.0137208 8:-0.00209975 9:-0.0199517 10:-0.000710021 11:-0.00737899 12:-0.0117779 13:0.0861795 14:1 15:0.00331034 16:0.00732772 17:0 18:-0.0214928 19:-0.000837017 20:0 21:0 22:0 23:0 24:0 25:0 26:1 27:0 28:0 29:0 30:0 31:0 32:0 33:0 34:0 35:0 
1 1:0 2:0.236287 3:0.0168776 4:0.236287 5:0.0106812 6:-0.49956 7:-0.00737515 8:0.0101539 9:-0.552482 10:0.00128145 11:0.00357244 12:-0.000334465 13:0.0815805 14:0 15:-7.70143e-005 16:-0.00360034 17:0 18:-0.0251619 19:0.000803702 20:0 21:0 22:0 23:0 24:0 25:0 26:1 27:0 28:0 29:0 30:0 31:0 32:0 33:0 34:0 35:0 
1 1:0 2:0.176701 3:-0.039093 4:0.176701 5:0.0130167 6:-0.226755 7:-0.00516551 8:-0.000155678 9:-0.102146 10:-0.00286363 11:0.025567 12:-0.000129959 13:-0.116331 14:0 15:0.0048917 16:0.00732772 17:0 18:0.00127494 19:0.000369551 20:0 21:0 22:0 23:0 24:1 25:0 26:1 27:1 28:0 29:0 30:0 31:0 32:0 33:0 34:0 35:0 
1 1:0 2:0.0312989 3:-0.0688576 4:0.0312989 5:-0.0102445 6:0.338662 7:-0.013301 8:-0.00332417 9:0.700782 10:-0.00273061 11:-0.00182434 12:0.0221073 13:0.222358 14:0 15:0.0121562 16:0.00471629 17:0 18:0.00328877 19:0.0138395 20:0 21:1 22:0 23:0 24:0 25:0 26:1 27:0 28:0 29:0 30:0 31:0 32:0 33:0 34:0 35:0 
1 1:0 2:0.122867 3:-0.0204778 4:0.122867 5:-0.00855676 6:-0.141105 7:-0.000966364 8:-0.00332417 9:-0.0723454 10:0.0037796 11:-0.0122162 12:-0.0117779 13:-0.0865013 14:0 15:-0.00492854 16:0.00732772 17:0 18:0.000511509 19:0.00220689 20:0 21:0 22:0 23:0 24:1 25:0 26:1 27:0 28:0 29:1 30:0 31:0 32:0 33:0 34:0 35:0 
1 1:0 2:0.0868367 3:-0.053756 4:0.0868367 5:-0.0181781 6:-0.159714 7:-0.0196727 8:0.00263785 9:-0.163279 10:-0.00270045 11:-0.0122162 12:0.0135939 13:-0.0237314 14:0 15:0.0121562 16:0.00443894 17:0 18:-0.0156698 19:0.0138395 20:0 21:0 22:0 23:0 24:0 25:0 26:1 27:0 28:0 29:0 30:0 31:0 32:0 33:0 34:0 35:0 
1 1:0 2:0.492661 3:0.0550459 4:0.492661 5:0.00737457 6:-0.427663 7:-0.000665361 8:-0.00459058 9:-0.196428 10:-0.00733484 11:0.00388373 12:0.00677998 13:-0.0397735 14:0 15:-0.00251503 16:0.00605498 17:0 18:0.00285923 19:-0.00671981 20:0 21:0 22:0 23:0 24:0 25:0 26:1 27:0 28:0 29:0 30:0 31:0 32:0 33:0 34:0 35:0 
1 1:0 2:0.159806 3:0.00622622 4:0.159806 5:-0.0146811 6:-0.0645486 7:0.00305708 8:0.00263785 9:0.0463832 10:-0.00325732 11:-0.0122162 12:0.0135939 13:-0.0108585 14:0 15:-0.00036086 16:0.00605498 17:0 18:0.00864451 19:0.000803702 20:0 21:0 22:0 23:0 24:0 25:0 26:1 27:0 28:0 29:0 30:0 31:0 32:0 33:0 34:0 35:0 
1 1:0 2:0.29259 3:0.0721976 4:0.29259 5:0.00197725 6:0.0515256 7:0.00857851 8:0.0100182 9:0.213018 10:0.0037796 11:-0.00185013 12:7.55969e-005 13:-0.0744951 14:1 15:0.00574903 16:-0.00196836 17:0 18:-0.00922828 19:0.000369551 20:0 21:0 22:0 23:0 24:1 25:0 26:1 27:0 28:0 29:0 30:0 31:0 32:0 33:0 34:0 35:0 
1 1:0 2:0.202271 3:-0.0383251 4:0.202271 5:0.00197725 6:-0.186754 7:-0.00166005 8:0.000578213 9:-0.104152 10:0.00128145 11:0.00732539 12:-0.00317909 13:-0.0539615 14:1 15:0.0142631 16:0.000647573 17:0 18:-0.00968334 19:0.00220689 20:0 21:0 22:0 23:0 24:0 25:0 26:1 27:0 28:1 29:0 30:0 31:0 32:0 33:0 34:0 35:0 
1 1:0 2:0.412979 3:0.0557194 4:0.412979 5:0.00115378 6:-0.193943 7:0.00636562 8:-0.00566043 9:-0.0504686 10:-0.00332328 11:0.00732539 12:0.0135939 13:-0.0499595 14:0 15:-0.00790929 16:-0.00360034 17:0 18:0.0106455 19:0.00272342 20:0 21:0 22:0 23:0 24:0 25:0 26:1 27:0 28:1 29:0 30:1 31:0 32:0 33:0 34:0 35:0 
1 1:0 2:0.181818 3:0.0189959 4:0.181818 5:-0.00424959 6:-0.15042 7:0.00636562 8:-0.00566043 9:-0.212611 10:-0.00733484 11:0.0136848 12:0.00218961 13:-0.107124 14:0 15:-0.000517298 16:0.00443894 17:0 18:0.0124728 19:0.000803702 20:0 21:0 22:0 23:0 24:1 25:0 26:1 27:0 28:0 29:0 30:0 31:0 32:0 33:0 34:0 35:0 
1 1:0 2:0.23796 3:0.0509915 4:0.23796 5:0.0129942 6:-0.42238 7:0.000868714 8:0.000253862 9:-0.184971 10:-0.00733484 11:0.025567 12:-0.0117779 13:-0.0269524 14:0 15:-7.70143e-005 16:0.00471629 17:0 18:-0.00946101 19:-0.013254 20:0 21:0 22:0 23:0 24:0 25:0 26:1 27:0 28:1 29:0 30:0 31:1 32:1 33:0 34:0 35:0 
1 1:0 2:0.206235 3:0.0335731 4:0.206235 5:-0.0058672 6:-0.0298809 7:-0.00347661 8:0.0184523 9:-0.0396249 10:-0.00273061 11:0.0136848 12:0.00677998 13:0.0316783 14:0 15:-0.00349054 16:-0.00347876 17:0 18:-0.00335486 19:-0.0057122 20:0 21:0 22:0 23:0 24:0 25:0 26:1 27:0 28:0 29:0 30:1 31:0 32:0 33:0 34:0 35:0 
1 1:0 2:0.183972 3:0.0209059 4:0.183972 5:0.00737457 6:-0.226469 7:-0.00347661 8:0.0100182 9:0.0872678 10:-0.00381029 11:0.00388373 12:-0.00279944 13:-0.0011964 14:0 15:-0.00036086 16:-0.00347876 17:0 18:0.000549604 19:-0.00671981 20:0 21:0 22:0 23:1 24:0 25:0 26:1 27:0 28:0 29:0 30:0 31:0 32:0 33:0 34:0 35:0 
1 1:0 2:0.2 3:-6.93889e-018 4:0.2 5:-0.00855676 6:-0.16105 7:0.0161474 8:0.00111369 9:0.00594045 10:0.0194542 11:0.00357244 12:0.0135939 13:0.027769 14:0 15:0.00574903 16:-0.00483205 17:0 18:0.0159763 19:0.000803702 20:0 21:0 22:0 23:1 24:0 25:0 26:1 27:0 28:0 29:0 30:0 31:0 32:0 33:0 34:0 35:0 
1 1:0 2:0.136406 3:-0.00560573 4:0.136406 5:0.0130167 6:-0.129545 7:-0.0196727 8:-0.00209975 9:0.190134 10:-0.000710021 11:-0.00198275 12:-0.00317909 13:-0.0402016 14:0 15:0.00331034 16:0.00471629 17:0 18:-0.0109794 19:0.000347898 20:0 21:0 22:0 23:0 24:0 25:0 26:1 27:1 28:0 29:0 30:0 31:0 32:0 33:0 34:0 35:0 
1 1:0 2:0.11782 3:-0.0530191 4:0.11782 5:-0.0102445 6:-0.103816 7:0.00857851 8:-0.00209975 9:-0.0163067 10:-0.000769924 11:0.0141877 12:0.0221073 13:0.00929318 14:0 15:-0.0106865 16:-0.00293144 17:0 18:0.0125899 19:-0.00405298 20:0 21:0 22:1 23:1 24:0 25:0 26:1 27:0 28:0 29:0 30:0 31:0 32:0 33:0 34:0 35:0 
1 1:0 2:0.191126 3:-0.00455063 4:0.191126 5:0.0437735 6:-0.289365 7:-0.00680823 8:0.000578213 9:-0.0643487 10:-0.00325732 11:-0.0122162 12:7.55969e-005 13:0.0706762 14:0 15:0.0121562 16:-0.00360034 17:0 18:-0.0111678 19:0.000803702 20:0 21:1 22:0 23:0 24:0 25:0 26:1 27:0 28:0 29:0 30:0 31:0 32:0 33:0 34:0 35:0 
1 1:0 2:0.121302 3:-0.0872526 4:0.121302 5:0.00737457 6:-0.178383 7:0.00140932 8:-0.0025261 9:-0.129475 10:0.0194542 11:-0.00268771 12:0.0135939 13:0.00931231 14:1 15:-0.00251503 16:0.0289366 17:0 18:-0.015382 19:0.00276726 20:0 21:0 22:0 23:0 24:0 25:0 26:1 27:0 28:0 29:0 30:0 31:0 32:0 33:0 34:0 35:0 
1 1:0 2:0.181818 3:0.0189959 4:0.181818 5:0.00737457 6:-0.132282 7:0.00305708 8:0.0101539 9:0.0224195 10:-0.00270045 11:0.00732539 12:0.0135939 13:-0.0143877 14:0 15:-0.00790929 16:0.00443894 17:0 18:0.000469683 19:-0.00601379 20:0 21:0 22:0 23:0 24:0 25:0 26:1 27:0 28:0 29:0 30:0 31:0 32:0 33:1 34:0 35:0 
1 1:0 2:0.328484 3:0.00918836 4:0.328484 5:-0.0102445 6:-0.221654 7:-0.00347661 8:0.0100182 9:0.199694 10:0.00890847 11:-0.00268771 12:0.0135939 13:0.0758191 14:0 15:0.000310067 16:0.00443894 17:0 18:0.00599272 19:0.00623806 20:0 21:0 22:0 23:0 24:0 25:0 26:1 27:0 28:0 29:0 30:0 31:0 32:0 33:0 34:0 35:0 
1 1:0 2:0.0631229 3:-0.0199336 4:0.0631229 5:0.0129942 6:-0.05961 7:0.000868714 8:-0.00209975 9:-0.0651175 10:-0.00733484 11:0.0141877 12:-0.00279944 13:-0.0172306 14:0 15:-0.00251503 16:-0.00360034 17:0 18:0.0132862 19:-0.00671981 20:0 21:0 22:1 23:0 24:1 25:0 26:1 27:0 28:0 29:0 30:0 31:0 32:0 33:0 34:0 35:0 
1 1:0 2:0.120235 3:0.0175953 4:0.120235 5:0.0106812 6:-0.0293391 7:0.00636562 8:-0.0102524 9:0.0861601 10:-0.00123088 11:-0.037011 12:-0.00279944 13:0.000773288 14:0 15:-0.00036086 16:-0.00360034 17:0 18:0.0176976 19:0.000803702 20:0 21:0 22:1 23:0 24:0 25:0 26:1 27:0 28:0 29:0 30:1 31:0 32:0 33:0 34:0 35:0 
1 1:0 2:0.165449 3:-0.0598007 4:0.165449 5:-0.00174828 6:-0.290864 7:0.00140932 8:0.0101539 9:-0.264114 10:0.0194542 11:0.00732539 12:0.0135939 13:0.0510521 14:1 15:-0.00251503 16:0.0289366 17:0 18:-0.0197333 19:0.000347898 20:1 21:0 22:0 23:0 24:0 25:0 26:1 27:0 28:0 29:0 30:0 31:0 32:0 33:0 34:0 35:0 
1 1:0 2:0.334328 3:0.0597015 4:0.334328 5:-0.0102445 6:-0.033214 7:-0.00737515 8:0.0184523 9:0.065405 10:0.0037796 11:0.0136848 12:7.55969e-005 13:-0.0386336 14:0 15:-0.00530999 16:-0.00293144 17:0 18:-0.00870423 19:0.00272342 20:0 21:0 22:1 23:0 24:0 25:0 26:1 27:0 28:0 29:0 30:0 31:0 32:0 33:0 34:0 35:0 
1 1:0 2:0.0285714 3:-0.0408163 4:0.0285714 5:-0.00118857 6:-0.0318647 7:0.00857851 8:-0.0025261 9:0.0907975 10:0.0037796 11:0.0136848 12:-0.00255595 13:-0.00197383 14:0 15:-0.00492854 16:-0.00293144 17:0 18:0.00526777 19:0.00276726 20:0 21:0 22:1 23:0 24:0 25:0 26:1 27:0 28:0 29:1 30:0 31:0 32:0 33:0 34:0 35:0 
1 1:0 2:0.206235 3:0.0335731 4:0.206235 5:-0.0181781 6:-0.118133 7:-0.00174313 8:0.00263785 9:0.131145 10:-0.00381029 11:0.0141877 12:-0.00109699 13:-0.17356 14:0 15:0.00646052 16:-0.00293144 17:0 18:0.0202844 19:0.00958784 20:0 21:0 22:0 23:0 24:0 25:0 26:1 27:0 28:0 29:0 30:0 31:0 32:0 33:1 34:0 35:0 
1 1:1 2:0.118372 3:-0.0221948 4:0.118372 5:-0.00174828 6:0.0145676 7:0.00636562 8:-0.00459058 9:-0.0698259 10:-0.00332328 11:-0.00480468 12:0.00677998 13:-0.103179 14:0 15:-7.70143e-005 16:0.00605498 17:1 18:0.0101177 19:0.00272342 20:0 21:0 22:0 23:1 24:0 25:0 26:1 27:0 28:1 29:0 30:0 31:0 32:0 33:0 34:0 35:0 
1 1:1 2:0.0935193 3:-0.0442986 4:0.0935193 5:-0.00855676 6:-0.364104 7:-0.00737515 8:-0.00624256 9:-0.295417 10:-0.00733484 11:0.025567 12:-0.00223244 13:0.0328401 14:0 15:-0.00790929 16:-0.0143477 17:0 18:-0.0165762 19:0.00272342 20:0 21:0 22:0 23:0 24:1 25:0 26:1 27:0 28:1 29:0 30:0 31:0 32:0 33:0 34:1 35:0 
1 1:0 2:0.124886 3:-0.0603843 4:0.124886 5:0.0129942 6:-0.154488 7:0.00636562 8:-0.00459058 9:-0.446865 10:-0.00332328 11:0.00699454 12:-0.000874371 13:0.121897 14:0 15:0.0012351 16:0.000647573 17:0 18:-0.0194009 19:-0.00553567 20:0 21:0 22:0 23:0 24:0 25:0 26:1 27:0 28:1 29:0 30:0 31:0 32:0 33:0 34:0 35:0 
1 1:0 2:0.185039 3:-0.00787402 4:0.185039 5:-0.0146811 6:-0.0297268 7:0.0137208 8:-0.0025261 9:0.434305 10:0.0100219 11:-0.0122162 12:0.00218961 13:0.0218495 14:0 15:-0.00492854 16:0.0289366 17:0 18:0.00451087 19:0.00958784 20:0 21:0 22:1 23:0 24:0 25:0 26:1 27:0 28:0 29:0 30:0 31:0 32:0 33:0 34:0 35:0 
0.6351758488111262 1:1 2:0.112676 3:-0.056338 4:0.112676 5:-0.0102445 6:-0.083219 7:-0.00737515 8:0.0100182 9:0.0494212 10:0.00890847 11:0.0136848 12:-0.00223244 13:-0.126525 14:0 15:-0.0106865 16:0.0289366 17:1 18:0.0115465 19:-0.013254 20:0 21:0 22:1 23:0 24:0 25:0 26:1 27:0 28:0 29:0 30:0 31:0 32:0 33:0 34:0 35:0 
1 1:0 2:0.0428912 3:-0.138205 4:0.0428912 5:0.0129942 6:-0.117499 7:-0.013301 8:-0.00209975 9:-0.233564 10:0.0194542 11:0.0141877 12:0.0135939 13:0.228184 14:0 15:0.0121562 16:0.0289366 17:0 18:-0.00897199 19:0.000803702 20:0 21:0 22:0 23:0 24:0 25:0 26:1 27:0 28:0 29:0 30:0 31:0 32:0 33:0 34:0 35:0 
1 1:0 2:0.326923 3:0.0384615 4:0.326923 5:-0.0181781 6:-0.229128 7:0.00857851 8:-0.00459058 9:-0.0310075 10:-0.00332328 11:-0.000258585 12:0.0135939 13:-0.0244606 14:1 15:-0.000517298 16:-0.00479611 17:0 18:0.00341715 19:-0.00671981 20:0 21:0 22:0 23:0 24:0 25:0 26:1 27:0 28:0 29:0 30:0 31:0 32:0 33:0 34:0 35:0 
1 1:1 2:0.0945559 3:-0.00573066 4:0.0945559 5:-0.0102445 6:-0.264434 7:-0.00347661 8:-0.000155678 9:-0.0916849 10:0.0100219 11:-0.00268771 12:-0.0117779 13:0.0723179 14:0 15:0.0048917 16:0.00605498 17:0 18:-0.0145195 19:0.00276726 20:0 21:0 22:1 23:0 24:0 25:0 26:1 27:0 28:0 29:0 30:0 31:0 32:0 33:0 34:0 35:1 
1 1:0 2:0.0046729 3:-0.0560748 4:0.0046729 5:-0.0058672 6:-0.0335474 7:-0.00166005 8:0.0100182 9:0.178105 10:-0.00273061 11:0.0136848 12:-0.00317909 13:-0.0170005 14:0 15:-0.00349054 16:0.0289366 17:0 18:0.0137883 19:0.00958784 20:0 21:0 22:1 23:0 24:0 25:0 26:1 27:0 28:0 29:0 30:0 31:0 32:0 33:1 34:0 35:0 
1 1:1 2:0.130573 3:0.0254777 4:0.130573 5:0.00737457 6:-0.195707 7:-0.013301 8:0.0184523 9:-0.128761 10:0.0100219 11:0.0141877 12:-0.00255595 13:-0.0234035 14:0 15:-0.000517298 16:-0.00382903 17:0 18:0.0176694 19:-0.00207511 20:0 21:0 22:1 23:1 24:1 25:0 26:1 27:0 28:0 29:0 30:0 31:0 32:0 33:0 34:0 35:0 
1 1:0 2:0.1 3:0 4:0.1 5:0.00197725 6:-0.00772989 7:-0.00166005 8:-0.0025261 9:0.39262 10:0.00128145 11:0.025567 12:-0.0117779 13:0.0487293 14:1 15:0.0121562 16:-0.00347876 17:0 18:-0.00121505 19:-0.013254 20:0 21:0 22:0 23:0 24:0 25:0 26:1 27:0 28:0 29:0 30:0 31:0 32:0 33:0 34:0 35:0 
0.05939814084945058 1:1 2:0.327577 3:0.0835655 4:0.327577 5:0.0437735 6:-0.326998 7:-0.00737515 8:-0.00363048 9:-0.143518 10:-0.00381029 11:0.0136848 12:0.0135939 13:-0.137106 14:0 15:-0.00036086 16:-0.0060947 17:1 18:0.0199317 19:-0.0057122 20:0 21:0 22:0 23:0 24:0 25:0 26:1 27:0 28:0 29:0 30:0 31:0 32:0 33:0 34:0 35:0 
1 1:1 2:0.209413 3:0.0222105 4:0.209413 5:-0.0181781 6:-0.047262 7:-0.00516551 8:0.00111369 9:0.106279 10:-0.0025074 11:0.025567 12:-0.00571812 13:-0.0130867 14:0 15:-0.00251503 16:-0.0042043 17:0 18:0.0024445 19:-0.00175629 20:0 21:0 22:0 23:1 24:0 25:0 26:1 27:0 28:0 29:0 30:0 31:0 32:0 33:0 34:0 35:0 
1 1:0 2:0.294521 3:0.0410959 4:0.294521 5:-0.0181781 6:-0.248784 7:-0.00347661 8:0.0100182 9:-0.296972 10:0.00890847 11:0.0136848 12:0.0135939 13:0.144008 14:0 15:-0.00790929 16:0.0289366 17:0 18:-0.00451653 19:-0.013254 20:0 21:1 22:0 23:1 24:0 25:0 26:1 27:0 28:0 29:0 30:0 31:0 32:0 33:0 34:0 35:0 
1 1:1 2:0.351792 3:0.0325733 4:0.351792 5:-0.0102445 6:-0.181973 7:-0.000665361 8:0.0184523 9:0.0830566 10:-0.00325732 11:-0.0122162 12:-0.0105182 13:0.0314322 14:0 15:-0.00492854 16:-0.00196836 17:0 18:0.0103729 19:0.00958784 20:0 21:0 22:1 23:0 24:0 25:0 26:1 27:0 28:0 29:0 30:0 31:0 32:0 33:0 34:0 35:0 
1 1:0 2:0.260983 3:0.0548064 4:0.260983 5:-0.0058672 6:-0.0145637 7:0.0161474 8:-0.0018813 9:0.565931 10:-0.00335283 11:0.00232889 12:0.00677998 13:0.0861047 14:0 15:-0.00343388 16:0.00471629 17:0 18:0.00932554 19:0.000803702 20:0 21:0 22:0 23:0 24:0 25:0 26:1 27:0 28:0 29:1 30:0 31:0 32:0 33:0 34:0 35:0 
1 1:1 2:0.479428 3:0.078712 4:0.479428 5:-0.00855676 6:-0.151199 7:0.00636562 8:0.0044492 9:0.587011 10:-0.00286363 11:0.0136848 12:-0.000129959 13:0.0866299 14:0 15:-0.000517298 16:-0.00196836 17:1 18:-0.00567433 19:-0.013254 20:0 21:0 22:0 23:1 24:0 25:0 26:1 27:0 28:0 29:0 30:0 31:0 32:0 33:0 34:0 35:0 
1 1:0 2:0.0945559 3:-0.00573066 4:0.0945559 5:-0.00573529 6:-0.10889 7:0.0137208 8:0.0044492 9:-0.0294407 10:-0.00270045 11:0.00732539 12:-0.00279944 13:-0.0613627 14:0 15:-0.0106865 16:0.00605498 17:0 18:-0.00544936 19:-0.0057122 20:0 21:0 22:0 23:0 24:0 25:0 26:1 27:0 28:0 29:0 30:0 31:0 32:0 33:0 34:0 35:0 
1 1:0 2:0.352668 3:0.0649652 4:0.352668 5:0.00737457 6:-0.754821 7:0.0161474 8:0.00263785 9:-0.0917176 10:-0.00381029 11:-0.00737899 12:0.00218961 13:-0.025177 14:0 15:-0.000517298 16:0.00443894 17:0 18:0.0234744 19:-0.00207511 20:0 21:1 22:0 23:0 24:0 25:0 26:1 27:0 28:0 29:0 30:0 31:0 32:0 33:0 34:0 35:0 
1 1:0 2:0.248128 3:0.0213904 4:0.248128 5:0.00197725 6:-0.373755 7:0.00636562 8:-0.0102524 9:-0.027473 10:0.00128145 11:0.00699454 12:-0.0117779 13:-0.000445088 14:1 15:-0.00530999 16:-0.0143477 17:1 18:-0.00436153 19:-0.00601379 20:0 21:1 22:0 23:0 24:1 25:0 26:1 27:0 28:0 29:0 30:0 31:0 32:0 33:1 34:0 35:0 
1 1:1 2:0.0527704 3:0.00527704 4:0.0527704 5:-0.00855676 6:-0.101866 7:0.0137208 8:-0.0102524 9:-0.0888626 10:0.00890847 11:-0.00480468 12:-0.00279944 13:-0.0717341 14:0 15:-0.00790929 16:-0.00196836 17:1 18:0.0115308 19:-0.0057122 20:0 21:0 22:0 23:0 24:0 25:0 26:1 27:0 28:0 29:0 30:0 31:0 32:0 33:0 34:0 35:0 
1 1:0 2:0.118403 3:-0.024782 4:0.118403 5:-0.0102445 6:-0.161997 7:-0.0196727 8:0.0100182 9:0.107124 10:0.0100219 11:-0.00268771 12:0.00217649 13:-0.0244679 14:1 15:0.0048917 16:0.000647573 17:0 18:-0.00944629 19:0.000803702 20:0 21:0 22:0 23:1 24:0 25:0 26:1 27:0 28:0 29:0 30:0 31:1 32:0 33:0 34:0 35:0 
1 1:1 2:0.183735 3:-0.0335517 4:0.183735 5:-0.00118857 6:-0.244167 7:-0.00347661 8:0.0100182 9:0.0463244 10:-0.00335283 11:-0.000258585 12:-0.00109699 13:0.0201403 14:0 15:0.0142631 16:0.0289366 17:1 18:-0.00222379 19:0.000421736 20:0 21:0 22:0 23:0 24:0 25:0 26:1 27:0 28:0 29:0 30:0 31:0 32:0 33:0 34:0 35:0 
1 1:1 2:0.167598 3:0.0111732 4:0.167598 5:-0.0146811 6:-0.273511 7:-0.00680823 8:-0.0102524 9:-0.287377 10:0.00128145 11:-0.00268771 12:0.00218961 13:0.175757 14:0 15:-0.000517298 16:0.00605498 17:1 18:-0.0230158 19:0.000369551 20:0 21:0 22:1 23:0 24:0 25:0 26:1 27:0 28:0 29:0 30:0 31:0 32:0 33:0 34:0 35:0 
1 1:0 2:0.145436 3:-0.00309438 4:0.145436 5:-0.0181781 6:-0.279641 7:-0.00737515 8:-0.000155678 9:-0.224947 10:0.00890847 11:-0.00185013 12:0.00155162 13:0.0461082 14:0 15:0.00331034 16:0.00471629 17:0 18:0.000249016 19:-0.00405298 20:0 21:0 22:1 23:0 24:0 25:0 26:1 27:0 28:0 29:0 30:0 31:0 32:0 33:0 34:0 35:0 
1 1:0 2:0.213239 3:0.0346513 4:0.213239 5:0.0130167 6:-0.585456 7:-0.00347661 8:0.0100182 9:0.123184 10:-0.00332328 11:-0.00480468 12:-0.00255595 13:-0.0989622 14:0 15:0.00574903 16:-0.00124075 17:1 18:-0.00106739 19:-0.000837017 20:0 21:0 22:0 23:1 24:0 25:0 26:1 27:1 28:0 29:0 30:0 31:0 32:0 33:0 34:0 35:0 
1 1:0 2:0.0759494 3:-0.0759494 4:0.0759494 5:-0.0102445 6:-0.0860018 7:0.00305708 8:-0.0025261 9:-0.0282208 10:0.0194542 11:0.00357244 12:0.00677998 13:0.0263639 14:0 15:0.0121562 16:0.00252779 17:1 18:-0.00248711 19:0.00958784 20:0 21:0 22:0 23:0 24:0 25:0 26:1 27:0 28:0 29:0 30:0 31:0 32:0 33:0 34:0 35:0 
1 1:0 2:0.254658 3:0.0248447 4:0.254658 5:0.00197725 6:-0.334999 7:0.0137208 8:0.0100182 9:-0.228333 10:0.00128145 11:-0.00268771 12:0.0135939 13:-0.0470424 14:1 15:-0.00790929 16:-0.0060947 17:0 18:-0.00579923 19:-0.00671981 20:0 21:0 22:0 23:0 24:0 25:0 26:1 27:0 28:0 29:0 30:0 31:0 32:0 33:0 34:0 35:0 
1 1:1 2:0.248397 3:0.0524781 4:0.248397 5:0.0437735 6:-0.100465 7:0.000933507 8:-0.0025261 9:0.0723201 10:0.0037796 11:0.00699454 12:0.00677998 13:0.124572 14:0 15:-0.000517298 16:-0.00382903 17:0 18:0.0104175 19:0.000369551 20:0 21:0 22:0 23:0 24:0 25:0 26:2 27:0 28:0 29:0 30:0 31:0 32:0 33:0 34:0 35:0 
1 1:0 2:0.172414 3:-0.0153257 4:0.172414 5:0.0129942 6:-0.124563 7:-0.0196727 8:0.000578213 9:0.192064 10:-0.00273061 11:-0.0122162 12:0.00155162 13:0.00478504 14:0 15:0.00574903 16:-0.00483205 17:0 18:0.0146919 19:0.00958784 20:0 21:0 22:0 23:0 24:0 25:0 26:1 27:0 28:0 29:0 30:0 31:1 32:0 33:0 34:0 35:1 
0.3282002630018531 1:1 2:0.0830565 3:-0.0199336 4:0.0830565 5:-0.0102445 6:-0.0811729 7:0.00857851 8:0.0044492 9:0.806405 10:0.0037796 11:0.00732539 12:-0.0105182 13:0.172406 14:0 15:0.0142631 16:-0.0060947 17:0 18:0.0115906 19:-0.013254 20:0 21:0 22:0 23:0 24:0 25:0 26:1 27:0 28:0 29:0 30:0 31:0 32:0 33:0 34:0 35:2 
1 1:1 2:0.131544 3:-0.0134228 4:0.131544 5:0.0129942 6:-0.192168 7:0.00636562 8:0.0044492 9:0.0827477 10:-0.00325732 11:-0.037011 12:-0.0117779 13:0.0133269 14:0 15:-0.00349054 16:0.00471629 17:0 18:-0.0107944 19:-0.000837017 20:0 21:0 22:0 23:0 24:0 25:0 26:1 27:0 28:1 29:0 30:0 31:0 32:0 33:0 34:0 35:0 
0.7797912104893408 1:1 2:0.392308 3:0.0769231 4:0.392308 5:-0.0102445 6:-0.56129 7:0.00857851 8:-0.00624256 9:-0.295594 10:-0.00335283 11:0.0141877 12:-0.00109699 13:0.109752 14:0 15:-0.00343388 16:0.00443894 17:0 18:-0.0163128 19:0.00276726 20:0 21:0 22:0 23:0 24:0 25:0 26:1 27:0 28:1 29:0 30:0 31:0 32:0 33:0 34:0 35:0 
0.6960588758881653 1:1 2:0.0535211 3:-0.197183 4:0.0535211 5:-0.00424959 6:-0.187016 7:0.0105849 8:-0.0102524 9:-0.0764039 10:0.00180655 11:0.00732539 12:-0.000129959 13:0.0240751 14:0 15:-0.00790929 16:-0.00483205 17:0 18:0.0118539 19:0.00260239 20:0 21:0 22:0 23:0 24:0 25:0 26:1 27:0 28:1 29:0 30:0 31:0 32:0 33:0 34:0 35:1 
1 1:1 2:0.0868367 3:-0.053756 4:0.0868367 5:0.00737457 6:-0.20485 7:-0.0196727 8:0.0184523 9:-0.102645 10:0.00890847 11:-0.0122162 12:-0.0117779 13:-0.0602827 14:0 15:-0.00530999 16:-0.00360034 17:0 18:0.00621477 19:0.00272342 20:0 21:0 22:1 23:0 24:0 25:0 26:1 27:0 28:1 29:0 30:0 31:0 32:0 33:0 34:0 35:0 
1 1:1 2:0.620618 3:0.085692 4:0.620618 5:0.0129942 6:-0.567285 7:-0.00680823 8:0.000253862 9:0.0168799 10:-0.00335283 11:-0.00268771 12:7.55969e-005 13:-0.0741498 14:0 15:-0.00251503 16:-0.00479611 17:0 18:-0.0188664 19:0.00623806 20:0 21:0 22:0 23:1 24:0 25:0 26:1 27:0 28:0 29:0 30:0 31:0 32:0 33:0 34:0 35:0 
1 1:1 2:0.0721761 3:-0.0974377 4:0.0721761 5:-0.0058672 6:-0.101998 7:-0.00347661 8:-0.00209975 9:-0.0378392 10:0.0194542 11:0.00232889 12:-0.0105182 13:-0.111417 14:0 15:-0.00530999 16:-0.0060947 17:0 18:0.00606982 19:0.000369551 20:0 21:0 22:0 23:0 24:1 25:0 26:1 27:0 28:0 29:0 30:0 31:0 32:0 33:0 34:0 35:0 
1 1:0 2:0.1 3:-6.93889e-018 4:0.1 5:0.0130167 6:-0.0459853 7:0.00140932 8:0.0100182 9:0.0169385 10:-0.00273061 11:0.00732539 12:0.00677998 13:0.0158849 14:0 15:0.00646052 16:0.00252779 17:0 18:-0.00664777 19:0.00958784 20:0 21:0 22:0 23:0 24:0 25:0 26:2 27:1 28:0 29:0 30:0 31:0 32:0 33:0 34:0 35:0 
1 1:1 2:0.0272975 3:-0.158326 4:0.0272975 5:0.0106812 6:-0.0708002 7:0.000933507 8:-0.00209975 9:0.00885422 10:0.0100219 11:0.00232889 12:-0.00109699 13:0.00582392 14:0 15:0.0121562 16:-0.00347876 17:0 18:0.0200128 19:0.0138395 20:0 21:0 22:0 23:0 24:1 25:0 26:1 27:0 28:0 29:0 30:0 31:0 32:0 33:1 34:0 35:0 
1 1:1 2:0.111111 3:-0.0493827 4:0.111111 5:-0.0181781 6:-0.233145 7:0.00305708 8:-0.00332417 9:0.483917 10:0.00128145 11:0.00357244 12:0.0221073 13:0.122376 14:0 15:0.0048917 16:-0.00293144 17:0 18:0.00931452 19:0.0138395 20:0 21:0 22:0 23:0 24:1 25:0 26:1 27:0 28:0 29:0 30:0 31:0 32:0 33:0 34:0 35:0 
1 1:1 2:0.366667 3:0.0666667 4:0.366667 5:-0.0102445 6:-0.214266 7:-0.0196727 8:0.0101539 9:0.328828 10:0.00890847 11:-0.00268771 12:-0.000129959 13:0.308465 14:0 15:0.00574903 16:0.00471629 17:0 18:0.0213457 19:-0.00671981 20:0 21:0 22:0 23:0 24:1 25:0 26:1 27:0 28:0 29:0 30:0 31:0 32:0 33:0 34:0 35:1 
1 1:0 2:0.197641 3:0.0268402 4:0.197641 5:0.00197725 6:0.00644944 7:0.00140932 8:-0.0018813 9:0.843841 10:0.000771071 11:-0.00185013 12:-0.00255595 13:0.109686 14:1 15:-0.00530999 16:-0.00360034 17:0 18:0.0136668 19:0.00404864 20:0 21:0 22:0 23:0 24:1 25:0 26:1 27:0 28:0 29:0 30:0 31:0 32:0 33:0 34:0 35:0 
1 1:0 2:0.315592 3:0.0240706 4:0.315592 5:-0.0102445 6:-0.41776 7:0.0161474 8:0.00111369 9:-0.165466 10:0.0037796 11:0.025567 12:0.0023707 13:-0.00626618 14:1 15:-0.00790929 16:0.00443894 17:0 18:0.00389044 19:0.0138395 20:0 21:0 22:0 23:0 24:0 25:0 26:1 27:0 28:0 29:0 30:0 31:0 32:0 33:0 34:0 35:0 
1 1:0 2:0.124138 3:-0.0188088 4:0.124138 5:0.0106812 6:-0.0834723 7:0.0161474 8:0.000578213 9:0.146907 10:-0.00667065 11:-0.00737899 12:-0.00109699 13:-0.00893259 14:0 15:0.00646052 16:-0.00360034 17:0 18:0.000941442 19:0.000347898 20:0 21:0 22:0 23:0 24:0 25:0 26:1 27:0 28:0 29:0 30:1 31:0 32:0 33:0 34:0 35:0 
1 1:0 2:0.212077 3:0.00589102 4:0.212077 5:-0.00855852 6:-0.276105 7:0.00636562 8:-0.00332417 9:-0.0816492 10:-0.000710021 11:-0.000258585 12:0.00217649 13:0.0588042 14:0 15:-0.00790929 16:0.00605498 17:0 18:-0.00116236 19:0.000369551 20:0 21:0 22:0 23:0 24:0 25:0 26:1 27:0 28:0 29:0 30:2 31:0 32:0 33:0 34:0 35:0 
1 1:0 2:0.124107 3:-0.0203084 4:0.124107 5:0.00197725 6:-0.47727 7:0.000933507 8:0.000578213 9:-0.00757603 10:-0.00381029 11:0.00699454 12:-0.000874371 13:0.033225 14:1 15:-0.00492397 16:0.00471629 17:0 18:0.00256333 19:-0.0057122 20:0 21:0 22:0 23:0 24:0 25:0 26:1 27:0 28:0 29:0 30:0 31:0 32:0 33:0 34:0 35:0 
1 1:1 2:0.780488 3:0.146341 4:0.780488 5:-0.00174828 6:-0.162659 7:0.00636562 8:-0.0018813 9:0.201443 10:-0.0025074 11:0.00388373 12:-0.00109699 13:0.021925 14:0 15:0.00646052 16:-0.0042043 17:0 18:3.37705e-006 19:-0.00175629 20:0 21:0 22:1 23:0 24:0 25:0 26:1 27:0 28:1 29:0 30:0 31:0 32:0 33:0 34:0 35:0 
1 1:1 2:0.344954 3:0.0917431 4:0.344954 5:0.0129942 6:-0.383114 7:-0.000966364 8:-0.0025261 9:0.180981 10:0.00128145 11:-0.00737899 12:-0.00571812 13:0.0467172 14:0 15:0.0121562 16:-0.0143477 17:0 18:0.00022605 19:-0.00601379 20:0 21:0 22:1 23:0 24:0 25:0 26:1 27:0 28:0 29:0 30:0 31:0 32:0 33:1 34:0 35:0 
1 1:0 2:0.29259 3:0.0721976 4:0.29259 5:0.0130167 6:-0.361157 7:-0.00166005 8:-0.0102524 9:0.198124 10:-0.00476114 11:0.0136848 12:-0.00279944 13:-0.119862 14:0 15:0.0048917 16:0.00471629 17:0 18:0.000812418 19:-0.013254 20:0 21:0 22:0 23:0 24:0 25:0 26:1 27:1 28:0 29:0 30:0 31:0 32:0 33:0 34:0 35:0 
1 1:1 2:0.338129 3:0.057554 4:0.338129 5:0.0437735 6:-0.104636 7:0.00857851 8:0.00263785 9:0.450738 10:-0.00273061 11:0.025567 12:0.0135939 13:0.0955796 14:0 15:0.00646052 16:0.00605498 17:0 18:0.0114779 19:-0.00405298 20:0 21:0 22:1 23:1 24:0 25:0 26:1 27:0 28:0 29:0 30:0 31:0 32:0 33:0 34:0 35:0 
1 1:0 2:0.196137 3:0.0267459 4:0.196137 5:-0.00118857 6:-0.232742 7:0.0105849 8:-0.0025261 9:-0.126458 10:-0.00270045 11:0.025567 12:0.0135939 13:-0.0374664 14:0 15:0.0048917 16:0.00605498 17:0 18:-0.00369082 19:0.00958784 20:0 21:0 22:0 23:1 24:0 25:0 26:2 27:0 28:1 29:0 30:0 31:0 32:0 33:0 34:0 35:0 
1 1:0 2:0.1 3:-6.93889e-018 4:0.1 5:-0.00229984 6:0.032053 7:-0.000428978 8:0.00111814 9:0.28917 10:-0.00733484 11:0.0136848 12:0.0135939 13:0.00196389 14:0 15:0.00574903 16:-0.00360034 17:0 18:0.00693222 19:-0.00601379 20:0 21:0 22:0 23:0 24:0 25:0 26:1 27:0 28:0 29:0 30:0 31:0 32:1 33:1 34:0 35:0 
1 1:1 2:0.0683761 3:-0.0797721 4:0.0683761 5:0.0437735 6:-0.127961 7:0.00636562 8:0.00111369 9:-0.214617 10:-0.000769924 11:0.00732539 12:-0.0117779 13:-0.119718 14:1 15:0.0121562 16:-0.0143477 17:0 18:0.0267768 19:-0.00175629 20:0 21:0 22:1 23:0 24:1 25:0 26:1 27:0 28:0 29:0 30:0 31:0 32:0 33:0 34:0 35:0 
1 1:1 2:0.0283019 3:-0.132075 4:0.0283019 5:-0.0102445 6:-0.11166 7:-0.013301 8:-0.00624256 9:-0.0995402 10:0.0194542 11:0.00699454 12:-0.00571812 13:0.0614727 14:0 15:-0.00349054 16:0.00471629 17:0 18:-0.00478414 19:0.0138395 20:0 21:0 22:0 23:0 24:1 25:0 26:1 27:0 28:1 29:0 30:0 31:0 32:0 33:0 34:0 35:0 
1 1:0 2:0.173494 3:0.0144578 4:0.173494 5:-0.00174828 6:-0.156524 7:0.000933507 8:-0.00566043 9:-0.142705 10:-0.00273061 11:0.0141877 12:-0.00109699 13:-0.0183774 14:0 15:-0.00251503 16:0.00443894 17:0 18:0.0115191 19:-0.0057122 20:0 21:0 22:0 23:0 24:0 25:0 26:1 27:0 28:0 29:0 30:0 31:0 32:0 33:0 34:0 35:0 
1 1:0 2:0.334328 3:0.0597015 4:0.334328 5:0.0437735 6:-0.602615 7:-0.00737515 8:0.000578213 9:-0.434269 10:0.0100219 11:0.025567 12:-0.00109699 13:0.0161072 14:0 15:0.00646052 16:0.00605498 17:0 18:0.0107545 19:0.00272342 20:0 21:0 22:0 23:0 24:0 25:0 26:1 27:0 28:0 29:0 30:0 31:0 32:0 33:0 34:1 35:0 
1 1:0 2:0.156556 3:-0.0234834 4:0.156556 5:0.0437735 6:-0.430924 7:-0.00347661 8:0.0100182 9:-0.45816 10:-0.0025074 11:0.0136848 12:0.0221073 13:0.0458753 14:0 15:0.00165974 16:-0.00196836 17:0 18:-0.0100483 19:-0.00175629 20:0 21:0 22:0 23:1 24:0 25:0 26:1 27:0 28:0 29:0 30:1 31:0 32:0 33:0 34:0 35:0 
1 1:0 2:0.312901 3:0.0230828 4:0.312901 5:-0.0058672 6:-0.247763 7:0.00636562 8:0.000578213 9:-0.268114 10:-0.0025074 11:0.00388373 12:0.00217649 13:0.0259142 14:0 15:-0.00251503 16:-0.0042043 17:0 18:-0.0063244 19:-0.00175629 20:0 21:0 22:0 23:1 24:0 25:0 26:1 27:0 28:0 29:0 30:1 31:0 32:0 33:0 34:0 35:0 
1 1:0 2:0.251465 3:0.0513745 4:0.251465 5:-0.0058672 6:-0.616337 7:-0.0196727 8:0.0184523 9:0.0168418 10:-0.00123088 11:-0.0122162 12:0.00677998 13:-0.0392337 14:0 15:-0.00530999 16:-0.00360034 17:0 18:-0.0259636 19:0.00623806 20:0 21:0 22:0 23:0 24:0 25:0 26:1 27:0 28:0 29:0 30:0 31:0 32:0 33:0 34:0 35:0 
1 1:1 2:0.0697248 3:-0.0917431 4:0.0697248 5:-0.00118857 6:-0.0341238 7:0.00857851 8:-0.00209975 9:0.59583 10:0.00890847 11:0.00732539 12:0.0135939 13:0.0392252 14:0 15:0.00646052 16:0.00443894 17:0 18:0.011787 19:-0.00671981 20:0 21:0 22:0 23:0 24:0 25:0 26:1 27:0 28:0 29:0 30:0 31:0 32:0 33:0 34:0 35:1 
1 1:1 2:0.22043 3:0.0860215 4:0.22043 5:0.0106812 6:-0.058343 7:0.0137208 8:0.00263785 9:-0.109075 10:0.00890847 11:0.025567 12:-0.0117779 13:0.118405 14:0 15:0.00646052 16:0.00605498 17:0 18:0.00538218 19:0.00623806 20:0 21:0 22:1 23:0 24:0 25:0 26:1 27:0 28:0 29:0 30:0 31:0 32:0 33:0 34:0 35:0 
1 1:1 2:0.272228 3:0.0307355 4:0.272228 5:-0.00118857 6:-0.201737 7:0.0137208 8:0.000253862 9:0.0946217 10:-0.00332328 11:0.0141877 12:0.00677998 13:0.109906 14:0 15:0.00646052 16:-0.0060947 17:0 18:0.00894825 19:-0.00405298 20:0 21:0 22:1 23:0 24:0 25:0 26:1 27:0 28:0 29:0 30:0 31:0 32:0 33:0 34:0 35:0 
1 1:0 2:0.146082 3:-0.00265604 4:0.146082 5:-0.0102445 6:-0.190926 7:0.0137208 8:-0.0025261 9:-0.0283539 10:0.0037796 11:0.0136848 12:0.0221073 13:0.000251021 14:0 15:-7.70143e-005 16:0.00605498 17:0 18:-0.010162 19:-0.013254 20:0 21:0 22:1 23:0 24:0 25:0 26:1 27:0 28:0 29:0 30:0 31:0 32:0 33:0 34:0 35:0 
1 1:1 2:0.23796 3:0.0509915 4:0.23796 5:-0.0102445 6:-0.105285 7:0.00305708 8:-0.00630459 9:-0.0251548 10:-0.00381029 11:0.00732539 12:0.00155162 13:-0.0861205 14:0 15:-0.00790929 16:0.00605498 17:1 18:0.0248873 19:0.000803702 20:0 21:0 22:0 23:0 24:0 25:0 26:1 27:0 28:0 29:0 30:0 31:0 32:0 33:0 34:0 35:0 
1 1:1 2:0.170355 3:0.0125261 4:0.170355 5:-0.0058672 6:-0.28624 7:0.0161474 8:-0.00363048 9:0.0670358 10:-0.00123088 11:0.025567 12:0.00218961 13:-0.0243807 14:0 15:-0.000517298 16:-0.0060947 17:1 18:0.00955134 19:-0.0057122 20:0 21:0 22:0 23:0 24:0 25:0 26:1 27:0 28:0 29:0 30:0 31:0 32:0 33:0 34:0 35:0 
1 1:1 2:0.112022 3:0.010929 4:0.112022 5:0.00737457 6:-0.238105 7:-0.00347661 8:-0.0025261 9:0.119346 10:0.00128145 11:0.00357244 12:0.0023707 13:0.00772714 14:0 15:-7.70143e-005 16:-0.00360034 17:0 18:-0.0111242 19:-0.00405298 20:0 21:0 22:1 23:0 24:0 25:0 26:1 27:0 28:0 29:0 30:0 31:0 32:0 33:0 34:0 35:0 
1 1:0 2:0.0896191 3:-0.0492905 4:0.0896191 5:0.0437735 6:-0.196445 7:-0.0196727 8:-0.00459058 9:-0.177161 10:-0.00335283 11:0.00732539 12:-0.000334465 13:-0.0493599 14:0 15:-0.000517298 16:-0.0060947 17:0 18:0.00728381 19:0.0138395 20:0 21:0 22:0 23:0 24:0 25:0 26:1 27:0 28:1 29:0 30:0 31:1 32:0 33:0 34:0 35:0 
1 1:0 2:0.1 3:-6.93889e-018 4:0.1 5:0.0130167 6:-0.271262 7:0.00140932 8:-0.00624256 9:-0.311878 10:-0.00286363 11:-0.00268771 12:-0.0105182 13:0.151798 14:0 15:0.00646052 16:0.00252779 17:1 18:-0.0149004 19:-0.00405298 20:0 21:0 22:2 23:0 24:0 25:0 26:1 27:1 28:0 29:0 30:0 31:0 32:0 33:0 34:0 35:0 
1 1:1 2:0.427711 3:0.0843373 4:0.427711 5:0.00737457 6:-0.671266 7:-0.00516551 8:-0.00209975 9:-0.000764146 10:-0.000710021 11:0.00357244 12:0.00155162 13:0.00221875 14:0 15:0.00646052 16:0.00471629 17:1 18:0.00538652 19:-0.00671981 20:0 21:0 22:0 23:0 24:0 25:0 26:1 27:0 28:0 29:0 30:0 31:0 32:0 33:0 34:0 35:0 
1 1:0 2:0.109742 3:-0.0357853 4:0.109742 5:0.0437735 6:-0.148046 7:0.00636562 8:-0.00630459 9:-0.0116719 10:0.00890847 11:0.00388373 12:0.0221073 13:-0.043689 14:0 15:0.0142631 16:-0.00293144 17:0 18:0.0199062 19:-0.00405298 20:1 21:0 22:1 23:0 24:0 25:0 26:1 27:0 28:0 29:1 30:0 31:0 32:0 33:0 34:0 35:0 
1 1:0 2:0.120235 3:0.0175953 4:0.120235 5:0.0129942 6:-0.214232 7:-0.000402756 8:0.000578213 9:-0.116257 10:-0.000710021 11:-0.037011 12:0.0135939 13:-0.0125481 14:0 15:-0.00492397 16:-0.00360034 17:0 18:0.0128541 19:0.000803702 20:0 21:0 22:0 23:0 24:0 25:0 26:1 27:0 28:1 29:0 30:0 31:0 32:0 33:0 34:0 35:0 
1 1:1 2:-0.0335664 3:-0.293706 4:-0.0335664 5:-0.00855676 6:-0.0026289 7:-0.00347661 8:0.0100182 9:0.0254708 10:0.00180655 11:0.025567 12:-0.0105182 13:0.00180713 14:0 15:0.00331034 16:0.00471629 17:1 18:-0.00173154 19:0.0138395 20:0 21:0 22:1 23:0 24:0 25:0 26:2 27:0 28:0 29:0 30:0 31:0 32:0 33:0 34:0 35:0 
1 1:0 2:0.314691 3:0.0171366 4:0.314691 5:-0.00855676 6:-0.299336 7:0.00305708 8:-0.00566043 9:-0.117466 10:-0.00381029 11:-0.00480468 12:0.00217649 13:-0.0648053 14:0 15:-7.70143e-005 16:0.00443894 17:0 18:0.0173518 19:0.00623806 20:0 21:0 22:0 23:0 24:1 25:0 26:1 27:1 28:0 29:0 30:0 31:0 32:1 33:0 34:0 35:0 
1 1:0 2:0.106038 3:-0.0648012 4:0.106038 5:0.0129942 6:-0.199216 7:-0.00347661 8:0.0100182 9:-0.182214 10:-0.000769924 11:-0.037011 12:-0.00109699 13:-0.0540889 14:0 15:-0.000517298 16:-0.00360034 17:0 18:0.0336017 19:0.00958784 20:0 21:0 22:0 23:0 24:1 25:0 26:2 27:0 28:0 29:0 30:1 31:1 32:0 33:0 34:0 35:0 
1 1:0 2:0.238361 3:0.0484171 4:0.238361 5:0.0129942 6:-0.334243 7:0.00305708 8:0.000578213 9:-0.254723 10:-0.00325732 11:0.025567 12:0.00217649 13:0.0800298 14:0 15:0.00574903 16:-0.00360034 17:0 18:-0.0134094 19:0.00220689 20:0 21:0 22:0 23:0 24:0 25:0 26:1 27:0 28:0 29:0 30:1 31:0 32:1 33:0 34:0 35:0 
1 1:0 2:0.23796 3:0.0509915 4:0.23796 5:-0.0058672 6:-0.29088 7:0.0105849 8:-0.0102524 9:0.0458429 10:-0.00270045 11:0.025567 12:0.0135939 13:-0.0966517 14:0 15:-0.0106865 16:0.00252779 17:0 18:-3.83374e-005 19:-0.00671981 20:0 21:0 22:0 23:0 24:0 25:0 26:1 27:0 28:1 29:0 30:0 31:0 32:0 33:0 34:0 35:0 
1 1:0 2:0.359538 3:0.0692688 4:0.359538 5:0.0106812 6:-0.0783872 7:0.0137208 8:0.0184523 9:0.0029722 10:0.00128145 11:-0.00198275 12:-0.00279944 13:0.0143389 14:0 15:-0.00492854 16:-0.00360034 17:0 18:0.00538787 19:-0.013254 20:0 21:0 22:0 23:0 24:0 25:0 26:1 27:0 28:0 29:1 30:0 31:0 32:0 33:0 34:0 35:1 
1 1:0 2:0.248397 3:0.0524781 4:0.248397 5:0.0437735 6:-0.430838 7:0.000868714 8:-0.00209975 9:0.0889959 10:0.0100219 11:-0.00185013 12:-0.00279944 13:0.000535094 14:0 15:0.00165974 16:0.00471629 17:1 18:-0.000764217 19:-0.013254 20:0 21:0 22:0 23:0 24:0 25:0 26:1 27:0 28:0 29:0 30:0 31:0 32:0 33:0 34:0 35:0 
0.8932230265714413 1:1 2:0.111111 3:-0.0493827 4:0.111111 5:0.0437735 6:-0.266648 7:0.00305708 8:-0.0025261 9:0.114956 10:-0.00332328 11:0.00388373 12:0.0221073 13:-0.215586 14:0 15:-0.00492397 16:0.00252779 17:1 18:0.00696238 19:0.00272342 20:0 21:0 22:0 23:0 24:0 25:0 26:1 27:0 28:1 29:0 30:0 31:0 32:0 33:0 34:0 35:1 
1 1:0 2:0.254658 3:0.0248447 4:0.254658 5:0.0106812 6:-0.531902 7:0.0161474 8:0.000578213 9:-0.281438 10:-0.00381029 11:0.00357244 12:-0.000334465 13:0.00327191 14:0 15:-0.00790929 16:-0.0143477 17:1 18:0.00233375 19:0.00958784 20:0 21:0 22:0 23:0 24:1 25:0 26:1 27:0 28:0 29:0 30:0 31:0 32:0 33:1 34:0 35:0 
1 1:0 2:0.330275 3:0.0366972 4:0.330275 5:0.0129942 6:-0.27244 7:0.0161474 8:-0.00363048 9:0.105553 10:-0.00286363 11:-0.00182434 12:0.00677998 13:0.205159 14:0 15:-7.70143e-005 16:-0.0143477 17:0 18:0.0174435 19:0.00958784 20:0 21:0 22:0 23:0 24:0 25:0 26:1 27:0 28:0 29:0 30:0 31:0 32:1 33:0 34:0 35:0 
1 1:0 2:0.1 3:-6.93889e-018 4:0.1 5:0.00197725 6:-0.157778 7:0.00305708 8:-0.0102524 9:0.00771985 10:-0.00733484 11:0.0141877 12:7.55969e-005 13:-0.0133204 14:1 15:-0.00492854 16:-0.00483205 17:0 18:0.0154197 19:0.000803702 20:0 21:0 22:0 23:0 24:0 25:0 26:1 27:0 28:0 29:0 30:0 31:0 32:0 33:0 34:0 35:0 
1 1:0 2:0.258475 3:0.0254237 4:0.258475 5:-0.00118857 6:-0.413596 7:0.000933507 8:-0.00566043 9:-0.0494429 10:0.0037796 11:0.00732539 12:0.00218961 13:-0.00415206 14:0 15:-0.00251503 16:-0.00382903 17:0 18:0.00150975 19:0.00623806 20:0 21:0 22:0 23:0 24:0 25:0 26:1 27:0 28:1 29:0 30:0 31:0 32:0 33:0 34:0 35:0 
1 1:0 2:0.316206 3:0.0474308 4:0.316206 5:0.0129942 6:-0.196859 7:-0.0196727 8:-0.00332417 9:0.06781 10:-0.00381029 11:0.00732539 12:0.0023707 13:0.00111108 14:0 15:0.0048917 16:0.00471629 17:0 18:0.00452321 19:-0.00405298 20:0 21:0 22:1 23:0 24:0 25:0 26:1 27:0 28:0 29:1 30:0 31:1 32:0 33:0 34:0 35:0 
1 1:0 2:0.127429 3:-0.0605288 4:0.127429 5:0.0106812 6:-0.140823 7:0.0161474 8:0.0100182 9:0.0996088 10:-0.000769924 11:-0.00480468 12:-0.00109699 13:-0.0145252 14:0 15:0.00646052 16:-0.00483205 17:0 18:0.00969528 19:0.00260239 20:0 21:0 22:0 23:0 24:0 25:0 26:1 27:0 28:0 29:1 30:0 31:1 32:0 33:0 34:0 35:0 
1 1:0 2:0.259349 3:0.0553667 4:0.259349 5:-0.0102445 6:-0.381857 7:0.000868714 8:0.0044492 9:0.0517953 10:0.0100219 11:0.025567 12:-0.00571812 13:-0.00314542 14:1 15:-0.0106865 16:-0.00483205 17:0 18:-0.00637599 19:0.00220689 20:0 21:0 22:0 23:0 24:0 25:0 26:1 27:0 28:0 29:0 30:0 31:0 32:0 33:0 34:0 35:0 
1 1:1 2:0.0474453 3:-0.0291971 4:0.0474453 5:-0.00855676 6:-0.0492482 7:-0.00347661 8:0.0100182 9:-0.102328 10:-0.00332328 11:-0.00480468 12:-0.000129959 13:-0.0139124 14:0 15:-0.00790929 16:-0.00347876 17:1 18:0.00355946 19:-0.00207511 20:0 21:0 22:0 23:0 24:0 25:0 26:1 27:0 28:1 29:0 30:0 31:0 32:0 33:0 34:0 35:0 
1 1:0 2:0.0868367 3:-0.053756 4:0.0868367 5:0.00115378 6:-0.100753 7:0.0137208 8:-0.00332417 9:-0.024069 10:-0.00270045 11:-0.0122162 12:0.00677998 13:0.0646509 14:0 15:0.0048917 16:-0.00347876 17:0 18:-0.00328654 19:0.00260239 20:0 21:0 22:0 23:0 24:0 25:0 26:1 27:0 28:0 29:0 30:0 31:0 32:0 33:0 34:0 35:0 
1 1:0 2:0.682361 3:0.126237 4:0.682361 5:-0.00424959 6:-0.563694 7:0.000933507 8:-0.00566043 9:-0.664812 10:-0.00332328 11:0.00699454 12:-0.000129959 13:0.151724 14:0 15:-0.000517298 16:0.00471629 17:0 18:0.00741853 19:0.000369551 20:0 21:0 22:0 23:0 24:0 25:0 26:1 27:0 28:1 29:0 30:1 31:0 32:0 33:0 34:0 35:0 
1 1:1 2:0.19439 3:0.0165942 4:0.19439 5:-0.0058672 6:-0.198403 7:-0.000665361 8:0.0184523 9:0.191351 10:-0.000710021 11:0.025567 12:0.00217649 13:-0.00169956 14:0 15:0.00646052 16:-0.00293144 17:0 18:-0.00120777 19:-0.00207511 20:0 21:0 22:0 23:0 24:0 25:0 26:1 27:0 28:0 29:0 30:0 31:0 32:0 33:1 34:0 35:0 
1 1:0 2:0.926269 3:0.181549 4:0.926269 5:0.0437735 6:-1.11709 7:0.0105849 8:0.0044492 9:-0.428478 10:-0.00733484 11:0.0136848 12:0.0135939 13:0.131534 14:0 15:-0.000517298 16:0.00252779 17:0 18:-0.0103174 19:-0.013254 20:0 21:0 22:0 23:1 24:0 25:0 26:1 27:1 28:0 29:0 30:0 31:0 32:0 33:0 34:0 35:0 
1 1:0 2:0.162594 3:0.00799645 4:0.162594 5:0.0437735 6:-0.322206 7:0.0161474 8:0.0184523 9:0.116493 10:0.0037796 11:-0.00268771 12:0.00677998 13:-0.0955552 14:0 15:0.0142631 16:0.00471629 17:0 18:-0.0297106 19:0.000347898 20:0 21:0 22:0 23:1 24:0 25:0 26:1 27:0 28:0 29:0 30:0 31:0 32:0 33:0 34:0 35:0 
1 1:0 2:0.298063 3:0.0417288 4:0.298063 5:-0.0102445 6:-0.646855 7:0.0161474 8:-0.0025261 9:0.0584343 10:-0.00733484 11:0.00232889 12:0.00217649 13:-0.00752451 14:0 15:0.0121562 16:-0.0143477 17:1 18:-0.0137351 19:0.00623806 20:0 21:0 22:0 23:0 24:0 25:0 26:1 27:0 28:0 29:0 30:1 31:0 32:0 33:0 34:0 35:0 
1 1:0 2:0.13913 3:-0.0347826 4:0.13913 5:-0.0102445 6:-0.0067015 7:-0.00166005 8:0.0100182 9:0.0573185 10:0.0194542 11:-0.000258585 12:7.55969e-005 13:-0.0707356 14:0 15:-0.00251503 16:-0.00124075 17:0 18:0.0120132 19:0.000369551 20:0 21:0 22:0 23:0 24:0 25:0 26:1 27:0 28:0 29:1 30:0 31:0 32:0 33:0 34:0 35:0 
1 1:0 2:0.157218 3:0.0028585 4:0.157218 5:-0.00855852 6:-0.0627979 7:-0.00737515 8:-0.00332417 9:0.215223 10:-0.00667065 11:0.025567 12:0.0221073 13:-0.0326853 14:0 15:-0.00790929 16:-0.00159909 17:0 18:0.00696677 19:-0.00405298 20:0 21:0 22:1 23:0 24:0 25:0 26:1 27:0 28:0 29:1 30:0 31:0 32:0 33:0 34:1 35:0 
1 1:0 2:0.162594 3:0.00799645 4:0.162594 5:0.0129942 6:-0.161237 7:-0.00737515 8:0.0184523 9:-0.289132 10:-0.00733484 11:0.00732539 12:0.00217649 13:0.0434611 14:0 15:-0.00251503 16:0.00471629 17:0 18:-0.00983086 19:0.000803702 20:0 21:0 22:0 23:1 24:0 25:0 26:1 27:0 28:0 29:0 30:0 31:0 32:0 33:0 34:1 35:0 
0.5083335858099781 1:1 2:0.587097 3:0.129032 4:0.587097 5:0.00737457 6:-1.06861 7:-0.00737515 8:0.0101539 9:-0.71619 10:0.0100219 11:-0.00148109 12:-0.00109699 13:0.0201742 14:0 15:-0.000517298 16:-0.00347876 17:0 18:0.0266394 19:-0.00671981 20:0 21:0 22:0 23:0 24:0 25:0 26:1 27:0 28:0 29:0 30:0 31:0 32:0 33:1 34:0 35:0 
1 1:0 2:0.243655 3:0.0203046 4:0.243655 5:0.00197725 6:-0.298128 7:0.00140932 8:0.0100182 9:-0.0430771 10:0.00890847 11:-0.00268771 12:-0.00109699 13:-0.150463 14:1 15:0.00646052 16:0.00732772 17:0 18:0.00259934 19:-0.00553567 20:0 21:0 22:0 23:1 24:0 25:0 26:1 27:0 28:1 29:0 30:0 31:0 32:0 33:0 34:0 35:0 
1 1:0 2:0.14096 3:-0.0061287 4:0.14096 5:-0.00118857 6:0.00391236 7:0.0137208 8:-0.000155678 9:0.23751 10:0.00180655 11:-0.00268771 12:7.55969e-005 13:0.00957934 14:0 15:0.00646052 16:0.00471629 17:0 18:-0.0035403 19:-0.00553567 20:0 21:0 22:1 23:0 24:0 25:0 26:1 27:0 28:0 29:0 30:0 31:0 32:0 33:0 34:0 35:0 
1 1:1 2:0.126783 3:-0.044374 4:0.126783 5:-0.0181781 6:-0.093327 7:0.00140932 8:-0.00566043 9:-0.00305101 10:0.0037796 11:-0.00185013 12:-0.00279944 13:0.0190854 14:0 15:0.0121562 16:0.00471629 17:0 18:-0.000372231 19:0.000369551 20:0 21:0 22:1 23:1 24:0 25:0 26:1 27:0 28:0 29:0 30:0 31:0 32:0 33:0 34:0 35:0 
1 1:1 2:0.234354 3:0.0159787 4:0.234354 5:-0.0181781 6:-0.393367 7:0.00636562 8:-0.00630459 9:0.0668033 10:-0.00123088 11:-0.000258585 12:-0.000129959 13:-0.0210232 14:0 15:-0.00530999 16:0.00471629 17:0 18:-0.0130021 19:0.00404864 20:0 21:0 22:0 23:1 24:0 25:0 26:1 27:0 28:0 29:0 30:0 31:0 32:0 33:0 34:0 35:0 
1 1:1 2:0.244641 3:0.0479193 4:0.244641 5:-0.0058672 6:-0.26527 7:0.0105849 8:-0.00566043 9:0.0803615 10:-0.00270045 11:0.00388373 12:0.00218961 13:0.0226094 14:0 15:0.00574903 16:-0.00382903 17:0 18:-0.00196222 19:0.00220689 20:0 21:0 22:0 23:1 24:0 25:0 26:1 27:0 28:0 29:0 30:0 31:0 32:0 33:0 34:0 35:0 
1 1:0 2:0.1 3:0 4:0.1 5:0.00197725 6:-0.118152 7:-0.000966364 8:-0.00209975 9:-0.00944747 10:-0.00286363 11:0.025567 12:0.00155162 13:-0.129526 14:1 15:-0.0106865 16:-0.00293144 17:0 18:0.00732114 19:0.00958784 20:0 21:0 22:0 23:0 24:0 25:0 26:1 27:0 28:0 29:0 30:0 31:0 32:0 33:0 34:0 35:0 
1 1:1 2:0.176829 3:-0.0121951 4:0.176829 5:-0.00855676 6:-0.358604 7:0.000868714 8:0.0101539 9:-0.0565685 10:-0.00273061 11:-0.00185013 12:-0.0105182 13:0.0532697 14:0 15:-0.00492397 16:-0.00360034 17:1 18:0.0148944 19:0.00272342 20:0 21:0 22:0 23:0 24:0 25:0 26:1 27:0 28:0 29:0 30:0 31:0 32:0 33:0 34:0 35:1 
1 1:0 2:0.0403226 3:-0.145161 4:0.0403226 5:0.00197725 6:0.0342057 7:0.000933507 8:-0.00209975 9:-0.0271341 10:0.0194542 11:0.00388373 12:-0.00317909 13:0.0858732 14:1 15:-7.70143e-005 16:-0.00483205 17:0 18:-0.00882368 19:0.0138395 20:0 21:0 22:0 23:1 24:0 25:0 26:1 27:0 28:0 29:0 30:0 31:0 32:0 33:0 34:0 35:0 
1 1:0 2:0.331313 3:0.040404 4:0.331313 5:-0.00174828 6:0.0433424 7:-0.00516551 8:0.0101539 9:-0.104491 10:-0.000769924 11:-0.00268771 12:0.00155162 13:-0.215721 14:0 15:0.0121562 16:-0.00360034 17:0 18:0.00499468 19:-0.00553567 20:0 21:0 22:0 23:0 24:0 25:0 26:1 27:0 28:0 29:0 30:1 31:0 32:0 33:0 34:0 35:0 
1 1:0 2:-0.0190961 3:-0.0878421 4:-0.0190961 5:-0.00174828 6:0.00314609 7:0.00140932 8:-0.0025261 9:0.246994 10:0.00180655 11:0.025567 12:0.0023707 13:0.110928 14:0 15:0.0142631 16:0.00443894 17:0 18:0.0125749 19:-0.0057122 20:0 21:0 22:0 23:0 24:0 25:0 26:1 27:0 28:0 29:0 30:0 31:0 32:0 33:0 34:0 35:0 
1 1:1 2:0.22043 3:0.0860215 4:0.22043 5:-0.00855852 6:-0.0316006 7:-0.013301 8:-0.00332417 9:0.446405 10:-0.00286363 11:0.00732539 12:-0.0117779 13:0.0415363 14:0 15:-0.00530999 16:-0.00347876 17:0 18:-0.00955526 19:-0.00671981 20:0 21:0 22:0 23:0 24:0 25:0 26:1 27:0 28:0 29:0 30:0 31:0 32:0 33:0 34:0 35:0 
1 1:1 2:0.134579 3:-0.0373832 4:0.134579 5:0.0437735 6:-0.230617 7:0.0137208 8:-0.0025261 9:-0.238728 10:-0.00667065 11:-0.000258585 12:-0.00109699 13:0.032572 14:0 15:0.00646052 16:0.00605498 17:1 18:-0.00321258 19:-0.00671981 20:0 21:0 22:1 23:0 24:0 25:0 26:1 27:0 28:0 29:0 30:0 31:0 32:0 33:0 34:0 35:0 
1 1:1 2:0.137931 3:-0.0217786 4:0.137931 5:0.0437735 6:-0.0793355 7:-0.00347661 8:0.0184523 9:0.0913735 10:0.0194542 11:-0.00148109 12:0.00155162 13:0.00439871 14:0 15:-0.00349054 16:-0.00269397 17:1 18:0.00305461 19:0.00958784 20:0 21:0 22:0 23:0 24:0 25:0 26:1 27:0 28:0 29:0 30:0 31:0 32:0 33:0 34:0 35:1 
1 1:0 2:0.312901 3:0.0230828 4:0.312901 5:-0.0102445 6:-0.138335 7:0.00857851 8:-0.0018813 9:-0.0190223 10:0.00890847 11:0.00388373 12:-0.0105182 13:-0.050233 14:0 15:-0.0106865 16:-0.0143477 17:1 18:0.0155979 19:0.0138395 20:0 21:0 22:0 23:0 24:0 25:0 26:1 27:0 28:0 29:0 30:0 31:0 32:0 33:0 34:0 35:0 
1 1:0 2:0.373444 3:0.0414938 4:0.373444 5:0.0106812 6:-0.111584 7:0.0137208 8:-0.00566043 9:-0.134582 10:-0.00273061 11:-0.00185013 12:0.0135939 13:-0.0758566 14:0 15:0.00646052 16:0.00732772 17:1 18:-0.00761318 19:-0.00671981 20:0 21:0 22:1 23:0 24:0 25:1 26:1 27:0 28:0 29:0 30:1 31:0 32:0 33:0 34:0 35:0 
1 1:0 2:0.214404 3:0.0362837 4:0.214404 5:0.00115378 6:-0.171017 7:-0.00166005 8:-0.00332417 9:0.216616 10:0.0037796 11:0.0136848 12:-0.00571812 13:0.0438421 14:0 15:0.0121562 16:-0.00483205 17:0 18:0.00395648 19:0.000369551 20:0 21:1 22:0 23:0 24:1 25:0 26:1 27:0 28:0 29:0 30:0 31:0 32:0 33:0 34:0 35:0 
1 1:0 2:0.29259 3:0.0721976 4:0.29259 5:0.00197725 6:-0.216948 7:0.0105849 8:-0.0025261 9:0.0774263 10:-0.00733484 11:-0.000258585 12:-0.000334465 13:0.00275275 14:1 15:-0.00036086 16:-0.00483205 17:0 18:0.0109967 19:-0.013254 20:0 21:0 22:0 23:0 24:0 25:0 26:1 27:0 28:0 29:0 30:0 31:0 32:0 33:0 34:0 35:0 
1 1:0 2:0.11056 3:-0.0297661 4:0.11056 5:-0.0102445 6:-0.0699693 7:0.0161474 8:-0.0025261 9:0.076959 10:-0.000769924 11:-0.00185013 12:-0.00109699 13:-0.0111071 14:0 15:0.00646052 16:-0.00196836 17:0 18:-0.00878013 19:-0.00405298 20:1 21:0 22:1 23:0 24:0 25:0 26:1 27:0 28:0 29:0 30:0 31:0 32:0 33:0 34:0 35:0 
1 1:0 2:0.183716 3:-0.00835073 4:0.183716 5:0.00197725 6:-0.38124 7:-0.00516551 8:-0.00209975 9:-0.31334 10:-0.00286363 11:0.025567 12:0.00677998 13:-0.016463 14:1 15:-0.00790929 16:-0.00360034 17:0 18:-0.0053448 19:0.00272342 20:0 21:0 22:0 23:1 24:0 25:0 26:1 27:0 28:0 29:0 30:1 31:0 32:0 33:0 34:0 35:0 
1 1:0 2:0.150134 3:-0.0321716 4:0.150134 5:0.00737457 6:-0.437028 7:-0.00347661 8:0.00263785 9:-0.494182 10:-0.00270045 11:0.025567 12:7.55969e-005 13:-0.00298568 14:1 15:0.00165974 16:-0.0060947 17:1 18:-0.011673 19:-0.013254 20:0 21:0 22:0 23:0 24:0 25:0 26:1 27:0 28:1 29:0 30:0 31:0 32:0 33:0 34:0 35:0 
1 1:0 2:0.120235 3:0.0175953 4:0.120235 5:-0.00573529 6:-0.0948608 7:0.00857851 8:-0.0025261 9:-0.0528391 10:-0.00286363 11:-0.0122162 12:-0.00317909 13:-0.138353 14:0 15:-0.000517298 16:-0.00293144 17:0 18:0.0177408 19:0.000803702 20:0 21:0 22:0 23:0 24:0 25:0 26:1 27:0 28:0 29:0 30:0 31:0 32:0 33:0 34:0 35:0 
0.223507920174971 1:1 2:0.0697248 3:-0.0917431 4:0.0697248 5:-0.0102445 6:-0.0463822 7:0.0137208 8:0.000253862 9:0.264608 10:0.0037796 11:-0.00268771 12:0.00677998 13:0.0536262 14:0 15:-0.00790929 16:-0.00483205 17:1 18:0.0051589 19:0.000369551 20:0 21:0 22:0 23:2 24:0 25:0 26:2 27:0 28:0 29:0 30:0 31:0 32:0 33:0 34:0 35:0 
1 1:0 2:0.177778 3:0.017094 4:0.177778 5:-0.00424959 6:-0.255339 7:-0.013301 8:0.000578213 9:-0.156948 10:-0.00273061 11:0.025567 12:0.0221073 13:0.0370246 14:0 15:-0.00349054 16:0.00471629 17:0 18:-0.0278571 19:0.00220689 20:0 21:0 22:0 23:0 24:0 25:0 26:1 27:0 28:0 29:0 30:0 31:0 32:0 33:0 34:0 35:0 
1 1:1 2:0.315425 3:0.0797227 4:0.315425 5:-0.00118857 6:-0.297316 7:-0.00347661 8:0.0100182 9:-0.112569 10:-0.00286363 11:-0.0122162 12:-0.00255595 13:-0.00566507 14:0 15:-0.0106865 16:0.00443894 17:1 18:-0.00712425 19:0.00404864 20:0 21:0 22:0 23:0 24:0 25:0 26:1 27:0 28:0 29:0 30:0 31:0 32:0 33:0 34:0 35:0 
1 1:0 2:0.193722 3:0.0269058 4:0.193722 5:0.0106812 6:-0.254661 7:0.0137208 8:0.0044492 9:-0.0678878 10:-0.00123088 11:0.0141877 12:0.00677998 13:-0.0170729 14:0 15:-0.00790929 16:0.00732772 17:0 18:0.013104 19:0.000369551 20:0 21:0 22:0 23:0 24:0 25:0 26:1 27:0 28:0 29:0 30:0 31:0 32:0 33:0 34:0 35:0 
1 1:0 2:0.111987 3:-0.0323517 4:0.111987 5:-0.0181781 6:-0.292974 7:-0.00516551 8:-0.00209975 9:-0.121561 10:0.0037796 11:0.00357244 12:0.00218961 13:0.0353291 14:0 15:-7.70143e-005 16:0.00605498 17:0 18:-0.0183336 19:0.00958784 20:0 21:0 22:0 23:0 24:0 25:0 26:1 27:0 28:1 29:0 30:0 31:0 32:0 33:0 34:0 35:0 
1 1:1 2:0.068746 3:-0.0878421 4:0.068746 5:0.0437735 6:-0.241427 7:-0.00347661 8:-0.00459058 9:-0.17457 10:0.0194542 11:0.00388373 12:0.00677998 13:0.115417 14:0 15:-0.00251503 16:-0.00483205 17:1 18:-0.0204733 19:0.00276726 20:0 21:0 22:0 23:0 24:0 25:0 26:1 27:0 28:1 29:0 30:0 31:0 32:0 33:0 34:0 35:0 
0.522508844308617 1:1 2:0.0989918 3:-0.0384968 4:0.0989918 5:0.0437735 6:-0.134501 7:0.000868714 8:-0.00566043 9:0.00289833 10:-0.00325732 11:-0.00185013 12:-0.00279944 13:-0.00630577 14:0 15:-7.70143e-005 16:0.00605498 17:0 18:0.0043695 19:0.00272342 20:0 21:0 22:0 23:1 24:0 25:0 26:1 27:0 28:0 29:0 30:0 31:0 32:0 33:0 34:0 35:0 
1 1:0 2:0.283186 3:0.0126422 4:0.283186 5:-0.0181781 6:-0.420855 7:0.0161474 8:-0.00209975 9:0.0306256 10:0.0100219 11:0.025567 12:-0.0105182 13:-0.0156762 14:0 15:0.00646052 16:-0.00483205 17:0 18:0.00578554 19:0.00623806 20:1 21:0 22:1 23:1 24:0 25:0 26:1 27:0 28:0 29:0 30:0 31:0 32:0 33:0 34:0 35:0 
1 1:0 2:0.469667 3:0.101761 4:0.469667 5:-0.0102445 6:-0.649562 7:-0.013301 8:0.0100182 9:-0.00552295 10:-0.00273061 11:0.00732539 12:-0.00317909 13:-0.00519503 14:0 15:0.0142631 16:0.00471629 17:0 18:0.00332234 19:0.00958784 20:0 21:0 22:0 23:0 24:0 25:0 26:1 27:0 28:0 29:0 30:0 31:0 32:0 33:0 34:0 35:0 
1 1:0 2:0.0527704 3:0.00527704 4:0.0527704 5:-0.0181781 6:0.0602267 7:0.0137208 8:0.0100182 9:0.311335 10:-0.0025074 11:0.00732539 12:-0.00615216 13:-0.0743551 14:0 15:0.0121562 16:-0.0042043 17:0 18:-0.00858338 19:-0.00175629 20:0 21:0 22:1 23:0 24:0 25:0 26:1 27:0 28:1 29:0 30:0 31:0 32:0 33:0 34:0 35:0 
1 1:0 2:0.120235 3:0.0175953 4:0.120235 5:0.000589152 6:0.0194589 7:0.0137208 8:0.0184523 9:0.00587382 10:-0.00273061 11:-0.037011 12:-0.0105182 13:-0.0688106 14:0 15:0.0121562 16:-0.00382903 17:0 18:-0.0174124 19:0.00623806 20:0 21:0 22:2 23:0 24:0 25:0 26:1 27:0 28:0 29:0 30:0 31:0 32:0 33:0 34:0 35:0 
1 1:0 2:0.170355 3:0.0125261 4:0.170355 5:-0.00118857 6:-0.469434 7:0.0161474 8:-0.00630459 9:-0.276323 10:0.000771071 11:0.0136848 12:-0.00279944 13:0.0925987 14:0 15:0.0121562 16:-0.00293144 17:0 18:-0.0279004 19:0.00623806 20:0 21:0 22:0 23:0 24:0 25:0 26:1 27:0 28:0 29:0 30:0 31:0 32:0 33:0 34:0 35:0 
1 1:0 2:0.301471 3:0.0441176 4:0.301471 5:-0.00118857 6:-0.243969 7:-0.00680823 8:-0.0018813 9:0.0463329 10:0.0037796 11:-0.00268771 12:0.00217649 13:0.0734398 14:0 15:0.00646052 16:-0.00360034 17:0 18:-0.00934351 19:-0.00671981 20:0 21:0 22:0 23:0 24:0 25:0 26:1 27:0 28:0 29:0 30:0 31:0 32:0 33:0 34:0 35:0 
1 1:0 2:0.178947 3:0.0350877 4:0.178947 5:-0.0102445 6:-0.00112616 7:0.0161474 8:0.0044492 9:0.157365 10:-0.00273061 11:-0.00148109 12:0.00218961 13:-0.033727 14:0 15:0.0121562 16:0.00471629 17:0 18:-0.022096 19:0.00220689 20:0 21:0 22:0 23:0 24:0 25:0 26:1 27:0 28:0 29:0 30:0 31:0 32:0 33:0 34:0 35:0 
1 1:0 2:0.381679 3:0.0458015 4:0.381679 5:-0.0058672 6:-0.427757 7:0.00636562 8:-0.00209975 9:-0.226569 10:0.000771071 11:0.0141877 12:0.00677998 13:0.0250644 14:1 15:-7.70143e-005 16:0.00732772 17:0 18:-0.0169489 19:-0.013254 20:0 21:0 22:0 23:1 24:0 25:1 26:1 27:0 28:1 29:0 30:1 31:0 32:0 33:0 34:0 35:0 
1 1:0 2:0.685201 3:0.0975192 4:0.685201 5:-0.0102445 6:-1.28134 7:-0.000665361 8:-0.00209975 9:-0.642315 10:0.00890847 11:0.00732539 12:0.00677998 13:0.0501929 14:0 15:-0.00036086 16:0.00443894 17:0 18:0.00759656 19:-0.013254 20:0 21:0 22:0 23:0 24:0 25:0 26:1 27:0 28:0 29:1 30:0 31:0 32:0 33:0 34:0 35:0 
1 1:0 2:0.0985453 3:-0.0478649 4:0.0985453 5:0.00737457 6:-0.0986077 7:-0.00347661 8:0.0100182 9:-0.0587439 10:-0.00273061 11:0.025567 12:0.00155162 13:-0.0393905 14:0 15:0.00574903 16:0.0289366 17:0 18:0.00492334 19:-0.00671981 20:0 21:0 22:0 23:0 24:0 25:0 26:2 27:0 28:0 29:0 30:0 31:0 32:0 33:0 34:0 35:0 
1 1:0 2:0.270968 3:0.0645161 4:0.270968 5:0.0129942 6:-0.233259 7:0.00857851 8:-0.0102524 9:-0.0710996 10:0.0100219 11:-0.00185013 12:-0.00279944 13:-0.120053 14:0 15:-0.000517298 16:-0.00360034 17:0 18:0.0227444 19:-0.00601379 20:0 21:0 22:0 23:1 24:0 25:0 26:1 27:0 28:0 29:0 30:0 31:0 32:0 33:1 34:0 35:0 
1 1:0 2:0.117851 3:-0.0242634 4:0.117851 5:0.0437735 6:-0.0898814 7:0.0105849 8:0.000578213 9:-0.0489188 10:-0.00381029 11:-0.00480468 12:0.00155162 13:-0.0618235 14:0 15:-0.000517298 16:-0.00293144 17:0 18:0.0188133 19:-0.00405298 20:0 21:0 22:1 23:1 24:0 25:0 26:1 27:0 28:0 29:0 30:0 31:0 32:0 33:0 34:0 35:0 
1 1:0 2:0.130137 3:-0.0410959 4:0.130137 5:-0.0102445 6:-0.123608 7:-0.00516551 8:-0.00566043 9:-0.163829 10:0.0100219 11:-0.00268771 12:0.0135939 13:-0.0258364 14:0 15:-0.00790929 16:-0.00360034 17:0 18:-0.00670433 19:0.00272342 20:0 21:0 22:0 23:0 24:0 25:0 26:1 27:0 28:1 29:0 30:0 31:0 32:0 33:0 34:0 35:0 
1 1:0 2:0.259349 3:0.0553667 4:0.259349 5:-0.00424959 6:-0.498081 7:0.0137208 8:0.0044492 9:-0.248291 10:-0.00273061 11:0.00357244 12:0.0135939 13:-0.00956402 14:1 15:-0.00349054 16:-0.00360034 17:0 18:0.0238918 19:0.00958784 20:0 21:0 22:0 23:0 24:0 25:0 26:1 27:0 28:0 29:0 30:1 31:0 32:0 33:0 34:0 35:0 
1 1:0 2:0.165036 3:-0.0441374 4:0.165036 5:-0.00424959 6:-0.173071 7:0.0137208 8:0.0184523 9:-0.164548 10:-0.00325732 11:0.0136848 12:-0.0117779 13:0.119005 14:0 15:-0.00251503 16:0.00732772 17:0 18:-0.0196469 19:0.00623806 20:0 21:0 22:0 23:0 24:0 25:1 26:1 27:0 28:0 29:0 30:0 31:1 32:0 33:0 34:0 35:1 
1 1:0 2:0.136571 3:-0.0091047 4:0.136571 5:-0.0058672 6:-0.407353 7:0.00636562 8:0.0184523 9:0.198812 10:-0.00476114 11:0.00388373 12:-0.000334465 13:-0.0873406 14:0 15:0.0121562 16:0.00605498 17:0 18:-0.00872354 19:0.0138395 20:0 21:0 22:1 23:0 24:0 25:0 26:1 27:0 28:0 29:0 30:0 31:0 32:0 33:0 34:0 35:0 
1 1:0 2:0.103872 3:-0.0410023 4:0.103872 5:-0.00855676 6:-0.17309 7:0.00636562 8:0.0184523 9:-0.13857 10:-0.00286363 11:0.0136848 12:-0.00571812 13:-0.0323718 14:0 15:-0.00790929 16:0.0289366 17:0 18:-0.00137301 19:-0.00601379 20:0 21:0 22:0 23:0 24:0 25:0 26:1 27:0 28:0 29:0 30:0 31:0 32:0 33:1 34:0 35:0 
1 1:0 2:0.220588 3:0.00980392 4:0.220588 5:-0.0102445 6:-0.287446 7:0.000868714 8:-0.0018813 9:-0.175616 10:0.0037796 11:-0.0122162 12:0.00677998 13:0.171672 14:0 15:-0.00349054 16:0.0289366 17:0 18:-0.00332854 19:-0.00671981 20:0 21:0 22:0 23:0 24:0 25:0 26:1 27:0 28:0 29:0 30:0 31:0 32:0 33:0 34:0 35:0 
1 1:0 2:0.270408 3:0.0306122 4:0.270408 5:0.000589152 6:-0.56046 7:-0.013301 8:0.000578213 9:-0.730383 10:0.0037796 11:-0.037011 12:0.0221073 13:0.17731 14:0 15:-0.0106865 16:-0.00360034 17:0 18:-0.0300296 19:0.00276726 20:0 21:0 22:0 23:0 24:0 25:0 26:1 27:0 28:0 29:1 30:0 31:0 32:0 33:0 34:0 35:0 
1 1:0 2:0.421053 3:0.0902256 4:0.421053 5:0.00737457 6:-0.924708 7:-0.0196727 8:0.00263785 9:-0.172098 10:-0.00286363 11:0.025567 12:0.00217649 13:-0.0261035 14:0 15:0.00646052 16:0.00605498 17:0 18:0.00380869 19:-0.0057122 20:0 21:0 22:0 23:0 24:0 25:0 26:1 27:0 28:0 29:0 30:0 31:0 32:0 33:1 34:0 35:0 
1 1:0 2:0.289579 3:0.014796 4:0.289579 5:-0.00855676 6:-0.373252 7:0.0161474 8:-0.00566043 9:-0.187487 10:0.0194542 11:0.0136848 12:0.0135939 13:0.0111355 14:0 15:-0.00790929 16:-0.00347876 17:0 18:0.0102745 19:0.000803702 20:0 21:0 22:0 23:0 24:0 25:0 26:1 27:1 28:0 29:0 30:1 31:0 32:0 33:0 34:0 35:0 
1 1:0 2:0.2 3:-6.93889e-018 4:0.2 5:0.0106812 6:-0.151652 7:0.0137208 8:0.0184523 9:-0.0256754 10:-0.000769924 11:0.025567 12:0.00677998 13:-0.0230564 14:0 15:0.00165974 16:-0.00483205 17:0 18:-0.00537441 19:0.00220689 20:0 21:0 22:1 23:0 24:0 25:0 26:1 27:0 28:0 29:0 30:0 31:0 32:0 33:0 34:0 35:0 
1 1:0 2:0.13783 3:0.0175953 4:0.13783 5:-0.0102445 6:-0.447286 7:0.0105849 8:-0.0102524 9:-0.186842 10:0.0037796 11:-0.037011 12:-0.0117779 13:-0.0514352 14:0 15:0.0048917 16:0.00605498 17:0 18:0.0156323 19:0.000803702 20:0 21:0 22:0 23:0 24:0 25:0 26:1 27:0 28:0 29:0 30:0 31:0 32:0 33:0 34:0 35:1 
0.4530351328956779 1:1 2:0.133855 3:-0.0117417 4:0.133855 5:0.00737457 6:-0.0560231 7:-0.00347661 8:0.0100182 9:1.06032 10:-0.00286363 11:0.0136848 12:0.0221073 13:0.217041 14:0 15:-0.00530999 16:0.00471629 17:0 18:-0.0030381 19:0.00220689 20:0 21:0 22:1 23:0 24:0 25:0 26:1 27:0 28:0 29:0 30:0 31:0 32:0 33:0 34:0 35:0 
1 1:0 2:0.225564 3:0.0451128 4:0.225564 5:0.0437735 6:-0.229547 7:0.0137208 8:0.0184523 9:-0.0711152 10:-0.00325732 11:0.00732539 12:-0.000334465 13:0.0774985 14:0 15:0.0121562 16:0.0289366 17:0 18:-0.022404 19:-0.0057122 20:0 21:0 22:1 23:0 24:0 25:0 26:1 27:0 28:0 29:0 30:0 31:0 32:0 33:0 34:0 35:0 
1 1:0 2:0.134969 3:-0.0368098 4:0.134969 5:0.0130167 6:0.00252275 7:0.0105849 8:-0.0102524 9:0.532715 10:0.0037796 11:0.00357244 12:0.00677998 13:0.1834 14:0 15:0.00646052 16:0.0289366 17:0 18:0.00636373 19:0.000369551 20:0 21:0 22:0 23:1 24:0 25:0 26:2 27:1 28:0 29:0 30:0 31:0 32:0 33:0 34:0 35:0 
1 1:0 2:0.04 3:-0.16 4:0.04 5:-0.0102445 6:-0.0331047 7:-0.013301 8:0.0044492 9:-0.130709 10:0.0100219 11:-0.00268771 12:0.0135939 13:-0.025666 14:0 15:0.0142631 16:0.00605498 17:0 18:0.0247772 19:0.0138395 20:0 21:0 22:0 23:0 24:0 25:0 26:1 27:0 28:0 29:0 30:0 31:0 32:0 33:0 34:0 35:0 
1 1:0 2:0.161027 3:0.00700117 4:0.161027 5:0.0129942 6:-0.0431966 7:0.00857851 8:-0.0025261 9:0.849787 10:-0.00332328 11:0.00388373 12:0.00677998 13:0.210471 14:0 15:0.00574903 16:-0.00483205 17:0 18:0.0110663 19:0.000803702 20:0 21:0 22:0 23:1 24:0 25:0 26:1 27:0 28:0 29:0 30:0 31:0 32:0 33:0 34:0 35:0 
1 1:1 2:0.0046729 3:-0.0560748 4:0.0046729 5:0.0437735 6:0.0582785 7:0.00636562 8:0.000578213 9:-0.0376402 10:0.00890847 11:-0.00737899 12:7.55969e-005 13:0.00398492 14:0 15:0.00574903 16:0.0289366 17:0 18:-0.0154204 19:-0.00553567 20:0 21:0 22:0 23:0 24:0 25:0 26:2 27:0 28:0 29:0 30:0 31:0 32:0 33:0 34:0 35:0 
1 1:0 2:0.301428 3:0.0729773 4:0.301428 5:0.0129942 6:-0.299861 7:0.00857851 8:0.0100182 9:-0.280918 10:-0.00273061 11:-0.00185013 12:0.00155162 13:-0.0304411 14:0 15:-0.000517298 16:0.00605498 17:0 18:0.015674 19:0.00958784 20:0 21:0 22:0 23:0 24:0 25:0 26:1 27:0 28:0 29:0 30:0 31:0 32:0 33:0 34:0 35:0 
1 1:0 2:0.0769231 3:-0.0473373 4:0.0769231 5:0.0437735 6:-0.108954 7:0.000868714 8:0.0100182 9:-0.159098 10:0.0037796 11:-0.00268771 12:-0.0117779 13:0.12116 14:0 15:0.00646052 16:0.00471629 17:0 18:-0.0204192 19:0.0138395 20:0 21:0 22:1 23:0 24:0 25:0 26:1 27:0 28:1 29:1 30:0 31:0 32:0 33:0 34:0 35:0 
1 1:0 2:0.120235 3:0.0175953 4:0.120235 5:-0.00855852 6:-0.62506 7:-0.00347661 8:0.0100182 9:0.121676 10:0.00890847 11:-0.0122162 12:-0.00279944 13:-0.00637497 14:0 15:-0.00349054 16:-0.00382903 17:0 18:-0.0011157 19:0.00276726 20:0 21:0 22:0 23:0 24:0 25:0 26:1 27:0 28:0 29:0 30:0 31:0 32:0 33:0 34:0 35:0 
1 1:0 2:0.0945559 3:-0.00573066 4:0.0945559 5:-0.0058672 6:-0.100908 7:0.0105849 8:0.000578213 9:0.553369 10:0.0037796 11:-0.00185013 12:-0.00317909 13:-0.0818041 14:0 15:-0.00790929 16:0.00605498 17:0 18:0.012761 19:0.000369551 20:0 21:0 22:0 23:0 24:0 25:0 26:1 27:0 28:0 29:0 30:0 31:1 32:0 33:0 34:0 35:0 
1 1:0 2:0.101266 3:-0.039783 4:0.101266 5:-0.0146811 6:-0.169124 7:0.00857851 8:-0.00209975 9:-0.387608 10:-0.000769924 11:-0.037011 12:0.0135939 13:-0.128489 14:0 15:-7.70143e-005 16:0.00471629 17:0 18:0.0113271 19:0.000369551 20:0 21:0 22:0 23:0 24:0 25:0 26:1 27:0 28:0 29:0 30:0 31:1 32:0 33:0 34:0 35:0 
1 1:0 2:0.18552 3:0.0633484 4:0.18552 5:-0.0058672 6:-0.00634817 7:-0.00166005 8:0.0100182 9:0.604715 10:-0.00273061 11:0.00699454 12:-0.00317909 13:0.137423 14:0 15:0.00165974 16:-0.00483205 17:0 18:0.0114086 19:-0.00553567 20:0 21:0 22:0 23:0 24:0 25:0 26:1 27:0 28:0 29:0 30:0 31:0 32:0 33:0 34:0 35:0 
1 1:0 2:0.100775 3:-0.0620155 4:0.100775 5:0.00737457 6:-0.111918 7:0.0137208 8:0.0101539 9:-0.0741322 10:-0.00335283 11:-0.00737899 12:-0.000874371 13:-0.00683772 14:0 15:0.00646052 16:-0.0060947 17:0 18:0.00479477 19:0.0138395 20:0 21:0 22:0 23:0 24:0 25:0 26:1 27:0 28:0 29:0 30:0 31:0 32:0 33:0 34:0 35:0 
1 1:0 2:0.0723227 3:-0.0500695 4:0.0723227 5:-0.0102445 6:0.0560074 7:0.0137208 8:0.00263785 9:-0.159168 10:-0.00381029 11:-0.00185013 12:0.00155162 13:-0.0514938 14:0 15:0.0048917 16:0.00605498 17:0 18:0.0152451 19:0.000369551 20:0 21:0 22:0 23:0 24:0 25:0 26:1 27:0 28:0 29:0 30:0 31:0 32:0 33:0 34:0 35:0 
1 1:0 2:0.0693878 3:-0.0408163 4:0.0693878 5:0.0129942 6:-0.0772079 7:0.00636562 8:-0.0025261 9:0.225866 10:-0.00335283 11:0.0141877 12:-0.00109699 13:-0.0232846 14:0 15:0.0121562 16:-0.00347876 17:0 18:-0.00985567 19:-0.000837017 20:0 21:0 22:0 23:0 24:0 25:0 26:1 27:0 28:0 29:0 30:0 31:0 32:0 33:0 34:0 35:0 
1 1:0 2:0.325 3:0.05 4:0.325 5:0.0437735 6:-0.448895 7:0.0161474 8:-0.00624256 9:-0.0288179 10:0.00890847 11:-0.00185013 12:0.0135939 13:-0.00461545 14:0 15:0.00574903 16:-0.00360034 17:0 18:0.0130325 19:0.00276726 20:0 21:0 22:0 23:0 24:0 25:0 26:1 27:0 28:1 29:0 30:0 31:0 32:0 33:0 34:0 35:1 
1 1:0 2:0.139361 3:-0.00746578 4:0.139361 5:-0.00855852 6:-0.377908 7:0.0137208 8:-0.00624256 9:-0.303869 10:-0.00325732 11:-0.0122162 12:0.0221073 13:0.12189 14:0 15:0.0121562 16:0.00471629 17:0 18:-0.0150353 19:0.00404864 20:0 21:0 22:0 23:0 24:0 25:0 26:1 27:0 28:0 29:0 30:0 31:0 32:0 33:0 34:0 35:0 
1 1:0 2:0.0607477 3:-0.0560748 4:0.0607477 5:-0.00424959 6:-0.144077 7:0.0137208 8:0.0044492 9:-0.0103207 10:0.000771071 11:0.00357244 12:-0.000334465 13:0.0422554 14:0 15:-0.00790929 16:0.0289366 17:0 18:-0.00974785 19:0.00958784 20:0 21:1 22:0 23:0 24:0 25:0 26:1 27:0 28:0 29:0 30:1 31:0 32:0 33:0 34:0 35:0 
1 1:0 2:0.100156 3:-0.0688576 4:0.100156 5:-0.00118857 6:-0.109213 7:0.00636562 8:0.0184523 9:0.226455 10:0.0037796 11:-0.0122162 12:0.0221073 13:-0.342637 14:0 15:0.0048917 16:-0.00360034 17:0 18:-0.00922236 19:0.00260239 20:0 21:0 22:0 23:0 24:0 25:0 26:1 27:0 28:0 29:0 30:0 31:0 32:0 33:0 34:0 35:0 
1 1:0 2:0.0889571 3:-0.0122699 4:0.0889571 5:-0.0146811 6:-0.223386 7:0.00857851 8:0.0184523 9:-0.00409785 10:-0.00273061 11:0.00732539 12:-0.00255595 13:0.104294 14:0 15:0.0121562 16:-0.00347876 17:0 18:-0.016296 19:0.00220689 20:0 21:0 22:0 23:0 24:0 25:0 26:3 27:0 28:0 29:0 30:0 31:0 32:0 33:0 34:0 35:0 
1 1:0 2:0.211405 3:0.00556328 4:0.211405 5:0.00197725 6:-0.273974 7:0.0137208 8:-0.00630459 9:-0.015165 10:0.0037796 11:-0.00268771 12:-0.00279944 13:0.00172432 14:1 15:-0.00036086 16:0.0289366 17:0 18:0.00436892 19:0.000369551 20:0 21:0 22:0 23:0 24:0 25:0 26:1 27:0 28:1 29:0 30:0 31:0 32:0 33:0 34:0 35:0 
1 1:0 2:0.264748 3:0.028777 4:0.264748 5:0.00115378 6:-0.418283 7:-0.013301 8:0.0184523 9:-0.0161006 10:-0.00273061 11:-0.00480468 12:0.00155162 13:-0.0397299 14:1 15:-0.00530999 16:-0.00347876 17:0 18:-0.00448884 19:0.00404864 20:0 21:0 22:0 23:0 24:0 25:0 26:1 27:0 28:1 29:0 30:0 31:0 32:0 33:0 34:0 35:0 
1 1:0 2:0.226034 3:0.012109 4:0.226034 5:-0.00424959 6:-0.165174 7:0.00636562 8:0.0184523 9:0.00722189 10:-0.00123088 11:0.00699454 12:-0.00223244 13:0.00457983 14:0 15:0.00646052 16:-0.00196836 17:0 18:-0.00205701 19:0.000803702 20:0 21:0 22:0 23:0 24:0 25:0 26:1 27:0 28:0 29:0 30:0 31:0 32:0 33:0 34:0 35:0 
1 1:0 2:0.0739563 3:-0.0357853 4:0.0739563 5:0.00737457 6:-0.0900312 7:-0.00347661 8:0.0100182 9:0.183473 10:-0.00286363 11:0.00388373 12:0.0221073 13:-0.00403877 14:0 15:0.0142631 16:-0.00196836 17:0 18:-0.00678174 19:-0.00405298 20:0 21:0 22:1 23:0 24:0 25:0 26:1 27:0 28:0 29:0 30:0 31:0 32:0 33:0 34:0 35:0 
1 1:1 2:0.221311 3:-0.028103 4:0.221311 5:0.0437735 6:-0.176376 7:0.000933507 8:-0.0025261 9:-0.111151 10:-0.000769924 11:-0.00185013 12:-0.0117779 13:-0.0154296 14:0 15:-0.00790929 16:0.0289366 17:1 18:0.00944273 19:-0.00405298 20:0 21:0 22:2 23:1 24:1 25:0 26:1 27:0 28:0 29:0 30:0 31:0 32:0 33:0 34:0 35:0 
1 1:0 2:0.152318 3:-0.0264901 4:0.152318 5:0.0129942 6:-0.176613 7:-0.00347661 8:0.00111369 9:0.0501683 10:0.0037796 11:-0.00268771 12:-0.00109699 13:-0.0416106 14:0 15:0.00646052 16:0.000647573 17:0 18:-0.00886689 19:0.00623806 20:0 21:0 22:0 23:1 24:0 25:0 26:1 27:0 28:0 29:0 30:0 31:0 32:0 33:0 34:0 35:0 
1 1:1 2:0.204826 3:0.0317834 4:0.204826 5:-0.00174828 6:-0.105893 7:0.00636562 8:-0.0102524 9:-0.13326 10:-0.00273061 11:0.0136848 12:0.00155162 13:0.00482681 14:0 15:-0.00251503 16:0.00252779 17:0 18:-0.00940476 19:-0.000837017 20:0 21:0 22:0 23:1 24:0 25:0 26:1 27:0 28:0 29:0 30:0 31:0 32:0 33:0 34:0 35:0 
1 1:1 2:0.533333 3:0.121212 4:0.533333 5:-0.00118857 6:-0.393527 7:-0.0196727 8:-0.00459058 9:0.0307227 10:0.0037796 11:0.0141877 12:-0.0105182 13:0.040545 14:0 15:0.00574903 16:-0.00293144 17:1 18:0.00222695 19:0.000369551 20:0 21:0 22:0 23:0 24:0 25:0 26:1 27:0 28:0 29:0 30:0 31:0 32:0 33:0 34:0 35:0 
1 1:0 2:0.196137 3:0.0267459 4:0.196137 5:0.0106812 6:-0.149477 7:-0.0196727 8:-0.0025261 9:-0.152592 10:-0.00381029 11:0.025567 12:-0.00109699 13:-0.0217026 14:0 15:0.00646052 16:-0.0143477 17:1 18:0.0175081 19:0.000369551 20:0 21:0 22:0 23:1 24:0 25:0 26:1 27:0 28:0 29:0 30:0 31:0 32:0 33:0 34:0 35:0 
1 1:1 2:0.173432 3:-0.0147601 4:0.173432 5:0.0106812 6:-0.150627 7:-0.00347661 8:0.0100182 9:0.0562325 10:-0.00273061 11:-0.00182434 12:-0.000129959 13:-0.0232879 14:0 15:0.00646052 16:-0.00360034 17:1 18:-0.00677988 19:0.00623806 20:0 21:0 22:0 23:1 24:0 25:0 26:2 27:0 28:0 29:0 30:0 31:0 32:0 33:0 34:0 35:0 
1 1:1 2:0.214404 3:0.0362837 4:0.214404 5:0.0106812 6:-0.274337 7:-0.0196727 8:-0.00459058 9:-0.276025 10:-0.00381029 11:0.025567 12:-0.00109699 13:0.0221567 14:0 15:0.00646052 16:-0.00360034 17:1 18:-0.0052514 19:0.000369551 20:0 21:0 22:0 23:2 24:0 25:0 26:2 27:0 28:0 29:0 30:0 31:0 32:0 33:0 34:0 35:0 
1 1:1 2:0.306452 3:0.0860215 4:0.306452 5:0.0106812 6:-0.0795294 7:-0.00166005 8:-0.0102524 9:0.0709638 10:-0.00335283 11:-0.00185013 12:-0.00109699 13:0.021403 14:0 15:-0.00492854 16:-0.00360034 17:1 18:-0.00853902 19:-0.00405298 20:0 21:0 22:1 23:0 24:0 25:0 26:1 27:0 28:0 29:0 30:0 31:0 32:0 33:0 34:0 35:1 
1 1:1 2:0.114352 3:-0.0303384 4:0.114352 5:0.0106812 6:-0.172722 7:-0.00347661 8:-0.0025261 9:-0.0151243 10:-0.00273061 11:0.0141877 12:-0.000129959 13:-0.0189454 14:0 15:-0.00492397 16:-0.0060947 17:1 18:-0.0118504 19:0.00623806 20:0 21:0 22:0 23:1 24:0 25:0 26:1 27:0 28:0 29:0 30:0 31:0 32:0 33:0 34:0 35:1 
1 1:0 2:0.214404 3:0.0362837 4:0.214404 5:0.0106812 6:-0.114919 7:0.0137208 8:-0.00459058 9:-0.0152322 10:-0.00381029 11:0.025567 12:-0.00109699 13:-0.0590999 14:0 15:0.00574903 16:-0.00360034 17:1 18:0.00423347 19:0.000369551 20:0 21:0 22:0 23:1 24:0 25:0 26:1 27:0 28:0 29:0 30:0 31:0 32:0 33:1 34:0 35:0 
1 1:1 2:0.114352 3:-0.0303384 4:0.114352 5:0.0106812 6:-0.166864 7:-0.00347661 8:0.0100182 9:-0.0252527 10:-0.00273061 11:0.0141877 12:-0.000129959 13:-0.0160344 14:0 15:-0.00492397 16:-0.00360034 17:1 18:-0.00498893 19:0.00623806 20:0 21:0 22:0 23:1 24:0 25:0 26:2 27:0 28:0 29:0 30:0 31:0 32:0 33:0 34:0 35:0 
1 1:0 2:0.325 3:0.05 4:0.325 5:0.0106812 6:-0.31216 7:-0.00737515 8:-0.00459058 9:-0.239245 10:-0.00381029 11:0.025567 12:0.00155162 13:-0.0218314 14:0 15:0.00646052 16:-0.00360034 17:1 18:-0.0012455 19:0.000369551 20:0 21:0 22:0 23:1 24:0 25:0 26:1 27:0 28:0 29:0 30:0 31:0 32:0 33:0 34:0 35:0 
1 1:1 2:0.270968 3:0.0645161 4:0.270968 5:0.0106812 6:-0.167616 7:-0.00347661 8:0.0100182 9:-0.114748 10:0.0037796 11:0.0141877 12:-0.0105182 13:0.144515 14:0 15:0.00574903 16:-0.00293144 17:1 18:-0.0070817 19:0.000369551 20:0 21:0 22:0 23:2 24:0 25:0 26:2 27:0 28:0 29:0 30:0 31:0 32:0 33:0 34:0 35:0 
1 1:0 2:0.112676 3:-0.056338 4:0.112676 5:-0.0102445 6:-0.181399 7:-0.00737515 8:-0.00209975 9:-0.100178 10:0.0037796 11:-0.000258585 12:0.0135939 13:-0.0553382 14:0 15:-0.00492854 16:0.0289366 17:0 18:0.0215541 19:0.000369551 20:0 21:0 22:0 23:0 24:0 25:0 26:2 27:0 28:0 29:0 30:0 31:1 32:0 33:1 34:0 35:0 
1 1:0 2:0.204769 3:0.0308555 4:0.204769 5:0.0129942 6:-0.259845 7:0.0105849 8:0.0100182 9:-0.122151 10:0.0037796 11:-0.00185013 12:-0.0105182 13:-0.0462787 14:0 15:0.00165974 16:-0.00293144 17:1 18:-0.000289647 19:-0.00601379 20:0 21:0 22:0 23:1 24:0 25:0 26:1 27:0 28:0 29:0 30:0 31:1 32:0 33:2 34:0 35:0 
0.138590366945754 1:1 2:0.710794 3:0.109064 4:0.710794 5:0.0106812 6:-0.339014 7:0.000868714 8:0.0101539 9:-2.08167e-017 10:-0.00123088 11:-0.000258585 12:-0.00109699 13:-0.00342495 14:0 15:0.00646052 16:0.00443894 17:1 18:0.000622092 19:-0.00553567 20:0 21:0 22:0 23:0 24:0 25:0 26:1 27:0 28:1 29:0 30:0 31:0 32:0 33:0 34:0 35:0 
1 1:0 2:0.129293 3:-0.040404 4:0.129293 5:-0.0146811 6:-0.144806 7:-0.0196727 8:-0.00459058 9:0.112768 10:-0.000769924 11:-0.00480468 12:0.0221073 13:-0.0839282 14:0 15:-0.000517298 16:-0.00293144 17:0 18:0.00611251 19:0.00220689 20:0 21:0 22:0 23:0 24:0 25:0 26:1 27:0 28:0 29:0 30:0 31:1 32:0 33:0 34:0 35:0 
1 1:0 2:0.213239 3:0.0346513 4:0.213239 5:0.00197725 6:-0.0673573 7:0.000868714 8:0.0184523 9:0.0982077 10:-0.00270045 11:0.00732539 12:-0.00223244 13:0.00611187 14:1 15:-0.000517298 16:-0.00479611 17:0 18:-0.00111184 19:0.00276726 20:0 21:0 22:1 23:0 24:0 25:0 26:1 27:0 28:0 29:0 30:0 31:0 32:0 33:0 34:0 35:0 
-1 1:0 2:0.0945559 3:-0.00573066 4:0.0945559 5:0.0129942 6:-0.252352 7:-0.00516551 8:-0.000155678 9:-0.292276 10:-0.00286363 11:-0.00480468 12:-0.00109699 13:-0.018336 14:0 15:0.00646052 16:-0.0060947 17:0 18:-0.00965152 19:0.000369551 20:0 21:0 22:0 23:0 24:0 25:0 26:1 27:0 28:1 29:0 30:0 31:0 32:0 33:0 34:0 35:0 
-1 1:0 2:0.0527704 3:0.00527704 4:0.0527704 5:0.00115378 6:-0.0842057 7:-0.00347661 8:0.0100182 9:0.151793 10:-0.00286363 11:-0.000258585 12:-0.0105182 13:-0.0632671 14:0 15:-7.70143e-005 16:-0.00347876 17:0 18:-0.00503668 19:0.00220689 20:0 21:0 22:0 23:0 24:0 25:0 26:1 27:0 28:1 29:0 30:0 31:0 32:0 33:0 34:0 35:0 
-1 1:0 2:0.159418 3:-0.0294576 4:0.159418 5:0.00197725 6:-0.339652 7:-0.013301 8:-0.0025261 9:-0.375078 10:-0.00123088 11:-0.00182434 12:0.00677998 13:0.075786 14:1 15:-0.00251503 16:-0.00360034 17:0 18:-0.00660737 19:0.000803702 20:0 21:0 22:0 23:0 24:0 25:0 26:1 27:0 28:0 29:0 30:0 31:0 32:0 33:0 34:0 35:0 
-1 1:0 2:0.0527704 3:0.00527704 4:0.0527704 5:-0.00855852 6:0.0496151 7:-0.00516551 8:0.0044492 9:0.290064 10:0.0037796 11:0.00732539 12:-0.0105182 13:-0.12508 14:0 15:0.0048917 16:-0.00124075 17:0 18:-0.0098592 19:0.00404864 20:0 21:0 22:0 23:0 24:0 25:0 26:1 27:0 28:0 29:0 30:0 31:0 32:0 33:0 34:0 35:0 
-1 1:0 2:0.217097 3:0.0357853 4:0.217097 5:-0.00573529 6:-0.0420408 7:0.00857851 8:-0.00566043 9:0.101579 10:-0.00325732 11:0.00232889 12:-0.00279944 13:-0.00912641 14:1 15:0.00331034 16:-0.00382903 17:1 18:-0.00559456 19:-0.00553567 20:0 21:0 22:0 23:0 24:0 25:0 26:1 27:0 28:0 29:0 30:0 31:0 32:0 33:0 34:0 35:0 
-1 1:0 2:0.112022 3:0.010929 4:0.112022 5:-0.00855676 6:-0.0316522 7:0.00636562 8:0.000253862 9:0.282965 10:-0.00733484 11:-0.00185013 12:-0.0105182 13:0.02058 14:1 15:-0.00790929 16:0.00471629 17:0 18:-0.00115404 19:0.00958784 20:0 21:0 22:0 23:0 24:0 25:0 26:1 27:0 28:0 29:0 30:0 31:0 32:0 33:0 34:0 35:0 
-1 1:0 2:0.231317 3:0.0142349 4:0.231317 5:-0.00174828 6:-0.234408 7:-0.00737515 8:0.0044492 9:-0.0566024 10:-0.00273061 11:-0.00480468 12:-0.0117779 13:-0.0010746 14:1 15:-0.00492854 16:-0.00347876 17:0 18:0.000950544 19:-0.00671981 20:0 21:0 22:0 23:0 24:0 25:0 26:1 27:0 28:1 29:0 30:0 31:0 32:0 33:0 34:0 35:0 
-1 1:0 2:0.183952 3:-0.0317941 4:0.183952 5:0.000589152 6:-0.116866 7:-0.00737515 8:-0.00566043 9:-0.152892 10:-0.00270045 11:-0.00198275 12:-0.0105182 13:0.0958591 14:1 15:-7.70143e-005 16:0.000647573 17:0 18:-0.0175725 19:0.0138395 20:0 21:0 22:0 23:0 24:0 25:0 26:1 27:0 28:0 29:0 30:0 31:0 32:0 33:0 34:0 35:0 
-1 1:0 2:0.126529 3:-0.017714 4:0.126529 5:-0.0102445 6:-0.116534 7:-0.00680823 8:0.000578213 9:0.338977 10:-0.00332328 11:0.00232889 12:0.00217649 13:0.00898846 14:1 15:0.00165974 16:-0.0143477 17:0 18:-0.015952 19:0.00623806 20:0 21:0 22:0 23:0 24:0 25:0 26:1 27:0 28:0 29:0 30:0 31:0 32:0 33:0 34:0 35:0 
-1 1:0 2:0.1 3:-6.93889e-018 4:0.1 5:0.00197725 6:-0.0942663 7:0.00305708 8:-0.0025261 9:0.0443613 10:-0.000710021 11:-0.00480468 12:-0.00255595 13:0.0011167 14:1 15:-0.000517298 16:0.00471629 17:0 18:-0.0234964 19:0.00623806 20:0 21:0 22:0 23:0 24:0 25:0 26:1 27:0 28:0 29:0 30:0 31:0 32:0 33:0 34:0 35:0 
-1 1:0 2:0.181818 3:0.0189959 4:0.181818 5:0.00115378 6:-0.256876 7:-0.0196727 8:-0.00566043 9:0.00895716 10:0.0037796 11:-0.00175902 12:-0.00279944 13:-0.0106414 14:0 15:0.00646052 16:-0.00360034 17:0 18:-0.00319821 19:0.000369551 20:0 21:0 22:0 23:0 24:0 25:0 26:1 27:0 28:1 29:0 30:0 31:0 32:0 33:0 34:0 35:0 
-1 1:0 2:0.108815 3:-0.017714 4:0.108815 5:-0.00855852 6:-0.0488172 7:-0.0196727 8:0.00263785 9:0.0670007 10:-0.00270045 11:-0.00268771 12:-0.0117779 13:-0.015535 14:1 15:-0.000517298 16:-0.00347876 17:0 18:-0.00112068 19:-0.00405298 20:0 21:0 22:1 23:1 24:0 25:0 26:1 27:0 28:1 29:0 30:0 31:0 32:0 33:0 34:0 35:0 
-0.2619504267499833 1:0 2:0.167598 3:0.0111732 4:0.167598 5:-0.0102445 6:-0.16082 7:-0.00347661 8:-0.000155678 9:0.606121 10:0.0037796 11:0.00732539 12:-0.00109699 13:-0.0207898 14:0 15:0.0048917 16:0.00471629 17:1 18:-0.003311 19:0.00220689 20:0 21:0 22:0 23:0 24:0 25:0 26:1 27:0 28:0 29:0 30:0 31:0 32:0 33:0 34:0 35:0 
-1 1:0 2:0.405365 3:0.0774963 4:0.405365 5:-0.0146811 6:-0.402461 7:-0.00737515 8:-0.00624256 9:-0.155708 10:-0.00286363 11:-0.000258585 12:-0.00109699 13:-0.0387477 14:0 15:-0.000517298 16:-0.00382903 17:0 18:0.00392489 19:0.00958784 20:0 21:0 22:0 23:0 24:0 25:0 26:1 27:0 28:1 29:0 30:0 31:0 32:0 33:0 34:0 35:0 
-1 1:0 2:0.395973 3:0.120805 4:0.395973 5:0.00115378 6:0.0524932 7:0.00636562 8:-0.0025261 9:-0.0171533 10:-0.00270045 11:-0.00268771 12:-0.00109699 13:-0.0555091 14:0 15:-0.000517298 16:-0.00269397 17:0 18:0.0031857 19:0.00220689 20:0 21:0 22:0 23:0 24:0 25:0 26:1 27:0 28:1 29:0 30:0 31:0 32:0 33:0 34:0 35:0 
-1 1:0 2:0.171454 3:-0.0378535 4:0.171454 5:-0.00424959 6:-0.152548 7:0.00636562 8:-0.0018813 9:0.339714 10:-0.00270045 11:0.00357244 12:-0.00109699 13:0.0094954 14:0 15:-0.00530999 16:-0.00347876 17:0 18:0.00249082 19:0.00220689 20:0 21:0 22:0 23:0 24:0 25:0 26:1 27:0 28:0 29:0 30:1 31:0 32:0 33:0 34:0 35:0 
-1 1:0 2:0.112022 3:0.010929 4:0.112022 5:0.00115378 6:0.0491731 7:0.000868714 8:-0.00459058 9:0.480363 10:-0.00325732 11:-0.00185013 12:-0.00279944 13:-0.0577308 14:1 15:-0.00530999 16:-0.00196836 17:0 18:-0.0082263 19:-0.000837017 20:0 21:0 22:1 23:0 24:0 25:0 26:1 27:0 28:0 29:0 30:0 31:0 32:0 33:0 34:0 35:0 
-1 1:0 2:0.158033 3:0.00526778 4:0.158033 5:-0.0181781 6:-0.130051 7:-0.00680823 8:0.0044492 9:-0.240808 10:0.0100219 11:0.00388373 12:-0.0117779 13:-0.0830199 14:0 15:-0.00492397 16:-0.00360034 17:0 18:0.0161034 19:-0.00671981 20:0 21:0 22:0 23:0 24:0 25:0 26:1 27:0 28:0 29:0 30:0 31:0 32:0 33:0 34:0 35:0 
-1 1:0 2:0.2 3:-6.93889e-018 4:0.2 5:0.00737457 6:-0.337326 7:-0.000966364 8:-0.0025261 9:-0.180075 10:-0.00273061 11:-0.00185013 12:0.00217649 13:-0.0344867 14:0 15:-0.00251503 16:-0.00347876 17:0 18:-0.0116054 19:-0.00553567 20:0 21:0 22:0 23:0 24:0 25:0 26:1 27:0 28:0 29:0 30:1 31:0 32:0 33:0 34:0 35:0 
-1 1:0 2:0.112022 3:0.010929 4:0.112022 5:-0.0181781 6:0.234684 7:-0.0196727 8:-0.00209975 9:0.361687 10:-0.00123088 11:0.0136848 12:-0.00279944 13:-0.129501 14:0 15:0.000310067 16:-0.00293144 17:0 18:-0.0250339 19:0.00276726 20:0 21:0 22:0 23:0 24:0 25:0 26:1 27:0 28:0 29:0 30:0 31:0 32:0 33:0 34:0 35:0 
-1 1:0 2:0.199525 3:-0.023753 4:0.199525 5:-0.0146811 6:-0.192413 7:-0.0196727 8:-0.0102524 9:0.0339806 10:-0.00286363 11:-0.00182434 12:-0.00109699 13:-0.000152858 14:0 15:0.00646052 16:0.000647573 17:0 18:-0.00835327 19:-0.00405298 20:0 21:0 22:1 23:0 24:0 25:0 26:1 27:0 28:0 29:0 30:1 31:0 32:0 33:0 34:0 35:0 
-1 1:0 2:-1.38778e-017 3:-0.235294 4:-1.38778e-017 5:-0.0181781 6:-0.0258505 7:-0.013301 8:-0.00209975 9:-0.0725223 10:0.00180655 11:-0.00175902 12:-0.00571812 13:-0.0333208 14:0 15:-0.000517298 16:-0.00269397 17:0 18:-0.00549874 19:0.00272342 20:0 21:0 22:0 23:1 24:0 25:0 26:1 27:0 28:0 29:0 30:0 31:0 32:0 33:0 34:0 35:0 
-0.3018863694386225 1:0 2:0.161417 3:0.0472441 4:0.161417 5:-0.00855676 6:-0.0468154 7:0.00636562 8:-0.00566043 9:0.0201856 10:0.0037796 11:-0.00185013 12:-0.000334465 13:0.0629308 14:0 15:-0.00492854 16:0.00605498 17:0 18:0.00809912 19:0.000369551 20:0 21:0 22:1 23:1 24:0 25:0 26:1 27:0 28:1 29:0 30:0 31:0 32:0 33:0 34:0 35:1 
-1 1:0 2:0.192493 3:-0.00384986 4:0.192493 5:0.0129942 6:-0.409929 7:-0.00737515 8:-0.00209975 9:-0.547069 10:-0.00733484 11:-0.000258585 12:-0.00571812 13:0.150216 14:0 15:-0.00251503 16:0.00471629 17:0 18:-0.0161779 19:0.00958784 20:0 21:0 22:0 23:0 24:0 25:0 26:1 27:0 28:0 29:0 30:0 31:0 32:0 33:0 34:0 35:0 
-1 1:0 2:0.109742 3:-0.0357853 4:0.109742 5:0.00737457 6:-0.0182766 7:0.0105849 8:-0.0025261 9:0.223575 10:-0.00325732 11:-0.00185013 12:-0.000129959 13:-0.114961 14:0 15:0.0012351 16:-0.00347876 17:0 18:-0.0191714 19:-0.00601379 20:0 21:0 22:0 23:0 24:0 25:0 26:1 27:0 28:0 29:0 30:0 31:0 32:0 33:1 34:0 35:0 
-1 1:0 2:0.0527704 3:0.00527704 4:0.0527704 5:0.0129942 6:-0.207531 7:0.0105849 8:0.000578213 9:-0.208766 10:-0.00733484 11:-0.00737899 12:-0.0117779 13:-0.033397 14:0 15:-0.00790929 16:-0.0060947 17:0 18:0.0166184 19:0.000369551 20:0 21:0 22:0 23:0 24:0 25:0 26:1 27:0 28:0 29:0 30:0 31:0 32:0 33:0 34:0 35:1 
-1 1:0 2:0.0693878 3:-0.0408163 4:0.0693878 5:0.0106812 6:-0.12001 7:-0.00680823 8:0.00111369 9:0.0714786 10:-0.00123088 11:-0.000258585 12:0.00155162 13:-0.017635 14:0 15:-0.000517298 16:0.00471629 17:0 18:0.00349937 19:-0.00405298 20:0 21:0 22:1 23:0 24:0 25:0 26:2 27:0 28:0 29:0 30:0 31:0 32:0 33:0 34:0 35:0 
-1 1:0 2:0.0580475 3:0.00527704 4:0.0580475 5:-0.0102445 6:0.00563608 7:0.00636562 8:-0.00210731 9:0.44913 10:-0.00325732 11:-0.00185013 12:0.00217649 13:0.117518 14:0 15:-0.0106865 16:-0.00196836 17:0 18:0.000242607 19:0.00623806 20:0 21:0 22:0 23:0 24:0 25:0 26:1 27:0 28:1 29:0 30:0 31:0 32:0 33:0 34:0 35:1 
-1 1:0 2:0.313043 3:0.0767263 4:0.313043 5:0.0106812 6:-0.381283 7:0.0105849 8:-0.00566043 9:-0.00816797 10:-0.00273061 11:-0.00480468 12:-0.00223244 13:-0.000105021 14:0 15:-0.00492854 16:-0.0060947 17:0 18:-0.00187749 19:0.000803702 20:0 21:0 22:0 23:0 24:0 25:0 26:1 27:0 28:1 29:0 30:0 31:0 32:0 33:0 34:0 35:0 
-1 1:0 2:0.131544 3:-0.0134228 4:0.131544 5:-0.00118857 6:-0.106422 7:-0.00347661 8:-0.00209975 9:-0.197564 10:-0.00733484 11:-0.037011 12:-0.0117779 13:-0.136079 14:0 15:0.00646052 16:0.00605498 17:0 18:0.0152711 19:0.000369551 20:0 21:0 22:0 23:0 24:0 25:0 26:1 27:0 28:1 29:0 30:0 31:0 32:0 33:0 34:0 35:0 
-1 1:0 2:0.175258 3:-0.0137457 4:0.175258 5:-0.0146811 6:-0.0134591 7:-0.013301 8:-0.00363048 9:0.229178 10:-0.00123088 11:-0.00185013 12:-0.000129959 13:0.00734584 14:1 15:-0.000517298 16:-0.00483205 17:0 18:0.0209142 19:0.000803702 20:0 21:0 22:0 23:0 24:0 25:0 26:1 27:0 28:0 29:0 30:0 31:0 32:0 33:0 34:0 35:0 
-1 1:0 2:0.455581 3:0.100228 4:0.455581 5:0.0129942 6:-0.214217 7:0.00140932 8:-0.00332417 9:-0.0329622 10:-0.00273061 11:-0.00148109 12:-0.0105182 13:-0.136359 14:0 15:-0.00790929 16:-0.00479611 17:0 18:0.00278601 19:-0.00553567 20:0 21:0 22:0 23:0 24:1 25:0 26:1 27:0 28:0 29:0 30:1 31:0 32:0 33:0 34:0 35:0 
-0.2283614123522047 1:0 2:0.0929882 3:-0.123147 4:0.0929882 5:-0.0146811 6:-0.198021 7:-0.00347661 8:-0.00209975 9:-0.103103 10:0.00180655 11:0.00732539 12:-0.00279944 13:0.0847619 14:0 15:0.0012351 16:-0.00360034 17:0 18:0.00111118 19:0.000803702 20:0 21:0 22:0 23:0 24:0 25:0 26:1 27:0 28:0 29:0 30:0 31:0 32:0 33:0 34:0 35:0 
-1 1:0 2:0.122951 3:0.010929 4:0.122951 5:-0.0181781 6:0.112399 7:0.000933507 8:0.000578213 9:0.482139 10:-0.00273061 11:0.00232889 12:-0.00279944 13:0.0454651 14:1 15:-0.00492397 16:-0.00347876 17:0 18:0.00407031 19:0.000369551 20:0 21:0 22:0 23:0 24:0 25:0 26:1 27:0 28:0 29:0 30:0 31:0 32:0 33:0 34:0 35:0 
-1 1:0 2:0.0607477 3:-0.0560748 4:0.0607477 5:-0.00424959 6:-0.0974914 7:-0.00516551 8:-0.00209975 9:-0.00253851 10:-0.000710021 11:-0.00185013 12:-0.00109699 13:0.00507738 14:0 15:0.00646052 16:0.00732772 17:0 18:-9.3294e-005 19:-0.00405298 20:0 21:0 22:1 23:0 24:0 25:0 26:1 27:0 28:0 29:0 30:0 31:0 32:0 33:0 34:0 35:0 
-1 1:0 2:0.15528 3:-0.0248447 4:0.15528 5:-0.00229984 6:-0.0285575 7:-0.00516551 8:-0.00566043 9:-0.127935 10:-0.00332328 11:-0.00737899 12:0.00155162 13:0.085935 14:0 15:0.00165974 16:0.00443894 17:0 18:-0.0128782 19:0.0138395 20:0 21:0 22:0 23:1 24:0 25:0 26:1 27:0 28:0 29:0 30:0 31:0 32:0 33:1 34:0 35:0 
-1 1:0 2:0.208661 3:0.0472441 4:0.208661 5:-0.0102445 6:-0.0888 7:-0.00516551 8:0.0101539 9:-0.308178 10:0.0037796 11:0.00388373 12:-0.00109699 13:0.0321194 14:0 15:-0.000517298 16:-0.00360034 17:0 18:0.00903163 19:0.000369551 20:0 21:0 22:0 23:0 24:0 25:0 26:2 27:0 28:0 29:0 30:0 31:0 32:0 33:0 34:0 35:0 
-1 1:0 2:0.161027 3:0.00700117 4:0.161027 5:-0.0102445 6:-0.254909 7:-0.000966364 8:-0.00630459 9:0.0442075 10:-0.00123088 11:-0.00185013 12:-0.00279944 13:0.00401214 14:0 15:0.00646052 16:-0.00124075 17:0 18:0.000518752 19:0.000369551 20:0 21:0 22:0 23:0 24:0 25:0 26:1 27:0 28:0 29:0 30:1 31:0 32:0 33:0 34:0 35:0 
-1 1:0 2:0.447352 3:0.0611943 4:0.447352 5:-0.0102445 6:-0.345596 7:-0.00347661 8:-0.0018813 9:-0.11934 10:0.0037796 11:-0.037011 12:-0.00279944 13:-0.00854291 14:0 15:-7.70143e-005 16:-0.0060947 17:0 18:0.0108753 19:0.000369551 20:0 21:0 22:0 23:0 24:0 25:0 26:1 27:0 28:0 29:0 30:1 31:0 32:0 33:0 34:0 35:0 
-1 1:0 2:0.159064 3:-0.0233918 4:0.159064 5:-0.00118857 6:-0.292556 7:-0.0196727 8:-0.00209975 9:0.0662379 10:-0.00476114 11:-0.00268771 12:0.00155162 13:0.0197352 14:0 15:-0.00530999 16:-0.00196836 17:0 18:-0.0124425 19:0.00623806 20:0 21:0 22:0 23:0 24:0 25:0 26:1 27:0 28:1 29:0 30:0 31:0 32:0 33:0 34:0 35:0 
-1 1:0 2:0.2 3:0 4:0.2 5:-0.0102445 6:-0.239661 7:-0.000966364 8:0.0101539 9:-0.0922907 10:-0.00332328 11:-0.00268771 12:-0.00571812 13:0.00085871 14:1 15:-0.00251503 16:-0.00483205 17:0 18:-0.00656061 19:0.000803702 20:0 21:0 22:0 23:1 24:0 25:0 26:1 27:0 28:0 29:0 30:0 31:0 32:0 33:0 34:0 35:0 
-1 1:0 2:0.118403 3:-0.024782 4:0.118403 5:0.00737457 6:-0.252987 7:-0.000428978 8:0.00111814 9:-0.00955223 10:-0.00273061 11:-0.00148109 12:-0.00279944 13:-0.0151332 14:0 15:-0.0106865 16:0.00732772 17:0 18:-0.0015354 19:0.000347898 20:0 21:0 22:1 23:0 24:0 25:0 26:1 27:0 28:0 29:0 30:0 31:0 32:0 33:1 34:0 35:0 
-1 1:0 2:0.111987 3:-0.0323517 4:0.111987 5:-0.0058672 6:-0.123974 7:-0.013301 8:0.0100182 9:0.0865607 10:-0.00733484 11:-0.00268771 12:0.00218961 13:0.00287716 14:0 15:-0.000517298 16:0.00471629 17:0 18:-0.00332051 19:-0.00601379 20:0 21:0 22:0 23:0 24:0 25:0 26:1 27:0 28:0 29:0 30:0 31:0 32:0 33:1 34:0 35:0 
-1 1:0 2:0.120235 3:0.0175953 4:0.120235 5:-0.00118857 6:-0.104058 7:0.00857851 8:-0.00209975 9:0.0179938 10:0.0037796 11:-0.037011 12:-0.0105182 13:-0.0795883 14:0 15:-0.00492854 16:-0.00196836 17:0 18:-0.00977534 19:0.000369551 20:0 21:0 22:1 23:0 24:0 25:0 26:1 27:0 28:0 29:0 30:1 31:0 32:0 33:0 34:0 35:0 
-1 1:0 2:0.112022 3:0.010929 4:0.112022 5:-0.00424959 6:0.0266848 7:-0.00516551 8:-0.0025261 9:0.395642 10:-0.00123088 11:-0.00268771 12:0.00217649 13:0.0456991 14:1 15:0.00165974 16:0.00252779 17:0 18:0.00383914 19:-0.00405298 20:0 21:0 22:1 23:1 24:0 25:0 26:1 27:0 28:0 29:0 30:0 31:0 32:0 33:0 34:0 35:0 
-1 1:0 2:0.0527704 3:0.00527704 4:0.0527704 5:-0.0181781 6:-0.0650131 7:0.00305708 8:-0.00209975 9:0.197238 10:-0.00273061 11:0.0136848 12:-0.00571812 13:-0.0328306 14:0 15:-0.00492854 16:-0.00347876 17:0 18:-0.0186517 19:0.000347898 20:0 21:0 22:0 23:0 24:0 25:0 26:1 27:0 28:1 29:0 30:0 31:0 32:0 33:0 34:0 35:0 
-1 1:0 2:0.0766423 3:-0.0291971 4:0.0766423 5:0.0129942 6:-0.178255 7:-0.013301 8:-0.0025261 9:0.100128 10:-0.00286363 11:-0.00268771 12:-0.000129959 13:-0.00111071 14:0 15:-0.00036086 16:-0.00124075 17:0 18:-0.000157547 19:-0.00405298 20:0 21:0 22:1 23:0 24:0 25:0 26:1 27:0 28:1 29:0 30:0 31:0 32:0 33:0 34:0 35:0 
-1 1:0 2:0.430073 3:0.0605288 4:0.430073 5:-0.00118857 6:-0.658124 7:0.0161474 8:0.00263785 9:-0.0140592 10:-0.000769924 11:0.00232889 12:0.0023707 13:0.00458482 14:0 15:-0.0106865 16:0.000966796 17:0 18:-0.00386949 19:0.000369551 20:0 21:0 22:0 23:1 24:0 25:0 26:1 27:0 28:0 29:0 30:0 31:0 32:0 33:0 34:0 35:0 
-1 1:0 2:0.0830565 3:-0.0199336 4:0.0830565 5:-0.0181781 6:-0.152702 7:0.00636562 8:0.00263785 9:0.838415 10:0.000771071 11:0.00388373 12:0.00677998 13:0.110295 14:0 15:-0.00251503 16:-0.0143477 17:0 18:0.0010186 19:-0.00553567 20:0 21:0 22:1 23:0 24:0 25:0 26:1 27:0 28:0 29:0 30:0 31:0 32:0 33:0 34:0 35:0 
-1 1:0 2:0.161417 3:0.0472441 4:0.161417 5:-0.0102445 6:-0.0652976 7:-0.0196727 8:-0.00566043 9:-0.0739932 10:0.0037796 11:-0.000258585 12:-0.0117779 13:-0.0846746 14:0 15:0.00646052 16:-0.0060947 17:0 18:0.00991934 19:0.000369551 20:0 21:0 22:0 23:0 24:0 25:0 26:1 27:0 28:0 29:0 30:0 31:0 32:0 33:0 34:0 35:1 
-1 1:0 2:0.0890411 3:-0.0410959 4:0.0890411 5:-0.00118857 6:0.21383 7:0.00857851 8:-0.00566043 9:0.0171351 10:-0.00332328 11:0.00732539 12:-0.00279944 13:0.0105921 14:0 15:-0.00530999 16:-0.0060947 17:0 18:0.00236555 19:0.0138395 20:0 21:0 22:0 23:1 24:0 25:0 26:1 27:0 28:0 29:0 30:0 31:0 32:0 33:0 34:0 35:0 
-1 1:0 2:0.15142 3:-0.0294427 4:0.15142 5:-0.0102445 6:-0.281635 7:0.00140932 8:-0.000155678 9:-0.165991 10:0.00128145 11:-0.000258585 12:-0.00571812 13:0.0348993 14:1 15:0.0048917 16:-0.00483205 17:0 18:-0.00649502 19:-0.0057122 20:0 21:0 22:0 23:1 24:0 25:0 26:1 27:0 28:0 29:0 30:0 31:0 32:0 33:0 34:0 35:0 
-1 1:0 2:0.244821 3:-0.00209249 4:0.244821 5:-0.0146811 6:-0.141213 7:0.0105849 8:-0.00566043 9:-0.065292 10:-0.00733484 11:0.00357244 12:0.00218961 13:-0.0380988 14:0 15:-0.00790929 16:-0.0060947 17:0 18:0.00414126 19:0.00220689 20:0 21:0 22:0 23:1 24:0 25:0 26:1 27:0 28:1 29:0 30:0 31:0 32:0 33:0 34:0 35:0 
-1 1:0 2:0.0890125 3:-0.105702 4:0.0890125 5:-0.0181781 6:-0.0446877 7:0.000933507 8:0.00263785 9:0.573403 10:0.0037796 11:0.00357244 12:-0.00317909 13:0.0390302 14:0 15:-0.00530999 16:0.000647573 17:0 18:0.0111747 19:0.00404864 20:0 21:0 22:0 23:0 24:0 25:0 26:1 27:0 28:0 29:0 30:0 31:0 32:0 33:0 34:0 35:0 
-1 1:0 2:0.0527704 3:0.00527704 4:0.0527704 5:-0.00118857 6:-0.0205949 7:0.0137208 8:-0.0102524 9:0.0601758 10:-0.00123088 11:-0.00268771 12:0.00217649 13:-0.00535873 14:0 15:-0.000517298 16:0.00605498 17:0 18:-0.00656802 19:-0.00601379 20:0 21:0 22:0 23:0 24:0 25:0 26:1 27:0 28:0 29:0 30:0 31:0 32:0 33:1 34:0 35:0 
-1 1:0 2:0.220472 3:-0.00874891 4:0.220472 5:0.0106812 6:-0.0926342 7:0.00857851 8:-0.00209975 9:0.0478613 10:-0.0025074 11:-0.037011 12:-0.000334465 13:-0.0082635 14:0 15:0.00165974 16:0.00471629 17:0 18:0.00247433 19:-0.00175629 20:0 21:0 22:0 23:0 24:0 25:0 26:1 27:0 28:0 29:0 30:1 31:0 32:0 33:0 34:0 35:0 
-1 1:0 2:0.0527704 3:0.00527704 4:0.0527704 5:-0.00174828 6:0.0629838 7:-0.000428978 8:0.00111814 9:0.10717 10:0.0037796 11:-0.000757374 12:-0.000334465 13:-0.0190032 14:0 15:0.0048917 16:0.00471629 17:0 18:-0.00157538 19:-0.00601379 20:0 21:0 22:0 23:0 24:0 25:0 26:1 27:0 28:0 29:0 30:0 31:0 32:0 33:1 34:0 35:0 
-0.8537094316593192 1:0 2:0.0527704 3:0.00527704 4:0.0527704 5:0.00115378 6:-0.141046 7:-0.00166005 8:-0.00209975 9:0.225804 10:-0.00381029 11:0.00232889 12:-0.00279944 13:0.0446135 14:0 15:0.0048917 16:0.00471629 17:0 18:-0.00510835 19:-0.00207511 20:0 21:0 22:0 23:0 24:0 25:0 26:1 27:0 28:1 29:0 30:0 31:0 32:0 33:0 34:0 35:0 
-1 1:0 2:0.0527704 3:0.00527704 4:0.0527704 5:-0.00424959 6:-0.0945306 7:0.00305708 8:-0.000155678 9:0.120456 10:-0.00733484 11:-0.00148109 12:0.00677998 13:0.00902924 14:0 15:0.00574903 16:-0.00124075 17:0 18:0.00693625 19:-0.00601379 20:0 21:0 22:0 23:0 24:0 25:0 26:1 27:0 28:0 29:0 30:0 31:0 32:0 33:1 34:0 35:0 
-1 1:0 2:0.234752 3:-0.00628799 4:0.234752 5:0.00197725 6:-0.536611 7:0.00140932 8:-0.0102524 9:-0.577455 10:-0.00667065 11:-0.00480468 12:-0.000334465 13:0.0902308 14:1 15:-0.000517298 16:-0.00360034 17:0 18:-0.00977074 19:-0.00207511 20:0 21:0 22:0 23:0 24:0 25:0 26:1 27:0 28:0 29:0 30:0 31:0 32:0 33:0 34:0 35:0 
-1 1:0 2:0.14386 3:0.0350877 4:0.14386 5:-0.00118857 6:-0.239306 7:0.0161474 8:0.0044492 9:-0.0226398 10:-0.00733484 11:-0.00480468 12:-0.00255595 13:-0.0688581 14:0 15:-0.00790929 16:0.00443894 17:0 18:0.0106665 19:-0.00671981 20:0 21:0 22:0 23:0 24:0 25:0 26:1 27:0 28:0 29:0 30:0 31:0 32:0 33:0 34:0 35:1 
-1 1:0 2:0.0889571 3:-0.0122699 4:0.0889571 5:0.0129942 6:-0.333708 7:0.00140932 8:-0.0102524 9:-0.574562 10:-0.00270045 11:0.00388373 12:-0.0117779 13:0.096639 14:0 15:-0.0106865 16:0.00471629 17:0 18:-0.0249375 19:0.000421736 20:0 21:0 22:0 23:0 24:0 25:0 26:1 27:0 28:0 29:0 30:0 31:0 32:0 33:0 34:0 35:0 
-1 1:1 2:0.18552 3:0.0633484 4:0.18552 5:0.0106812 6:-0.31305 7:0.00140932 8:-0.00624256 9:-0.172332 10:-0.00733484 11:0.00388373 12:0.00677998 13:0.0452234 14:0 15:-0.00036086 16:-0.00124075 17:1 18:0.0131069 19:-0.00671981 20:0 21:0 22:0 23:0 24:1 25:0 26:1 27:0 28:0 29:0 30:0 31:0 32:0 33:0 34:0 35:0 
-1 1:1 2:0.315425 3:0.0797227 4:0.315425 5:-0.0181781 6:-0.337019 7:-0.00516551 8:-0.000155678 9:0.0988125 10:0.0037796 11:-0.0122162 12:0.00218961 13:0.0337304 14:0 15:0.0121562 16:0.00443894 17:1 18:0.0156126 19:0.000369551 20:0 21:0 22:1 23:0 24:1 25:0 26:1 27:0 28:0 29:0 30:0 31:0 32:0 33:0 34:0 35:0 
-0.6551356204799518 1:0 2:0.161417 3:0.0472441 4:0.161417 5:-0.0181781 6:-0.299732 7:0.00636562 8:0.0101539 9:0.0448327 10:-0.00286363 11:-0.00737899 12:-0.00279944 13:0.0316062 14:0 15:-0.000517298 16:0.00605498 17:1 18:-0.0215397 19:0.000421736 20:0 21:0 22:0 23:0 24:0 25:0 26:1 27:0 28:1 29:0 30:0 31:0 32:0 33:0 34:0 35:0 
-1 1:0 2:0.0497238 3:-0.0773481 4:0.0497238 5:0.00115378 6:-0.199057 7:-0.00680823 8:0.000253862 9:0.393301 10:-0.00270045 11:0.00357244 12:-0.00279944 13:-0.163406 14:0 15:-0.000517298 16:0.00471629 17:0 18:0.00222675 19:-0.00671981 20:0 21:0 22:0 23:0 24:0 25:0 26:1 27:0 28:0 29:0 30:0 31:0 32:0 33:0 34:0 35:0 
-1 1:0 2:0.238361 3:0.0484171 4:0.238361 5:0.00115378 6:-0.195139 7:-0.00516551 8:-0.0102524 9:-0.137034 10:-0.000710021 11:0.00732539 12:-0.00571812 13:0.0113946 14:0 15:-0.00790929 16:-0.00360034 17:0 18:-0.00937481 19:-0.013254 20:0 21:0 22:0 23:0 24:0 25:0 26:1 27:0 28:1 29:0 30:0 31:0 32:0 33:0 34:0 35:0 
-1 1:0 2:0.0989918 3:-0.0384968 4:0.0989918 5:-0.0181781 6:-0.226819 7:-0.00516551 8:-0.00566043 9:-0.163857 10:0.0037796 11:-0.00268771 12:-0.00571812 13:-0.0164521 14:0 15:-0.000517298 16:0.00471629 17:1 18:0.000647567 19:0.00272342 20:0 21:0 22:0 23:0 24:0 25:0 26:1 27:0 28:1 29:0 30:0 31:0 32:0 33:0 34:0 35:0 
-1 1:0 2:0.543126 3:0.169086 4:0.543126 5:-0.00424959 6:-0.533536 7:0.00636562 8:-0.0025261 9:0.0435451 10:0.0037796 11:-0.000258585 12:-0.00317909 13:-0.0190832 14:0 15:-0.000517298 16:0.00605498 17:0 18:0.00911858 19:0.000369551 20:0 21:0 22:0 23:0 24:0 25:0 26:1 27:0 28:0 29:0 30:0 31:0 32:0 33:0 34:0 35:0 
-1 1:0 2:0.542381 3:0.0499755 4:0.542381 5:-0.00118857 6:-0.428341 7:-0.00737515 8:-0.0018813 9:0.0953037 10:-0.00325732 11:-0.0122162 12:-0.00255595 13:-0.051722 14:0 15:0.0121562 16:-0.00360034 17:0 18:-0.00813961 19:0.00220689 20:0 21:0 22:0 23:0 24:0 25:0 26:1 27:0 28:0 29:0 30:0 31:0 32:0 33:0 34:0 35:0 
-1 1:0 2:0.22043 3:0.0860215 4:0.22043 5:-0.0181781 6:-0.00971998 7:0.00636562 8:0.0044492 9:0.506684 10:-0.000710021 11:0.00388373 12:-0.00279944 13:-0.151617 14:0 15:-0.0106865 16:-0.0143477 17:0 18:-0.0194575 19:0.00623806 20:0 21:0 22:0 23:0 24:0 25:0 26:1 27:0 28:0 29:0 30:0 31:0 32:0 33:0 34:0 35:0 
-1 1:0 2:0.181818 3:0.0189959 4:0.181818 5:0.00115378 6:-0.608413 7:-0.00680823 8:-0.00566043 9:-0.494416 10:-0.00335283 11:-0.000258585 12:7.55969e-005 13:0.0606634 14:0 15:-0.0106865 16:-0.00360034 17:0 18:0.00178407 19:-0.013254 20:0 21:0 22:0 23:0 24:0 25:0 26:1 27:0 28:1 29:0 30:0 31:0 32:0 33:0 34:0 35:0 
-1 1:0 2:0.440642 3:0.0641711 4:0.440642 5:0.00737457 6:-0.717608 7:0.000933507 8:0.0101539 9:-0.269 10:0.0037796 11:-0.037011 12:0.00155162 13:-0.0175999 14:0 15:0.0048917 16:-0.00196836 17:1 18:0.0101431 19:0.000369551 20:0 21:0 22:0 23:0 24:0 25:0 26:1 27:0 28:0 29:0 30:0 31:0 32:0 33:0 34:0 35:0 
-1 1:0 2:0.0693878 3:-0.0408163 4:0.0693878 5:0.0129942 6:-0.105799 7:-0.00516551 8:-0.000155678 9:0.445692 10:-0.00273061 11:-0.00480468 12:0.00218961 13:-0.0359956 14:0 15:-0.00790929 16:-0.00360034 17:0 18:0.00637786 19:0.00958784 20:0 21:0 22:0 23:0 24:0 25:0 26:1 27:0 28:0 29:0 30:0 31:0 32:0 33:0 34:0 35:1 
-1 1:0 2:0.0580475 3:0.00527704 4:0.0580475 5:-0.0102445 6:-0.0672466 7:-0.0196727 8:0.0100182 9:0.772355 10:-0.00733484 11:0.00388373 12:-0.00571812 13:0.036031 14:0 15:-0.00790929 16:-0.00360034 17:0 18:0.0074925 19:0.000347898 20:0 21:0 22:0 23:1 24:0 25:0 26:1 27:0 28:0 29:0 30:0 31:0 32:0 33:0 34:0 35:0 
-1 1:0 2:0.0889571 3:-0.0122699 4:0.0889571 5:-0.0058672 6:-0.168418 7:-0.00174313 8:0.0100182 9:0.694086 10:-0.00733484 11:0.00388373 12:0.00677998 13:0.0950057 14:0 15:-0.000517298 16:-0.0060947 17:0 18:0.00552544 19:-0.013254 20:0 21:0 22:0 23:0 24:0 25:0 26:1 27:0 28:0 29:0 30:0 31:0 32:0 33:0 34:0 35:0 
-1 1:0 2:0.139361 3:-0.00746578 4:0.139361 5:-0.0181781 6:-0.314315 7:-0.0196727 8:-0.00209975 9:-0.103682 10:-0.00332328 11:-0.037011 12:-0.000129959 13:0.0208326 14:0 15:0.00165974 16:0.00471629 17:0 18:0.00579196 19:-0.00405298 20:0 21:0 22:1 23:0 24:0 25:0 26:1 27:0 28:0 29:0 30:1 31:0 32:0 33:0 34:0 35:0 
-1 1:0 2:0.0830565 3:-0.0199336 4:0.0830565 5:0.00115378 6:0.11711 7:0.0105849 8:-0.0102524 9:0.140485 10:-0.00325732 11:0.00388373 12:0.00218961 13:-0.0731176 14:0 15:0.0012351 16:0.00471629 17:0 18:-0.0119634 19:0.00276726 20:0 21:0 22:0 23:0 24:0 25:0 26:1 27:0 28:0 29:0 30:0 31:0 32:0 33:0 34:0 35:0 
-1 1:0 2:0.103226 3:-0.0774194 4:0.103226 5:-0.0146811 6:-0.0439336 7:-0.00347661 8:0.0100182 9:-0.0923778 10:-0.000769924 11:-0.00737899 12:-0.000129959 13:-0.142966 14:0 15:-0.000517298 16:0.00471629 17:0 18:0.0150855 19:0.000369551 20:0 21:0 22:0 23:1 24:0 25:0 26:1 27:0 28:0 29:0 30:0 31:0 32:0 33:0 34:0 35:0 
-0.03389323868537519 1:0 2:0.0527704 3:0.00527704 4:0.0527704 5:0.0106812 6:-0.0923826 7:0.00636562 8:-0.00624256 9:0.0892023 10:-0.00273061 11:0.00232889 12:-0.00279944 13:0.125524 14:0 15:0.00646052 16:-0.00196836 17:0 18:-0.0174449 19:-0.00601379 20:0 21:0 22:0 23:0 24:0 25:0 26:1 27:0 28:0 29:0 30:0 31:0 32:0 33:1 34:0 35:0 
-1 1:0 2:0.0693878 3:-0.0408163 4:0.0693878 5:0.00115378 6:-0.0164304 7:0.00636562 8:-0.00209975 9:0.557589 10:-0.00325732 11:0.00232889 12:0.00218961 13:0.189347 14:0 15:0.00165974 16:-0.00196836 17:0 18:0.0032472 19:-0.00671981 20:0 21:0 22:0 23:0 24:0 25:0 26:1 27:0 28:0 29:0 30:0 31:0 32:0 33:0 34:0 35:0 
-1 1:0 2:0.0527704 3:0.00527704 4:0.0527704 5:-0.00855676 6:-0.440435 7:0.0137208 8:-0.00630459 9:-0.39747 10:-0.00325732 11:0.00732539 12:7.55969e-005 13:0.160317 14:0 15:-0.000517298 16:-0.00360034 17:0 18:0.00288018 19:-0.0057122 20:0 21:0 22:0 23:0 24:0 25:0 26:2 27:0 28:0 29:0 30:0 31:0 32:0 33:0 34:0 35:0 
-1 1:0 2:0.0527704 3:0.00527704 4:0.0527704 5:-0.0181781 6:0.175833 7:0.0105849 8:0.0044492 9:0.0261196 10:-0.00325732 11:0.00357244 12:-0.000334465 13:-0.1701 14:0 15:-0.0106865 16:-0.00360034 17:0 18:-0.0142351 19:0.00623806 20:0 21:0 22:0 23:0 24:0 25:0 26:1 27:0 28:0 29:0 30:0 31:0 32:0 33:0 34:0 35:0 
-1 1:0 2:0.161417 3:0.0472441 4:0.161417 5:-0.00118857 6:-0.37061 7:-0.000966364 8:-0.00566043 9:-0.1668 10:-0.00325732 11:-0.00268771 12:-0.00279944 13:0.0204771 14:0 15:-7.70143e-005 16:-0.00479611 17:0 18:-0.0030296 19:0.00958784 20:0 21:0 22:1 23:0 24:0 25:0 26:1 27:0 28:1 29:0 30:0 31:0 32:0 33:0 34:0 35:0 
-1 1:0 2:0.0527704 3:0.00527704 4:0.0527704 5:-0.0181781 6:0.0510644 7:0.000868714 8:-0.0102524 9:0.112946 10:-0.00733484 11:0.00732539 12:-0.00109699 13:-0.0631544 14:0 15:0.00646052 16:0.00443894 17:0 18:0.00412727 19:-0.00405298 20:0 21:0 22:1 23:0 24:0 25:0 26:1 27:0 28:0 29:0 30:0 31:0 32:0 33:0 34:0 35:0 
-1 1:0 2:0.0527704 3:0.00527704 4:0.0527704 5:-0.00855676 6:0.0535508 7:-0.000966364 8:-0.00459058 9:0.118056 10:0.000771071 11:0.00388373 12:-0.00109699 13:-0.041121 14:0 15:0.00646052 16:-0.00483205 17:0 18:-0.027281 19:0.00623806 20:0 21:0 22:1 23:0 24:0 25:0 26:1 27:0 28:0 29:0 30:0 31:0 32:0 33:0 34:0 35:0 
-1 1:0 2:0.0527704 3:0.00527704 4:0.0527704 5:-0.0102445 6:0.15562 7:0.0137208 8:-0.00210731 9:-0.007921 10:-0.00335283 11:0.00732539 12:-0.00279944 13:-0.164359 14:0 15:-0.000517298 16:-0.00293144 17:0 18:-0.00673778 19:-0.00553567 20:0 21:0 22:0 23:0 24:0 25:0 26:1 27:0 28:0 29:0 30:0 31:0 32:0 33:0 34:0 35:0 
-1 1:0 2:0.19478 3:0.0267346 4:0.19478 5:-0.00855852 6:-0.435009 7:-0.00347661 8:0.0100182 9:-0.0825604 10:-0.00273061 11:0.00232889 12:-0.000129959 13:0.0231257 14:0 15:0.00574903 16:-0.0143477 17:0 18:-0.00653746 19:-0.00601379 20:0 21:0 22:0 23:0 24:0 25:0 26:1 27:0 28:0 29:0 30:0 31:0 32:0 33:1 34:0 35:0 
-1 1:0 2:0.355199 3:0.0372386 4:0.355199 5:-0.0102445 6:-0.52404 7:0.00636562 8:0.00111369 9:-0.084242 10:0.00180655 11:0.00357244 12:-0.00317909 13:-0.0058223 14:0 15:0.00165974 16:0.00443894 17:0 18:0.00541507 19:-0.00553567 20:0 21:0 22:0 23:0 24:0 25:0 26:1 27:0 28:0 29:0 30:0 31:0 32:0 33:0 34:0 35:0 
-1 1:0 2:0.31366 3:0.0166432 4:0.31366 5:-0.0058672 6:-0.585398 7:-0.00347661 8:-0.00209975 9:-0.244564 10:-0.00325732 11:-0.00182434 12:0.0135939 13:0.0175072 14:0 15:0.00165974 16:-0.0060947 17:0 18:-0.00578198 19:-0.00207511 20:0 21:0 22:0 23:0 24:0 25:0 26:1 27:0 28:0 29:0 30:0 31:0 32:0 33:0 34:0 35:0 
-1 1:0 2:0.395187 3:0.110196 4:0.395187 5:-0.00573529 6:-0.185806 7:-0.000966364 8:-0.0102524 9:0.160008 10:-0.00273061 11:0.00232889 12:-0.00255595 13:-0.0277279 14:1 15:-0.00530999 16:-0.00347876 17:0 18:0.00128911 19:-0.0057122 20:0 21:0 22:0 23:0 24:0 25:0 26:1 27:0 28:0 29:0 30:0 31:0 32:0 33:0 34:0 35:0 
-1 1:0 2:0.112022 3:0.010929 4:0.112022 5:-0.00174828 6:-0.118987 7:0.000868714 8:-0.0025261 9:-0.101813 10:0.000771071 11:-0.00185013 12:-0.0117779 13:0.0442026 14:1 15:-0.00492854 16:-0.00360034 17:0 18:-0.0182363 19:-0.013254 20:0 21:0 22:0 23:0 24:0 25:0 26:1 27:0 28:0 29:0 30:0 31:0 32:0 33:0 34:0 35:0 
-0.7647792748238145 1:0 2:0.0342466 3:-0.109589 4:0.0342466 5:-0.00118857 6:-0.111998 7:0.00636562 8:-0.00209975 9:-0.0249263 10:-0.000769924 11:-0.00268771 12:0.00218961 13:0.083246 14:0 15:-0.000517298 16:0.00443894 17:1 18:-0.011486 19:0.00404864 20:0 21:0 22:0 23:0 24:0 25:0 26:2 27:0 28:0 29:0 30:0 31:0 32:0 33:0 34:0 35:0 
-1 1:0 2:0.0342466 3:-0.109589 4:0.0342466 5:-0.00118857 6:-0.0947491 7:0.00636562 8:-0.00209975 9:-0.0305343 10:-0.000769924 11:-0.00268771 12:0.00218961 13:0.0513696 14:0 15:-0.000517298 16:0.00443894 17:1 18:-0.0113202 19:0.00623806 20:0 21:0 22:0 23:0 24:0 25:0 26:2 27:0 28:0 29:0 30:0 31:0 32:0 33:0 34:0 35:0 
-0.2150676214869824 1:0 2:0.567968 3:0.0942127 4:0.567968 5:-0.00424959 6:-0.364601 7:-0.0196727 8:-0.00459058 9:0.0710326 10:0.0037796 11:-0.00182434 12:-0.0105182 13:0.00868201 14:0 15:0.00574903 16:-0.00293144 17:1 18:0.00303 19:0.000369551 20:0 21:0 22:0 23:0 24:0 25:0 26:1 27:0 28:0 29:0 30:0 31:0 32:0 33:0 34:0 35:0 
-1 1:0 2:0.274131 3:0.030888 4:0.274131 5:-0.0102445 6:-0.237184 7:0.0105849 8:-0.0018813 9:0.0149061 10:0.0037796 11:-0.00185013 12:0.00677998 13:-0.0200191 14:0 15:-0.000517298 16:0.00471629 17:0 18:-0.00313685 19:-0.00601379 20:0 21:0 22:0 23:1 24:0 25:0 26:2 27:0 28:0 29:0 30:0 31:0 32:0 33:1 34:0 35:0 
-1 1:1 2:0.141249 3:-0.0595895 4:0.141249 5:0.0106812 6:-0.264569 7:-0.00347661 8:-0.00459058 9:-0.00916948 10:-0.00667065 11:-0.037011 12:-0.000129959 13:0.00735116 14:0 15:-0.00036086 16:-0.00293144 17:0 18:-0.00801345 19:0.00260239 20:0 21:0 22:0 23:1 24:0 25:0 26:1 27:0 28:0 29:0 30:0 31:0 32:0 33:0 34:0 35:0 
-1 1:0 2:0.274131 3:0.030888 4:0.274131 5:-0.0102445 6:-0.237184 7:0.0105849 8:-0.0018813 9:0.0149061 10:0.0037796 11:-0.00185013 12:0.00677998 13:-0.0200191 14:0 15:-0.000517298 16:0.00471629 17:0 18:-0.00313685 19:-0.00601379 20:0 21:0 22:0 23:1 24:0 25:0 26:2 27:0 28:0 29:0 30:0 31:0 32:0 33:1 34:0 35:0 
-1 1:1 2:0.364847 3:0.0399467 4:0.364847 5:0.0106812 6:-0.234648 7:0.00857851 8:-0.00566043 9:0.0013966 10:-0.000769924 11:-0.037011 12:0.00677998 13:-0.00177844 14:0 15:-0.000517298 16:0.00471629 17:1 18:-0.00874253 19:-0.00405298 20:0 21:0 22:1 23:1 24:0 25:0 26:2 27:0 28:0 29:0 30:0 31:0 32:0 33:0 34:0 35:0 
-1 1:0 2:0.567968 3:0.0942127 4:0.567968 5:-0.00424959 6:-0.364601 7:-0.0196727 8:-0.00459058 9:0.0710326 10:0.0037796 11:-0.00182434 12:-0.0105182 13:0.00868201 14:0 15:0.00574903 16:-0.00293144 17:0 18:0.00303 19:0.000369551 20:0 21:0 22:0 23:0 24:0 25:0 26:1 27:0 28:0 29:0 30:0 31:0 32:0 33:0 34:0 35:0 
