svm_type c_svc
kernel_type rbf
gamma 0.0285714
nr_class 2
total_sv 479
rho -2.56642
label 1 -1
nr_sv 240 239
SV
1 1:0 2:0.444828 3:0.0413793 4:0.444828 5:0.00197725 6:-0.295553 7:0.0137208 8:0.0044492 9:-0.0141199 10:0.0100219 11:0.0136848 12:0.0221073 13:-0.0999776 14:1 15:-0.00492854 16:-0.00293144 17:0 18:0.0239382 19:-0.013254 20:0 21:0 22:0 23:0 24:0 25:0 26:0 27:0 28:0 29:0 30:0 31:0 32:0 33:1 34:0 35:0 
1 1:0 2:0.239819 3:0.0180995 4:0.239819 5:0.00197725 6:-0.153213 7:0.0105849 8:-0.0025261 9:-0.0817806 10:-0.00286363 11:0.025567 12:0.00217649 13:-0.181158 14:1 15:-0.00251503 16:-0.0143477 17:0 18:0.0135145 19:-0.00601379 20:0 21:0 22:0 23:0 24:0 25:0 26:0 27:0 28:0 29:0 30:1 31:0 32:0 33:1 34:0 35:0 
1 1:0 2:0.54379 3:0.0475558 4:0.54379 5:-0.0181781 6:-0.816112 7:-0.00680823 8:-0.00566043 9:-0.714941 10:0.0100219 11:0.00732539 12:-0.00279944 13:0.0604215 14:2 15:-0.0106865 16:0.00732772 17:0 18:-0.00338606 19:-0.00601379 20:0 21:0 22:0 23:1 24:0 25:0 26:0 27:1 28:1 29:0 30:0 31:0 32:0 33:1 34:0 35:0 
1 1:0 2:0.243655 3:0.0203046 4:0.243655 5:0.0129942 6:-0.454279 7:-0.0196727 8:-0.0025261 9:-0.239656 10:0.00890847 11:0.0136848 12:-0.0105182 13:0.0279531 14:1 15:-0.00790929 16:-0.00479611 17:0 18:-0.0157624 19:0.00623806 20:0 21:0 22:1 23:0 24:0 25:0 26:0 27:0 28:0 29:0 30:0 31:0 32:0 33:0 34:0 35:0 
1 1:0 2:0.594937 3:0.151899 4:0.594937 5:0.0106812 6:-0.708823 7:-0.0196727 8:0.0184523 9:-0.541163 10:-0.0025074 11:0.00232889 12:7.55969e-005 13:0.280112 14:1 15:-0.00036086 16:0.00732772 17:0 18:-0.00937001 19:-0.00175629 20:0 21:0 22:1 23:0 24:0 25:0 26:0 27:0 28:0 29:0 30:0 31:0 32:0 33:0 34:0 35:0 
1 1:0 2:0.0548564 3:-0.132301 4:0.0548564 5:-0.00424959 6:-0.178618 7:0.00857851 8:-0.00459058 9:-0.239468 10:0.0100219 11:-0.037011 12:0.00218961 13:-0.0758913 14:1 15:-0.00492854 16:0.00732772 17:0 18:-0.00580251 19:0.0138395 20:0 21:0 22:0 23:0 24:0 25:0 26:0 27:0 28:0 29:0 30:0 31:0 32:0 33:1 34:0 35:0 
1 1:0 2:0.232924 3:0.044226 4:0.232924 5:0.00197725 6:-0.0949505 7:0.00857851 8:0.0184523 9:-0.187813 10:0.00890847 11:0.00232889 12:0.00217649 13:-0.119062 14:1 15:-0.000517298 16:-0.00124075 17:0 18:0.00756455 19:-0.00553567 20:0 21:0 22:0 23:0 24:0 25:0 26:0 27:0 28:0 29:0 30:0 31:0 32:0 33:0 34:0 35:0 
1 1:0 2:0.338251 3:0.0323858 4:0.338251 5:0.0437735 6:-0.301492 7:0.0105849 8:-0.00624256 9:-0.304553 10:-0.00270045 11:-0.00198275 12:0.00217649 13:-0.0121947 14:1 15:0.0121562 16:0.00732772 17:0 18:-0.00597565 19:0.00958784 20:0 21:0 22:0 23:0 24:0 25:1 26:0 27:0 28:0 29:0 30:1 31:0 32:0 33:0 34:0 35:0 
1 1:0 2:0.236287 3:0.0168776 4:0.236287 5:-0.0181781 6:-0.333184 7:-0.013301 8:0.000578213 9:-0.316241 10:0.0100219 11:0.00357244 12:0.00677998 13:0.0331512 14:1 15:0.0048917 16:0.00732772 17:0 18:-0.00455091 19:0.000369551 20:0 21:0 22:1 23:0 24:0 25:0 26:0 27:0 28:0 29:0 30:1 31:0 32:0 33:0 34:0 35:0 
1 1:0 2:0.123957 3:-0.0524434 4:0.123957 5:0.00197725 6:-0.292029 7:-0.000966364 8:0.0184523 9:-0.423341 10:-0.00381029 11:0.00732539 12:-0.0117779 13:0.124169 14:2 15:0.000310067 16:0.00471629 17:0 18:-0.0131941 19:0.00260239 20:0 21:0 22:0 23:0 24:0 25:0 26:0 27:0 28:0 29:0 30:0 31:1 32:0 33:1 34:0 35:0 
1 1:0 2:0.491663 3:0.0812313 4:0.491663 5:-0.0181781 6:-0.808448 7:0.0105849 8:-0.0102524 9:-0.414921 10:-0.00123088 11:0.00357244 12:-0.00317909 13:0.00232576 14:1 15:0.00165974 16:-0.00360034 17:0 18:0.00706387 19:0.0138395 20:0 21:0 22:0 23:0 24:0 25:0 26:0 27:0 28:0 29:0 30:1 31:1 32:0 33:0 34:0 35:0 
1 1:0 2:0.385906 3:0.0268456 4:0.385906 5:0.0437735 6:-0.790799 7:-0.00737515 8:-0.00566043 9:-0.106018 10:0.0194542 11:0.00388373 12:0.00218961 13:0.0287428 14:1 15:-0.00036086 16:-0.00196836 17:0 18:-0.0277149 19:0.00404864 20:0 21:0 22:0 23:0 24:0 25:0 26:0 27:0 28:1 29:1 30:0 31:0 32:0 33:0 34:0 35:0 
1 1:0 2:0.22561 3:0.0121951 4:0.22561 5:0.0106812 6:-0.208596 7:0.00636562 8:0.0184523 9:-0.194904 10:0.00890847 11:0.00732539 12:-0.000129959 13:-0.108656 14:1 15:-0.00251503 16:-0.00293144 17:0 18:0.0319735 19:0.00958784 20:0 21:0 22:0 23:0 24:0 25:0 26:0 27:0 28:1 29:0 30:0 31:0 32:0 33:0 34:0 35:0 
1 1:0 2:0.0672704 3:-0.121604 4:0.0672704 5:0.0129942 6:-0.243401 7:0.0161474 8:-0.00630459 9:-0.203556 10:-0.000769924 11:0.00732539 12:0.0023707 13:-0.136158 14:3 15:-0.000517298 16:0.00732772 17:0 18:0.018687 19:0.00272342 20:0 21:0 22:0 23:0 24:0 25:0 26:0 27:0 28:0 29:0 30:0 31:0 32:0 33:0 34:0 35:0 
1 1:0 2:0.256098 3:0.0243902 4:0.256098 5:0.00197725 6:-0.190743 7:0.00857851 8:-0.00624256 9:-0.131256 10:-0.0025074 11:-0.00268771 12:0.0135939 13:-0.0380751 14:2 15:0.00165974 16:-0.0060947 17:0 18:-0.00925715 19:-0.00175629 20:0 21:0 22:0 23:1 24:1 25:0 26:0 27:0 28:0 29:0 30:0 31:0 32:0 33:0 34:0 35:0 
1 1:0 2:0.318584 3:0.0353982 4:0.318584 5:0.00197725 6:0.0188818 7:0.0105849 8:0.0184523 9:0.05403 10:-0.00273061 11:0.00732539 12:0.00217649 13:-0.135352 14:2 15:0.00574903 16:-0.00360034 17:0 18:0.0168262 19:0.000369551 20:0 21:0 22:0 23:1 24:0 25:0 26:0 27:0 28:1 29:0 30:0 31:0 32:0 33:0 34:0 35:0 
1 1:0 2:0.771649 3:0.14004 4:0.771649 5:-0.0058672 6:-0.653121 7:0.0161474 8:-0.0025261 9:-0.0565348 10:-0.000710021 11:0.025567 12:-0.00279944 13:0.0756358 14:2 15:-0.00530999 16:0.00605498 17:0 18:-0.00880824 19:-0.00671981 20:0 21:0 22:1 23:0 24:0 25:0 26:0 27:0 28:0 29:0 30:0 31:0 32:0 33:0 34:0 35:0 
1 1:0 2:0.29259 3:0.0721976 4:0.29259 5:0.00197725 6:-0.532068 7:-0.0196727 8:0.000578213 9:-0.230256 10:0.0037796 11:-0.00268771 12:-0.000334465 13:-0.000407012 14:1 15:-0.000517298 16:0.00605498 17:0 18:0.000518784 19:0.00958784 20:0 21:0 22:0 23:0 24:0 25:0 26:0 27:0 28:1 29:0 30:0 31:0 32:0 33:0 34:0 35:1 
1 1:0 2:0.59759 3:0.144578 4:0.59759 5:0.0106812 6:-0.174933 7:0.0137208 8:0.0184523 9:-0.0401062 10:0.0100219 11:-0.00185013 12:0.00155162 13:0.0483684 14:1 15:0.0142631 16:0.00443894 17:0 18:0.00586317 19:-0.00207511 20:0 21:0 22:1 23:0 24:0 25:0 26:0 27:0 28:0 29:0 30:0 31:0 32:0 33:1 34:0 35:0 
1 1:0 2:0.341424 3:0.012945 4:0.341424 5:0.0130167 6:-0.610758 7:-0.00347661 8:-0.00624256 9:-0.656195 10:-0.00332328 11:0.0136848 12:-0.000334465 13:-0.0204333 14:1 15:-0.00492854 16:-0.00293144 17:0 18:0.0145074 19:0.000369551 20:0 21:0 22:0 23:0 24:0 25:0 26:0 27:1 28:0 29:0 30:0 31:0 32:0 33:1 34:0 35:0 
1 1:0 2:0.232924 3:0.044226 4:0.232924 5:0.00197725 6:0.0453428 7:-0.00347661 8:-0.0102524 9:-0.0216403 10:-0.00381029 11:0.00232889 12:-0.00279944 13:-0.111866 14:1 15:0.00574903 16:-0.00124075 17:0 18:-0.0128914 19:-0.00405298 20:0 21:0 22:1 23:0 24:0 25:0 26:0 27:0 28:0 29:0 30:0 31:0 32:0 33:0 34:0 35:0 
1 1:0 2:0.0542067 3:-0.0440429 4:0.0542067 5:-0.0146811 6:7.54605e-017 7:-0.00347661 8:0.000578213 9:0.110406 10:0.0194542 11:0.00732539 12:0.00155162 13:0.0349496 14:1 15:-0.00530999 16:-0.00124075 17:0 18:-0.0108524 19:0.000803702 20:0 21:0 22:0 23:0 24:0 25:0 26:0 27:0 28:0 29:0 30:0 31:0 32:0 33:0 34:0 35:0 
1 1:0 2:0.117121 3:-0.0268402 4:0.117121 5:0.00197725 6:-0.158289 7:-0.0196727 8:0.0044492 9:-0.173918 10:-0.00381029 11:0.00232889 12:-0.0105182 13:-0.0278213 14:1 15:-0.00349054 16:-0.00360034 17:0 18:0.00988281 19:0.00623806 20:0 21:0 22:0 23:0 24:1 25:0 26:0 27:0 28:0 29:0 30:0 31:0 32:0 33:0 34:0 35:0 
1 1:0 2:0.250489 3:0.0234834 4:0.250489 5:0.0437735 6:-0.132914 7:0.0105849 8:-0.00566043 9:-0.0349062 10:-0.00381029 11:0.0141877 12:-0.0105182 13:-0.109132 14:1 15:0.00646052 16:-0.0060947 17:0 18:0.00805121 19:0.00272342 20:0 21:0 22:0 23:0 24:1 25:0 26:0 27:0 28:0 29:0 30:0 31:0 32:0 33:0 34:0 35:0 
1 1:0 2:0.445006 3:0.0859671 4:0.445006 5:0.00737457 6:-0.38784 7:0.0137208 8:-0.00459058 9:-0.246957 10:0.0100219 11:-0.037011 12:-0.0105182 13:0.0144489 14:1 15:0.00646052 16:-0.0143477 17:0 18:0.00209175 19:0.000369551 20:0 21:0 22:0 23:0 24:0 25:0 26:0 27:0 28:0 29:0 30:0 31:0 32:0 33:2 34:0 35:0 
1 1:0 2:0.126529 3:-0.017714 4:0.126529 5:0.00737457 6:-0.162096 7:0.00857851 8:-0.00332417 9:-0.152301 10:0.0100219 11:0.00388373 12:0.00217649 13:0.000341202 14:1 15:-0.00036086 16:0.00252779 17:0 18:-0.0307346 19:0.000347898 20:0 21:0 22:0 23:0 24:1 25:0 26:0 27:0 28:0 29:0 30:1 31:0 32:0 33:0 34:0 35:0 
1 1:0 2:0.177474 3:-0.0341297 4:0.177474 5:0.0129942 6:-0.177181 7:-0.000966364 8:-0.0102524 9:0.0590819 10:0.0100219 11:-0.037011 12:-0.000874371 13:-0.0476743 14:1 15:0.00331034 16:-0.0060947 17:0 18:0.00249978 19:0.0138395 20:0 21:0 22:1 23:0 24:0 25:0 26:0 27:0 28:0 29:0 30:0 31:0 32:0 33:0 34:0 35:0 
1 1:0 2:0.0813008 3:-0.0813008 4:0.0813008 5:0.00197725 6:-0.76747 7:0.000868714 8:0.000578213 9:0.0406835 10:0.0194542 11:0.00732539 12:-0.00255595 13:-0.11524 14:1 15:-0.00530999 16:-0.0143477 17:0 18:-0.0196396 19:0.00260239 20:0 21:0 22:0 23:0 24:0 25:0 26:0 27:0 28:0 29:0 30:0 31:0 32:0 33:0 34:0 35:0 
1 1:0 2:0.108815 3:-0.017714 4:0.108815 5:-0.0181781 6:-0.446957 7:0.00140932 8:-0.00624256 9:-0.323531 10:-0.00286363 11:-0.00148109 12:0.00677998 13:0.0640483 14:1 15:0.0121562 16:-0.0143477 17:0 18:-0.0282617 19:-0.00207511 20:0 21:0 22:0 23:0 24:0 25:0 26:0 27:0 28:0 29:0 30:0 31:0 32:0 33:0 34:0 35:0 
1 1:0 2:0.492661 3:0.0550459 4:0.492661 5:0.0437735 6:-0.571706 7:-0.00347661 8:0.0101539 9:-0.512455 10:-0.00733484 11:-0.00268771 12:-0.00109699 13:0.173879 14:1 15:-0.0106865 16:0.00732772 17:0 18:-0.0174293 19:0.00404864 20:0 21:0 22:0 23:0 24:0 25:0 26:0 27:0 28:0 29:0 30:0 31:0 32:1 33:0 34:0 35:0 
1 1:0 2:0.325952 3:0.02737 4:0.325952 5:0.00115378 6:-0.342074 7:-0.00737515 8:-0.00624256 9:-0.304702 10:-0.000769924 11:0.00388373 12:0.00677998 13:0.0789544 14:1 15:0.0048917 16:0.00471629 17:0 18:-0.015592 19:0.00276726 20:0 21:0 22:0 23:0 24:1 25:0 26:0 27:0 28:1 29:0 30:0 31:0 32:0 33:1 34:0 35:0 
1 1:0 2:0.0875912 3:-0.0458811 4:0.0875912 5:0.00197725 6:-0.13434 7:0.00636562 8:0.0044492 9:-0.00518362 10:0.00890847 11:-0.00480468 12:0.0221073 13:-0.0771509 14:1 15:-0.00530999 16:0.0289366 17:0 18:0.0148821 19:0.00958784 20:0 21:0 22:0 23:0 24:0 25:0 26:0 27:0 28:0 29:0 30:0 31:0 32:0 33:0 34:0 35:0 
1 1:0 2:0.27715 3:0.044226 4:0.27715 5:0.00197725 6:-0.149097 7:-0.00680823 8:0.00111369 9:0.0552857 10:-0.000710021 11:0.025567 12:0.00677998 13:-0.0041972 14:1 15:0.0121562 16:-0.00347876 17:0 18:-0.00174829 19:-0.00671981 20:0 21:0 22:0 23:0 24:0 25:0 26:0 27:0 28:0 29:0 30:1 31:0 32:0 33:0 34:0 35:0 
1 1:0 2:0.256098 3:0.0243902 4:0.256098 5:0.00197725 6:-0.344954 7:0.00305708 8:-0.00209975 9:-0.0826825 10:-0.00332328 11:0.0136848 12:0.00155162 13:-0.0918068 14:2 15:0.00165974 16:-0.0060947 17:0 18:0.0140598 19:-0.00175629 20:0 21:0 22:0 23:1 24:0 25:0 26:0 27:0 28:0 29:0 30:0 31:0 32:0 33:0 34:0 35:0 
1 1:0 2:0.242105 3:-0.0210526 4:0.242105 5:0.00197725 6:-0.363942 7:0.000868714 8:-0.0102524 9:-0.510441 10:0.0194542 11:0.00232889 12:0.0221073 13:0.154603 14:1 15:-0.0106865 16:-0.00124075 17:0 18:-0.0256441 19:0.00220689 20:1 21:0 22:0 23:0 24:0 25:0 26:0 27:1 28:0 29:0 30:0 31:0 32:0 33:0 34:0 35:0 
1 1:0 2:0.112022 3:0.010929 4:0.112022 5:-0.00174828 6:-0.181296 7:-0.013301 8:-0.000155678 9:-0.227976 10:-0.00332328 11:-0.00737899 12:-0.00109699 13:-0.0459531 14:1 15:0.00574903 16:0.00605498 17:0 18:0.00905926 19:-0.00671981 20:0 21:0 22:1 23:0 24:0 25:0 26:0 27:0 28:0 29:0 30:0 31:0 32:0 33:0 34:0 35:0 
1 1:0 2:0.375546 3:0.0436681 4:0.375546 5:-0.0181781 6:-0.253845 7:-0.00680823 8:-0.00459058 9:-0.176853 10:-0.0025074 11:-0.00737899 12:0.00155162 13:0.048677 14:1 15:0.0142631 16:-0.00347876 17:0 18:-0.0110066 19:-0.00175629 20:0 21:0 22:0 23:0 24:0 25:0 26:0 27:0 28:0 29:0 30:0 31:0 32:0 33:0 34:0 35:0 
1 1:0 2:0.439745 3:0.0637798 4:0.439745 5:-0.00424959 6:-0.707548 7:0.00140932 8:-0.00459058 9:-0.475567 10:-0.000769924 11:0.00388373 12:0.00677998 13:0.165152 14:1 15:0.00646052 16:0.00605498 17:0 18:-0.0074653 19:0.00958784 20:0 21:0 22:0 23:0 24:0 25:0 26:1 27:0 28:1 29:0 30:0 31:0 32:0 33:0 34:0 35:0 
1 1:0 2:0.484353 3:0.0512091 4:0.484353 5:0.00197725 6:-0.368142 7:0.00636562 8:0.0100182 9:-0.047237 10:-0.00335283 11:-0.00268771 12:-0.000129959 13:-0.121113 14:1 15:0.00165974 16:-0.0143477 17:0 18:0.00954976 19:-0.00601379 20:0 21:0 22:0 23:0 24:0 25:0 26:0 27:0 28:0 29:0 30:1 31:0 32:0 33:1 34:0 35:0 
1 1:0 2:0.138396 3:-0.0468417 4:0.138396 5:0.00197725 6:-0.226972 7:0.000868714 8:-0.00624256 9:-0.2135 10:-0.00270045 11:-0.00198275 12:-0.00317909 13:0.0333089 14:2 15:-0.00036086 16:0.0289366 17:0 18:-0.0065968 19:0.00260239 20:0 21:0 22:0 23:0 24:0 25:0 26:0 27:0 28:0 29:0 30:0 31:0 32:0 33:0 34:0 35:0 
1 1:0 2:0.266082 3:-0.0116959 4:0.266082 5:-0.00174828 6:-0.264725 7:-0.00737515 8:-0.000155678 9:-0.229512 10:-0.00325732 11:-0.00185013 12:-0.0117779 13:-0.0309976 14:1 15:0.00646052 16:-0.00196836 17:0 18:0.00347504 19:0.0138395 20:0 21:0 22:0 23:0 24:0 25:0 26:0 27:0 28:0 29:0 30:1 31:0 32:0 33:0 34:0 35:0 
1 1:0 2:0.189152 3:-0.00556328 4:0.189152 5:0.0437735 6:-0.0755092 7:-0.000966364 8:-0.00566043 9:0.039653 10:-0.000769924 11:-0.00480468 12:0.00155162 13:-0.0374205 14:1 15:0.00574903 16:0.00471629 17:0 18:0.0162473 19:-0.013254 20:0 21:0 22:0 23:0 24:0 25:0 26:0 27:0 28:1 29:0 30:0 31:0 32:0 33:0 34:0 35:1 
1 1:0 2:0.232924 3:0.044226 4:0.232924 5:0.00197725 6:-0.215121 7:-0.000966364 8:0.0044492 9:-0.124225 10:-0.00123088 11:-0.00268771 12:0.00155162 13:0.00620858 14:1 15:-0.000517298 16:-0.00347876 17:0 18:0.0118407 19:0.000369551 20:0 21:0 22:1 23:0 24:0 25:0 26:0 27:0 28:1 29:0 30:0 31:0 32:0 33:0 34:0 35:0 
1 1:0 2:0.659763 3:0.0946746 4:0.659763 5:0.00197725 6:-0.900364 7:0.0105849 8:0.0100182 9:-0.278807 10:-0.00325732 11:-0.000258585 12:-0.00255595 13:0.132514 14:2 15:0.0048917 16:0.00252779 17:0 18:-0.00655683 19:0.00958784 20:0 21:0 22:1 23:0 24:0 25:0 26:0 27:0 28:0 29:0 30:0 31:0 32:0 33:0 34:0 35:0 
1 1:0 2:0.121118 3:-0.0745342 4:0.121118 5:-0.0146811 6:-0.220873 7:-0.0196727 8:-0.00209975 9:-0.167846 10:-0.00332328 11:-0.00148109 12:-0.000334465 13:-0.0512574 14:1 15:0.00646052 16:-0.00479611 17:0 18:0.00979296 19:0.00272342 20:0 21:0 22:0 23:0 24:0 25:0 26:0 27:0 28:1 29:1 30:0 31:0 32:0 33:0 34:0 35:0 
1 1:0 2:0.199416 3:-0.0394449 4:0.199416 5:0.00197725 6:-0.295544 7:-0.000966364 8:-0.00624256 9:-0.402963 10:-0.000769924 11:0.00699454 12:-0.0117779 13:0.0417207 14:1 15:-0.00251503 16:-0.00483205 17:0 18:-0.00135744 19:-0.00405298 20:0 21:0 22:1 23:0 24:0 25:0 26:0 27:0 28:4 29:0 30:0 31:0 32:0 33:0 34:0 35:0 
1 1:0 2:0.726318 3:0.0850435 4:0.726318 5:-0.0181781 6:-0.768306 7:-0.0196727 8:-0.00566043 9:-0.522782 10:0.00890847 11:-0.00268771 12:0.00155162 13:-0.0226228 14:1 15:-7.70143e-005 16:0.00732772 17:0 18:0.0125974 19:-0.00671981 20:0 21:0 22:1 23:0 24:0 25:0 26:0 27:0 28:3 29:0 30:0 31:0 32:0 33:0 34:0 35:1 
1 1:0 2:0.29259 3:0.0721976 4:0.29259 5:0.00197725 6:-0.178003 7:0.000933507 8:-0.00332417 9:-0.010435 10:-0.00733484 11:0.00732539 12:-0.00317909 13:-0.0677402 14:1 15:-0.00530999 16:-0.00382903 17:0 18:-0.000160096 19:0.00623806 20:0 21:0 22:0 23:0 24:1 25:0 26:0 27:0 28:0 29:0 30:0 31:0 32:0 33:0 34:0 35:0 
1 1:0 2:0.664109 3:0.112683 4:0.664109 5:-0.0181781 6:-0.575867 7:-0.00347661 8:0.0101539 9:-0.318998 10:-0.00332328 11:0.0136848 12:-0.00109699 13:-0.0132291 14:2 15:-0.0106865 16:-0.00483205 17:0 18:0.0076783 19:0.00958784 20:0 21:0 22:0 23:0 24:0 25:0 26:0 27:0 28:0 29:0 30:0 31:0 32:0 33:0 34:0 35:0 
1 1:1 2:0.337573 3:-0.021725 4:0.337573 5:0.00115378 6:-0.469789 7:-0.0196727 8:0.0044492 9:-0.244232 10:-0.00123088 11:-0.00268771 12:-0.000874371 13:-0.0692895 14:2 15:0.0142631 16:0.00732772 17:0 18:-0.00605546 19:-0.00553567 20:0 21:1 22:0 23:0 24:1 25:0 26:0 27:0 28:0 29:0 30:0 31:0 32:0 33:0 34:0 35:0 
1 1:0 2:0.509017 3:0.0244981 4:0.509017 5:-0.0146811 6:-0.763112 7:0.0161474 8:-0.00624256 9:-0.582814 10:-0.0025074 11:-0.037011 12:-0.000129959 13:0.100404 14:2 15:-0.00530999 16:-0.00382903 17:0 18:0.00532923 19:-0.00175629 20:0 21:0 22:0 23:1 24:0 25:0 26:0 27:0 28:0 29:0 30:0 31:0 32:0 33:0 34:0 35:0 
1 1:1 2:1.25731 3:0.172002 4:1.25731 5:-0.0058672 6:-1.33719 7:0.00305708 8:-0.00566043 9:-0.854628 10:-0.0025074 11:-0.000258585 12:-0.00615216 13:0.0981329 14:2 15:-0.00588288 16:-0.0042043 17:0 18:-0.00338207 19:-0.00175629 20:0 21:0 22:0 23:1 24:0 25:0 26:0 27:0 28:0 29:0 30:0 31:0 32:0 33:0 34:0 35:0 
1 1:0 2:0.150099 3:-0.048145 4:0.150099 5:0.0129942 6:-0.351945 7:-0.013301 8:-0.000155678 9:-0.22501 10:-0.00286363 11:-0.00148109 12:-0.000129959 13:-0.0861866 14:1 15:-0.0106865 16:0.00605498 17:0 18:0.0159704 19:0.00958784 20:1 21:0 22:0 23:0 24:1 25:0 26:0 27:0 28:0 29:0 30:0 31:0 32:0 33:0 34:0 35:0 
1 1:0 2:0.29259 3:0.0721976 4:0.29259 5:0.00197725 6:-0.0847133 7:-0.00516551 8:-0.0025261 9:0.296727 10:0.0100219 11:0.00388373 12:0.0135939 13:0.0489426 14:1 15:-0.00349054 16:-0.00483205 17:0 18:0.0136009 19:0.000803702 20:0 21:0 22:0 23:0 24:0 25:0 26:0 27:0 28:0 29:0 30:0 31:0 32:0 33:0 34:0 35:0 
1 1:0 2:0.205644 3:-0.0485229 4:0.205644 5:-0.00118857 6:-0.1274 7:0.00857851 8:0.0100182 9:-0.114134 10:-0.00335283 11:0.025567 12:-0.0105182 13:-0.0327218 14:1 15:0.0121562 16:0.0289366 17:0 18:-0.000221882 19:0.00272342 20:0 21:0 22:0 23:0 24:0 25:0 26:0 27:0 28:0 29:0 30:0 31:0 32:0 33:0 34:0 35:0 
1 1:0 2:0.1 3:-6.93889e-018 4:0.1 5:0.00197725 6:0.0891251 7:0.00636562 8:-0.00624256 9:0.0315577 10:0.00890847 11:0.0136848 12:0.00677998 13:-0.0509979 14:1 15:0.00574903 16:0.00443894 17:0 18:0.00722651 19:-0.013254 20:0 21:0 22:0 23:0 24:0 25:0 26:0 27:0 28:0 29:0 30:0 31:0 32:0 33:1 34:0 35:0 
1 1:0 2:0.329547 3:0.0271956 4:0.329547 5:0.00197725 6:-0.249503 7:0.000868714 8:0.000253862 9:-0.0151891 10:-0.00667065 11:-0.0122162 12:0.00218961 13:-0.0185201 14:2 15:0.0121562 16:-0.00196836 17:0 18:0.00667001 19:0.000347898 20:0 21:0 22:0 23:0 24:0 25:0 26:0 27:0 28:0 29:0 30:1 31:0 32:0 33:0 34:0 35:0 
1 1:1 2:0.448936 3:0.0425532 4:0.448936 5:-0.0058672 6:-0.388044 7:0.0161474 8:-0.000155678 9:-0.0771392 10:0.00180655 11:-0.037011 12:0.00217649 13:0.00409849 14:2 15:-0.00349054 16:-0.00159909 17:0 18:-0.00504573 19:-0.00671981 20:0 21:0 22:0 23:0 24:0 25:0 26:0 27:0 28:0 29:0 30:1 31:0 32:0 33:0 34:0 35:0 
1 1:1 2:0.282903 3:0.0123001 4:0.282903 5:0.00197725 6:-0.657784 7:0.00636562 8:-0.000155678 9:-0.454531 10:-0.00332328 11:0.025567 12:-0.00279944 13:0.0298643 14:2 15:-0.00251503 16:-0.00382903 17:0 18:-0.00192972 19:0.000803702 20:0 21:0 22:0 23:0 24:1 25:0 26:0 27:0 28:0 29:1 30:0 31:0 32:0 33:0 34:0 35:0 
1 1:0 2:0.171821 3:-0.0343643 4:0.171821 5:-0.00573529 6:-0.141993 7:-0.00516551 8:-0.0025261 9:-0.0420837 10:-0.000769924 11:0.00732539 12:0.00155162 13:-0.062204 14:1 15:-0.00492854 16:-0.00479611 17:0 18:0.00569651 19:-0.00405298 20:0 21:0 22:1 23:0 24:0 25:0 26:0 27:0 28:0 29:0 30:0 31:0 32:0 33:0 34:0 35:0 
1 1:0 2:0.258421 3:0.0563225 4:0.258421 5:0.00197725 6:-0.177749 7:-0.00680823 8:0.0184523 9:-0.268538 10:-0.00332328 11:0.00732539 12:-0.0105182 13:0.0616257 14:1 15:0.000310067 16:-0.00196836 17:0 18:-0.00258158 19:0.000369551 20:0 21:0 22:0 23:0 24:1 25:0 26:0 27:0 28:0 29:0 30:0 31:0 32:0 33:0 34:0 35:0 
1 1:0 2:0.239819 3:0.0180995 4:0.239819 5:0.00197725 6:-0.555163 7:0.000868714 8:0.00263785 9:-0.231577 10:-0.00286363 11:0.0141877 12:-0.00255595 13:0.0408695 14:1 15:0.0142631 16:-0.00483205 17:0 18:-0.000381755 19:0.00276726 20:0 21:0 22:0 23:0 24:0 25:0 26:0 27:0 28:0 29:0 30:0 31:0 32:0 33:0 34:0 35:0 
1 1:0 2:0.280255 3:0.0254777 4:0.280255 5:0.0106812 6:-0.831958 7:-0.0196727 8:-0.0025261 9:-0.298827 10:-0.000769924 11:0.00232889 12:-0.00571812 13:-0.0504951 14:1 15:-7.70143e-005 16:0.00605498 17:0 18:-0.00737489 19:-0.00553567 20:0 21:0 22:1 23:0 24:0 25:0 26:0 27:1 28:0 29:0 30:0 31:0 32:0 33:0 34:0 35:0 
1 1:0 2:0.2 3:0 4:0.2 5:0.0437735 6:-0.280491 7:-0.0196727 8:0.00263785 9:-0.169585 10:-0.000710021 11:0.00357244 12:0.00217649 13:-0.0141313 14:1 15:-0.00790929 16:0.00252779 17:0 18:0.0124326 19:0.00272342 20:0 21:0 22:0 23:0 24:0 25:0 26:0 27:0 28:0 29:0 30:1 31:0 32:0 33:0 34:0 35:0 
1 1:0 2:0.227948 3:-0.0262009 4:0.227948 5:0.00115378 6:-0.468779 7:-0.00737515 8:-0.00624256 9:-0.329732 10:-0.000769924 11:0.00232889 12:0.0135939 13:0.0662469 14:1 15:-0.00530999 16:-0.00483205 17:0 18:-0.0197165 19:0.00260239 20:0 21:0 22:1 23:0 24:0 25:0 26:0 27:0 28:1 29:0 30:0 31:0 32:0 33:0 34:0 35:0 
1 1:0 2:0.159064 3:-0.0233918 4:0.159064 5:0.0129942 6:-0.153296 7:0.0161474 8:0.00263785 9:-0.0858125 10:0.00890847 11:0.0141877 12:-0.000129959 13:-0.0695968 14:1 15:-0.00790929 16:0.00443894 17:0 18:0.048124 19:0.000803702 20:0 21:0 22:0 23:0 24:0 25:0 26:0 27:0 28:1 29:0 30:0 31:0 32:0 33:0 34:0 35:0 
0.2703430022107587 1:0 2:0.124107 3:-0.0203084 4:0.124107 5:0.00197725 6:-0.134645 7:0.00140932 8:0.0100182 9:-0.0981766 10:-0.00335283 11:-0.000258585 12:-0.000129959 13:-0.0347207 14:1 15:0.00646052 16:-0.0143477 17:1 18:0.011863 19:0.000369551 20:0 21:0 22:0 23:0 24:0 25:0 26:0 27:0 28:0 29:0 30:0 31:0 32:0 33:0 34:0 35:0 
0.2163643137624463 1:1 2:0.214399 3:-0.0349391 4:0.214399 5:0.00197725 6:-0.223003 7:-0.00737515 8:0.000578213 9:-0.268348 10:-0.00332328 11:-0.00268771 12:-0.000129959 13:-0.0528019 14:2 15:-0.00251503 16:-0.00479611 17:0 18:-0.0185447 19:-0.00553567 20:0 21:0 22:0 23:1 24:1 25:0 26:0 27:0 28:0 29:0 30:0 31:0 32:0 33:0 34:0 35:1 
1 1:0 2:0.176829 3:-0.0121951 4:0.176829 5:0.00197725 6:-0.176027 7:-0.00174313 8:0.0184523 9:-0.0652089 10:0.0194542 11:-0.00737899 12:0.00677998 13:-0.00186094 14:1 15:-0.00492854 16:-0.0143477 17:0 18:-0.0162876 19:-0.00671981 20:0 21:0 22:0 23:0 24:0 25:0 26:0 27:0 28:0 29:0 30:0 31:0 32:0 33:0 34:0 35:0 
1 1:0 2:0.109146 3:-0.0333502 4:0.109146 5:-0.00118857 6:-0.0845096 7:-0.00680823 8:0.0100182 9:0.111183 10:-0.00123088 11:0.0136848 12:0.0135939 13:-0.0459347 14:1 15:-7.70143e-005 16:0.00471629 17:0 18:-0.0177444 19:0.00404864 20:0 21:0 22:1 23:0 24:0 25:0 26:0 27:0 28:0 29:0 30:0 31:0 32:0 33:0 34:0 35:0 
1 1:0 2:0.0259303 3:-0.0919347 4:0.0259303 5:0.00197725 6:-0.158815 7:0.00140932 8:-0.0025261 9:-0.275777 10:0.00180655 11:0.00357244 12:0.00218961 13:-0.00827612 14:1 15:0.0048917 16:0.00732772 17:0 18:0.00510718 19:0.00272342 20:0 21:0 22:0 23:0 24:0 25:0 26:0 27:0 28:0 29:0 30:0 31:0 32:0 33:0 34:0 35:0 
1 1:0 2:0.23506 3:0.0159363 4:0.23506 5:0.00197725 6:-0.296651 7:0.00636562 8:0.0044492 9:-0.0621175 10:-0.00733484 11:0.00388373 12:0.00677998 13:-0.0654144 14:1 15:-0.000517298 16:0.00471629 17:0 18:0.00333699 19:0.00220689 20:0 21:0 22:0 23:0 24:0 25:0 26:0 27:0 28:0 29:0 30:0 31:0 32:0 33:0 34:0 35:0 
1 1:0 2:0.167722 3:-0.0189873 4:0.167722 5:0.00197725 6:-0.634949 7:-0.00347661 8:-0.00209975 9:-0.700427 10:-0.00273061 11:-0.00480468 12:0.00217649 13:0.00188908 14:2 15:-0.00251503 16:-0.0060947 17:0 18:-0.0112089 19:-0.00175629 20:0 21:0 22:0 23:0 24:0 25:0 26:0 27:0 28:0 29:0 30:1 31:0 32:0 33:0 34:0 35:0 
1 1:0 2:0.29259 3:0.0721976 4:0.29259 5:0.00197725 6:-0.262913 7:-0.0196727 8:0.0100182 9:0.0193749 10:-0.00733484 11:-0.000258585 12:-0.00279944 13:-0.00752323 14:1 15:-0.00530999 16:-0.00483205 17:0 18:0.0122901 19:0.00958784 20:0 21:0 22:0 23:0 24:0 25:0 26:0 27:0 28:0 29:0 30:0 31:0 32:0 33:0 34:0 35:0 
1 1:0 2:0.134783 3:-0.0434783 4:0.134783 5:0.00197725 6:-0.147985 7:-0.00516551 8:0.0044492 9:-0.316288 10:-0.000769924 11:0.0141877 12:-0.00223244 13:-0.144724 14:2 15:0.00165974 16:-0.00360034 17:0 18:0.019614 19:-0.013254 20:0 21:0 22:0 23:1 24:0 25:0 26:0 27:0 28:0 29:0 30:0 31:0 32:0 33:0 34:0 35:0 
1 1:0 2:0.256901 3:0.00273299 4:0.256901 5:-0.00424959 6:-0.288316 7:0.0137208 8:0.0044492 9:-0.0534017 10:-0.00123088 11:-0.00480468 12:0.0135939 13:-0.00772943 14:1 15:-0.000517298 16:0.00732772 17:0 18:0.0104058 19:0.00958784 20:0 21:0 22:0 23:0 24:0 25:0 26:0 27:0 28:0 29:0 30:0 31:0 32:0 33:0 34:0 35:0 
1 1:0 2:0.0652625 3:-0.139425 4:0.0652625 5:0.00197725 6:0.139834 7:-0.013301 8:0.0100182 9:0.127978 10:0.00890847 11:0.0141877 12:-0.00109699 13:-0.253617 14:2 15:0.0121562 16:0.00732772 17:0 18:0.010084 19:0.00272342 20:0 21:0 22:0 23:1 24:0 25:1 26:0 27:0 28:0 29:0 30:0 31:0 32:0 33:0 34:0 35:0 
1 1:0 2:0.390022 3:0.0455355 4:0.390022 5:0.00197725 6:-0.278888 7:0.00636562 8:0.0044492 9:-0.105454 10:-0.00123088 11:0.025567 12:-0.00279944 13:-0.0136413 14:2 15:-0.000517298 16:-0.00293144 17:0 18:0.0131805 19:-0.0057122 20:0 21:0 22:0 23:1 24:0 25:0 26:0 27:0 28:0 29:0 30:0 31:0 32:0 33:1 34:0 35:0 
1 1:0 2:0.221649 3:0.0103093 4:0.221649 5:0.00197725 6:-0.526362 7:0.00140932 8:0.0100182 9:-0.482023 10:0.0100219 11:-0.00737899 12:-0.0117779 13:0.141928 14:1 15:-0.00492397 16:0.00605498 17:0 18:-0.0293024 19:0.000347898 20:0 21:0 22:1 23:0 24:0 25:0 26:0 27:0 28:0 29:0 30:0 31:0 32:0 33:0 34:0 35:0 
1 1:0 2:0.0759975 3:-0.0721976 4:0.0759975 5:0.00197725 6:-0.192334 7:-0.013301 8:0.000578213 9:-0.208022 10:-0.00273061 11:-0.00268771 12:0.0135939 13:-0.109207 14:1 15:-0.00790929 16:0.00443894 17:0 18:0.0240259 19:0.00272342 20:0 21:0 22:0 23:0 24:0 25:0 26:0 27:0 28:0 29:0 30:0 31:0 32:0 33:0 34:0 35:0 
1 1:0 2:0.11811 3:-0.0742407 4:0.11811 5:0.0129942 6:-0.545726 7:-0.0196727 8:-0.00566043 9:-0.599994 10:-0.000769924 11:0.00357244 12:-0.00109699 13:0.0110382 14:2 15:-0.00790929 16:-0.00360034 17:0 18:0.0226472 19:0.00272342 20:0 21:0 22:0 23:1 24:0 25:0 26:0 27:0 28:1 29:0 30:0 31:0 32:0 33:0 34:0 35:0 
1 1:0 2:0.167421 3:-0.0180995 4:0.167421 5:-0.00855676 6:-0.17294 7:0.000868714 8:-0.00624256 9:-0.126011 10:0.0194542 11:-0.037011 12:-0.00317909 13:-0.042237 14:2 15:-0.00349054 16:-0.0060947 17:0 18:0.0214898 19:-0.0057122 20:0 21:0 22:0 23:0 24:0 25:0 26:0 27:0 28:0 29:0 30:0 31:0 32:0 33:0 34:0 35:1 
1 1:0 2:0.214789 3:0.00704225 4:0.214789 5:0.0437735 6:-0.274351 7:0.0105849 8:0.00263785 9:-0.0878774 10:-0.00273061 11:0.00388373 12:0.00155162 13:-0.0129855 14:1 15:0.0012351 16:-0.00382903 17:0 18:0.0225164 19:0.00404864 20:0 21:0 22:0 23:0 24:1 25:0 26:0 27:0 28:0 29:0 30:0 31:0 32:0 33:0 34:0 35:0 
1 1:0 2:0.100246 3:-0.044226 4:0.100246 5:0.00197725 6:-0.214104 7:0.00305708 8:-0.00209975 9:-0.193171 10:-0.000710021 11:0.0141877 12:0.0023707 13:0.00957204 14:1 15:0.00165974 16:0.00443894 17:0 18:-0.00236515 19:-0.00601379 20:0 21:0 22:0 23:0 24:0 25:0 26:0 27:0 28:0 29:0 30:0 31:0 32:0 33:1 34:0 35:0 
1 1:0 2:0.117569 3:-0.0139489 4:0.117569 5:0.0437735 6:-0.0769428 7:0.00857851 8:0.0184523 9:-0.0421022 10:-0.00286363 11:0.00388373 12:-0.000334465 13:-0.104546 14:1 15:0.00331034 16:-0.00360034 17:0 18:0.00601431 19:0.000803702 20:0 21:0 22:0 23:0 24:0 25:0 26:0 27:0 28:0 29:0 30:0 31:0 32:0 33:0 34:0 35:0 
1 1:0 2:0.15528 3:-0.0248447 4:0.15528 5:0.00197725 6:-0.25692 7:0.0137208 8:0.0101539 9:-0.0460803 10:0.00890847 11:-0.00480468 12:-0.00279944 13:-0.0646669 14:1 15:0.00646052 16:0.00252779 17:0 18:0.000413667 19:0.00272342 20:0 21:0 22:0 23:0 24:0 25:0 26:0 27:0 28:0 29:0 30:0 31:0 32:0 33:0 34:0 35:0 
1 1:0 2:0.148276 3:-0.0344828 4:0.148276 5:-0.00855676 6:-0.146999 7:-0.00166005 8:0.00111814 9:-0.174977 10:-0.00733484 11:0.0141877 12:0.0221073 13:-0.106048 14:1 15:-0.00251503 16:-0.00347876 17:0 18:0.00628035 19:-0.00671981 20:0 21:0 22:0 23:0 24:0 25:0 26:0 27:1 28:0 29:0 30:0 31:0 32:0 33:0 34:0 35:0 
1 1:0 2:0.457961 3:0.0536673 4:0.457961 5:-0.0102445 6:-1.17868 7:0.00140932 8:0.0101539 9:-0.0189729 10:-0.00273061 11:0.00232889 12:0.00218961 13:-0.0913445 14:1 15:0.0121562 16:0.00605498 17:0 18:0.0170583 19:0.00272342 20:1 21:0 22:0 23:0 24:0 25:0 26:0 27:0 28:0 29:0 30:0 31:0 32:0 33:0 34:0 35:0 
1 1:1 2:0.396797 3:0.0284698 4:0.396797 5:0.0106812 6:-0.401383 7:0.0161474 8:-0.00566043 9:-0.110852 10:0.0100219 11:-0.000258585 12:-0.0105182 13:0.00256472 14:1 15:0.0142631 16:-0.00159909 17:0 18:0.00717511 19:0.00276726 20:0 21:0 22:0 23:0 24:1 25:0 26:0 27:1 28:1 29:0 30:0 31:0 32:0 33:0 34:0 35:0 
1 1:0 2:0.309399 3:0.0214049 4:0.309399 5:-0.0181781 6:-0.412533 7:0.00636562 8:-0.0102524 9:0.0804883 10:0.0037796 11:-0.00737899 12:0.00218961 13:0.050206 14:1 15:-0.00790929 16:0.00732772 17:0 18:-0.00508481 19:0.00276726 20:0 21:0 22:0 23:0 24:0 25:0 26:0 27:0 28:0 29:1 30:0 31:0 32:0 33:0 34:0 35:0 
1 1:0 2:0.1 3:-6.93889e-018 4:0.1 5:0.00197725 6:-0.212973 7:-0.013301 8:0.00263785 9:-0.233341 10:-0.00286363 11:0.00388373 12:-0.0117779 13:0.0242687 14:1 15:-0.000517298 16:-0.00360034 17:0 18:0.0205753 19:0.000803702 20:0 21:0 22:0 23:0 24:0 25:0 26:0 27:0 28:0 29:0 30:0 31:0 32:0 33:0 34:0 35:0 
1 1:0 2:0.202124 3:0.028561 4:0.202124 5:-0.0146811 6:-0.151191 7:-0.00737515 8:0.0184523 9:-0.0582809 10:0.0100219 11:0.0141877 12:0.0135939 13:0.00119634 14:1 15:0.00331034 16:-0.0060947 17:0 18:-0.00105841 19:0.000803702 20:0 21:0 22:0 23:0 24:0 25:0 26:0 27:0 28:0 29:0 30:0 31:0 32:0 33:0 34:0 35:0 
1 1:0 2:0.1 3:-6.93889e-018 4:0.1 5:0.00197725 6:-0.122485 7:-0.0196727 8:0.00111369 9:0.0534664 10:0.00128145 11:-0.00198275 12:-0.00109699 13:-0.0258607 14:1 15:-0.00036086 16:0.00252779 17:0 18:0.00543274 19:0.00958784 20:0 21:0 22:0 23:0 24:0 25:0 26:0 27:0 28:0 29:0 30:0 31:0 32:0 33:0 34:0 35:0 
1 1:0 2:0.106145 3:-0.0670391 4:0.106145 5:-0.0146811 6:-0.213125 7:-0.000428978 8:0.00111814 9:0.0614878 10:-0.000769924 11:-0.00148109 12:0.00218961 13:-0.00308562 14:1 15:0.00574903 16:-0.00293144 17:0 18:0.0029403 19:-0.00405298 20:0 21:0 22:1 23:0 24:0 25:0 26:0 27:0 28:0 29:0 30:0 31:0 32:0 33:0 34:0 35:0 
1 1:1 2:0.0784094 3:-0.120414 4:0.0784094 5:0.00197725 6:-0.130105 7:-0.00680823 8:0.000578213 9:-0.407235 10:-0.000769924 11:0.025567 12:0.0135939 13:-0.12075 14:2 15:-0.00251503 16:0.00443894 17:0 18:0.0114477 19:0.00272342 20:0 21:0 22:0 23:1 24:0 25:0 26:0 27:0 28:0 29:0 30:0 31:0 32:0 33:0 34:0 35:0 
1 1:0 2:0.337728 3:0.0121704 4:0.337728 5:0.0129942 6:-0.397687 7:0.000868714 8:0.0184523 9:-0.22934 10:-0.00381029 11:-0.00480468 12:0.0135939 13:-0.144298 14:1 15:-0.00790929 16:0.00732772 17:0 18:0.0166573 19:0.000369551 20:0 21:0 22:0 23:0 24:0 25:0 26:0 27:0 28:1 29:0 30:0 31:0 32:1 33:0 34:0 35:1 
1 1:0 2:0.109146 3:-0.0333502 4:0.109146 5:0.0106812 6:-0.106347 7:-0.013301 8:-0.0025261 9:-0.0859808 10:-0.00733484 11:0.0136848 12:0.00155162 13:-0.0146991 14:1 15:0.00646052 16:-0.00347876 17:0 18:0.0124801 19:0.000803702 20:0 21:0 22:0 23:0 24:0 25:0 26:0 27:0 28:0 29:0 30:0 31:0 32:0 33:0 34:0 35:0 
1 1:0 2:0.0958333 3:-0.0416667 4:0.0958333 5:0.00197725 6:-0.39329 7:-0.00174313 8:-0.00459058 9:0.17184 10:-0.0025074 11:0.00388373 12:-0.00347617 13:-0.0421259 14:1 15:-7.70143e-005 16:-0.00483205 17:0 18:-0.0356076 19:-0.00175629 20:0 21:0 22:0 23:0 24:0 25:0 26:0 27:0 28:0 29:0 30:0 31:0 32:0 33:0 34:0 35:0 
1 1:0 2:0.258421 3:0.0563225 4:0.258421 5:0.00197725 6:-0.590308 7:0.0137208 8:-0.0025261 9:-0.548504 10:-0.0025074 11:-0.00198275 12:-0.00615216 13:0.222171 14:1 15:-0.00588288 16:-0.0042043 17:0 18:-0.025839 19:-0.00175629 20:0 21:0 22:1 23:0 24:1 25:0 26:1 27:0 28:0 29:0 30:0 31:0 32:0 33:0 34:0 35:0 
1 1:0 2:0.131518 3:-0.0139489 4:0.131518 5:-0.0102445 6:-0.00966335 7:0.0137208 8:0.0184523 9:0.163018 10:0.0100219 11:0.0141877 12:0.00677998 13:0.00106749 14:1 15:0.0121562 16:-0.00293144 17:0 18:0.00407104 19:0.000803702 20:0 21:0 22:0 23:0 24:0 25:0 26:0 27:0 28:0 29:0 30:1 31:0 32:0 33:0 34:0 35:0 
1 1:0 2:0.328372 3:-0.00631484 4:0.328372 5:0.0106812 6:-0.498658 7:-0.00737515 8:-0.00332417 9:-0.612085 10:-0.00273061 11:-0.037011 12:-0.000129959 13:0.0703671 14:1 15:-0.000517298 16:0.00732772 17:0 18:0.000599885 19:-0.00207511 20:0 21:0 22:0 23:0 24:0 25:0 26:0 27:0 28:0 29:0 30:0 31:0 32:0 33:0 34:0 35:1 
1 1:0 2:0.062201 3:-0.0574163 4:0.062201 5:0.00197725 6:-0.100186 7:0.0137208 8:-0.0025261 9:-0.158753 10:-0.000769924 11:0.00732539 12:-0.00109699 13:-0.00608302 14:1 15:-0.00251503 16:0.00443894 17:0 18:-0.00991858 19:0.00623806 20:0 21:0 22:1 23:0 24:0 25:0 26:0 27:0 28:1 29:0 30:0 31:0 32:0 33:0 34:0 35:0 
1 1:0 2:0.130481 3:-0.0147317 4:0.130481 5:0.00197725 6:-0.107272 7:0.00305708 8:0.0044492 9:0.18428 10:-0.00325732 11:-0.00185013 12:-0.0105182 13:0.0362434 14:1 15:0.0012351 16:0.00443894 17:0 18:0.0143878 19:-0.0057122 20:0 21:0 22:0 23:0 24:0 25:0 26:0 27:0 28:0 29:0 30:0 31:0 32:0 33:0 34:0 35:0 
1 1:0 2:0.270408 3:0.0306122 4:0.270408 5:-0.0146811 6:-0.164945 7:0.00305708 8:-0.00209975 9:-0.0719877 10:-0.00123088 11:-0.00268771 12:-0.00109699 13:0.0275096 14:1 15:0.000310067 16:-0.0060947 17:0 18:0.00592521 19:0.00958784 20:0 21:0 22:0 23:0 24:0 25:0 26:0 27:0 28:0 29:0 30:0 31:0 32:0 33:0 34:0 35:0 
1 1:1 2:0.277603 3:0.0105152 4:0.277603 5:-0.0181781 6:-0.461663 7:-0.00680823 8:-0.00624256 9:-0.199408 10:0.0194542 11:-0.037011 12:-0.00279944 13:0.0706225 14:2 15:0.00646052 16:-0.0143477 17:0 18:0.00429909 19:0.00404864 20:0 21:0 22:0 23:1 24:0 25:0 26:0 27:0 28:0 29:0 30:0 31:0 32:0 33:0 34:0 35:0 
1 1:1 2:0.1883 3:-0.047532 4:0.1883 5:0.00197725 6:-0.544373 7:0.0161474 8:-0.00630459 9:-0.608919 10:-0.00332328 11:-0.00480468 12:-0.000129959 13:0.0700996 14:2 15:-0.00251503 16:-0.00124075 17:0 18:-0.00591479 19:0.0138395 20:0 21:0 22:0 23:0 24:0 25:0 26:0 27:0 28:0 29:0 30:0 31:0 32:0 33:0 34:0 35:0 
1 1:0 2:0.189389 3:-0.0384697 4:0.189389 5:0.00197725 6:0.573813 7:0.00857851 8:-0.000155678 9:0.0480734 10:-0.00733484 11:0.00232889 12:0.00677998 13:-0.0152933 14:1 15:0.00165974 16:-0.0143477 17:0 18:-0.000545944 19:0.0138395 20:0 21:0 22:0 23:0 24:1 25:0 26:0 27:0 28:0 29:0 30:0 31:0 32:0 33:0 34:0 35:0 
1 1:0 2:0.338901 3:0.0314694 4:0.338901 5:-0.00855676 6:-0.29615 7:0.000933507 8:0.0044492 9:0.0309122 10:-0.000710021 11:0.0141877 12:-0.0117779 13:-0.122986 14:1 15:-0.0106865 16:-0.00269397 17:0 18:-0.0020657 19:-0.000837017 20:0 21:0 22:0 23:0 24:0 25:0 26:0 27:0 28:1 29:0 30:0 31:0 32:1 33:0 34:0 35:0 
1 1:0 2:0.122951 3:0.010929 4:0.122951 5:-0.00118857 6:-0.153916 7:-0.00347661 8:-0.00459058 9:-0.114988 10:-0.00273061 11:0.025567 12:0.00218961 13:0.014661 14:1 15:0.00165974 16:-0.00159909 17:0 18:-0.010614 19:-0.013254 20:0 21:0 22:0 23:0 24:0 25:0 26:0 27:0 28:0 29:0 30:0 31:0 32:0 33:0 34:0 35:0 
1 1:0 2:0.332272 3:0.0878421 4:0.332272 5:0.0106812 6:-0.0755055 7:0.0137208 8:0.0100182 9:0.424573 10:-0.00325732 11:0.00732539 12:-0.00571812 13:0.0378551 14:1 15:-0.00036086 16:-0.00382903 17:0 18:0.0126486 19:-0.00553567 20:0 21:0 22:1 23:0 24:0 25:0 26:0 27:0 28:0 29:0 30:0 31:0 32:0 33:0 34:0 35:0 
1 1:0 2:0.132806 3:-0.0593388 4:0.132806 5:0.0106812 6:-0.218324 7:-0.00737515 8:0.000253862 9:3.33067e-016 10:-0.00270045 11:-0.00353261 12:0.0135939 13:-0.103919 14:1 15:-0.00530999 16:0.00443894 17:0 18:0.0118664 19:0.00272342 20:0 21:0 22:1 23:0 24:0 25:0 26:0 27:0 28:0 29:0 30:0 31:0 32:0 33:0 34:0 35:0 
1 1:1 2:0.253968 3:-0.031746 4:0.253968 5:0.00197725 6:-0.147313 7:0.00305708 8:-0.0025261 9:-0.151521 10:-0.000769924 11:0.025567 12:-0.0117779 13:-0.0800644 14:3 15:-0.00790929 16:-0.00479611 17:0 18:0.0150345 19:-0.00405298 20:0 21:1 22:1 23:1 24:0 25:0 26:0 27:0 28:1 29:0 30:0 31:0 32:0 33:0 34:0 35:0 
1 1:0 2:0.735621 3:0.106147 4:0.735621 5:0.00197725 6:-1.57768 7:-0.0196727 8:0.0101539 9:-1.32734 10:-0.0025074 11:-0.00175902 12:-0.00615216 13:0.188936 14:1 15:-0.00588288 16:-0.0042043 17:0 18:-0.0183996 19:-0.00175629 20:0 21:0 22:0 23:0 24:0 25:0 26:0 27:0 28:0 29:0 30:0 31:0 32:0 33:0 34:0 35:0 
1 1:0 2:0.272228 3:0.0307355 4:0.272228 5:0.00197725 6:-0.13265 7:0.0137208 8:0.0184523 9:-0.138123 10:-0.00733484 11:0.0136848 12:-0.0117779 13:0.0265797 14:2 15:0.000310067 16:0.00471629 17:1 18:-0.0044351 19:0.000369551 20:0 21:0 22:0 23:1 24:0 25:0 26:0 27:0 28:0 29:0 30:0 31:0 32:0 33:0 34:0 35:0 
1 1:0 2:1.1557 3:0.201342 4:1.1557 5:-0.0146811 6:-1.21562 7:0.00305708 8:-0.0025261 9:-0.644174 10:0.00890847 11:-0.000258585 12:-0.00255595 13:-0.0376354 14:1 15:-0.00036086 16:-0.00196836 17:0 18:0.0066322 19:-0.00601379 20:0 21:0 22:0 23:1 24:0 25:0 26:0 27:1 28:0 29:0 30:1 31:0 32:0 33:1 34:0 35:0 
1 1:0 2:0.248128 3:0.0213904 4:0.248128 5:0.00197725 6:-0.146827 7:-0.00680823 8:0.0044492 9:0.114324 10:-0.00332328 11:-0.00737899 12:-0.00223244 13:-0.00139013 14:1 15:0.0048917 16:-0.00483205 17:1 18:0.0145028 19:-0.00207511 20:0 21:0 22:0 23:0 24:1 25:0 26:0 27:0 28:1 29:0 30:0 31:0 32:0 33:0 34:0 35:0 
1 1:1 2:0.361244 3:0.0191388 4:0.361244 5:0.0437735 6:-0.374058 7:0.000933507 8:0.0044492 9:-0.218586 10:0.00890847 11:0.00388373 12:-0.000129959 13:0.0258302 14:2 15:-0.00251503 16:-0.00483205 17:1 18:-0.00415766 19:0.00404864 20:0 21:0 22:0 23:1 24:2 25:0 26:0 27:0 28:0 29:0 30:0 31:0 32:0 33:0 34:0 35:0 
1 1:0 2:0.117121 3:-0.0268402 4:0.117121 5:0.00197725 6:-0.408982 7:-0.000966364 8:0.000578213 9:-0.325188 10:-0.00733484 11:0.025567 12:-0.0105182 13:0.0503971 14:1 15:0.00165974 16:-0.00483205 17:0 18:-0.0171783 19:0.000803702 20:0 21:0 22:1 23:0 24:1 25:0 26:0 27:0 28:0 29:0 30:0 31:0 32:0 33:0 34:0 35:0 
1 1:0 2:0.430143 3:0.0541783 4:0.430143 5:0.0106812 6:-0.549817 7:-0.00737515 8:0.0100182 9:-0.194932 10:0.00890847 11:-0.037011 12:-0.0105182 13:0.0222267 14:2 15:0.00331034 16:-0.00382903 17:0 18:-0.00476308 19:0.000347898 20:0 21:0 22:0 23:0 24:0 25:0 26:1 27:0 28:0 29:0 30:0 31:0 32:0 33:0 34:0 35:0 
1 1:0 2:0.179675 3:0.0172029 4:0.179675 5:-0.00573529 6:-0.260503 7:0.00305708 8:0.00111369 9:-0.109074 10:0.00128145 11:-0.0122162 12:-0.00255595 13:-0.0637914 14:1 15:-0.000517298 16:0.00605498 17:0 18:0.0251328 19:0.000803702 20:0 21:0 22:0 23:0 24:0 25:0 26:0 27:0 28:0 29:0 30:0 31:0 32:0 33:1 34:0 35:0 
1 1:1 2:0.3 3:-4.16334e-017 4:0.3 5:0.00197725 6:-0.117669 7:0.00636562 8:0.0184523 9:-0.267616 10:-0.000769924 11:-0.00737899 12:0.00217649 13:-0.0386127 14:3 15:0.0121562 16:0.00605498 17:0 18:-0.00076437 19:0.00220689 20:0 21:0 22:0 23:0 24:0 25:0 26:0 27:0 28:0 29:0 30:0 31:0 32:0 33:2 34:0 35:0 
1 1:1 2:0.250797 3:-0.0552604 4:0.250797 5:0.00197725 6:-0.341261 7:0.000868714 8:-0.000155678 9:-0.209914 10:-0.00123088 11:0.0141877 12:-0.000129959 13:-0.0279444 14:6 15:-0.00251503 16:0.00732772 17:1 18:-0.0122745 19:0.00276726 20:0 21:0 22:0 23:0 24:0 25:0 26:0 27:0 28:0 29:0 30:1 31:0 32:0 33:0 34:0 35:0 
1 1:1 2:0.73535 3:0.141708 4:0.73535 5:-0.0058672 6:-0.726172 7:-0.0196727 8:0.00263785 9:-0.682848 10:-0.00123088 11:-0.000258585 12:-0.0105182 13:0.0326607 14:1 15:-0.00492854 16:-0.0060947 17:0 18:0.000975057 19:-0.00671981 20:0 21:0 22:0 23:1 24:2 25:0 26:0 27:0 28:1 29:0 30:0 31:0 32:0 33:0 34:0 35:0 
1 1:0 2:0.109285 3:-0.0346513 4:0.109285 5:0.00197725 6:-0.110662 7:-0.000402756 8:-0.000155678 9:0.0545463 10:0.0037796 11:-0.00185013 12:-0.00347617 13:0.00287301 14:1 15:0.00646052 16:0.00732772 17:0 18:-0.0323832 19:0.000347898 20:0 21:0 22:0 23:0 24:0 25:0 26:0 27:0 28:0 29:0 30:0 31:0 32:0 33:0 34:0 35:0 
1 1:0 2:0.124107 3:-0.0203084 4:0.124107 5:0.00197725 6:-0.22327 7:-0.000966364 8:0.0044492 9:-0.162679 10:-0.0025074 11:0.00732539 12:-0.000129959 13:-0.0101538 14:1 15:-0.00349054 16:-0.0042043 17:0 18:0.00479617 19:-0.00175629 20:0 21:0 22:1 23:0 24:0 25:0 26:0 27:0 28:0 29:0 30:0 31:0 32:0 33:0 34:0 35:0 
1 1:0 2:0.168776 3:-0.0168776 4:0.168776 5:0.0437735 6:-0.143384 7:-0.00737515 8:0.000578213 9:-0.376392 10:-0.00733484 11:0.0136848 12:-0.0117779 13:-0.146788 14:1 15:0.00646052 16:-0.00293144 17:0 18:0.0111545 19:0.00272342 20:0 21:0 22:0 23:0 24:1 25:0 26:0 27:0 28:0 29:0 30:0 31:1 32:0 33:0 34:0 35:0 
1 1:0 2:0.173967 3:-0.0341721 4:0.173967 5:-0.00174828 6:-0.44362 7:-0.000966364 8:-0.00332417 9:0.268305 10:0.0100219 11:-0.00148109 12:0.00218961 13:-0.14931 14:1 15:0.00646052 16:-0.00347876 17:0 18:-0.0275244 19:0.00260239 20:0 21:0 22:0 23:0 24:0 25:0 26:0 27:0 28:1 29:0 30:0 31:0 32:0 33:0 34:0 35:0 
1 1:1 2:0.136949 3:-0.0356067 4:0.136949 5:0.0437735 6:-0.22913 7:-0.00516551 8:0.000578213 9:-0.171934 10:-0.00381029 11:0.00357244 12:-0.000129959 13:-0.0611518 14:3 15:-0.00790929 16:0.00732772 17:0 18:0.0170316 19:0.00958784 20:0 21:0 22:0 23:0 24:0 25:0 26:0 27:0 28:2 29:0 30:0 31:1 32:0 33:1 34:0 35:0 
1 1:1 2:0.589274 3:0.0949018 4:0.589274 5:-0.0102445 6:-0.760715 7:0.00857851 8:-0.000155678 9:-0.953121 10:-0.000710021 11:0.00388373 12:-0.0117779 13:0.0793211 14:2 15:0.0121562 16:-0.0060947 17:0 18:-0.0160864 19:0.00623806 20:0 21:0 22:0 23:0 24:1 25:0 26:0 27:0 28:0 29:0 30:0 31:1 32:0 33:0 34:0 35:0 
1 1:0 2:0.210465 3:-0.0173779 4:0.210465 5:0.0129942 6:-0.400257 7:0.0161474 8:-0.0102524 9:-0.357828 10:0.00890847 11:0.00357244 12:-0.00317909 13:-0.000786313 14:1 15:0.0142631 16:-0.00483205 17:0 18:0.00927732 19:0.00276726 20:0 21:0 22:0 23:0 24:0 25:0 26:0 27:0 28:0 29:0 30:1 31:0 32:0 33:0 34:0 35:0 
1 1:0 2:0.167722 3:-0.0189873 4:0.167722 5:0.00197725 6:-0.190654 7:-0.00174313 8:0.0184523 9:-0.00292559 10:0.00128145 11:0.025567 12:-0.000334465 13:0.0123636 14:2 15:-0.00251503 16:-0.00196836 17:0 18:-0.0226981 19:-0.00405298 20:0 21:0 22:1 23:0 24:0 25:0 26:0 27:0 28:1 29:0 30:0 31:0 32:0 33:0 34:0 35:0 
1 1:0 2:0.109146 3:-0.0333502 4:0.109146 5:0.00737457 6:-0.0561118 7:0.0105849 8:0.0044492 9:0.0303682 10:0.0100219 11:-0.00185013 12:-0.00279944 13:0.014173 14:1 15:-0.000517298 16:0.00471629 17:0 18:-0.0148844 19:0.00404864 20:0 21:0 22:0 23:0 24:0 25:0 26:0 27:0 28:0 29:0 30:0 31:0 32:0 33:0 34:0 35:0 
1 1:0 2:0.422886 3:0.079602 4:0.422886 5:-0.0181781 6:-1.22984 7:-0.0196727 8:-0.000155678 9:-1.1199 10:0.0100219 11:0.0136848 12:0.0135939 13:0.112583 14:1 15:-0.00790929 16:0.00252779 17:0 18:-0.0102999 19:0.000369551 20:0 21:0 22:1 23:0 24:0 25:0 26:0 27:1 28:1 29:0 30:0 31:0 32:0 33:0 34:0 35:0 
1 1:0 2:0.112022 3:0.010929 4:0.112022 5:-0.00118857 6:-0.0414146 7:-0.00516551 8:-0.00630459 9:0.00852091 10:-0.00335283 11:-0.00185013 12:-0.00571812 13:-0.0137648 14:1 15:0.0121562 16:-0.00483205 17:0 18:0.00937219 19:-0.013254 20:0 21:0 22:0 23:0 24:0 25:0 26:0 27:0 28:0 29:0 30:0 31:0 32:0 33:1 34:0 35:0 
1 1:0 2:0.1 3:-6.93889e-018 4:0.1 5:0.00197725 6:0.104808 7:0.00636562 8:0.0044492 9:0.0390436 10:0.00890847 11:0.025567 12:0.00217649 13:-0.0423387 14:1 15:0.00574903 16:-0.00196836 17:0 18:-0.00182696 19:-0.013254 20:0 21:0 22:0 23:0 24:0 25:0 26:0 27:0 28:0 29:0 30:0 31:0 32:0 33:0 34:0 35:0 
1 1:0 2:0.373972 3:0.0423834 4:0.373972 5:0.0106812 6:-0.327208 7:-0.0196727 8:0.000578213 9:0.104219 10:-0.00325732 11:0.00732539 12:0.0135939 13:0.0692701 14:1 15:-0.00349054 16:0.0289366 17:0 18:-0.0213319 19:0.00220689 20:0 21:0 22:0 23:0 24:0 25:0 26:0 27:0 28:0 29:0 30:0 31:0 32:0 33:0 34:0 35:1 
1 1:0 2:0.0560197 3:-0.044226 4:0.0560197 5:0.00197725 6:0.0992783 7:0.00305708 8:0.0100182 9:-0.0983086 10:-0.00667065 11:0.0136848 12:0.0135939 13:-0.00281461 14:1 15:-0.00790929 16:-0.0143477 17:0 18:0.0117607 19:0.000369551 20:0 21:0 22:0 23:0 24:0 25:0 26:0 27:0 28:0 29:0 30:0 31:0 32:0 33:0 34:0 35:0 
1 1:0 2:0.420115 3:0.0878421 4:0.420115 5:-0.0181781 6:-0.661853 7:0.00140932 8:-0.000155678 9:0.0492474 10:-0.00335283 11:0.00732539 12:0.00677998 13:-0.0140048 14:1 15:-0.00036086 16:-0.00196836 17:0 18:0.0143075 19:0.00404864 20:0 21:0 22:0 23:0 24:0 25:0 26:0 27:1 28:0 29:0 30:0 31:0 32:0 33:0 34:0 35:0 
1 1:0 2:0.293525 3:0.028777 4:0.293525 5:0.00737457 6:-0.158328 7:0.000868714 8:-0.00209975 9:0.122425 10:0.0100219 11:0.00732539 12:0.00155162 13:0.00290846 14:1 15:-0.00530999 16:-0.0060947 17:0 18:0.00789947 19:0.000803702 20:0 21:0 22:0 23:0 24:0 25:0 26:0 27:0 28:0 29:0 30:0 31:0 32:0 33:0 34:0 35:0 
1 1:0 2:0.2 3:0 4:0.2 5:-0.00855852 6:-0.315215 7:0.0137208 8:-0.00630459 9:0.0255061 10:0.0037796 11:0.0136848 12:-0.00279944 13:0.0357683 14:1 15:-0.00790929 16:-0.0060947 17:0 18:-0.00908334 19:0.0138395 20:0 21:0 22:0 23:0 24:0 25:0 26:0 27:0 28:0 29:0 30:0 31:0 32:0 33:0 34:0 35:0 
1 1:1 2:0.311308 3:-0.00884397 4:0.311308 5:0.00197725 6:-1.05919 7:-0.00680823 8:0.0101539 9:-0.609266 10:0.0100219 11:0.0136848 12:-0.00317909 13:0.0113832 14:2 15:-0.00251503 16:-0.00483205 17:0 18:8.06829e-006 19:0.00272342 20:0 21:1 22:0 23:0 24:0 25:0 26:0 27:0 28:1 29:0 30:0 31:0 32:0 33:1 34:0 35:0 
1 1:0 2:0.529909 3:0.016912 4:0.529909 5:-0.00855852 6:-1.12363 7:0.0137208 8:-0.00624256 9:-0.664438 10:0.00890847 11:-0.037011 12:0.0135939 13:0.0258055 14:1 15:0.00574903 16:0.00732772 17:0 18:0.00359558 19:0.00272342 20:0 21:0 22:0 23:0 24:0 25:0 26:0 27:1 28:0 29:0 30:0 31:0 32:0 33:0 34:0 35:0 
1 1:0 2:0.217119 3:0.00835073 4:0.217119 5:0.00197725 6:-0.653754 7:-0.00347661 8:-0.00624256 9:-0.9149 10:0.0194542 11:-0.000258585 12:0.0135939 13:0.138898 14:1 15:-7.70143e-005 16:-0.00124075 17:0 18:-0.0437464 19:0.00623806 20:0 21:0 22:0 23:0 24:0 25:0 26:0 27:0 28:0 29:1 30:0 31:0 32:0 33:0 34:0 35:0 
1 1:0 2:0.0494991 3:-0.129248 4:0.0494991 5:0.00197725 6:-0.183225 7:-0.00680823 8:0.0044492 9:-0.324768 10:-0.000769924 11:-0.000258585 12:-0.0117779 13:0.0446426 14:1 15:-0.00790929 16:0.000966796 17:0 18:0.00223656 19:0.00260239 20:0 21:0 22:0 23:0 24:1 25:0 26:0 27:0 28:0 29:0 30:0 31:0 32:0 33:0 34:0 35:0 
1 1:1 2:0.390824 3:0.048145 4:0.390824 5:-0.00174828 6:-0.749267 7:-0.00737515 8:-0.0102524 9:-0.557834 10:-0.00325732 11:-0.00480468 12:-0.00279944 13:0.0554796 14:1 15:-0.00790929 16:-0.0060947 17:0 18:-0.0010887 19:0.00623806 20:0 21:1 22:0 23:0 24:1 25:0 26:0 27:0 28:1 29:0 30:0 31:0 32:0 33:0 34:0 35:0 
1 1:0 2:0.585189 3:0.0537575 4:0.585189 5:0.0437735 6:-0.382527 7:0.0161474 8:-0.0025261 9:-0.237378 10:-0.00332328 11:0.0136848 12:0.00155162 13:-0.0939068 14:2 15:0.0121562 16:0.00732772 17:0 18:0.0489012 19:-0.00601379 20:0 21:0 22:0 23:0 24:0 25:0 26:0 27:0 28:1 29:0 30:0 31:1 32:0 33:2 34:0 35:1 
1 1:0 2:0.283333 3:0.0333333 4:0.283333 5:0.0106812 6:-0.122824 7:-0.00737515 8:-0.0025261 9:1.38778e-017 10:-0.00286363 11:0.00732539 12:0.00218961 13:-2.60209e-018 14:2 15:-0.00530999 16:-0.0143477 17:0 18:-0.016148 19:0.00404864 20:0 21:0 22:0 23:1 24:0 25:0 26:0 27:0 28:0 29:0 30:0 31:0 32:0 33:0 34:0 35:0 
1 1:0 2:0.272228 3:0.0307355 4:0.272228 5:0.00197725 6:-0.321538 7:-0.00680823 8:-0.0102524 9:-0.221928 10:-0.0025074 11:-0.00185013 12:-0.00615216 13:0.0149927 14:2 15:-0.00588288 16:-0.0042043 17:0 18:0.000589107 19:-0.00175629 20:0 21:0 22:0 23:0 24:0 25:0 26:0 27:0 28:0 29:0 30:0 31:0 32:0 33:0 34:0 35:0 
1 1:0 2:0.117121 3:-0.0268402 4:0.117121 5:0.00197725 6:-0.278613 7:0.00140932 8:-0.00624256 9:-0.0872236 10:0.0037796 11:0.00388373 12:-0.00109699 13:0.0464192 14:1 15:0.00574903 16:-0.00483205 17:0 18:-0.00391103 19:-0.00671981 20:0 21:0 22:0 23:0 24:0 25:0 26:0 27:0 28:0 29:0 30:0 31:0 32:0 33:0 34:0 35:0 
1 1:0 2:0.261611 3:0.0189573 4:0.261611 5:0.00197725 6:-0.411172 7:0.00305708 8:0.0100182 9:0.2146 10:-0.00123088 11:0.025567 12:-0.0117779 13:-0.0191852 14:1 15:0.00574903 16:-0.00483205 17:0 18:-0.00466408 19:-0.00601379 20:0 21:0 22:0 23:0 24:1 25:0 26:0 27:0 28:0 29:0 30:1 31:0 32:0 33:1 34:0 35:0 
1 1:0 2:0.729266 3:0.108675 4:0.729266 5:0.0130167 6:-0.992314 7:0.00140932 8:0.0184523 9:-1.34648 10:-0.00123088 11:-0.00480468 12:7.55969e-005 13:0.128054 14:1 15:-0.00790929 16:-0.00382903 17:0 18:-0.0100699 19:-0.00553567 20:0 21:0 22:0 23:1 24:0 25:0 26:0 27:1 28:0 29:0 30:0 31:0 32:0 33:0 34:0 35:0 
1 1:0 2:0.464904 3:0.0698876 4:0.464904 5:0.00197725 6:-0.251013 7:-0.013301 8:0.00263785 9:-0.162522 10:-0.00123088 11:0.0136848 12:-0.0105182 13:0.00252401 14:1 15:-7.70143e-005 16:-0.0060947 17:0 18:0.00220178 19:0.000369551 20:0 21:0 22:0 23:0 24:0 25:0 26:0 27:0 28:1 29:0 30:0 31:0 32:1 33:0 34:0 35:0 
1 1:1 2:0.259646 3:-0.0208911 4:0.259646 5:0.00197725 6:-0.0592825 7:0.00636562 8:0.0184523 9:-0.0909179 10:-0.000769924 11:-0.00268771 12:-0.00223244 13:0.0218458 14:3 15:0.0121562 16:-0.00360034 17:1 18:0.00400934 19:0.00272342 20:0 21:0 22:0 23:2 24:0 25:0 26:0 27:0 28:0 29:0 30:1 31:0 32:0 33:0 34:0 35:0 
1 1:1 2:0.222762 3:-0.0291464 4:0.222762 5:0.00197725 6:-0.163054 7:0.0105849 8:-0.0025261 9:-0.125796 10:0.00890847 11:0.00732539 12:-0.00255595 13:-0.0240229 14:2 15:-0.00251503 16:-0.00124075 17:0 18:0.0160706 19:0.0138395 20:0 21:0 22:0 23:0 24:0 25:0 26:0 27:0 28:1 29:0 30:0 31:0 32:0 33:0 34:0 35:0 
1 1:0 2:0.23354 3:-0.0372671 4:0.23354 5:-0.0058672 6:-0.0948825 7:0.00305708 8:-0.00566043 9:0.20532 10:0.0194542 11:-0.00480468 12:0.00677998 13:-0.015951 14:1 15:-0.00530999 16:-0.00483205 17:0 18:-0.00207475 19:0.0138395 20:0 21:0 22:0 23:0 24:0 25:0 26:0 27:0 28:0 29:0 30:0 31:0 32:0 33:0 34:0 35:0 
1 1:0 2:0.196345 3:-0.0626632 4:0.196345 5:-0.0181781 6:-0.198815 7:0.00636562 8:-0.00624256 9:0.0863413 10:0.0037796 11:0.0141877 12:-0.00279944 13:0.0620866 14:1 15:-0.00530999 16:0.0289366 17:0 18:0.00505004 19:0.0138395 20:0 21:0 22:0 23:0 24:0 25:0 26:0 27:0 28:0 29:0 30:0 31:0 32:0 33:0 34:0 35:0 
1 1:0 2:0.283133 3:0.0361446 4:0.283133 5:-0.0181781 6:-0.179302 7:0.0105849 8:-0.00566043 9:-0.108749 10:-0.00273061 11:-0.00268771 12:0.0023707 13:-0.0405081 14:1 15:0.0121562 16:0.0289366 17:0 18:0.00428375 19:0.00220689 20:0 21:0 22:0 23:0 24:0 25:0 26:0 27:0 28:0 29:0 30:0 31:0 32:0 33:0 34:0 35:0 
1 1:1 2:0.341222 3:0.0311869 4:0.341222 5:0.00737457 6:-0.253103 7:-0.00737515 8:-0.00566043 9:0.0347932 10:-0.00381029 11:-0.00268771 12:0.00677998 13:0.0333568 14:2 15:-7.70143e-005 16:-0.00483205 17:0 18:-0.0105717 19:0.00404864 20:0 21:0 22:0 23:0 24:0 25:0 26:0 27:0 28:0 29:0 30:0 31:0 32:0 33:0 34:0 35:0 
1 1:0 2:0.131818 3:-0.0454545 4:0.131818 5:0.0437735 6:-0.271606 7:-0.00174313 8:0.000578213 9:-0.0856621 10:-0.00667065 11:-0.00268771 12:-0.000334465 13:-0.0171769 14:1 15:-7.70143e-005 16:0.00732772 17:0 18:0.0133319 19:0.000369551 20:0 21:0 22:0 23:0 24:0 25:1 26:0 27:0 28:0 29:0 30:0 31:0 32:0 33:0 34:0 35:0 
1 1:0 2:0.518293 3:0.109756 4:0.518293 5:-0.0181781 6:-0.767053 7:-0.00516551 8:-0.00209975 9:-0.203504 10:0.0037796 11:-0.00198275 12:0.00217649 13:0.0297898 14:1 15:-0.000517298 16:0.00605498 17:0 18:-0.0273462 19:-0.00553567 20:0 21:0 22:0 23:0 24:0 25:0 26:0 27:0 28:0 29:0 30:0 31:0 32:0 33:0 34:0 35:0 
1 1:0 2:0.230643 3:-0.040806 4:0.230643 5:-0.00118857 6:-0.298272 7:-0.00516551 8:-0.0025261 9:-0.0790026 10:-0.00123088 11:0.00232889 12:-0.000129959 13:-0.011501 14:3 15:-0.00251503 16:-0.0060947 17:0 18:0.00425801 19:0.00272342 20:0 21:0 22:0 23:0 24:0 25:0 26:0 27:0 28:0 29:0 30:0 31:0 32:0 33:0 34:0 35:0 
1 1:1 2:0.994431 3:0.151154 4:0.994431 5:0.00737457 6:-0.91253 7:0.00305708 8:-0.00566043 9:-0.84005 10:-0.00286363 11:0.00732539 12:0.00155162 13:0.164066 14:3 15:-0.00530999 16:-0.00360034 17:1 18:-0.00737103 19:-0.013254 20:0 21:0 22:0 23:0 24:0 25:0 26:1 27:0 28:0 29:0 30:0 31:0 32:0 33:0 34:0 35:0 
1 1:0 2:0.0372836 3:-0.069241 4:0.0372836 5:0.00197725 6:-0.127813 7:0.0105849 8:0.000578213 9:-0.0587588 10:-0.00733484 11:0.0141877 12:0.00217649 13:-0.100856 14:1 15:-0.00251503 16:0.00443894 17:0 18:0.0104145 19:0.00272342 20:0 21:0 22:0 23:0 24:1 25:0 26:0 27:0 28:1 29:0 30:0 31:0 32:1 33:0 34:0 35:0 
1 1:0 2:0.792157 3:0.0784314 4:0.792157 5:0.00737457 6:-1.24793 7:0.0161474 8:0.000578213 9:-0.71922 10:-0.000769924 11:-0.00182434 12:0.00677998 13:0.0876345 14:1 15:-0.00343388 16:-0.00269397 17:0 18:-0.0124195 19:-0.013254 20:0 21:0 22:0 23:0 24:1 25:0 26:0 27:0 28:0 29:0 30:0 31:0 32:0 33:0 34:0 35:0 
1 1:0 2:0.274077 3:-0.0239128 4:0.274077 5:0.0106812 6:-0.119359 7:0.0105849 8:-0.00566043 9:-0.112731 10:-0.00332328 11:-0.000258585 12:0.00218961 13:-0.0707888 14:2 15:-0.00349054 16:0.00605498 17:0 18:0.0077331 19:0.0138395 20:0 21:0 22:0 23:0 24:0 25:0 26:0 27:0 28:0 29:0 30:0 31:0 32:0 33:1 34:0 35:0 
1 1:0 2:0.1 3:-6.93889e-018 4:0.1 5:0.00197725 6:-0.0685677 7:-0.013301 8:0.0184523 9:-0.0190182 10:0.0037796 11:-0.00268771 12:0.00218961 13:-0.0155472 14:1 15:-0.00790929 16:-0.00196836 17:0 18:-0.0105103 19:-0.013254 20:0 21:0 22:0 23:0 24:1 25:0 26:0 27:0 28:0 29:0 30:0 31:0 32:0 33:0 34:0 35:0 
1 1:0 2:0.326975 3:0.027248 4:0.326975 5:-0.00118857 6:-0.722272 7:0.0137208 8:0.0044492 9:-0.50422 10:-0.00123088 11:-0.00185013 12:0.00217649 13:0.0186983 14:1 15:0.00165974 16:0.0289366 17:0 18:0.00418915 19:0.000803702 20:0 21:0 22:0 23:0 24:0 25:0 26:0 27:0 28:0 29:0 30:0 31:0 32:0 33:0 34:0 35:0 
1 1:0 2:0.370968 3:0.0215054 4:0.370968 5:0.00197725 6:-0.2598 7:-0.00347661 8:-0.000155678 9:-0.217478 10:-0.00273061 11:0.00732539 12:-0.0105182 13:-0.0139524 14:2 15:0.00165974 16:-0.0060947 17:0 18:-0.000412454 19:-0.013254 20:0 21:0 22:0 23:0 24:0 25:0 26:0 27:0 28:0 29:1 30:0 31:0 32:0 33:0 34:0 35:0 
1 1:0 2:0.465517 3:0.045977 4:0.465517 5:-0.00118857 6:-0.457974 7:-0.00737515 8:-0.00209975 9:-0.416743 10:-0.00733484 11:-0.037011 12:-0.000334465 13:0.0879971 14:2 15:-0.0106865 16:0.0289366 17:0 18:-0.0160087 19:0.00404864 20:0 21:0 22:0 23:0 24:0 25:0 26:0 27:0 28:0 29:0 30:0 31:0 32:0 33:0 34:0 35:0 
1 1:0 2:0.100246 3:-0.044226 4:0.100246 5:0.00197725 6:-0.0705872 7:0.0105849 8:0.000578213 9:-0.0938205 10:0.00890847 11:0.00357244 12:0.00218961 13:0.103286 14:1 15:0.00646052 16:-0.0143477 17:0 18:-0.0158654 19:0.000803702 20:0 21:0 22:0 23:0 24:0 25:0 26:0 27:0 28:0 29:0 30:0 31:0 32:0 33:0 34:0 35:0 
1 1:0 2:0.0683761 3:-0.0797721 4:0.0683761 5:0.0437735 6:-0.237002 7:-0.0196727 8:0.00263785 9:-0.321779 10:-0.000769924 11:0.00388373 12:-0.00255595 13:0.0242128 14:1 15:0.00574903 16:-0.00196836 17:0 18:-0.00297314 19:-0.00405298 20:0 21:0 22:1 23:0 24:0 25:0 26:0 27:0 28:0 29:0 30:1 31:0 32:0 33:0 34:0 35:0 
1 1:1 2:0.090768 3:-0.144298 4:0.090768 5:-0.00855676 6:-0.124112 7:0.0137208 8:-0.00459058 9:-0.105082 10:-0.000769924 11:0.00732539 12:-0.000129959 13:-0.0644396 14:3 15:-0.00251503 16:-0.00196836 17:0 18:-0.00436036 19:0.00272342 20:0 21:0 22:0 23:0 24:0 25:0 26:0 27:0 28:1 29:0 30:1 31:0 32:0 33:2 34:0 35:0 
1 1:0 2:0.2 3:-6.93889e-018 4:0.2 5:0.00197725 6:-0.234024 7:-0.013301 8:0.000578213 9:-0.015368 10:0.00128145 11:-0.00737899 12:0.00677998 13:0.00550324 14:1 15:-0.00530999 16:0.00443894 17:0 18:-0.0167476 19:0.000369551 20:0 21:0 22:0 23:0 24:1 25:0 26:0 27:0 28:0 29:0 30:0 31:0 32:0 33:0 34:0 35:0 
1 1:0 2:0.358423 3:0.00238949 4:0.358423 5:-0.00424959 6:-0.358174 7:-0.00737515 8:0.000253862 9:-0.0431249 10:-0.000769924 11:-0.0122162 12:-0.000334465 13:-0.0105421 14:1 15:-0.0106865 16:-0.00382903 17:0 18:-0.00165521 19:0.00272342 20:0 21:0 22:0 23:0 24:1 25:0 26:0 27:0 28:0 29:0 30:0 31:0 32:0 33:0 34:0 35:0 
1 1:0 2:0.18986 3:0.0224566 4:0.18986 5:0.0437735 6:-0.344888 7:-0.000966364 8:0.00111369 9:-0.289511 10:-0.00733484 11:-0.00185013 12:0.0023707 13:0.0596254 14:1 15:0.0121562 16:-0.00124075 17:0 18:-0.0233002 19:0.00623806 20:0 21:0 22:0 23:0 24:0 25:0 26:0 27:0 28:0 29:0 30:0 31:0 32:0 33:0 34:0 35:0 
1 1:0 2:0.176829 3:-0.0121951 4:0.176829 5:0.0106812 6:-0.163878 7:0.0137208 8:-0.00566043 9:-0.131962 10:-0.00286363 11:-0.00737899 12:-0.00255595 13:-0.0533166 14:1 15:-0.00790929 16:0.00605498 17:0 18:-0.00778002 19:0.00272342 20:0 21:0 22:0 23:0 24:0 25:0 26:0 27:0 28:0 29:0 30:1 31:0 32:0 33:0 34:0 35:0 
1 1:1 2:0.220222 3:-0.033241 4:0.220222 5:0.00197725 6:-0.266948 7:0.00636562 8:0.0100182 9:-0.249702 10:-0.00270045 11:-0.00182434 12:-0.000129959 13:-0.0616427 14:2 15:-0.00251503 16:0.00732772 17:0 18:0.0182817 19:-0.00405298 20:0 21:0 22:1 23:0 24:1 25:0 26:0 27:0 28:0 29:0 30:1 31:0 32:0 33:0 34:0 35:0 
1 1:0 2:0.3449 3:0.0546793 4:0.3449 5:0.0437735 6:-0.359275 7:-0.00174313 8:0.00111369 9:-0.138392 10:-0.00123088 11:0.00357244 12:0.0023707 13:0.0162501 14:1 15:-0.00790929 16:-0.00293144 17:0 18:-0.00490264 19:0.00623806 20:0 21:0 22:0 23:0 24:0 25:0 26:0 27:0 28:0 29:0 30:1 31:0 32:0 33:0 34:0 35:0 
1 1:0 2:0.661296 3:0.0973481 4:0.661296 5:0.0437735 6:-0.584416 7:-0.00516551 8:-0.00209975 9:-0.339912 10:0.0100219 11:0.00388373 12:0.00677998 13:0.0978102 14:3 15:-0.000517298 16:0.00605498 17:0 18:0.000786189 19:-0.00207511 20:0 21:0 22:0 23:0 24:1 25:0 26:1 27:0 28:0 29:0 30:0 31:0 32:0 33:1 34:0 35:0 
1 1:0 2:0.1 3:-6.93889e-018 4:0.1 5:0.00197725 6:0.00500858 7:0.00636562 8:0.0184523 9:0.0168752 10:0.00890847 11:-0.00480468 12:0.00217649 13:-0.0344282 14:1 15:0.0048917 16:0.00471629 17:0 18:-0.000637248 19:0.000803702 20:0 21:0 22:0 23:0 24:0 25:0 26:0 27:0 28:0 29:0 30:0 31:0 32:0 33:0 34:0 35:0 
1 1:0 2:0.248128 3:0.0213904 4:0.248128 5:-0.00855852 6:-0.109832 7:0.0105849 8:0.000578213 9:-0.0482694 10:-0.00733484 11:-0.00480468 12:0.0135939 13:-0.0890638 14:1 15:-0.00251503 16:-0.00382903 17:0 18:0.00843447 19:-0.00671981 20:0 21:0 22:0 23:0 24:0 25:0 26:0 27:0 28:1 29:0 30:0 31:0 32:0 33:0 34:0 35:0 
1 1:0 2:0.37421 3:0.0657396 4:0.37421 5:0.00197725 6:-0.389902 7:-0.000665361 8:-0.000155678 9:-0.178403 10:-0.00733484 11:-0.00185013 12:0.00218961 13:0.0689129 14:1 15:-0.00790929 16:-0.0060947 17:0 18:-0.00318022 19:0.000369551 20:0 21:0 22:0 23:0 24:1 25:0 26:0 27:0 28:0 29:0 30:0 31:0 32:0 33:0 34:0 35:0 
1 1:1 2:0.364784 3:0.0199336 4:0.364784 5:0.0437735 6:-0.357167 7:-0.00737515 8:-0.00566043 9:-0.303277 10:-0.00332328 11:0.00388373 12:-0.0105182 13:-0.00488261 14:3 15:-0.00036086 16:0.00732772 17:0 18:0.0213155 19:0.000369551 20:0 21:0 22:0 23:0 24:2 25:0 26:0 27:0 28:0 29:0 30:1 31:0 32:0 33:0 34:0 35:0 
1 1:1 2:0.210218 3:-0.0171107 4:0.210218 5:0.00197725 6:-0.51502 7:-0.00680823 8:0.0100182 9:-0.36193 10:-0.00733484 11:-0.00480468 12:-0.00317909 13:0.0527023 14:2 15:-0.00530999 16:-0.00196836 17:0 18:-0.00500405 19:0.00272342 20:0 21:0 22:0 23:0 24:1 25:0 26:0 27:0 28:0 29:0 30:0 31:0 32:0 33:0 34:0 35:0 
1 1:0 2:0.634603 3:0.104654 4:0.634603 5:0.0129942 6:-0.883432 7:-0.00737515 8:-0.00566043 9:-1.00606 10:-0.00273061 11:0.025567 12:-0.0105182 13:0.0283818 14:1 15:0.00165974 16:-0.00360034 17:0 18:-0.0115773 19:-0.00671981 20:0 21:0 22:0 23:0 24:0 25:0 26:1 27:1 28:1 29:0 30:0 31:0 32:0 33:0 34:0 35:0 
1 1:0 2:0.203279 3:-0.0655738 4:0.203279 5:0.0129942 6:-0.370841 7:0.0105849 8:-0.00209975 9:-0.16242 10:-0.000769924 11:0.025567 12:-0.000129959 13:-0.076692 14:3 15:-0.00251503 16:-0.00483205 17:0 18:0.00199183 19:0.00958784 20:0 21:0 22:0 23:1 24:1 25:0 26:0 27:0 28:0 29:0 30:0 31:0 32:0 33:0 34:0 35:0 
0.3973998039732258 1:1 2:0.573819 3:0.0536094 4:0.573819 5:-0.0146811 6:-0.369079 7:-0.00737515 8:-0.0025261 9:-0.242458 10:-0.00733484 11:0.00699454 12:-0.000129959 13:-0.0149504 14:2 15:-7.70143e-005 16:0.0289366 17:1 18:-0.00100128 19:-0.00553567 20:0 21:1 22:0 23:1 24:1 25:0 26:0 27:0 28:0 29:0 30:0 31:0 32:0 33:0 34:0 35:0 
1 1:0 2:0.185544 3:-0.0193852 4:0.185544 5:-0.00118857 6:-0.120218 7:0.0137208 8:-0.00624256 9:-0.166171 10:-0.000710021 11:0.00232889 12:0.0221073 13:0.00332691 14:1 15:-0.00349054 16:-0.00479611 17:0 18:-0.00988596 19:0.00276726 20:0 21:0 22:1 23:0 24:0 25:0 26:0 27:0 28:0 29:0 30:0 31:0 32:0 33:0 34:0 35:0 
1 1:1 2:0.184106 3:-0.030296 4:0.184106 5:-0.0146811 6:-0.121867 7:0.00857851 8:-0.0102524 9:-0.428795 10:-0.0025074 11:0.00388373 12:-0.0105182 13:0.0682449 14:1 15:0.00646052 16:0.00732772 17:0 18:-0.00521944 19:-0.00175629 20:0 21:0 22:0 23:0 24:1 25:0 26:0 27:0 28:1 29:0 30:0 31:0 32:0 33:0 34:0 35:0 
1 1:0 2:0.259646 3:-0.0208911 4:0.259646 5:0.00197725 6:-0.594259 7:-0.000966364 8:0.00263785 9:-0.194195 10:-0.000769924 11:0.025567 12:-0.00255595 13:-0.0109063 14:2 15:-0.00790929 16:-0.00483205 17:0 18:-0.001833 19:0.00272342 20:0 21:0 22:0 23:0 24:1 25:0 26:0 27:0 28:0 29:0 30:0 31:0 32:1 33:0 34:0 35:0 
1 1:1 2:0.739256 3:0.104654 4:0.739256 5:-0.0146811 6:-1.11603 7:-0.00737515 8:0.0101539 9:-1.06248 10:-0.000710021 11:0.0141877 12:-0.00279944 13:0.11004 14:2 15:-0.00530999 16:-0.0060947 17:1 18:-0.0143117 19:-0.00553567 20:0 21:0 22:0 23:0 24:0 25:0 26:0 27:0 28:0 29:0 30:0 31:0 32:0 33:0 34:0 35:0 
1 1:0 2:0.248128 3:0.0213904 4:0.248128 5:-0.00118857 6:-0.437462 7:-0.00166005 8:-0.00624256 9:-0.164283 10:0.00128145 11:0.0141877 12:0.00155162 13:-0.0623806 14:1 15:-0.00251503 16:-0.00196836 17:0 18:-0.0166584 19:-0.00553567 20:0 21:0 22:0 23:0 24:0 25:0 26:0 27:0 28:1 29:0 30:0 31:0 32:0 33:0 34:0 35:0 
1 1:0 2:0.315789 3:0.0548064 4:0.315789 5:0.0106812 6:-0.521885 7:-0.00737515 8:-0.00566043 9:-0.261638 10:-0.00332328 11:-0.00480468 12:0.0023707 13:0.00237612 14:1 15:0.0121562 16:-0.00347876 17:0 18:-0.021951 19:0.00958784 20:0 21:0 22:0 23:0 24:0 25:0 26:0 27:0 28:1 29:0 30:0 31:0 32:0 33:0 34:1 35:0 
1 1:0 2:0.066778 3:-0.126878 4:0.066778 5:0.0129942 6:-0.13759 7:0.00140932 8:-0.0102524 9:-0.0953327 10:-0.00332328 11:0.025567 12:-0.000129959 13:-0.062655 14:1 15:0.00574903 16:0.00605498 17:0 18:0.00568908 19:0.00272342 20:0 21:0 22:0 23:0 24:0 25:0 26:0 27:0 28:1 29:0 30:0 31:0 32:0 33:0 34:0 35:0 
1 1:0 2:0.315789 3:0.0548064 4:0.315789 5:0.0106812 6:-0.499545 7:-0.00737515 8:-0.00566043 9:-0.246664 10:-0.00733484 11:0.025567 12:-0.00279944 13:0.0432142 14:1 15:0.00646052 16:-0.00483205 17:0 18:-0.0171587 19:0.000803702 20:0 21:0 22:0 23:0 24:0 25:0 26:0 27:0 28:1 29:0 30:0 31:0 32:0 33:0 34:0 35:0 
1 1:0 2:0.495289 3:0.0748973 4:0.495289 5:0.00197725 6:-0.218001 7:0.0137208 8:0.00263785 9:-0.079446 10:-0.0025074 11:0.00232889 12:-0.00615216 13:0.0155922 14:2 15:-0.00588288 16:-0.0042043 17:0 18:7.92231e-005 19:-0.00175629 20:0 21:0 22:0 23:0 24:0 25:0 26:0 27:0 28:0 29:0 30:0 31:0 32:1 33:0 34:0 35:0 
1 1:0 2:0.456069 3:0.0346821 4:0.456069 5:-0.00174828 6:-1.07405 7:-0.000966364 8:-0.00566043 9:-0.952923 10:-0.0025074 11:0.00357244 12:0.00218961 13:0.0985435 14:1 15:-0.000517298 16:-0.00347876 17:0 18:-0.0258326 19:-0.00175629 20:0 21:0 22:0 23:0 24:0 25:0 26:1 27:0 28:0 29:0 30:1 31:0 32:0 33:0 34:0 35:0 
1 1:0 2:0.162304 3:-0.0209424 4:0.162304 5:0.00197725 6:-0.0910273 7:-0.000665361 8:0.00263785 9:-0.0266596 10:0.00180655 11:0.0136848 12:0.0135939 13:0.00585353 14:1 15:0.0048917 16:-0.00360034 17:0 18:0.00979309 19:0.000421736 20:0 21:0 22:0 23:0 24:0 25:0 26:0 27:0 28:0 29:0 30:0 31:0 32:0 33:0 34:0 35:0 
1 1:0 2:0.242215 3:-0.00314564 4:0.242215 5:0.00115378 6:-0.287465 7:0.00305708 8:0.0101539 9:-0.191341 10:0.0037796 11:0.0136848 12:-0.00255595 13:-0.0571567 14:1 15:0.0121562 16:0.00732772 17:0 18:-0.00562159 19:0.00220689 20:0 21:0 22:0 23:0 24:0 25:0 26:0 27:0 28:0 29:0 30:0 31:0 32:0 33:0 34:0 35:0 
1 1:0 2:-0.104839 3:-0.145161 4:-0.104839 5:0.00197725 6:0.0239619 7:0.00140932 8:-0.0025261 9:-0.0863722 10:-0.000769924 11:-0.00480468 12:0.0135939 13:-0.0673181 14:1 15:-0.00349054 16:-0.00124075 17:0 18:0.0301935 19:0.0138395 20:0 21:0 22:0 23:0 24:0 25:0 26:0 27:1 28:1 29:0 30:0 31:0 32:0 33:0 34:0 35:0 
1 1:1 2:0.37889 3:0.00631484 4:0.37889 5:-0.00118857 6:-0.542511 7:0.00636562 8:-0.000155678 9:-0.458084 10:-0.00332328 11:0.025567 12:-0.00109699 13:-0.0255657 14:3 15:-0.00251503 16:0.00732772 17:1 18:0.0181267 19:0.000803702 20:0 21:0 22:0 23:0 24:0 25:0 26:0 27:0 28:2 29:0 30:0 31:0 32:0 33:0 34:0 35:0 
1 1:0 2:0.355895 3:0.0174672 4:0.355895 5:0.00197725 6:-0.539705 7:0.00636562 8:-0.0025261 9:-0.219126 10:0.0037796 11:-0.00480468 12:-0.000129959 13:0.0598298 14:1 15:0.0121562 16:0.000647573 17:0 18:-0.0182327 19:0.00623806 20:0 21:0 22:0 23:1 24:0 25:0 26:0 27:0 28:1 29:0 30:0 31:0 32:0 33:0 34:0 35:0 
1 1:0 2:0.149211 3:-0.0879962 4:0.149211 5:-0.00424959 6:-0.184979 7:-0.0196727 8:0.00263785 9:-0.0918038 10:0.0194542 11:0.025567 12:0.0135939 13:-0.0746186 14:1 15:0.0142631 16:-0.0060947 17:0 18:0.0194541 19:0.00272342 20:1 21:0 22:0 23:0 24:0 25:0 26:0 27:0 28:0 29:0 30:0 31:0 32:0 33:0 34:0 35:0 
1 1:0 2:0.263889 3:0.0277778 4:0.263889 5:-0.0181781 6:-0.0765864 7:-0.00737515 8:-0.00566043 9:0.0970476 10:0.0037796 11:0.0136848 12:0.0221073 13:0.00981152 14:1 15:0.0048917 16:-0.00479611 17:0 18:-0.00165819 19:0.00958784 20:0 21:0 22:0 23:0 24:0 25:0 26:0 27:0 28:0 29:0 30:0 31:0 32:0 33:0 34:0 35:0 
1 1:0 2:0.4 3:2.77556e-017 4:0.4 5:-0.00424959 6:-1.10417 7:-0.0196727 8:-0.00459058 9:-0.544821 10:-0.000769924 11:-0.00737899 12:0.00677998 13:0.0782469 14:1 15:-0.00343388 16:-0.00269397 17:0 18:-0.0172986 19:0.00272342 20:0 21:0 22:0 23:0 24:0 25:0 26:0 27:1 28:1 29:1 30:0 31:0 32:0 33:1 34:0 35:0 
1 1:0 2:0.3 3:0 4:0.3 5:-0.00644929 6:-0.318685 7:0.00636562 8:-0.00459058 9:-0.156644 10:-0.00270045 11:0.00357244 12:0.0135939 13:0.0548825 14:1 15:-0.00343388 16:0.00732772 17:0 18:-0.00961958 19:0.00958784 20:0 21:0 22:0 23:0 24:0 25:1 26:0 27:0 28:1 29:1 30:0 31:0 32:0 33:1 34:0 35:0 
1 1:0 2:0.0833333 3:-0.0897436 4:0.0833333 5:-0.00118857 6:-0.116086 7:0.0137208 8:0.0100182 9:-0.0623248 10:0.0194542 11:0.00232889 12:-0.00255595 13:-0.020548 14:1 15:-0.00492854 16:-0.00360034 17:0 18:0.00859429 19:0.00404864 20:0 21:0 22:0 23:0 24:0 25:0 26:0 27:1 28:0 29:0 30:0 31:0 32:0 33:0 34:0 35:0 
1 1:0 2:0.128571 3:-0.047619 4:0.128571 5:-0.0146811 6:-0.022348 7:0.0137208 8:0.0184523 9:0.186903 10:-0.00332328 11:0.025567 12:-0.000129959 13:-0.00190597 14:1 15:0.00574903 16:0.00471629 17:0 18:-0.00844456 19:0.00404864 20:0 21:0 22:0 23:0 24:0 25:0 26:0 27:0 28:0 29:0 30:0 31:0 32:0 33:0 34:0 35:0 
1 1:0 2:0.319048 3:0.047619 4:0.319048 5:-0.0102445 6:-0.100497 7:0.00305708 8:-0.00566043 9:0.0966317 10:-0.00325732 11:0.00732539 12:0.00218961 13:-0.034087 14:1 15:-0.00790929 16:-0.0143477 17:0 18:-0.00981927 19:0.000803702 20:0 21:0 22:0 23:0 24:0 25:0 26:0 27:0 28:0 29:0 30:0 31:0 32:0 33:0 34:0 35:0 
1 1:0 2:0.192771 3:-0.00370714 4:0.192771 5:-0.0102445 6:-0.142887 7:0.0137208 8:0.000253862 9:0.0467482 10:-0.00123088 11:-0.037011 12:0.00218961 13:-0.0481589 14:2 15:-0.00530999 16:-0.00483205 17:0 18:-0.0242945 19:0.00623806 20:0 21:0 22:0 23:0 24:0 25:0 26:0 27:0 28:0 29:0 30:0 31:0 32:0 33:0 34:0 35:0 
0.2755006390051042 1:0 2:0.152416 3:-0.0297398 4:0.152416 5:0.00197725 6:-0.210205 7:0.00636562 8:-0.0102524 9:-0.210572 10:-0.00286363 11:0.025567 12:-0.000334465 13:-0.0407817 14:1 15:-0.00790929 16:0.00732772 17:0 18:0.00278889 19:-0.00601379 20:0 21:0 22:0 23:0 24:0 25:1 26:0 27:1 28:0 29:0 30:0 31:0 32:0 33:1 34:0 35:0 
1 1:0 2:0.25567 3:-0.0412371 4:0.25567 5:-0.00118857 6:-0.178699 7:0.0137208 8:0.0184523 9:-0.330553 10:-0.000769924 11:0.0136848 12:-0.000129959 13:-0.013998 14:4 15:-0.00251503 16:-0.00293144 17:0 18:-0.00284087 19:0.00272342 20:0 21:0 22:0 23:0 24:0 25:0 26:0 27:0 28:0 29:0 30:0 31:0 32:0 33:3 34:0 35:0 
1 1:0 2:0.214458 3:-0.0336751 4:0.214458 5:0.00197725 6:-0.113269 7:-0.00737515 8:-0.00566043 9:-0.287126 10:0.0100219 11:0.0136848 12:-0.000129959 13:-0.0139529 14:3 15:0.0121562 16:0.00605498 17:0 18:-0.00168849 19:0.00272342 20:0 21:0 22:0 23:0 24:0 25:0 26:0 27:0 28:0 29:0 30:0 31:0 32:0 33:2 34:1 35:0 
1 1:0 2:0.312811 3:-0.0085003 4:0.312811 5:-0.00118857 6:-0.110996 7:0.0137208 8:-0.00566043 9:-0.408845 10:-0.000769924 11:0.0136848 12:-0.000129959 13:-0.00527006 14:3 15:-0.00251503 16:-0.00196836 17:0 18:-0.0194275 19:-0.00175629 20:0 21:0 22:0 23:0 24:0 25:0 26:0 27:0 28:0 29:0 30:0 31:0 32:0 33:1 34:0 35:0 
1 1:0 2:0.584053 3:0.0598007 4:0.584053 5:0.00197725 6:-0.396618 7:-0.00737515 8:-0.00566043 9:-0.768157 10:-0.0025074 11:0.0136848 12:-0.000129959 13:0.0803877 14:3 15:-7.70143e-005 16:-0.0042043 17:0 18:-0.0229222 19:-0.00175629 20:0 21:0 22:0 23:0 24:0 25:0 26:0 27:0 28:0 29:0 30:0 31:0 32:0 33:1 34:1 35:0 
1 1:0 2:0.237651 3:-0.00509251 4:0.237651 5:-0.0102445 6:-0.329424 7:0.0161474 8:-0.00332417 9:-0.110888 10:-0.00286363 11:0.00732539 12:0.0135939 13:0.0551144 14:1 15:0.000310067 16:0.0289366 17:0 18:-0.00930521 19:0.000803702 20:0 21:0 22:0 23:0 24:0 25:0 26:0 27:0 28:0 29:0 30:0 31:0 32:0 33:0 34:0 35:0 
1 1:0 2:0.1 3:-6.93889e-018 4:0.1 5:0.00197725 6:-0.0887709 7:-0.00166005 8:-0.0102524 9:-0.0438976 10:-0.00325732 11:-0.00185013 12:-0.0117779 13:-0.0140405 14:1 15:-0.0106865 16:-0.00293144 17:0 18:-0.000411766 19:-0.00553567 20:0 21:0 22:0 23:0 24:0 25:0 26:0 27:0 28:0 29:0 30:0 31:0 32:0 33:0 34:0 35:0 
0.8065278410409167 1:0 2:0.257137 3:0.0020247 4:0.257137 5:0.0129942 6:-0.579346 7:0.0161474 8:-0.00332417 9:-0.221014 10:-0.00286363 11:-0.00175902 12:0.0135939 13:0.0127906 14:1 15:-0.00790929 16:0.00605498 17:0 18:0.00554113 19:0.00260239 20:1 21:0 22:1 23:0 24:0 25:0 26:0 27:0 28:0 29:0 30:0 31:0 32:0 33:0 34:0 35:0 
1 1:0 2:0.242654 3:0.0189573 4:0.242654 5:0.00197725 6:-0.0602143 7:0.00305708 8:0.000578213 9:0.0230794 10:-0.00325732 11:0.0136848 12:0.00217649 13:0.046694 14:2 15:0.00646052 16:-0.00483205 17:0 18:-0.0244589 19:0.00958784 20:0 21:0 22:1 23:0 24:0 25:0 26:0 27:0 28:0 29:0 30:0 31:0 32:0 33:0 34:0 35:0 
1 1:0 2:0.252632 3:0.0233918 4:0.252632 5:-0.0146811 6:-0.225748 7:0.00636562 8:-0.00630459 9:-0.0407124 10:-0.00381029 11:0.00357244 12:0.00677998 13:-0.111888 14:1 15:0.0048917 16:0.00443894 17:0 18:0.0188106 19:0.00220689 20:0 21:0 22:0 23:0 24:0 25:0 26:0 27:0 28:0 29:0 30:0 31:0 32:0 33:1 34:0 35:0 
1 1:0 2:0.466801 3:0.0160966 4:0.466801 5:-0.00424959 6:-0.00525404 7:-0.000665361 8:0.0184523 9:-0.30444 10:0.0194542 11:-0.00268771 12:-0.00279944 13:0.096213 14:1 15:-0.00251503 16:-0.00159909 17:0 18:-0.001195 19:0.0138395 20:0 21:0 22:1 23:0 24:0 25:0 26:0 27:0 28:0 29:0 30:0 31:0 32:0 33:0 34:0 35:0 
0.9696768988552429 1:0 2:0.1 3:-6.93889e-018 4:0.1 5:0.00197725 6:-0.00512418 7:0.00857851 8:-0.0025261 9:-0.0239856 10:0.00890847 11:0.025567 12:-0.0117779 13:-0.0260368 14:1 15:0.0048917 16:-0.0143477 17:0 18:0.0138672 19:-0.00207511 20:0 21:0 22:1 23:0 24:0 25:0 26:0 27:0 28:1 29:0 30:0 31:0 32:0 33:0 34:0 35:1 
1 1:0 2:0.372491 3:0.0223048 4:0.372491 5:0.00197725 6:-0.804683 7:0.0105849 8:-0.00624256 9:-0.374643 10:0.0194542 11:0.025567 12:-0.00571812 13:-0.0102953 14:2 15:0.00331034 16:0.00605498 17:0 18:-0.00282492 19:0.00958784 20:0 21:0 22:0 23:0 24:1 25:0 26:0 27:0 28:0 29:0 30:0 31:0 32:0 33:0 34:0 35:0 
1 1:0 2:0.0552764 3:-0.0603015 4:0.0552764 5:0.00197725 6:-0.113086 7:-0.00347661 8:-0.0025261 9:-0.0638551 10:0.00128145 11:-0.00198275 12:-0.00109699 13:0.0196208 14:1 15:-0.00790929 16:-0.0060947 17:0 18:0.000113568 19:0.0138395 20:0 21:0 22:0 23:0 24:0 25:0 26:0 27:0 28:0 29:0 30:0 31:0 32:0 33:0 34:0 35:0 
1 1:0 2:0.245146 3:-0.00196117 4:0.245146 5:0.0106812 6:-0.447986 7:0.00636562 8:0.0101539 9:-0.288211 10:-0.00332328 11:-0.00185013 12:-0.000129959 13:0.00481408 14:1 15:-0.00790929 16:-0.00360034 17:0 18:-0.00722281 19:0.00623806 20:0 21:0 22:0 23:0 24:0 25:0 26:0 27:0 28:1 29:0 30:0 31:0 32:0 33:0 34:0 35:0 
1 1:0 2:0.333013 3:0.0288739 4:0.333013 5:-0.00118857 6:-0.884508 7:0.0161474 8:-0.00630459 9:-0.828397 10:-0.00381029 11:-0.000258585 12:0.00155162 13:0.0240889 14:1 15:-0.00790929 16:-0.00360034 17:0 18:0.0179454 19:-0.00671981 20:1 21:0 22:0 23:0 24:0 25:0 26:0 27:0 28:0 29:0 30:0 31:0 32:1 33:0 34:0 35:0 
1 1:1 2:0.197287 3:-0.026031 4:0.197287 5:0.00197725 6:-0.346311 7:0.000868714 8:0.00263785 9:-0.315472 10:-0.000710021 11:-0.00268771 12:-0.0117779 13:0.0269364 14:3 15:-0.0106865 16:-0.00360034 17:0 18:-0.00362421 19:0.00623806 20:0 21:0 22:0 23:0 24:0 25:0 26:0 27:0 28:1 29:0 30:0 31:0 32:1 33:0 34:0 35:0 
1 1:0 2:0.167722 3:-0.0189873 4:0.167722 5:0.00197725 6:-0.315546 7:-0.013301 8:0.00263785 9:-0.199989 10:-0.000710021 11:0.025567 12:-0.00109699 13:0.111786 14:1 15:0.0012351 16:0.00443894 17:0 18:-0.041771 19:0.000347898 20:0 21:0 22:0 23:0 24:0 25:0 26:0 27:0 28:0 29:0 30:0 31:0 32:0 33:0 34:0 35:0 
1 1:0 2:0.213689 3:0.0066778 4:0.213689 5:0.0437735 6:-0.576638 7:-0.00737515 8:-0.00566043 9:-0.628068 10:-0.00270045 11:0.00388373 12:0.0135939 13:0.100113 14:1 15:0.00646052 16:-0.0143477 17:0 18:-0.0244828 19:0.00272342 20:0 21:0 22:0 23:0 24:1 25:0 26:0 27:0 28:0 29:0 30:0 31:0 32:0 33:0 34:0 35:0 
1 1:0 2:0.125 3:-0.05 4:0.125 5:0.0129942 6:-0.318273 7:-0.00166005 8:0.00111814 9:-0.140935 10:-0.000769924 11:-0.00480468 12:-0.00255595 13:-0.0207091 14:1 15:-0.00251503 16:-0.00196836 17:0 18:-0.00983407 19:0.00623806 20:0 21:0 22:0 23:0 24:0 25:0 26:0 27:0 28:1 29:0 30:0 31:0 32:0 33:0 34:0 35:0 
0.7830322296142935 1:1 2:0.376471 3:0.0641711 4:0.376471 5:0.0437735 6:-0.851838 7:-0.013301 8:-0.00566043 9:-0.945392 10:-0.00381029 11:-0.037011 12:-0.000334465 13:0.0896431 14:1 15:0.00331034 16:0.00605498 17:0 18:-0.0313933 19:0.00220689 20:0 21:0 22:0 23:0 24:1 25:0 26:0 27:0 28:0 29:0 30:0 31:0 32:0 33:0 34:0 35:0 
1 1:1 2:0.27248 3:0.00628799 4:0.27248 5:0.00197725 6:-0.44404 7:0.0137208 8:0.0184523 9:-0.638445 10:-0.000710021 11:0.00388373 12:-0.000129959 13:0.0290949 14:3 15:-0.00251503 16:0.00443894 17:1 18:0.00568845 19:-0.00405298 20:0 21:0 22:1 23:0 24:0 25:0 26:0 27:0 28:1 29:0 30:1 31:0 32:0 33:0 34:0 35:0 
1 1:0 2:0.258421 3:0.0563225 4:0.258421 5:0.00197725 6:-0.230014 7:0.0105849 8:-0.0025261 9:-0.00217613 10:-0.00273061 11:0.0141877 12:-0.00279944 13:0.0161989 14:1 15:-0.00790929 16:-0.00483205 17:0 18:-0.00463009 19:-0.00553567 20:0 21:0 22:0 23:0 24:0 25:0 26:0 27:0 28:0 29:0 30:0 31:0 32:0 33:0 34:0 35:0 
1 1:0 2:0.248349 3:-0.0237781 4:0.248349 5:0.00115378 6:-0.308279 7:-0.00737515 8:-0.00332417 9:-0.245666 10:-0.000769924 11:0.025567 12:-0.00109699 13:0.0198376 14:1 15:-0.0106865 16:0.000647573 17:0 18:-0.0162831 19:0.000347898 20:0 21:0 22:0 23:0 24:0 25:0 26:0 27:1 28:1 29:0 30:0 31:0 32:0 33:0 34:0 35:0 
1 1:0 2:0.109285 3:-0.0346513 4:0.109285 5:0.00197725 6:-0.500806 7:0.0105849 8:-0.0102524 9:-0.489013 10:0.0100219 11:0.025567 12:0.0135939 13:0.0940172 14:1 15:-0.00790929 16:0.00732772 17:0 18:-0.00680291 19:-0.0057122 20:0 21:0 22:0 23:0 24:0 25:0 26:0 27:0 28:0 29:0 30:0 31:0 32:0 33:0 34:0 35:0 
1 1:0 2:0.1 3:-6.93889e-018 4:0.1 5:0.00197725 6:-0.327932 7:0.00140932 8:-0.00459058 9:-0.508757 10:-0.0025074 11:0.025567 12:0.0135939 13:0.123168 14:1 15:-0.0106865 16:-0.00483205 17:0 18:-0.0248363 19:-0.00175629 20:0 21:0 22:1 23:0 24:0 25:0 26:0 27:0 28:0 29:0 30:0 31:0 32:0 33:0 34:0 35:0 
1 1:0 2:0.398104 3:0.0473934 4:0.398104 5:0.00197725 6:-0.569867 7:0.000933507 8:-0.00209975 9:-0.398215 10:-0.00325732 11:0.00388373 12:-0.00571812 13:0.0257108 14:2 15:-0.00790929 16:-0.00483205 17:0 18:-0.00130606 19:-0.00671981 20:0 21:0 22:0 23:0 24:0 25:0 26:0 27:1 28:0 29:0 30:0 31:0 32:0 33:0 34:0 35:0 
1 1:0 2:0.25406 3:0.00160798 4:0.25406 5:0.00197725 6:-0.377389 7:0.0105849 8:-0.0025261 9:-0.162791 10:0.0037796 11:-0.00480468 12:-0.0105182 13:0.0199181 14:2 15:-0.00251503 16:-0.00483205 17:1 18:-0.0122893 19:-0.013254 20:0 21:0 22:0 23:0 24:0 25:0 26:0 27:0 28:1 29:0 30:0 31:0 32:0 33:0 34:0 35:0 
1 1:0 2:0.0894533 3:-0.0563225 4:0.0894533 5:0.00197725 6:-0.108586 7:0.0105849 8:-0.0025261 9:-0.0104502 10:-0.000769924 11:0.025567 12:0.0135939 13:-0.0051537 14:1 15:-0.000517298 16:-0.00479611 17:0 18:-0.00839796 19:0.00623806 20:0 21:0 22:0 23:0 24:0 25:0 26:0 27:0 28:0 29:0 30:0 31:0 32:0 33:0 34:0 35:0 
1 1:0 2:0.214419 3:-0.0335612 4:0.214419 5:0.0129942 6:-0.61364 7:0.0161474 8:0.000578213 9:-0.770928 10:-0.00270045 11:0.025567 12:-0.00223244 13:0.0975742 14:1 15:0.0142631 16:0.00732772 17:0 18:-0.0337632 19:-0.000837017 20:0 21:0 22:0 23:0 24:0 25:0 26:0 27:0 28:0 29:0 30:0 31:0 32:0 33:0 34:0 35:0 
-1 1:0 2:0.14138 3:-0.0611943 4:0.14138 5:-0.00855676 6:-0.205988 7:0.0105849 8:-0.00624256 9:-0.215649 10:0.0037796 11:-0.037011 12:0.0023707 13:-0.046643 14:1 15:-0.00251503 16:0.00732772 17:0 18:0.00165466 19:0.000347898 20:0 21:0 22:0 23:0 24:0 25:0 26:0 27:0 28:2 29:0 30:0 31:0 32:0 33:0 34:0 35:0 
-1 1:0 2:0.181373 3:-0.00980392 4:0.181373 5:-0.00174828 6:-0.10121 7:0.00636562 8:0.000253862 9:0.282243 10:-0.000769924 11:-0.037011 12:-0.00317909 13:-0.0644522 14:1 15:-0.00343388 16:-0.00293144 17:0 18:0.00408528 19:0.00623806 20:0 21:0 22:0 23:0 24:1 25:0 26:0 27:0 28:0 29:0 30:0 31:0 32:0 33:0 34:0 35:0 
-1 1:0 2:0.218768 3:-0.0134331 4:0.218768 5:0.00197725 6:-0.174832 7:0.00857851 8:-0.0025261 9:-0.0812284 10:0.00128145 11:-0.037011 12:-0.0105182 13:0.0735174 14:2 15:0.00165974 16:0.00471629 17:0 18:-0.0194552 19:0.00260239 20:0 21:0 22:0 23:1 24:0 25:0 26:0 27:0 28:0 29:0 30:0 31:0 32:0 33:0 34:0 35:0 
-1 1:0 2:0.2 3:0 4:0.2 5:0.00197725 6:-0.147167 7:0.0137208 8:-0.00459058 9:-0.137894 10:0.00128145 11:-0.037011 12:-0.00317909 13:0.0361419 14:1 15:0.00646052 16:-0.00196836 17:0 18:-0.00747524 19:0.000803702 20:0 21:0 22:0 23:0 24:0 25:0 26:0 27:0 28:1 29:0 30:0 31:0 32:0 33:1 34:0 35:0 
-1 1:0 2:0.171315 3:-0.0159363 4:0.171315 5:0.00197725 6:-0.146267 7:-0.00166005 8:0.0100182 9:-0.0707663 10:-0.00273061 11:-0.037011 12:-0.0117779 13:-0.045638 14:1 15:0.00574903 16:0.00732772 17:0 18:0.0178909 19:-0.00601379 20:0 21:0 22:0 23:0 24:0 25:0 26:0 27:0 28:0 29:0 30:0 31:0 32:0 33:1 34:0 35:0 
-1 1:0 2:0.141593 3:-0.0353982 4:0.141593 5:0.00197725 6:-0.19752 7:0.0105849 8:0.0184523 9:-0.132747 10:-0.00270045 11:-0.037011 12:-0.00571812 13:-0.0963243 14:1 15:-7.70143e-005 16:0.00471629 17:0 18:-0.0016911 19:0.00272342 20:0 21:0 22:0 23:0 24:0 25:0 26:0 27:0 28:0 29:0 30:0 31:0 32:0 33:0 34:0 35:0 
-1 1:0 2:0.311969 3:0.00392413 4:0.311969 5:-0.00118857 6:-0.422867 7:0.000868714 8:-0.00209975 9:-0.19682 10:-0.000710021 11:-0.037011 12:0.0221073 13:0.126691 14:2 15:-0.00036086 16:-0.00479611 17:0 18:-0.0293905 19:0.00276726 20:0 21:0 22:0 23:0 24:0 25:0 26:0 27:0 28:0 29:0 30:0 31:0 32:0 33:0 34:0 35:0 
-1 1:0 2:0.350065 3:0.0156454 4:0.350065 5:-0.00855676 6:-0.212727 7:0.00857851 8:0.0184523 9:-0.0405203 10:0.00128145 11:-0.037011 12:-0.00109699 13:0.00290483 14:2 15:-0.00790929 16:-0.00347876 17:0 18:-0.00850936 19:-0.00405298 20:0 21:0 22:1 23:0 24:0 25:0 26:0 27:0 28:0 29:0 30:1 31:0 32:0 33:0 34:0 35:0 
-1 1:0 2:0.249216 3:-0.0188088 4:0.249216 5:0.0106812 6:-0.117122 7:-0.000665361 8:0.00111369 9:0.100568 10:-0.00273061 11:-0.037011 12:-0.00347617 13:-0.0148218 14:1 15:0.00165974 16:0.00732772 17:0 18:0.0298744 19:-0.00405298 20:0 21:0 22:1 23:0 24:0 25:0 26:0 27:0 28:0 29:0 30:0 31:0 32:0 33:0 34:0 35:0 
-1 1:0 2:0.268249 3:-0.0274792 4:0.268249 5:0.00197725 6:-0.369137 7:0.00305708 8:-0.000155678 9:-0.303854 10:-0.0025074 11:-0.00737899 12:-0.000129959 13:0.0434372 14:2 15:-0.00251503 16:0.000647573 17:0 18:-0.00743863 19:-0.00175629 20:0 21:0 22:0 23:0 24:0 25:0 26:0 27:0 28:0 29:0 30:0 31:0 32:0 33:0 34:0 35:0 
-1 1:0 2:0.3 3:-1.38778e-017 4:0.3 5:-0.00573529 6:-0.297811 7:0.00857851 8:-0.00630459 9:-0.303912 10:-0.00332328 11:-0.037011 12:-0.00109699 13:0.0257572 14:1 15:-0.000517298 16:0.000647573 17:0 18:0.0256458 19:0.00260239 20:0 21:0 22:0 23:0 24:0 25:0 26:0 27:0 28:0 29:0 30:1 31:0 32:0 33:0 34:0 35:0 
-1 1:0 2:0.454644 3:0.0423683 4:0.454644 5:0.00197725 6:-0.415138 7:0.00857851 8:0.000253862 9:-0.0632017 10:-0.00286363 11:-0.0122162 12:-0.00347617 13:0.0213977 14:2 15:0.0012351 16:-0.00382903 17:0 18:-0.0214283 19:-0.00405298 20:0 21:0 22:1 23:0 24:0 25:0 26:0 27:0 28:1 29:0 30:0 31:0 32:0 33:0 34:0 35:0 
-1 1:0 2:0.193705 3:-0.00322841 4:0.193705 5:0.000589152 6:-0.154604 7:0.0105849 8:0.0044492 9:-0.073002 10:-0.00335283 11:-0.037011 12:-0.000334465 13:-0.121062 14:1 15:-0.00492854 16:-0.00293144 17:0 18:0.0295138 19:0.00220689 20:0 21:0 22:1 23:0 24:0 25:0 26:0 27:0 28:0 29:0 30:0 31:0 32:0 33:0 34:0 35:0 
-1 1:0 2:0.304325 3:0.0195764 4:0.304325 5:-0.00174828 6:-0.485972 7:0.0137208 8:0.0184523 9:-0.140795 10:-0.00123088 11:-0.037011 12:-0.0117779 13:0.0500266 14:2 15:-0.00530999 16:-0.00360034 17:0 18:-0.0182995 19:0.00404864 20:0 21:0 22:0 23:0 24:0 25:0 26:0 27:0 28:0 29:0 30:0 31:0 32:0 33:0 34:0 35:0 
-1 1:0 2:0.284081 3:-0.00548948 4:0.284081 5:0.00197725 6:-0.364125 7:0.0161474 8:0.0044492 9:-0.200269 10:-0.00325732 11:-0.037011 12:0.00677998 13:-0.0194766 14:1 15:0.0142631 16:0.00605498 17:0 18:0.00829165 19:-0.00671981 20:0 21:0 22:0 23:0 24:0 25:0 26:0 27:0 28:1 29:0 30:0 31:0 32:0 33:0 34:0 35:0 
-1 1:0 2:0.215909 3:0.00757576 4:0.215909 5:0.00115378 6:-0.193338 7:0.00857851 8:-0.0102524 9:0.136531 10:-0.0025074 11:-0.037011 12:-0.000874371 13:-0.0421076 14:1 15:-0.00530999 16:-0.0042043 17:0 18:-0.0185913 19:-0.00175629 20:0 21:0 22:0 23:0 24:0 25:0 26:0 27:0 28:0 29:0 30:0 31:0 32:0 33:0 34:0 35:0 
-1 1:0 2:0.370124 3:-0.0196016 4:0.370124 5:-0.00118857 6:-0.574804 7:-0.00737515 8:-0.00630459 9:-0.446231 10:-0.00332328 11:-0.00175902 12:-0.000129959 13:-0.0408794 14:2 15:-0.00251503 16:0.00732772 17:0 18:0.0067219 19:0.00958784 20:0 21:0 22:0 23:0 24:0 25:0 26:0 27:0 28:0 29:0 30:0 31:0 32:0 33:0 34:0 35:0 
-1 1:0 2:0.152778 3:-0.0277778 4:0.152778 5:0.00197725 6:-0.0865984 7:0.0105849 8:0.00111369 9:-0.00356362 10:-0.000769924 11:-0.037011 12:-0.0117779 13:0.0497284 14:1 15:-0.000517298 16:-0.00347876 17:0 18:0.00480518 19:-0.00405298 20:0 21:0 22:1 23:0 24:0 25:0 26:0 27:0 28:0 29:0 30:0 31:0 32:0 33:0 34:0 35:0 
-1 1:0 2:0.185287 3:-0.0311869 4:0.185287 5:0.00197725 6:-0.127904 7:0.00857851 8:-0.00624256 9:-0.125217 10:0.0037796 11:-0.037011 12:0.0135939 13:-0.05046 14:2 15:-0.0106865 16:-0.0060947 17:0 18:0.00782438 19:0.00272342 20:0 21:0 22:0 23:0 24:0 25:0 26:0 27:0 28:0 29:0 30:0 31:0 32:0 33:0 34:0 35:0 
-1 1:0 2:0.216702 3:-0.0471851 4:0.216702 5:0.0106812 6:-0.231246 7:0.00140932 8:-0.00566043 9:-0.202405 10:-0.00733484 11:-0.037011 12:-0.0117779 13:-0.0471953 14:1 15:-0.00251503 16:0.00732772 17:0 18:0.0152159 19:0.00272342 20:0 21:0 22:0 23:0 24:1 25:0 26:0 27:0 28:0 29:0 30:1 31:0 32:0 33:0 34:0 35:0 
-1 1:0 2:0.309109 3:0.00298656 4:0.309109 5:0.00197725 6:-0.144542 7:-0.00166005 8:0.0044492 9:0.11789 10:-0.00667065 11:-0.0122162 12:0.00677998 13:0.00792249 14:2 15:0.00646052 16:0.000647573 17:0 18:0.0133676 19:-0.00601379 20:0 21:0 22:0 23:0 24:0 25:0 26:0 27:0 28:0 29:0 30:0 31:0 32:0 33:1 34:0 35:0 
-1 1:0 2:0.141593 3:-0.0353982 4:0.141593 5:0.00197725 6:-0.164903 7:0.0105849 8:0.0044492 9:-0.179887 10:0.0100219 11:-0.037011 12:-0.00109699 13:-0.0631028 14:1 15:0.00165974 16:-0.0060947 17:0 18:0.024875 19:0.00272342 20:0 21:0 22:0 23:0 24:1 25:0 26:0 27:0 28:0 29:0 30:0 31:0 32:0 33:0 34:0 35:0 
-1 1:0 2:0.442179 3:-0.00174774 4:0.442179 5:0.00197725 6:-0.766193 7:-0.000966364 8:-0.00332417 9:-0.341039 10:-0.00335283 11:-0.00182434 12:-0.000129959 13:-0.092624 14:2 15:-0.00492854 16:-0.00293144 17:0 18:0.0179538 19:0.00272342 20:0 21:0 22:0 23:0 24:0 25:0 26:0 27:0 28:0 29:0 30:0 31:0 32:0 33:0 34:0 35:0 
-1 1:0 2:0.179675 3:0.0172029 4:0.179675 5:0.0106812 6:-0.0666328 7:0.0137208 8:0.0044492 9:0.110799 10:-0.00335283 11:-0.037011 12:-0.00347617 13:0.000652428 14:2 15:0.00165974 16:0.00471629 17:0 18:4.19097e-005 19:-0.0057122 20:0 21:0 22:0 23:1 24:0 25:0 26:0 27:0 28:0 29:0 30:0 31:0 32:0 33:0 34:0 35:0 
-1 1:0 2:0.419492 3:0.059322 4:0.419492 5:0.0129942 6:-0.421585 7:0.0137208 8:0.00111369 9:0.0361696 10:-0.0025074 11:-0.037011 12:-0.00615216 13:-0.00843226 14:1 15:-0.00588288 16:-0.0042043 17:0 18:-0.00714933 19:-0.00175629 20:0 21:0 22:1 23:0 24:0 25:0 26:0 27:0 28:0 29:0 30:0 31:0 32:0 33:0 34:0 35:0 
-1 1:0 2:0.239843 3:-0.0235911 4:0.239843 5:0.00197725 6:-0.170438 7:0.00305708 8:-0.000155678 9:-0.0851843 10:-0.00381029 11:-0.037011 12:-0.0117779 13:-0.0393435 14:3 15:0.00574903 16:-0.00347876 17:1 18:0.00803139 19:0.000803702 20:0 21:0 22:0 23:0 24:0 25:0 26:0 27:0 28:0 29:0 30:0 31:0 32:0 33:0 34:0 35:0 
-1 1:0 2:0.502894 3:0.0738376 4:0.502894 5:0.00197725 6:-0.625804 7:-0.00737515 8:-0.00363048 9:-0.26649 10:-0.000710021 11:-0.00480468 12:-0.00279944 13:0.120713 14:2 15:-0.000517298 16:-0.00159909 17:0 18:-0.00445531 19:0.000803702 20:0 21:0 22:0 23:0 24:0 25:0 26:0 27:0 28:0 29:0 30:0 31:0 32:0 33:0 34:0 35:0 
-1 1:0 2:0.271159 3:0.00821693 4:0.271159 5:0.00197725 6:-0.10786 7:0.0105849 8:0.0044492 9:0.060533 10:0.0037796 11:-0.037011 12:-0.00347617 13:-0.0178537 14:1 15:0.00574903 16:-0.00196836 17:0 18:-0.0103299 19:0.00260239 20:0 21:0 22:0 23:0 24:0 25:0 26:0 27:0 28:0 29:0 30:0 31:0 32:0 33:0 34:0 35:0 
-1 1:0 2:0.166063 3:0.00988468 4:0.166063 5:0.00197725 6:-0.0797838 7:0.00140932 8:0.0044492 9:-0.112671 10:-0.00273061 11:-0.037011 12:0.00218961 13:0.0834087 14:1 15:0.00574903 16:0.00443894 17:0 18:-0.0061954 19:0.00220689 20:0 21:0 22:0 23:0 24:0 25:0 26:0 27:0 28:0 29:0 30:0 31:0 32:0 33:0 34:0 35:0 
-1 1:0 2:0.175947 3:0.00988468 4:0.175947 5:0.00197725 6:-0.0875062 7:0.00140932 8:0.0184523 9:-0.137899 10:-0.00123088 11:-0.037011 12:0.00155162 13:-0.00266193 14:1 15:-0.00790929 16:-0.00293144 17:0 18:0.0086701 19:-0.00671981 20:0 21:0 22:0 23:0 24:0 25:0 26:0 27:0 28:0 29:0 30:0 31:0 32:0 33:1 34:0 35:0 
-1 1:0 2:0.166063 3:0.00988468 4:0.166063 5:0.00197725 6:-0.128951 7:0.0137208 8:0.000253862 9:0.0148371 10:-0.00335283 11:-0.037011 12:-0.00255595 13:0.0363794 14:1 15:-0.00530999 16:-0.00159909 17:0 18:-0.00315704 19:-0.0057122 20:0 21:0 22:0 23:0 24:0 25:0 26:0 27:0 28:0 29:0 30:0 31:0 32:0 33:0 34:0 35:0 
-1 1:0 2:0.267355 3:-0.011257 4:0.267355 5:0.00737457 6:-0.238099 7:0.0137208 8:0.0184523 9:-0.39259 10:-0.00381029 11:-0.037011 12:0.00217649 13:-0.0391297 14:1 15:-0.000517298 16:-0.00293144 17:0 18:0.0190021 19:0.00272342 20:0 21:0 22:0 23:0 24:1 25:0 26:0 27:0 28:0 29:0 30:0 31:0 32:0 33:0 34:0 35:0 
-1 1:0 2:0.197771 3:-0.0373568 4:0.197771 5:0.0106812 6:-0.328063 7:-0.000966364 8:0.000578213 9:-0.566775 10:0.0100219 11:-0.037011 12:0.0135939 13:-0.0024365 14:2 15:-0.0106865 16:0.00605498 17:0 18:-0.00752773 19:0.00272342 20:0 21:0 22:0 23:0 24:0 25:0 26:0 27:0 28:0 29:0 30:0 31:0 32:0 33:0 34:0 35:0 
-1 1:0 2:0.181251 3:-0.0695873 4:0.181251 5:0.00197725 6:-0.176675 7:0.00857851 8:0.0100182 9:-0.212142 10:-0.00123088 11:-0.037011 12:-0.000129959 13:0.0290437 14:1 15:-0.00036086 16:-0.00293144 17:0 18:-0.0124936 19:0.00260239 20:0 21:0 22:0 23:0 24:1 25:0 26:0 27:0 28:0 29:0 30:0 31:0 32:0 33:0 34:0 35:0 
-1 1:0 2:0.303406 3:0.0185759 4:0.303406 5:0.00197725 6:-0.361783 7:0.0137208 8:-0.000155678 9:-0.1271 10:-0.00733484 11:-0.037011 12:-0.00109699 13:0.00474946 14:1 15:0.0121562 16:-0.00124075 17:0 18:-0.0118757 19:0.00623806 20:0 21:0 22:0 23:0 24:0 25:0 26:0 27:0 28:0 29:0 30:0 31:0 32:0 33:0 34:0 35:0 
-1 1:0 2:0.247525 3:-0.019802 4:0.247525 5:0.00737457 6:-0.166301 7:0.00636562 8:0.00263785 9:-0.0027739 10:-0.00381029 11:-0.037011 12:-0.000129959 13:-0.035586 14:2 15:0.0142631 16:0.00471629 17:0 18:0.0207944 19:0.00958784 20:0 21:0 22:0 23:0 24:0 25:0 26:0 27:0 28:0 29:0 30:0 31:0 32:0 33:1 34:0 35:0 
-1 1:0 2:0.324307 3:-0.00761283 4:0.324307 5:0.00197725 6:-0.179204 7:0.0105849 8:-0.00332417 9:-0.0150015 10:-0.00325732 11:-0.037011 12:-0.000874371 13:0.012377 14:2 15:-0.0106865 16:-0.00479611 17:0 18:-0.00800276 19:0.00958784 20:0 21:0 22:1 23:0 24:0 25:0 26:0 27:0 28:0 29:0 30:0 31:0 32:0 33:0 34:0 35:0 
-1 1:0 2:0.325301 3:0.0481928 4:0.325301 5:-0.00855676 6:-0.203899 7:0.0105849 8:0.00263785 9:0.0025555 10:-0.00123088 11:-0.037011 12:-0.00109699 13:0.00879271 14:2 15:-0.00530999 16:-0.00382903 17:0 18:0.00839018 19:-0.000837017 20:0 21:0 22:0 23:0 24:0 25:0 26:0 27:0 28:0 29:0 30:1 31:0 32:0 33:0 34:0 35:0 
-1 1:0 2:0.445181 3:0.0397756 4:0.445181 5:0.00197725 6:-0.365733 7:-0.00737515 8:-0.00566043 9:-0.388425 10:-0.00286363 11:-0.00737899 12:0.0135939 13:-0.042742 14:2 15:0.0142631 16:-0.00293144 17:0 18:-0.00309984 19:0.000369551 20:0 21:0 22:0 23:0 24:0 25:0 26:0 27:0 28:0 29:0 30:0 31:0 32:0 33:1 34:0 35:0 
-1 1:0 2:0.2 3:0 4:0.2 5:0.00197725 6:-0.434701 7:-0.0196727 8:0.00263785 9:-0.543491 10:-0.00335283 11:-0.037011 12:-0.0117779 13:0.0974758 14:1 15:0.00646052 16:0.00605498 17:0 18:0.00854045 19:0.00958784 20:0 21:0 22:0 23:1 24:0 25:0 26:0 27:0 28:1 29:0 30:0 31:0 32:0 33:0 34:0 35:0 
-1 1:0 2:0.139742 3:-0.0654113 4:0.139742 5:0.00115378 6:-0.154308 7:0.00857851 8:0.0100182 9:-0.156403 10:-0.000769924 11:-0.037011 12:-0.00571812 13:-0.087255 14:1 15:-0.00251503 16:-0.00483205 17:0 18:0.0263402 19:0.00272342 20:0 21:0 22:0 23:0 24:1 25:0 26:0 27:0 28:0 29:0 30:0 31:0 32:0 33:0 34:0 35:0 
-1 1:0 2:0.417085 3:0.0603015 4:0.417085 5:0.00197725 6:-0.339948 7:0.0105849 8:-0.0025261 9:-0.105248 10:-0.00332328 11:-0.037011 12:-0.0105182 13:0.00984555 14:1 15:-0.00036086 16:-0.00124075 17:0 18:0.00735107 19:-0.00405298 20:0 21:0 22:1 23:0 24:0 25:0 26:0 27:0 28:0 29:0 30:0 31:0 32:0 33:0 34:0 35:0 
-1 1:0 2:0.26501 3:-0.0276391 4:0.26501 5:0.00197725 6:-0.458159 7:-0.013301 8:-0.0102524 9:-0.369358 10:0.0100219 11:-0.0122162 12:-0.000129959 13:-0.0140547 14:2 15:-0.00251503 16:-0.00360034 17:0 18:-0.000151126 19:0.00272342 20:0 21:0 22:0 23:0 24:0 25:0 26:0 27:0 28:0 29:0 30:0 31:0 32:0 33:0 34:0 35:0 
-1 1:0 2:0.226219 3:0.0269803 4:0.226219 5:-0.00855852 6:-0.200611 7:0.00305708 8:-0.0025261 9:0.20068 10:-0.00325732 11:-0.037011 12:-0.000334465 13:-0.0427422 14:1 15:-0.00530999 16:-0.00382903 17:0 18:-0.00541063 19:0.000369551 20:0 21:0 22:0 23:0 24:0 25:0 26:0 27:0 28:0 29:0 30:0 31:0 32:0 33:0 34:0 35:0 
-1 1:0 2:0.215909 3:0.00757576 4:0.215909 5:0.0129942 6:-0.0791047 7:-0.00516551 8:-0.0025261 9:-0.116681 10:-0.00332328 11:-0.037011 12:-0.000129959 13:-0.103155 14:1 15:-0.0106865 16:-0.0060947 17:0 18:0.0267291 19:0.000369551 20:0 21:0 22:0 23:0 24:1 25:0 26:0 27:0 28:0 29:0 30:0 31:0 32:0 33:0 34:0 35:0 
-1 1:0 2:0.383495 3:0.0679612 4:0.383495 5:-0.0146811 6:-0.541167 7:0.0137208 8:-0.00630459 9:-0.318969 10:-0.0025074 11:-0.037011 12:-0.0117779 13:-0.0176321 14:2 15:-0.000517298 16:-0.0060947 17:0 18:0.00989605 19:-0.00175629 20:0 21:0 22:0 23:1 24:0 25:0 26:0 27:0 28:0 29:0 30:0 31:0 32:0 33:0 34:0 35:0 
-1 1:0 2:0.204476 3:-0.0209306 4:0.204476 5:0.00197725 6:-0.133005 7:0.0105849 8:-0.0025261 9:0.0216175 10:0.000771071 11:-0.037011 12:-0.000334465 13:-0.00199696 14:2 15:-0.000517298 16:0.00471629 17:0 18:-0.00243772 19:0.000803702 20:0 21:0 22:0 23:1 24:0 25:0 26:0 27:0 28:0 29:0 30:0 31:0 32:0 33:0 34:0 35:0 
-1 1:0 2:0.271516 3:-0.00999445 4:0.271516 5:0.00197725 6:-0.206472 7:0.00636562 8:0.0101539 9:-0.0866003 10:-0.00270045 11:-0.037011 12:0.0135939 13:-0.105594 14:2 15:0.0121562 16:-0.00382903 17:0 18:0.0158088 19:0.00272342 20:0 21:0 22:0 23:0 24:0 25:0 26:0 27:0 28:0 29:0 30:0 31:0 32:0 33:0 34:0 35:0 
-1 1:0 2:0.206217 3:0.0030326 4:0.206217 5:0.00197725 6:-0.14375 7:0.00305708 8:-0.000155678 9:0.163646 10:-0.00335283 11:-0.037011 12:-0.00279944 13:-0.00199028 14:2 15:-0.00036086 16:0.00605498 17:0 18:-0.00274382 19:-0.000837017 20:0 21:0 22:0 23:1 24:0 25:0 26:0 27:0 28:0 29:0 30:0 31:0 32:0 33:0 34:0 35:0 
-1 1:0 2:0.25466 3:0.00184536 4:0.25466 5:-0.00424959 6:-0.25739 7:-0.00737515 8:-0.0025261 9:0.0522605 10:0.00180655 11:-0.037011 12:0.0135939 13:-0.00307314 14:2 15:0.00574903 16:-0.00382903 17:0 18:0.00289466 19:-0.00601379 20:0 21:0 22:0 23:1 24:0 25:0 26:0 27:0 28:0 29:0 30:0 31:0 32:0 33:1 34:0 35:0 
-1 1:0 2:0.166063 3:0.00988468 4:0.166063 5:0.00197725 6:-0.198366 7:-0.00166005 8:-0.0025261 9:-0.116065 10:-0.0025074 11:-0.037011 12:0.00677998 13:-0.0328045 14:1 15:-0.00790929 16:-0.00360034 17:0 18:0.0150803 19:-0.00175629 20:0 21:0 22:0 23:0 24:1 25:0 26:0 27:0 28:0 29:0 30:0 31:0 32:0 33:0 34:0 35:0 
-1 1:0 2:0.356784 3:0.0603015 4:0.356784 5:0.00197725 6:-0.598302 7:0.0105849 8:-0.0102524 9:-0.553553 10:-0.0025074 11:-0.037011 12:-0.00615216 13:0.0764966 14:1 15:-0.00588288 16:-0.0042043 17:0 18:-0.0155298 19:-0.00175629 20:0 21:0 22:0 23:0 24:0 25:0 26:0 27:0 28:0 29:0 30:0 31:0 32:0 33:0 34:0 35:0 
-0.06621432704066876 1:0 2:0.448562 3:0.0117016 4:0.448562 5:0.00197725 6:-0.653554 7:-0.0196727 8:0.00263785 9:-0.49396 10:-0.000769924 11:-0.0122162 12:-0.0117779 13:0.075184 14:2 15:-0.00790929 16:-0.00483205 17:0 18:-0.00274496 19:0.00272342 20:0 21:0 22:0 23:1 24:0 25:0 26:0 27:0 28:0 29:0 30:0 31:0 32:0 33:0 34:0 35:0 
-1 1:0 2:0.546185 3:0.0321285 4:0.546185 5:0.000589152 6:-0.502396 7:-0.000665361 8:-0.0102524 9:-0.239787 10:-0.00270045 11:-0.00737899 12:-0.00317909 13:-0.053516 14:2 15:-0.00251503 16:0.00471629 17:0 18:0.014843 19:-0.013254 20:0 21:0 22:0 23:0 24:0 25:0 26:0 27:0 28:0 29:0 30:0 31:0 32:0 33:0 34:0 35:0 
-1 1:0 2:0.421844 3:0.0353172 4:0.421844 5:0.00115378 6:-0.520156 7:-0.00737515 8:0.00263785 9:-0.362474 10:-0.000769924 11:-0.0122162 12:-0.00109699 13:-0.06022 14:1 15:-0.00530999 16:-0.0060947 17:0 18:0.0170605 19:-0.00671981 20:0 21:0 22:0 23:0 24:0 25:0 26:0 27:0 28:1 29:0 30:1 31:0 32:0 33:0 34:0 35:0 
-1 1:0 2:0.375346 3:0.0221607 4:0.375346 5:-0.0181781 6:-0.467856 7:-0.000402756 8:0.0184523 9:-0.407774 10:0.0037796 11:-0.037011 12:0.00155162 13:0.0610716 14:1 15:0.0012351 16:-0.00196836 17:0 18:-0.0191142 19:-0.00671981 20:0 21:0 22:0 23:0 24:0 25:0 26:0 27:0 28:0 29:0 30:0 31:0 32:0 33:0 34:0 35:0 
-1 1:0 2:0.230074 3:-0.00821693 4:0.230074 5:-0.00118857 6:-0.510871 7:-0.0196727 8:-0.00624256 9:-0.48766 10:-0.000769924 11:-0.00480468 12:0.0023707 13:0.00799527 14:1 15:-0.00251503 16:-0.00382903 17:0 18:-0.00926207 19:0.00276726 20:0 21:0 22:0 23:0 24:1 25:0 26:0 27:0 28:1 29:0 30:0 31:0 32:0 33:0 34:0 35:0 
-1 1:0 2:0.166063 3:0.00988468 4:0.166063 5:0.00197725 6:-0.090977 7:-0.013301 8:-0.0102524 9:-0.173086 10:0.0037796 11:-0.037011 12:-0.00109699 13:-0.0385763 14:1 15:0.0048917 16:-0.00196836 17:0 18:0.00384558 19:0.000803702 20:0 21:0 22:0 23:0 24:0 25:0 26:0 27:0 28:0 29:0 30:0 31:0 32:0 33:0 34:0 35:0 
-1 1:0 2:0.179675 3:0.0172029 4:0.179675 5:-0.00424959 6:-0.306658 7:-0.000428978 8:0.00111814 9:-0.130286 10:0.0100219 11:-0.037011 12:-0.0117779 13:-0.027116 14:2 15:-0.0106865 16:-0.00360034 17:0 18:0.00800289 19:-0.00405298 20:0 21:0 22:1 23:0 24:0 25:0 26:0 27:0 28:0 29:0 30:0 31:0 32:0 33:0 34:0 35:0 
-1 1:0 2:0.243671 3:0.0189873 4:0.243671 5:0.00197725 6:-0.285343 7:0.00305708 8:-0.00209975 9:0.0952198 10:-0.00733484 11:-0.037011 12:-0.00279944 13:0.0510463 14:1 15:-0.00790929 16:-0.0060947 17:0 18:0.0110007 19:0.000803702 20:0 21:0 22:0 23:0 24:0 25:0 26:0 27:0 28:0 29:0 30:0 31:0 32:0 33:0 34:0 35:0 
-1 1:0 2:0.225806 3:0.0117302 4:0.225806 5:0.00197725 6:-0.438209 7:-0.00347661 8:-0.0102524 9:-0.264516 10:-0.00286363 11:-0.0122162 12:-0.0105182 13:0.0204513 14:2 15:-0.00036086 16:-0.00293144 17:0 18:-0.00570758 19:0.00404864 20:0 21:0 22:0 23:0 24:0 25:0 26:0 27:0 28:0 29:0 30:0 31:0 32:0 33:0 34:0 35:0 
-1 1:0 2:0.284889 3:0.0346487 4:0.284889 5:0.00197725 6:-0.310981 7:0.0105849 8:0.0100182 9:-0.113449 10:-0.00335283 11:-0.037011 12:-0.0117779 13:-0.10142 14:1 15:-0.00036086 16:0.00605498 17:0 18:0.0107767 19:-0.00553567 20:0 21:0 22:0 23:0 24:0 25:0 26:0 27:0 28:0 29:0 30:0 31:0 32:0 33:0 34:0 35:0 
-1 1:0 2:0.309777 3:-0.0122819 4:0.309777 5:0.00197725 6:-0.140103 7:0.000868714 8:0.000578213 9:-0.0429278 10:0.0100219 11:-0.037011 12:7.55969e-005 13:-0.0241186 14:1 15:-0.00251503 16:-0.00159909 17:0 18:-0.010514 19:-0.00553567 20:0 21:0 22:0 23:0 24:0 25:0 26:0 27:0 28:0 29:0 30:0 31:0 32:0 33:0 34:0 35:0 
-1 1:0 2:0.29415 3:-0.0222841 4:0.29415 5:-0.00118857 6:-0.331292 7:-0.00516551 8:-0.0102524 9:-0.483227 10:-0.00381029 11:-0.037011 12:-0.000129959 13:-0.00757007 14:1 15:-0.00492854 16:0.00605498 17:0 18:0.0104757 19:0.00272342 20:0 21:0 22:0 23:0 24:0 25:0 26:0 27:0 28:0 29:0 30:1 31:0 32:0 33:1 34:0 35:0 
-1 1:0 2:0.310315 3:-0.0119352 4:0.310315 5:-0.00229984 6:-0.381416 7:-0.000966364 8:-0.0102524 9:-0.242287 10:-0.000769924 11:-0.037011 12:-0.0105182 13:0.00546359 14:1 15:-0.0106865 16:-0.00124075 17:0 18:0.00577514 19:0.00276726 20:0 21:0 22:0 23:0 24:0 25:0 26:0 27:0 28:0 29:0 30:1 31:0 32:0 33:0 34:0 35:0 
-1 1:0 2:0.445006 3:0.0859671 4:0.445006 5:-0.0102445 6:-0.330946 7:0.0105849 8:-0.00209975 9:0.0568125 10:-0.00270045 11:-0.037011 12:-0.00255595 13:0.00865 14:1 15:0.0121562 16:-0.00479611 17:0 18:-0.00710628 19:-0.00207511 20:0 21:0 22:0 23:0 24:0 25:0 26:0 27:0 28:0 29:0 30:0 31:0 32:0 33:0 34:0 35:0 
-1 1:0 2:0.382845 3:0.0251046 4:0.382845 5:-0.00855676 6:-0.395642 7:0.00636562 8:-0.00363048 9:-0.195249 10:-0.00381029 11:-0.037011 12:0.00218961 13:-0.0769531 14:1 15:0.0048917 16:-0.00196836 17:0 18:0.00969609 19:0.00958784 20:0 21:0 22:0 23:0 24:0 25:0 26:0 27:0 28:0 29:0 30:0 31:0 32:0 33:1 34:0 35:0 
-1 1:0 2:0.178472 3:-0.0353226 4:0.178472 5:0.00197725 6:-0.199005 7:-0.00516551 8:0.00263785 9:-0.21255 10:-0.000769924 11:-0.037011 12:0.00677998 13:0.0291141 14:1 15:-0.00251503 16:-0.00293144 17:0 18:-0.00807936 19:0.00958784 20:0 21:0 22:0 23:0 24:0 25:0 26:0 27:0 28:0 29:0 30:0 31:0 32:0 33:1 34:0 35:0 
-1 1:0 2:0.25714 3:-0.0312135 4:0.25714 5:0.0106812 6:-0.353122 7:0.0105849 8:-0.00566043 9:-0.403365 10:-0.00273061 11:-0.037011 12:-0.000129959 13:-0.0302678 14:1 15:-0.0106865 16:-0.0060947 17:0 18:0.00564724 19:0.00958784 20:0 21:0 22:0 23:0 24:1 25:0 26:0 27:0 28:1 29:0 30:0 31:0 32:0 33:0 34:0 35:0 
-1 1:0 2:0.192203 3:-0.0271985 4:0.192203 5:-0.00855852 6:-0.0972099 7:0.0137208 8:-0.00624256 9:-0.073274 10:-0.00332328 11:-0.037011 12:-0.000129959 13:-0.158567 14:2 15:-0.00530999 16:-0.00360034 17:0 18:0.0166557 19:-0.0057122 20:0 21:0 22:0 23:1 24:0 25:0 26:0 27:0 28:0 29:0 30:0 31:0 32:0 33:0 34:0 35:0 
-1 1:0 2:0.145848 3:-0.0541049 4:0.145848 5:-0.00118857 6:-0.203593 7:-0.013301 8:-0.0025261 9:-0.151919 10:0.00890847 11:-0.037011 12:0.00218961 13:-0.0650381 14:2 15:0.0048917 16:0.00732772 17:0 18:0.0272984 19:0.00272342 20:0 21:0 22:0 23:0 24:0 25:0 26:0 27:0 28:0 29:0 30:0 31:0 32:0 33:0 34:0 35:0 
-1 1:0 2:0.206478 3:-0.0381724 4:0.206478 5:-0.00424959 6:-0.288527 7:0.0105849 8:0.00263785 9:-0.353871 10:-0.00667065 11:-0.037011 12:-0.00109699 13:0.0251763 14:1 15:0.0142631 16:0.00732772 17:0 18:0.00474433 19:-0.00671981 20:0 21:0 22:0 23:0 24:0 25:0 26:0 27:0 28:1 29:0 30:0 31:0 32:0 33:0 34:0 35:0 
-1 1:0 2:0.300516 3:-0.0151097 4:0.300516 5:0.0130167 6:-0.78172 7:-0.00680823 8:0.00263785 9:-0.998989 10:-0.00335283 11:-0.037011 12:-0.000129959 13:0.080653 14:1 15:-7.70143e-005 16:0.000647573 17:0 18:0.00370459 19:-0.00601379 20:0 21:0 22:0 23:0 24:0 25:0 26:0 27:1 28:1 29:0 30:1 31:0 32:0 33:1 34:0 35:0 
-1 1:0 2:0.356784 3:0.0603015 4:0.356784 5:0.00197725 6:-0.345791 7:0.0137208 8:-0.00459058 9:-0.252688 10:0.0037796 11:-0.037011 12:-0.00317909 13:0.0790639 14:1 15:0.00646052 16:-0.00360034 17:0 18:-0.00871339 19:-0.00671981 20:0 21:0 22:0 23:0 24:0 25:0 26:0 27:0 28:1 29:0 30:0 31:0 32:0 33:1 34:0 35:0 
-1 1:0 2:0.213682 3:-0.0163229 4:0.213682 5:0.00197725 6:-0.237228 7:0.000868714 8:0.0184523 9:-0.293888 10:-0.00286363 11:-0.037011 12:-0.00255595 13:-0.0711046 14:1 15:0.00574903 16:-0.00479611 17:0 18:-0.00678592 19:-0.013254 20:0 21:0 22:0 23:0 24:0 25:0 26:0 27:0 28:0 29:0 30:0 31:0 32:0 33:0 34:0 35:0 
-1 1:0 2:0.243671 3:0.0189873 4:0.243671 5:0.00197725 6:-0.101264 7:0.0105849 8:0.0044492 9:-0.103648 10:-0.00733484 11:-0.037011 12:-0.00279944 13:0.0321083 14:2 15:-0.00530999 16:-0.00360034 17:0 18:-0.0133957 19:0.00220689 20:0 21:0 22:0 23:1 24:0 25:0 26:0 27:0 28:0 29:0 30:0 31:0 32:0 33:0 34:0 35:0 
-1 1:0 2:0.206217 3:0.0030326 4:0.206217 5:0.00197725 6:-0.71734 7:0.0137208 8:-0.00209975 9:-0.863109 10:-0.00332328 11:-0.037011 12:-0.000334465 13:0.0758765 14:2 15:0.0121562 16:0.00443894 17:0 18:-0.00063195 19:-0.00671981 20:0 21:0 22:0 23:0 24:0 25:0 26:0 27:0 28:0 29:0 30:0 31:0 32:0 33:0 34:0 35:0 
-1 1:0 2:0.317836 3:-0.00967328 4:0.317836 5:-0.00855676 6:-0.542098 7:0.0161474 8:-0.00209975 9:-0.420454 10:-0.00667065 11:-0.037011 12:-0.00279944 13:0.0514685 14:1 15:-0.00530999 16:0.00605498 17:0 18:-0.00554659 19:-0.013254 20:0 21:0 22:0 23:0 24:0 25:0 26:0 27:0 28:0 29:0 30:0 31:0 32:0 33:0 34:0 35:0 
-1 1:0 2:0.434555 3:0.0837696 4:0.434555 5:0.0129942 6:-0.368518 7:-0.00516551 8:-0.00210731 9:-0.104814 10:-0.00332328 11:-0.037011 12:-0.000334465 13:-0.0767588 14:1 15:-0.00349054 16:0.00605498 17:0 18:0.0213201 19:-0.0057122 20:0 21:0 22:0 23:0 24:0 25:0 26:0 27:0 28:0 29:0 30:0 31:0 32:0 33:0 34:0 35:0 
-0.804277661083614 1:0 2:0.22553 3:-0.0105247 4:0.22553 5:-0.0146811 6:-0.087303 7:0.00305708 8:0.0184523 9:-0.107986 10:0.000771071 11:-0.037011 12:-0.0105182 13:-0.200045 14:2 15:0.000310067 16:0.000966796 17:0 18:-0.0252343 19:0.000347898 20:0 21:0 22:0 23:0 24:1 25:0 26:0 27:0 28:0 29:0 30:0 31:0 32:0 33:0 34:0 35:0 
-1 1:0 2:0.181763 3:-0.0514076 4:0.181763 5:0.00115378 6:-0.217242 7:0.0137208 8:0.0100182 9:-0.250207 10:-0.00273061 11:-0.037011 12:-0.00109699 13:-0.0379435 14:2 15:0.0121562 16:0.00732772 17:0 18:0.00871752 19:0.00272342 20:0 21:0 22:0 23:0 24:0 25:0 26:0 27:0 28:0 29:0 30:0 31:0 32:0 33:0 34:0 35:0 
-1 1:0 2:0.225806 3:0.0117302 4:0.225806 5:0.0130167 6:-0.142816 7:0.00305708 8:-0.0025261 9:0.0595238 10:-0.00381029 11:-0.037011 12:0.0135939 13:0.0580881 14:2 15:0.0048917 16:-0.00483205 17:0 18:-0.0106442 19:0.00276726 20:0 21:0 22:0 23:0 24:0 25:0 26:0 27:1 28:0 29:0 30:0 31:0 32:0 33:0 34:0 35:0 
