svm_type c_svc
kernel_type rbf
gamma 0.0285714
nr_class 2
total_sv 541
rho -0.692569
label 1 -1
nr_sv 268 273
SV
1 1:0 2:0.29259 3:0.0721976 4:0.29259 5:0.00197725 6:-0.0857324 7:0.0137208 8:0.0100182 9:0.257024 10:-0.00733484 11:0.00388373 12:-0.00279944 13:0.0615587 14:1 15:-0.00492854 16:0.00605498 17:0 18:0.0276941 19:0.000803702 20:0 21:1 22:0 23:0 24:0 25:0 26:0 27:0 28:0 29:0 30:0 31:0 32:0 33:0 34:0 35:0 
1 1:0 2:0.422886 3:0.079602 4:0.422886 5:0.000589152 6:-0.63941 7:-0.00347661 8:-0.0025261 9:-0.120257 10:-0.00286363 11:0.00388373 12:-0.0117779 13:-0.271664 14:0 15:-0.00530999 16:0.00443894 17:0 18:0.00710129 19:0.00220689 20:0 21:1 22:0 23:0 24:0 25:0 26:0 27:0 28:0 29:0 30:0 31:0 32:0 33:0 34:0 35:0 
1 1:1 2:0.301471 3:0.0441176 4:0.301471 5:-0.00573529 6:-0.570972 7:-0.00680823 8:0.00263785 9:0.240535 10:-0.00123088 11:-0.0122162 12:-0.00571812 13:-0.0065983 14:0 15:-0.000517298 16:0.0289366 17:1 18:0.00377625 19:-0.00207511 20:0 21:1 22:0 23:0 24:0 25:0 26:0 27:0 28:0 29:0 30:0 31:0 32:0 33:0 34:0 35:0 
1 1:0 2:0.541566 3:0.0724388 4:0.541566 5:0.0437735 6:-0.961585 7:-0.013301 8:0.000578213 9:-0.630638 10:0.0194542 11:-0.037011 12:0.0135939 13:0.14297 14:0 15:-7.70143e-005 16:-0.00124075 17:0 18:-0.0132204 19:-0.00405298 20:0 21:1 22:1 23:0 24:0 25:0 26:0 27:0 28:0 29:0 30:0 31:0 32:0 33:0 34:0 35:0 
1 1:0 2:0.219975 3:-0.0126422 4:0.219975 5:0.0437735 6:-0.228681 7:0.000933507 8:0.0100182 9:-0.096259 10:0.0100219 11:-0.00480468 12:0.0221073 13:-0.0548342 14:0 15:0.00165974 16:0.0289366 17:0 18:0.00878134 19:-0.00671981 20:0 21:1 22:0 23:0 24:0 25:0 26:0 27:0 28:2 29:0 30:0 31:0 32:0 33:0 34:0 35:0 
1 1:1 2:0.132806 3:-0.0593388 4:0.132806 5:-0.00855676 6:-0.140345 7:0.00140932 8:-0.0025261 9:0.894667 10:-0.00332328 11:-0.00353261 12:-0.000874371 13:0.0277207 14:0 15:0.0142631 16:0.00252779 17:0 18:0.0142941 19:0.00260239 20:0 21:1 22:0 23:0 24:0 25:0 26:0 27:0 28:0 29:0 30:0 31:0 32:0 33:0 34:0 35:0 
1 1:0 2:0.258421 3:0.0563225 4:0.258421 5:0.0130167 6:-0.220436 7:-0.0196727 8:-0.0102524 9:-0.0604842 10:-0.00270045 11:0.00357244 12:-0.000334465 13:0.0321212 14:0 15:-0.00349054 16:-0.00124075 17:0 18:-0.00479311 19:-0.013254 20:0 21:1 22:0 23:0 24:0 25:0 26:0 27:1 28:0 29:0 30:0 31:0 32:0 33:0 34:0 35:0 
1 1:0 2:0.238361 3:0.0484171 4:0.238361 5:0.0106812 6:-0.646773 7:-0.0196727 8:-0.00209975 9:0.0136346 10:-0.00286363 11:-0.00268771 12:0.0135939 13:-0.0113851 14:0 15:0.00646052 16:-0.00269397 17:0 18:-0.00605861 19:-0.013254 20:0 21:1 22:0 23:0 24:0 25:0 26:0 27:0 28:0 29:0 30:0 31:0 32:0 33:0 34:0 35:0 
1 1:0 2:0.387464 3:0.0797721 4:0.387464 5:0.0437735 6:-0.224747 7:0.00636562 8:-0.00566043 9:-0.198909 10:-0.000769924 11:0.0136848 12:-0.00255595 13:-0.0861371 14:0 15:-0.00790929 16:-0.0060947 17:0 18:0.00529567 19:0.00623806 20:0 21:1 22:1 23:0 24:0 25:0 26:1 27:0 28:0 29:0 30:0 31:0 32:0 33:0 34:0 35:0 
1 1:0 2:0.288952 3:0.0509915 4:0.288952 5:-0.00424959 6:-0.521722 7:-0.0196727 8:-0.00209975 9:0.0556539 10:0.00890847 11:-0.000258585 12:0.00677998 13:-0.155754 14:0 15:-0.00790929 16:0.00443894 17:0 18:0.00571891 19:0.00220689 20:0 21:1 22:0 23:0 24:1 25:0 26:0 27:1 28:0 29:0 30:0 31:0 32:0 33:0 34:0 35:0 
1 1:0 2:0.741749 3:0.139503 4:0.741749 5:-0.0146811 6:-0.632741 7:0.00636562 8:0.0044492 9:0.0974486 10:-0.0025074 11:0.00388373 12:0.00677998 13:0.122315 14:0 15:-0.00251503 16:-0.0042043 17:0 18:0.00132844 19:-0.00175629 20:0 21:1 22:0 23:0 24:0 25:0 26:1 27:0 28:0 29:0 30:1 31:0 32:0 33:0 34:0 35:0 
1 1:0 2:0.1 3:0 4:0.1 5:0.0130167 6:-0.183412 7:0.000933507 8:0.0044492 9:0.165879 10:-0.00325732 11:0.00357244 12:0.0135939 13:-0.00829557 14:0 15:0.0121562 16:-0.00360034 17:0 18:0.0161046 19:-0.00601379 20:0 21:1 22:0 23:0 24:0 25:0 26:0 27:1 28:0 29:0 30:0 31:0 32:0 33:1 34:0 35:0 
1 1:0 2:0.247748 3:-0.018018 4:0.247748 5:0.00737457 6:-0.298947 7:-0.00516551 8:0.0100182 9:-0.184352 10:-0.000769924 11:0.00699454 12:-0.00223244 13:-0.113743 14:1 15:0.00165974 16:-0.00382903 17:0 18:0.00341644 19:0.00272342 20:0 21:1 22:0 23:1 24:0 25:0 26:0 27:0 28:0 29:0 30:0 31:0 32:0 33:1 34:0 35:0 
1 1:0 2:0.11056 3:-0.0297661 4:0.11056 5:-0.0146811 6:-0.0561798 7:0.0161474 8:0.0184523 9:0.0708929 10:0.00180655 11:-0.00737899 12:-0.00279944 13:-0.00882117 14:0 15:-0.00349054 16:0.00443894 17:0 18:-0.0166903 19:0.000347898 20:0 21:1 22:0 23:0 24:0 25:0 26:0 27:0 28:1 29:0 30:0 31:0 32:0 33:0 34:0 35:0 
1 1:0 2:0.237805 3:0.0121951 4:0.237805 5:0.00197725 6:-0.120085 7:-0.00680823 8:0.000253862 9:0.180835 10:-0.00733484 11:0.00732539 12:0.00218961 13:-0.231051 14:1 15:-0.00492854 16:0.0289366 17:0 18:0.00117584 19:0.00404864 20:0 21:1 22:0 23:0 24:0 25:0 26:0 27:0 28:0 29:0 30:0 31:0 32:0 33:0 34:0 35:0 
1 1:0 2:0.305732 3:0.0212314 4:0.305732 5:-0.0146811 6:-0.484232 7:0.0105849 8:0.0101539 9:-0.020076 10:-0.00270045 11:0.00732539 12:-0.00279944 13:-0.00520286 14:0 15:0.0142631 16:-0.00360034 17:0 18:0.0032153 19:0.00272342 20:0 21:2 22:0 23:0 24:0 25:0 26:0 27:0 28:0 29:0 30:1 31:0 32:0 33:0 34:0 35:0 
1 1:0 2:0.117647 3:-0.0235294 4:0.117647 5:-0.00118857 6:-0.0309411 7:0.0105849 8:0.0101539 9:-4.36778e-005 10:0.00180655 11:0.025567 12:0.00155162 13:-0.0888094 14:0 15:-0.00349054 16:-0.00347876 17:0 18:0.000228905 19:-0.00405298 20:0 21:1 22:1 23:0 24:0 25:0 26:0 27:0 28:0 29:0 30:0 31:0 32:0 33:0 34:0 35:0 
1 1:0 2:0.0868367 3:-0.053756 4:0.0868367 5:-0.00855852 6:0.0018982 7:0.0137208 8:-0.00209975 9:0.451104 10:-0.00381029 11:-0.0122162 12:-0.00317909 13:0.0533441 14:0 15:0.00165974 16:-0.00360034 17:0 18:0.00975954 19:0.0138395 20:0 21:1 22:0 23:1 24:0 25:0 26:0 27:0 28:0 29:0 30:0 31:0 32:0 33:0 34:0 35:0 
1 1:0 2:0.25188 3:0.0225564 4:0.25188 5:0.0437735 6:-0.122018 7:0.0161474 8:-0.0025261 9:0.31101 10:-0.00273061 11:-0.00268771 12:0.00677998 13:0.110183 14:0 15:-0.00036086 16:-0.00483205 17:0 18:0.00360027 19:0.00958784 20:0 21:1 22:0 23:0 24:0 25:0 26:0 27:0 28:0 29:0 30:0 31:0 32:0 33:0 34:0 35:0 
1 1:0 2:0.123288 3:-0.0547945 4:0.123288 5:0.0130167 6:-0.12717 7:0.0137208 8:-0.0102524 9:-0.438325 10:-0.000710021 11:0.00357244 12:-0.000129959 13:-0.135506 14:0 15:0.0048917 16:0.00471629 17:0 18:0.0111516 19:-0.00207511 20:0 21:1 22:0 23:0 24:0 25:0 26:0 27:1 28:0 29:0 30:0 31:0 32:0 33:0 34:0 35:0 
1 1:0 2:0.275072 3:0.0095511 4:0.275072 5:-0.0181781 6:-0.158133 7:0.0161474 8:-0.00566043 9:-0.00106883 10:-0.00286363 11:-0.00737899 12:7.55969e-005 13:-0.185162 14:0 15:-0.00036086 16:-0.00196836 17:0 18:0.0159656 19:0.000803702 20:0 21:1 22:0 23:0 24:0 25:0 26:0 27:1 28:0 29:0 30:0 31:0 32:0 33:0 34:0 35:0 
1 1:0 2:0.226055 3:-0.00699138 4:0.226055 5:-0.00424959 6:-0.157722 7:0.00636562 8:-0.0025261 9:0.0756986 10:-0.00325732 11:-0.00198275 12:-0.00571812 13:0.00280022 14:0 15:0.0048917 16:0.00732772 17:0 18:-0.0136198 19:0.00276726 20:0 21:1 22:0 23:0 24:0 25:0 26:0 27:0 28:0 29:0 30:0 31:0 32:0 33:0 34:0 35:0 
1 1:0 2:0.136409 3:-0.00988468 4:0.136409 5:0.0130167 6:-0.117285 7:0.00140932 8:0.0100182 9:0.145447 10:-0.00325732 11:-0.00175902 12:0.00677998 13:-0.0112075 14:0 15:0.0121562 16:-0.00124075 17:0 18:0.00477107 19:0.000803702 20:0 21:1 22:0 23:0 24:0 25:0 26:1 27:1 28:0 29:0 30:1 31:0 32:0 33:0 34:0 35:0 
1 1:0 2:0.228152 3:0.0440294 4:0.228152 5:0.0106812 6:-0.408877 7:0.00305708 8:-0.00624256 9:0.00440061 10:-0.00123088 11:0.0136848 12:-0.00279944 13:-0.0260562 14:0 15:0.0142631 16:-0.00124075 17:0 18:-0.00373533 19:0.000803702 20:0 21:1 22:1 23:0 24:0 25:0 26:0 27:0 28:0 29:0 30:0 31:0 32:0 33:0 34:0 35:0 
1 1:0 2:0.496105 3:0.0387032 4:0.496105 5:0.0130167 6:-0.564174 7:-0.00347661 8:0.0044492 9:0.0623351 10:0.00180655 11:0.00232889 12:-0.00279944 13:0.0943466 14:0 15:-0.00790929 16:-0.00159909 17:0 18:0.00375091 19:0.00272342 20:0 21:1 22:0 23:1 24:0 25:0 26:0 27:1 28:0 29:0 30:0 31:0 32:0 33:0 34:0 35:0 
1 1:0 2:0.232924 3:0.044226 4:0.232924 5:0.0130167 6:-0.237821 7:0.00857851 8:0.0100182 9:-0.0717476 10:-0.00335283 11:0.00232889 12:0.00677998 13:-0.16745 14:0 15:0.00646052 16:-0.00293144 17:0 18:0.000834016 19:0.00220689 20:0 21:1 22:0 23:0 24:0 25:0 26:0 27:1 28:0 29:0 30:0 31:0 32:0 33:0 34:0 35:0 
1 1:0 2:0.1 3:-6.93889e-018 4:0.1 5:0.0130167 6:-0.318002 7:0.0137208 8:-0.000155678 9:-0.0942867 10:-0.00335283 11:-0.00353261 12:0.00218961 13:0.033367 14:0 15:-0.0106865 16:-0.00483205 17:0 18:-0.0112483 19:0.00220689 20:0 21:1 22:1 23:0 24:0 25:0 26:0 27:1 28:0 29:0 30:0 31:0 32:0 33:0 34:0 35:0 
1 1:0 2:0.404858 3:0.052943 4:0.404858 5:-0.0102445 6:-0.64702 7:-0.0196727 8:-0.00332417 9:-0.112948 10:0.0194542 11:0.0141877 12:-0.0117779 13:0.00108354 14:0 15:0.00646052 16:-0.00347876 17:0 18:-0.00322388 19:-0.00405298 20:0 21:1 22:1 23:0 24:0 25:0 26:0 27:0 28:0 29:0 30:0 31:0 32:0 33:0 34:0 35:0 
1 1:0 2:0.220567 3:-0.00859353 4:0.220567 5:0.0130167 6:0.060878 7:0.00636562 8:-0.00459058 9:-0.0926017 10:0.0100219 11:0.0136848 12:-0.00109699 13:-0.11484 14:0 15:-0.00790929 16:-0.00196836 17:0 18:0.0136418 19:0.0138395 20:0 21:1 22:0 23:1 24:0 25:0 26:0 27:1 28:0 29:0 30:0 31:0 32:0 33:0 34:0 35:0 
1 1:0 2:0.0894533 3:-0.0563225 4:0.0894533 5:0.0130167 6:-0.206211 7:0.00857851 8:-0.0102524 9:-0.533118 10:-0.000769924 11:0.0141877 12:-0.0117779 13:0.0977891 14:0 15:0.00574903 16:-0.00382903 17:0 18:-0.0119975 19:0.00404864 20:0 21:1 22:0 23:0 24:0 25:0 26:0 27:1 28:1 29:0 30:0 31:0 32:0 33:0 34:0 35:0 
1 1:0 2:0.0552764 3:-0.0603015 4:0.0552764 5:0.0130167 6:-0.152133 7:-0.000966364 8:-0.0102524 9:-0.0536283 10:-0.00325732 11:0.00388373 12:0.0135939 13:-0.0935855 14:0 15:-0.000517298 16:-0.0060947 17:0 18:0.00328643 19:0.00272342 20:0 21:1 22:0 23:1 24:0 25:0 26:0 27:1 28:1 29:0 30:0 31:0 32:0 33:0 34:0 35:0 
1 1:0 2:0.243655 3:0.0203046 4:0.243655 5:0.0129942 6:-0.351906 7:-0.00737515 8:0.0184523 9:-0.356379 10:0.0194542 11:-0.000258585 12:-0.0105182 13:0.0247573 14:0 15:-0.00492854 16:-0.00479611 17:0 18:-0.0111267 19:-0.00405298 20:0 21:1 22:1 23:0 24:0 25:0 26:0 27:0 28:0 29:0 30:0 31:0 32:0 33:0 34:0 35:0 
1 1:0 2:0.2 3:0 4:0.2 5:0.0130167 6:-0.151891 7:-0.00166005 8:-0.00332417 9:-0.0472697 10:0.00890847 11:0.025567 12:-0.00571812 13:-0.183445 14:0 15:0.00646052 16:0.0289366 17:0 18:0.0259134 19:-0.00601379 20:0 21:1 22:0 23:1 24:0 25:0 26:0 27:1 28:0 29:0 30:0 31:0 32:0 33:1 34:0 35:0 
1 1:0 2:0.263479 3:0.00523469 4:0.263479 5:-0.00229984 6:-0.290845 7:-0.00737515 8:0.0184523 9:0.111251 10:0.0037796 11:-0.00268771 12:-0.00279944 13:-0.0453756 14:0 15:0.00646052 16:0.0289366 17:0 18:-0.00260135 19:-0.0057122 20:0 21:1 22:0 23:0 24:0 25:0 26:0 27:1 28:1 29:0 30:0 31:0 32:0 33:0 34:0 35:0 
1 1:0 2:0.130481 3:-0.0147317 4:0.130481 5:0.0130167 6:-0.129927 7:0.0137208 8:-0.00459058 9:-0.145246 10:-0.00286363 11:-0.00185013 12:0.00155162 13:0.0477856 14:0 15:0.0142631 16:-0.00196836 17:0 18:-0.040952 19:0.00404864 20:0 21:1 22:0 23:0 24:0 25:0 26:0 27:1 28:0 29:0 30:0 31:0 32:0 33:1 34:0 35:0 
1 1:0 2:0.270968 3:0.0645161 4:0.270968 5:-0.00573529 6:-0.90064 7:-0.0196727 8:-0.0102524 9:-0.146179 10:-0.00325732 11:-0.000258585 12:0.0023707 13:-0.00986213 14:0 15:-0.00530999 16:0.00443894 17:0 18:-0.0035949 19:-0.00671981 20:0 21:1 22:0 23:0 24:0 25:0 26:0 27:0 28:1 29:0 30:0 31:0 32:0 33:0 34:0 35:0 
1 1:0 2:0.57764 3:0.0993789 4:0.57764 5:0.0130167 6:-0.327509 7:-0.00347661 8:-0.0025261 9:-0.0287989 10:0.0100219 11:0.00699454 12:-0.0105182 13:-0.0255792 14:1 15:-0.000517298 16:0.00252779 17:0 18:0.00657315 19:0.000803702 20:0 21:1 22:1 23:1 24:0 25:0 26:0 27:1 28:1 29:0 30:0 31:0 32:0 33:0 34:0 35:0 
1 1:0 2:0.372727 3:0.181818 4:0.372727 5:-0.0102445 6:-0.634702 7:0.00857851 8:0.0184523 9:0.301514 10:-0.00286363 11:0.0141877 12:0.00155162 13:0.0131026 14:0 15:0.0048917 16:0.00443894 17:0 18:-0.0123956 19:-0.000837017 20:0 21:1 22:1 23:0 24:0 25:0 26:0 27:0 28:0 29:0 30:0 31:0 32:0 33:0 34:0 35:0 
1 1:0 2:0.181818 3:0.0189959 4:0.181818 5:-0.0102445 6:0.0336583 7:0.00140932 8:-0.00566043 9:0.317334 10:-0.00335283 11:-0.00198275 12:0.0135939 13:-0.032402 14:0 15:-0.00530999 16:-0.00347876 17:0 18:0.00944621 19:0.00276726 20:0 21:1 22:1 23:0 24:0 25:0 26:1 27:0 28:0 29:0 30:0 31:0 32:0 33:0 34:0 35:0 
1 1:0 2:0.306032 3:-0.0132236 4:0.306032 5:0.0437735 6:-0.475918 7:-0.00737515 8:-0.00209975 9:-0.788372 10:0.0194542 11:-0.037011 12:0.0221073 13:0.0662169 14:0 15:-7.70143e-005 16:-0.0143477 17:1 18:-0.0273125 19:-0.00405298 20:0 21:1 22:1 23:0 24:0 25:0 26:0 27:0 28:0 29:0 30:0 31:1 32:0 33:0 34:0 35:0 
1 1:0 2:0.338251 3:0.0323858 4:0.338251 5:-0.0181781 6:-0.155219 7:0.0105849 8:0.0101539 9:0.295473 10:0.00180655 11:0.025567 12:-0.00317909 13:0.0560495 14:0 15:-0.00530999 16:-0.0060947 17:0 18:0.0164688 19:-0.00405298 20:0 21:1 22:1 23:0 24:0 25:0 26:0 27:0 28:0 29:0 30:0 31:0 32:0 33:0 34:0 35:1 
1 1:0 2:0.17849 3:-0.0381388 4:0.17849 5:0.0130167 6:-0.215355 7:0.0137208 8:0.00111369 9:-0.201063 10:0.00890847 11:-0.00268771 12:-0.00571812 13:-0.149218 14:0 15:0.0142631 16:0.00732772 17:0 18:0.0146852 19:0.000369551 20:0 21:1 22:1 23:0 24:0 25:0 26:0 27:1 28:0 29:0 30:0 31:0 32:0 33:0 34:0 35:0 
1 1:0 2:-0.040678 3:-0.101695 4:-0.040678 5:0.0129942 6:-0.34709 7:0.0105849 8:-0.00624256 9:-0.171754 10:0.0194542 11:-0.00185013 12:-0.000874371 13:0.0218725 14:0 15:0.0048917 16:-0.00483205 17:0 18:-0.0145221 19:-0.00405298 20:0 21:1 22:2 23:0 24:0 25:0 26:0 27:0 28:0 29:0 30:0 31:0 32:0 33:0 34:0 35:0 
1 1:0 2:0.177567 3:-0.032554 4:0.177567 5:0.00115378 6:-0.155458 7:0.00140932 8:0.0100182 9:-0.0990104 10:-0.00733484 11:0.00388373 12:-0.00279944 13:-0.0156391 14:0 15:0.0142631 16:-0.00483205 17:0 18:-0.000427122 19:0.0138395 20:0 21:1 22:1 23:0 24:0 25:0 26:0 27:0 28:0 29:0 30:0 31:0 32:0 33:0 34:0 35:0 
1 1:0 2:0.263113 3:0.00509251 4:0.263113 5:0.0130167 6:-0.387461 7:-0.00347661 8:-0.00459058 9:-0.226603 10:0.0100219 11:0.00699454 12:0.0135939 13:-0.0515462 14:0 15:0.0142631 16:-0.00479611 17:0 18:0.0139288 19:0.000369551 20:0 21:1 22:1 23:1 24:0 25:0 26:0 27:2 28:0 29:0 30:0 31:0 32:0 33:0 34:0 35:0 
1 1:0 2:0.181373 3:-0.00980392 4:0.181373 5:0.0106812 6:-0.409039 7:0.0105849 8:-0.0025261 9:-0.0401822 10:-0.000769924 11:-0.0122162 12:-0.000334465 13:-0.133695 14:0 15:0.0048917 16:-0.0060947 17:0 18:-0.0042837 19:0.00958784 20:0 21:1 22:0 23:1 24:0 25:0 26:0 27:0 28:0 29:0 30:0 31:0 32:0 33:0 34:0 35:1 
1 1:0 2:0.563636 3:0.121212 4:0.563636 5:-0.00855852 6:-0.370667 7:0.0161474 8:0.00263785 9:-0.176537 10:0.0100219 11:0.00232889 12:-0.00255595 13:-0.197009 14:0 15:0.00165974 16:0.00443894 17:0 18:0.00357191 19:-0.00405298 20:1 21:1 22:1 23:0 24:0 25:0 26:0 27:0 28:0 29:0 30:0 31:0 32:0 33:0 34:0 35:0 
1 1:0 2:-0.0701754 3:-0.110276 4:-0.0701754 5:-0.0102445 6:0.317732 7:0.0105849 8:0.0101539 9:0.19257 10:-0.00335283 11:-0.00198275 12:0.0135939 13:-0.0350123 14:0 15:-0.00492854 16:0.00443894 17:0 18:0.0132448 19:0.0138395 20:1 21:1 22:0 23:0 24:0 25:0 26:0 27:0 28:0 29:0 30:0 31:0 32:0 33:1 34:0 35:0 
0.4269680211531945 1:1 2:0.449541 3:0.0733945 4:0.449541 5:0.0437735 6:-0.739421 7:-0.00347661 8:-0.0025261 9:0.25936 10:-0.00325732 11:0.00357244 12:-0.0117779 13:-0.0993141 14:0 15:0.0121562 16:-0.00483205 17:0 18:-0.0101386 19:0.00623806 20:0 21:1 22:0 23:0 24:0 25:0 26:0 27:0 28:0 29:0 30:1 31:0 32:0 33:0 34:0 35:0 
1 1:0 2:0.211321 3:0.0377358 4:0.211321 5:-0.00118857 6:-0.901175 7:0.0137208 8:-0.00624256 9:-0.0430023 10:-0.00325732 11:0.0136848 12:0.00677998 13:0.0399063 14:0 15:0.00574903 16:0.00471629 17:0 18:-0.00799244 19:-0.0057122 20:0 21:1 22:0 23:1 24:0 25:0 26:0 27:0 28:0 29:0 30:0 31:0 32:0 33:0 34:0 35:0 
0.9280976471841096 1:1 2:0.105541 3:-0.0791557 4:0.105541 5:-0.00855852 6:-0.149729 7:0.0105849 8:0.0101539 9:0.0718674 10:0.0037796 11:-0.00268771 12:-0.000129959 13:-0.0586587 14:0 15:-7.70143e-005 16:-0.0143477 17:0 18:0.00145625 19:0.00272342 20:0 21:1 22:0 23:0 24:0 25:0 26:0 27:0 28:1 29:0 30:0 31:0 32:0 33:0 34:0 35:0 
1 1:0 2:0.324062 3:0.00776197 4:0.324062 5:0.0129942 6:-0.511143 7:0.0105849 8:-0.00566043 9:-0.306103 10:-0.00325732 11:0.0136848 12:-0.00279944 13:-0.00201801 14:0 15:-0.00530999 16:-0.00479611 17:0 18:-0.00255581 19:0.000803702 20:0 21:1 22:1 23:0 24:0 25:0 26:0 27:1 28:2 29:0 30:0 31:0 32:0 33:0 34:0 35:0 
1 1:0 2:0.404293 3:0.0536673 4:0.404293 5:0.0130167 6:-0.831713 7:0.0105849 8:0.0184523 9:0.100899 10:0.0194542 11:0.0136848 12:0.00155162 13:-0.135519 14:0 15:-0.00492854 16:0.00443894 17:0 18:-0.00841423 19:-0.00405298 20:0 21:1 22:1 23:0 24:0 25:0 26:0 27:1 28:0 29:0 30:0 31:0 32:0 33:0 34:0 35:0 
1 1:0 2:0.152323 3:-0.0482356 4:0.152323 5:-0.00118857 6:0.0247888 7:-0.0196727 8:0.00263785 9:0.187927 10:-0.00273061 11:-0.0122162 12:-0.00317909 13:-0.150963 14:0 15:0.00165974 16:0.00732772 17:0 18:-0.0051131 19:0.0138395 20:0 21:1 22:1 23:1 24:0 25:0 26:0 27:0 28:0 29:0 30:0 31:0 32:0 33:0 34:0 35:0 
1 1:0 2:0.213104 3:-0.0158694 4:0.213104 5:0.00737457 6:-0.254468 7:-0.000665361 8:-0.00459058 9:0.175353 10:-0.00325732 11:-0.00268771 12:-0.00109699 13:0.011368 14:0 15:-0.00349054 16:-0.0060947 17:0 18:0.00226371 19:0.00260239 20:0 21:1 22:0 23:0 24:0 25:0 26:0 27:0 28:0 29:0 30:0 31:0 32:0 33:0 34:0 35:0 
1 1:0 2:0.0936209 3:-0.024782 4:0.0936209 5:0.0106812 6:-0.0413917 7:0.0137208 8:-0.00459058 9:0.374181 10:-0.00325732 11:0.025567 12:0.00677998 13:0.0600437 14:0 15:-0.00790929 16:0.0289366 17:0 18:0.00757437 19:-0.00601379 20:0 21:1 22:1 23:0 24:0 25:0 26:1 27:0 28:0 29:0 30:0 31:0 32:0 33:2 34:0 35:0 
1 1:0 2:0.0846154 3:-0.0769231 4:0.0846154 5:-0.0102445 6:-0.282653 7:0.0161474 8:0.0100182 9:1.10037 10:-0.00381029 11:0.0136848 12:-0.00317909 13:0.29157 14:0 15:-0.00036086 16:-0.00293144 17:0 18:0.0249882 19:0.0138395 20:0 21:1 22:2 23:0 24:0 25:0 26:0 27:0 28:0 29:0 30:1 31:0 32:0 33:0 34:0 35:0 
1 1:0 2:0.182881 3:0.0125261 4:0.182881 5:-0.00644929 6:-0.688319 7:0.0161474 8:0.000578213 9:-0.979331 10:-0.00667065 11:0.0141877 12:0.0135939 13:0.211371 14:0 15:0.0048917 16:0.00252779 17:0 18:-0.0260404 19:0.00220689 20:0 21:1 22:0 23:0 24:0 25:0 26:0 27:0 28:0 29:0 30:0 31:0 32:0 33:0 34:0 35:1 
1 1:0 2:0.233046 3:-0.00699138 4:0.233046 5:0.00737457 6:-0.356064 7:-0.00347661 8:-0.0025261 9:0.0815982 10:0.0194542 11:-0.00182434 12:0.00217649 13:-0.00263062 14:0 15:-0.00530999 16:0.00471629 17:0 18:-0.00256913 19:-0.00207511 20:0 21:2 22:0 23:0 24:0 25:0 26:0 27:0 28:0 29:0 30:0 31:0 32:0 33:0 34:0 35:0 
0.7264048558398335 1:0 2:0.180137 3:-0.0213321 4:0.180137 5:-0.00424959 6:-0.593402 7:0.0105849 8:0.0101539 9:-0.352851 10:0.00180655 11:-0.037011 12:0.0221073 13:0.0937555 14:0 15:0.0121562 16:0.00605498 17:0 18:-0.0264916 19:0.00220689 20:0 21:2 22:2 23:0 24:0 25:0 26:0 27:0 28:0 29:0 30:0 31:0 32:1 33:0 34:0 35:0 
1 1:0 2:0.101061 3:-0.0454775 4:0.101061 5:0.0129942 6:0.187417 7:-0.000665361 8:-0.00209975 9:-0.00588564 10:-0.000769924 11:0.00699454 12:-0.00279944 13:-0.0435746 14:0 15:-0.0106865 16:-0.00483205 17:0 18:0.00863846 19:0.0138395 20:0 21:2 22:1 23:0 24:0 25:0 26:0 27:1 28:0 29:0 30:0 31:0 32:0 33:0 34:0 35:0 
1 1:0 2:0.0759494 3:-0.0759494 4:0.0759494 5:-0.0181781 6:-0.0618455 7:0.00140932 8:0.0044492 9:0.0103582 10:0.0194542 11:-0.00175902 12:-0.00279944 13:0.0685826 14:0 15:-7.70143e-005 16:-0.0060947 17:0 18:0.00370247 19:-0.00405298 20:0 21:1 22:2 23:0 24:0 25:0 26:0 27:0 28:0 29:0 30:1 31:0 32:0 33:0 34:0 35:0 
1 1:0 2:0.21165 3:-0.0168571 4:0.21165 5:0.0106812 6:-0.317532 7:0.0137208 8:0.0184523 9:0.0133529 10:-0.00325732 11:-0.00182434 12:-0.000334465 13:-0.0986304 14:0 15:0.0012351 16:-0.00360034 17:0 18:-0.00497701 19:0.00623806 20:0 21:1 22:0 23:0 24:0 25:0 26:0 27:0 28:0 29:0 30:0 31:0 32:0 33:0 34:0 35:0 
1 1:0 2:0.139361 3:-0.00746578 4:0.139361 5:-0.0181781 6:-0.105657 7:0.00636562 8:0.0184523 9:0.0936905 10:0.0100219 11:-0.0122162 12:0.0221073 13:0.00620988 14:0 15:0.00574903 16:-0.00196836 17:0 18:-0.000506259 19:0.000369551 20:0 21:2 22:0 23:1 24:0 25:0 26:1 27:0 28:0 29:0 30:0 31:0 32:0 33:1 34:0 35:0 
1 1:0 2:0.259171 3:-0.030026 4:0.259171 5:-0.0102445 6:-0.276145 7:-0.000665361 8:-0.00566043 9:0.0953304 10:-0.00123088 11:0.0141877 12:0.0221073 13:-0.108851 14:0 15:-0.00530999 16:0.000966796 17:0 18:-0.0128788 19:0.000369551 20:0 21:1 22:0 23:0 24:0 25:0 26:0 27:0 28:0 29:0 30:0 31:0 32:0 33:0 34:0 35:0 
1 1:0 2:0.132323 3:-0.0124052 4:0.132323 5:-0.0146811 6:-0.246563 7:0.0105849 8:0.0101539 9:-0.020877 10:0.00890847 11:-0.00480468 12:0.00217649 13:-0.206313 14:0 15:0.000310067 16:-0.00293144 17:0 18:0.0238465 19:0.000803702 20:0 21:1 22:0 23:0 24:1 25:0 26:0 27:0 28:0 29:0 30:0 31:1 32:0 33:0 34:0 35:0 
1 1:0 2:0.189825 3:0.0230868 4:0.189825 5:-0.0181781 6:-0.421473 7:0.0105849 8:0.0101539 9:-0.455074 10:-0.00286363 11:-0.00185013 12:0.00677998 13:0.112446 14:0 15:-0.00492854 16:-0.00360034 17:0 18:-0.0183861 19:0.00623806 20:0 21:1 22:0 23:0 24:0 25:0 26:0 27:0 28:0 29:0 30:0 31:0 32:0 33:0 34:0 35:0 
0.8600148966191632 1:1 2:0.177778 3:0.017094 4:0.177778 5:0.0129942 6:-0.404006 7:0.0137208 8:-0.00209975 9:0.366017 10:0.0100219 11:-0.00268771 12:0.0221073 13:-0.125996 14:0 15:-0.00530999 16:-0.00483205 17:1 18:-0.0241789 19:0.00623806 20:0 21:1 22:0 23:0 24:0 25:0 26:0 27:0 28:0 29:0 30:0 31:0 32:0 33:0 34:0 35:0 
1 1:0 2:0.392308 3:0.0769231 4:0.392308 5:0.00737457 6:-0.594521 7:0.000933507 8:-0.0102524 9:-0.313889 10:-0.000710021 11:0.0141877 12:0.0135939 13:0.0219914 14:0 15:-0.000517298 16:-0.00382903 17:0 18:0.00602186 19:-0.00405298 20:0 21:1 22:1 23:1 24:0 25:0 26:0 27:0 28:0 29:0 30:0 31:0 32:0 33:0 34:0 35:0 
1 1:0 2:0.495069 3:0.0715529 4:0.495069 5:-0.00118857 6:-0.241254 7:-0.000665361 8:-0.00332417 9:0.165496 10:0.0100219 11:-0.0122162 12:-0.000334465 13:0.0350418 14:1 15:-7.70143e-005 16:-0.00293144 17:0 18:0.0216786 19:-0.00405298 20:0 21:1 22:2 23:0 24:0 25:0 26:0 27:0 28:0 29:0 30:0 31:1 32:0 33:1 34:0 35:0 
1 1:1 2:0.117931 3:-0.0723667 4:0.117931 5:-0.00174828 6:-0.311303 7:0.0161474 8:-0.00624256 9:-0.149609 10:-0.000769924 11:0.00699454 12:-0.00109699 13:-0.0347947 14:0 15:-0.000517298 16:-0.00347876 17:0 18:0.0010883 19:-0.00553567 20:0 21:1 22:0 23:0 24:0 25:0 26:0 27:0 28:1 29:0 30:1 31:0 32:0 33:0 34:0 35:0 
1 1:1 2:0.148148 3:-0.0740741 4:0.148148 5:0.0437735 6:-0.284112 7:0.00140932 8:0.00111369 9:-0.141178 10:0.0037796 11:0.00699454 12:0.0221073 13:-0.0580021 14:0 15:0.00574903 16:-0.00479611 17:0 18:0.00533101 19:0.00272342 20:0 21:1 22:0 23:0 24:0 25:0 26:0 27:0 28:1 29:0 30:1 31:0 32:0 33:0 34:0 35:0 
1 1:0 2:0.319419 3:0.0508167 4:0.319419 5:0.0437735 6:-0.461935 7:0.0161474 8:-0.00624256 9:0.107481 10:-0.00123088 11:-0.00480468 12:0.0023707 13:-0.134122 14:0 15:-0.0106865 16:0.0289366 17:0 18:-0.0109277 19:0.00958784 20:0 21:1 22:0 23:0 24:0 25:0 26:0 27:0 28:0 29:0 30:0 31:0 32:0 33:0 34:0 35:0 
1 1:0 2:0.328191 3:0.058906 4:0.328191 5:0.0437735 6:-0.531561 7:-0.013301 8:-0.00459058 9:-0.124279 10:-0.00325732 11:-0.00268771 12:-0.000334465 13:0.023207 14:0 15:-0.00790929 16:-0.00196836 17:0 18:-0.0142758 19:0.000369551 20:0 21:1 22:0 23:0 24:0 25:0 26:0 27:0 28:0 29:0 30:0 31:0 32:0 33:0 34:0 35:0 
1 1:1 2:0.307448 3:0.0158479 4:0.307448 5:0.0129942 6:-0.761038 7:0.0105849 8:0.0101539 9:0.19938 10:0.00128145 11:-0.00148109 12:-0.000129959 13:-0.0922507 14:0 15:-0.00530999 16:-0.00124075 17:0 18:-0.00780133 19:-0.013254 20:0 21:1 22:0 23:1 24:1 25:0 26:0 27:0 28:0 29:0 30:0 31:0 32:0 33:0 34:0 35:0 
1 1:0 2:0.257943 3:0.00314564 4:0.257943 5:-0.0102445 6:-0.355973 7:0.0105849 8:0.0101539 9:0.0925582 10:-0.000769924 11:0.0136848 12:-0.000874371 13:0.0019873 14:0 15:-0.00790929 16:-0.00196836 17:0 18:-0.000499961 19:0.000369551 20:0 21:1 22:0 23:1 24:0 25:0 26:0 27:0 28:0 29:1 30:1 31:1 32:0 33:0 34:0 35:0 
1 1:1 2:0.232924 3:0.044226 4:0.232924 5:0.00197725 6:-0.315073 7:0.000868714 8:0.0044492 9:0.0050336 10:-0.00733484 11:0.0141877 12:0.0023707 13:-0.00257344 14:1 15:0.0121562 16:-0.00483205 17:1 18:-0.0118821 19:-0.0057122 20:0 21:1 22:0 23:1 24:0 25:0 26:0 27:0 28:0 29:0 30:0 31:0 32:0 33:0 34:0 35:0 
1 1:0 2:0.180022 3:-0.0329308 4:0.180022 5:-0.00573529 6:-0.183742 7:0.0161474 8:0.0184523 9:0.0011322 10:0.0100219 11:0.025567 12:0.0023707 13:0.00406833 14:0 15:-0.00492397 16:0.00732772 17:1 18:-0.00513123 19:0.00276726 20:0 21:1 22:0 23:0 24:0 25:1 26:0 27:1 28:0 29:0 30:0 31:0 32:0 33:0 34:0 35:0 
1 1:0 2:0.19802 3:-0.0223571 4:0.19802 5:0.0130167 6:-0.149501 7:-0.00680823 8:-0.00209975 9:0.0775633 10:0.0037796 11:0.00357244 12:-0.00279944 13:-0.058579 14:0 15:0.0012351 16:0.00252779 17:0 18:-0.0265598 19:0.0138395 20:0 21:1 22:0 23:1 24:0 25:0 26:0 27:1 28:0 29:0 30:0 31:0 32:0 33:0 34:0 35:0 
1 1:0 2:0.12846 3:-0.0156658 4:0.12846 5:-0.00855676 6:-0.105085 7:0.0105849 8:0.0100182 9:-0.0232908 10:0.0037796 11:0.00699454 12:-0.0105182 13:-0.161712 14:0 15:-0.000517298 16:0.0289366 17:0 18:-0.0125356 19:-0.00405298 20:0 21:1 22:1 23:0 24:0 25:0 26:0 27:0 28:0 29:0 30:0 31:0 32:0 33:0 34:0 35:0 
1 1:1 2:0.18552 3:0.0633484 4:0.18552 5:-0.0102445 6:-0.424836 7:-0.00516551 8:-0.0025261 9:0.0943869 10:-0.00286363 11:-0.000258585 12:-0.00317909 13:0.0150724 14:0 15:-0.00530999 16:-0.00124075 17:1 18:-0.00528868 19:0.00220689 20:0 21:1 22:0 23:0 24:0 25:0 26:0 27:0 28:0 29:1 30:0 31:0 32:0 33:0 34:0 35:0 
1 1:1 2:0.919918 3:0.184805 4:0.919918 5:0.0437735 6:-0.346752 7:0.0105849 8:-0.00332417 9:0.00100063 10:-0.00273061 11:0.00357244 12:0.0023707 13:0.00817068 14:0 15:0.0142631 16:-0.0143477 17:0 18:0.0170724 19:0.00276726 20:0 21:1 22:0 23:1 24:0 25:0 26:0 27:0 28:0 29:0 30:0 31:0 32:0 33:0 34:0 35:0 
1 1:0 2:0.43755 3:0.0609918 4:0.43755 5:0.0130167 6:-0.33161 7:-0.000402756 8:-0.00459058 9:0.147489 10:-0.00123088 11:-0.00268771 12:-0.000129959 13:-0.00336422 14:0 15:-0.00530999 16:0.00605498 17:0 18:-0.00326003 19:0.000803702 20:0 21:1 22:0 23:1 24:0 25:0 26:0 27:1 28:0 29:0 30:0 31:0 32:0 33:0 34:0 35:0 
1 1:0 2:0.29259 3:0.0721976 4:0.29259 5:0.00197725 6:-0.193213 7:0.00857851 8:-0.00209975 9:-0.00880966 10:0.0037796 11:-0.00268771 12:-0.00571812 13:-0.0488351 14:1 15:-0.00492854 16:0.00443894 17:0 18:0.00385622 19:0.00958784 20:0 21:1 22:1 23:0 24:0 25:0 26:0 27:0 28:0 29:0 30:0 31:0 32:0 33:0 34:0 35:0 
1 1:0 2:0.60058 3:0.0812379 4:0.60058 5:-0.0102445 6:-0.701709 7:-0.00737515 8:0.0044492 9:-0.212423 10:-0.00123088 11:0.0141877 12:0.0135939 13:0.2101 14:1 15:-0.00530999 16:0.00732772 17:1 18:-0.00647874 19:-0.00601379 20:0 21:1 22:1 23:1 24:0 25:0 26:0 27:0 28:0 29:0 30:0 31:0 32:0 33:1 34:0 35:0 
1 1:0 2:0.14096 3:-0.0061287 4:0.14096 5:0.0106812 6:-0.130497 7:0.0137208 8:-0.0025261 9:-0.0409893 10:0.0194542 11:-0.00480468 12:-0.0105182 13:-0.0126284 14:0 15:-0.00492854 16:0.00471629 17:0 18:-0.00324791 19:-0.00405298 20:0 21:1 22:2 23:0 24:0 25:0 26:0 27:0 28:0 29:0 30:0 31:0 32:0 33:0 34:0 35:1 
1 1:0 2:0.454941 3:0.0666473 4:0.454941 5:0.0106812 6:-0.721573 7:0.000933507 8:-0.0025261 9:-0.0126855 10:-0.00332328 11:-0.000258585 12:0.0221073 13:-0.00132597 14:0 15:0.00165974 16:-0.00269397 17:0 18:0.00763408 19:0.00623806 20:0 21:1 22:0 23:0 24:0 25:0 26:0 27:0 28:0 29:0 30:0 31:0 32:0 33:0 34:0 35:0 
1 1:0 2:0.319048 3:0.047619 4:0.319048 5:-0.0058672 6:-0.25489 7:0.0105849 8:0.0101539 9:0.172821 10:0.0037796 11:-0.000258585 12:-0.00317909 13:0.0683533 14:0 15:-7.70143e-005 16:-0.00382903 17:0 18:0.00476963 19:-0.013254 20:0 21:1 22:0 23:0 24:0 25:0 26:0 27:0 28:0 29:0 30:0 31:0 32:0 33:0 34:0 35:0 
1 1:0 2:0.129707 3:-0.0502092 4:0.129707 5:-0.00855676 6:-0.262905 7:0.00857851 8:0.000578213 9:-0.220522 10:-0.00733484 11:0.00388373 12:0.0221073 13:-0.0225576 14:0 15:0.00165974 16:0.0289366 17:0 18:0.0080876 19:0.00958784 20:0 21:1 22:1 23:0 24:0 25:0 26:0 27:0 28:0 29:0 30:0 31:0 32:0 33:0 34:0 35:0 
1 1:1 2:0.278929 3:0.0636685 4:0.278929 5:-0.0181781 6:-0.605963 7:-0.00516551 8:0.000253862 9:0.0522102 10:-0.00381029 11:-0.00182434 12:-0.00317909 13:-0.00377667 14:0 15:-0.00790929 16:-0.00293144 17:0 18:0.00320984 19:0.00623806 20:0 21:1 22:0 23:0 24:0 25:0 26:0 27:0 28:0 29:0 30:0 31:1 32:0 33:0 34:0 35:0 
1 1:1 2:0.430044 3:0.0648012 4:0.430044 5:-0.00424959 6:-0.399529 7:0.00140932 8:0.000578213 9:-0.0337015 10:-0.00332328 11:0.00732539 12:0.00217649 13:-0.0952572 14:0 15:-0.0106865 16:-0.0143477 17:0 18:0.0251383 19:0.000803702 20:0 21:1 22:0 23:0 24:0 25:0 26:0 27:0 28:1 29:0 30:0 31:0 32:0 33:0 34:0 35:0 
1 1:0 2:0.119048 3:-0.047619 4:0.119048 5:0.0437735 6:-0.137435 7:-0.00166005 8:0.0100182 9:0.111807 10:-0.00325732 11:-0.00185013 12:-0.0117779 13:0.00247168 14:0 15:0.0121562 16:0.00732772 17:0 18:0.00565295 19:-0.00207511 20:0 21:1 22:0 23:1 24:0 25:0 26:0 27:1 28:0 29:0 30:0 31:0 32:0 33:0 34:0 35:0 
1 1:1 2:0.1 3:0 4:0.1 5:0.00197725 6:-0.0717004 7:-0.0196727 8:0.00263785 9:0.158168 10:-0.00476114 11:-0.00268771 12:0.00677998 13:-0.0757579 14:1 15:-0.00492397 16:0.00471629 17:0 18:-0.00574629 19:0.00623806 20:0 21:1 22:0 23:0 24:0 25:0 26:0 27:0 28:0 29:0 30:0 31:0 32:0 33:0 34:0 35:0 
1 1:0 2:0.100179 3:-0.0644007 4:0.100179 5:0.0106812 6:-0.0430494 7:-0.00737515 8:-0.00624256 9:-0.0710368 10:-0.00273061 11:-0.00198275 12:0.0221073 13:-0.0204905 14:0 15:-0.00492397 16:0.00443894 17:0 18:0.0127241 19:0.0138395 20:0 21:1 22:0 23:0 24:0 25:0 26:0 27:0 28:1 29:0 30:0 31:0 32:0 33:0 34:0 35:1 
1 1:0 2:0.38977 3:0.0767263 4:0.38977 5:0.0129942 6:-0.323598 7:0.00305708 8:0.0101539 9:-0.019719 10:-0.00332328 11:0.0136848 12:0.00677998 13:-0.109309 14:0 15:-0.00349054 16:0.00443894 17:0 18:0.00913536 19:0.00220689 20:0 21:1 22:0 23:0 24:0 25:0 26:0 27:0 28:0 29:0 30:0 31:0 32:0 33:0 34:0 35:1 
1 1:1 2:0.120235 3:0.0175953 4:0.120235 5:-0.00855676 6:-0.122352 7:0.00636562 8:0.0100182 9:0.23712 10:0.00128145 11:-0.0122162 12:0.00677998 13:0.0321259 14:0 15:-0.00349054 16:0.00605498 17:0 18:0.00401959 19:-0.00671981 20:0 21:1 22:0 23:1 24:0 25:0 26:0 27:0 28:0 29:0 30:0 31:0 32:0 33:0 34:0 35:0 
1 1:0 2:0.109589 3:-0.0547945 4:0.109589 5:0.0129942 6:0.017628 7:-0.00166005 8:-0.0025261 9:0.074016 10:0.0194542 11:0.00357244 12:0.00155162 13:-0.00521652 14:0 15:0.0121562 16:-0.00483205 17:0 18:0.0016315 19:0.00220689 20:1 21:1 22:0 23:0 24:0 25:0 26:0 27:0 28:0 29:0 30:0 31:0 32:0 33:0 34:0 35:0 
1 1:0 2:0.302839 3:0.0513745 4:0.302839 5:0.0106812 6:-0.663086 7:0.0137208 8:-0.00624256 9:-0.313069 10:0.0100219 11:-0.0122162 12:-0.0117779 13:0.0487009 14:0 15:0.0048917 16:-0.00483205 17:0 18:0.00551856 19:-0.00405298 20:0 21:1 22:2 23:1 24:0 25:0 26:0 27:0 28:0 29:0 30:0 31:0 32:1 33:0 34:0 35:1 
1 1:1 2:0.740296 3:0.116046 4:0.740296 5:-0.00644929 6:-0.357473 7:0.00636562 8:0.000578213 9:0.141284 10:-0.000769924 11:-0.00353261 12:0.00677998 13:0.0653381 14:0 15:-0.00790929 16:-0.00479611 17:0 18:-0.00949084 19:0.00623806 20:0 21:1 22:0 23:1 24:0 25:0 26:0 27:0 28:1 29:0 30:1 31:0 32:0 33:0 34:0 35:0 
1 1:0 2:0.513688 3:0.0830514 4:0.513688 5:0.0129942 6:-0.877721 7:0.0105849 8:-0.00624256 9:-0.129324 10:-0.00123088 11:-0.00185013 12:0.00677998 13:0.0281445 14:0 15:0.00574903 16:0.0289366 17:0 18:-0.0220961 19:-0.00601379 20:0 21:1 22:0 23:1 24:0 25:0 26:0 27:1 28:0 29:0 30:0 31:0 32:0 33:1 34:0 35:0 
1 1:1 2:0.117121 3:-0.0268402 4:0.117121 5:0.00197725 6:-0.223871 7:0.0105849 8:0.0044492 9:0.0229791 10:0.0100219 11:-0.00268771 12:-0.0117779 13:-0.00094587 14:1 15:-0.00790929 16:-0.00483205 17:0 18:0.000135144 19:0.00276726 20:0 21:1 22:1 23:0 24:1 25:0 26:0 27:0 28:0 29:0 30:0 31:0 32:0 33:0 34:0 35:0 
1 1:0 2:0.19802 3:-0.0223571 4:0.19802 5:-0.00855676 6:-0.168522 7:0.00857851 8:-0.0025261 9:0.0799362 10:-0.000769924 11:-0.00198275 12:0.0135939 13:0.0880375 14:0 15:-0.00530999 16:0.00732772 17:0 18:0.00627804 19:0.000347898 20:0 21:1 22:1 23:0 24:0 25:0 26:0 27:0 28:0 29:0 30:0 31:0 32:0 33:0 34:0 35:0 
1 1:0 2:0.200844 3:-0.0220928 4:0.200844 5:0.0437735 6:-0.223187 7:-0.00516551 8:-0.0025261 9:0.107179 10:0.0194542 11:-0.00182434 12:0.00218961 13:-0.0828538 14:0 15:0.0142631 16:0.00443894 17:0 18:-0.00680997 19:-0.00405298 20:0 21:1 22:1 23:0 24:0 25:0 26:0 27:0 28:0 29:0 30:0 31:0 32:0 33:0 34:0 35:0 
1 1:0 2:0.170536 3:-0.0528423 4:0.170536 5:0.00197725 6:-0.225768 7:-0.000966364 8:-0.00332417 9:-0.0552479 10:-0.00332328 11:-0.000258585 12:0.00218961 13:-0.00352562 14:1 15:0.000310067 16:0.00443894 17:0 18:-0.00457913 19:0.00260239 20:0 21:1 22:0 23:0 24:1 25:0 26:0 27:1 28:0 29:0 30:0 31:0 32:0 33:0 34:0 35:0 
1 1:0 2:0.355828 3:0.0368098 4:0.355828 5:0.0106812 6:-0.332035 7:0.0105849 8:-0.00624256 9:-0.190342 10:-0.00332328 11:-0.037011 12:0.00217649 13:-0.0946096 14:0 15:-0.00790929 16:0.00605498 17:0 18:-0.00375342 19:-0.00553567 20:0 21:1 22:0 23:0 24:0 25:0 26:0 27:0 28:0 29:0 30:0 31:0 32:0 33:0 34:0 35:0 
1 1:0 2:0.138191 3:-0.0703518 4:0.138191 5:0.00197725 6:-0.0942285 7:0.00636562 8:0.0184523 9:-0.0409153 10:0.0194542 11:0.00357244 12:0.00155162 13:0.0180576 14:1 15:0.0121562 16:0.00605498 17:0 18:0.0115515 19:0.00623806 20:0 21:1 22:1 23:0 24:0 25:0 26:0 27:1 28:0 29:0 30:0 31:0 32:0 33:0 34:0 35:0 
1 1:0 2:0.342922 3:0.013626 4:0.342922 5:0.00737457 6:-0.263718 7:0.0161474 8:-0.00566043 9:-0.349176 10:0.0194542 11:0.0136848 12:0.0023707 13:0.0379223 14:1 15:-0.00790929 16:0.00252779 17:0 18:-0.0165332 19:-0.00553567 20:0 21:1 22:1 23:1 24:0 25:0 26:0 27:1 28:0 29:0 30:0 31:0 32:0 33:0 34:0 35:0 
1 1:0 2:0.127771 3:-0.065189 4:0.127771 5:-0.00573529 6:-0.450887 7:0.0137208 8:-0.00566043 9:-0.700572 10:-0.000769924 11:0.025567 12:-0.000874371 13:0.0862797 14:0 15:-0.00036086 16:-0.00483205 17:0 18:-0.00346145 19:0.00958784 20:0 21:1 22:0 23:0 24:0 25:0 26:0 27:0 28:1 29:0 30:0 31:0 32:0 33:0 34:0 35:0 
1 1:1 2:0.130573 3:0.0254777 4:0.130573 5:-0.00118857 6:-0.248945 7:0.0137208 8:0.0044492 9:0.105322 10:-0.00273061 11:-0.00268771 12:-0.00279944 13:-0.0329934 14:0 15:-0.00790929 16:0.00605498 17:0 18:0.00620613 19:0.00623806 20:0 21:1 22:0 23:0 24:0 25:0 26:0 27:0 28:1 29:0 30:0 31:0 32:0 33:0 34:0 35:0 
1 1:0 2:0.178161 3:-0.0114943 4:0.178161 5:-0.00118857 6:-0.31969 7:-0.00737515 8:-0.00624256 9:-0.17121 10:0.00890847 11:-0.0122162 12:0.0135939 13:0.0536647 14:0 15:-0.00492854 16:0.00252779 17:0 18:-0.0199727 19:0.0138395 20:0 21:1 22:0 23:1 24:0 25:0 26:0 27:0 28:1 29:0 30:0 31:0 32:0 33:1 34:0 35:0 
1 1:0 2:0.287665 3:0.014627 4:0.287665 5:-0.00118857 6:-0.117643 7:0.0105849 8:-0.0025261 9:-0.0510631 10:0.0194542 11:-0.00480468 12:0.00218961 13:-0.015149 14:0 15:-0.00790929 16:0.0289366 17:0 18:-0.0013225 19:-0.00405298 20:0 21:1 22:1 23:0 24:0 25:0 26:0 27:0 28:0 29:0 30:0 31:0 32:1 33:0 34:0 35:0 
1 1:0 2:0.143426 3:-0.00265604 4:0.143426 5:0.0437735 6:-0.185455 7:-0.00166005 8:0.000578213 9:0.0855637 10:-0.00335283 11:0.025567 12:0.0221073 13:0.010325 14:0 15:0.00574903 16:-0.00347876 17:0 18:0.00399658 19:-0.00601379 20:0 21:1 22:0 23:1 24:0 25:0 26:0 27:0 28:0 29:0 30:0 31:0 32:0 33:1 34:0 35:0 
1 1:0 2:0.204769 3:0.0308555 4:0.204769 5:-0.0181781 6:-0.329699 7:-0.00516551 8:-0.0025261 9:-0.00206891 10:-0.0025074 11:-0.00480468 12:-0.00615216 13:0.00702455 14:0 15:-0.00588288 16:-0.0042043 17:0 18:-0.00872431 19:-0.00175629 20:0 21:1 22:0 23:1 24:0 25:0 26:0 27:0 28:0 29:0 30:0 31:1 32:0 33:0 34:0 35:0 
1 1:0 2:0.0860279 3:-0.0978938 4:0.0860279 5:-0.00424959 6:-0.109622 7:-0.00737515 8:-0.00624256 9:0.0349845 10:0.0194542 11:-0.00268771 12:7.55969e-005 13:-0.0179723 14:0 15:-0.00530999 16:-0.00483205 17:0 18:-0.0152363 19:-0.000837017 20:0 21:1 22:0 23:0 24:0 25:0 26:0 27:0 28:1 29:0 30:1 31:0 32:0 33:0 34:0 35:0 
1 1:0 2:0.3 3:-2.77556e-017 4:0.3 5:-0.00855676 6:-0.305676 7:0.0161474 8:0.0184523 9:-0.0282133 10:0.0100219 11:-0.00268771 12:-0.00279944 13:0.0528602 14:0 15:0.0121562 16:-0.00483205 17:0 18:0.00522711 19:0.0138395 20:0 21:2 22:0 23:0 24:1 25:0 26:0 27:0 28:0 29:0 30:0 31:0 32:0 33:0 34:0 35:0 
1 1:0 2:0.318525 3:0.0251467 4:0.318525 5:0.0106812 6:-0.566535 7:0.0161474 8:-0.00630459 9:-0.15148 10:0.00890847 11:-0.00480468 12:0.0221073 13:-0.0642472 14:0 15:-0.00530999 16:-0.00479611 17:0 18:0.012489 19:0.000803702 20:0 21:1 22:0 23:0 24:0 25:0 26:0 27:0 28:0 29:0 30:0 31:0 32:0 33:0 34:0 35:0 
1 1:0 2:0.0693878 3:-0.0408163 4:0.0693878 5:-0.0181781 6:-0.208025 7:-0.000428978 8:0.00111814 9:0.107333 10:0.00890847 11:-0.000757374 12:0.0135939 13:-0.0459591 14:0 15:0.00574903 16:-0.00483205 17:0 18:0.000882657 19:0.00623806 20:0 21:1 22:1 23:0 24:0 25:0 26:0 27:0 28:0 29:0 30:0 31:0 32:0 33:0 34:0 35:0 
1 1:0 2:0.184183 3:-0.0437045 4:0.184183 5:-0.0181781 6:-0.252394 7:-0.000665361 8:0.000253862 9:0.31632 10:-0.00325732 11:-0.000258585 12:0.0221073 13:0.0641118 14:0 15:-0.00349054 16:0.00732772 17:0 18:0.0202026 19:0.00272342 20:0 21:1 22:0 23:1 24:1 25:0 26:0 27:0 28:0 29:0 30:0 31:0 32:0 33:0 34:0 35:0 
1 1:0 2:0.410338 3:0.0521424 4:0.410338 5:-0.0181781 6:-0.594988 7:-0.013301 8:0.0101539 9:-0.45529 10:-0.00667065 11:-0.00268771 12:-0.00279944 13:-0.0485816 14:0 15:-7.70143e-005 16:-0.0060947 17:0 18:0.00203354 19:-0.0057122 20:0 21:1 22:0 23:1 24:1 25:0 26:0 27:0 28:0 29:0 30:1 31:0 32:0 33:0 34:0 35:0 
1 1:0 2:0.234354 3:0.0159787 4:0.234354 5:-0.0058672 6:-0.345806 7:0.000868714 8:0.00263785 9:-0.343094 10:-0.00335283 11:-0.0122162 12:-0.00571812 13:-0.00408404 14:0 15:-0.00492854 16:0.0289366 17:0 18:0.0109555 19:-0.00601379 20:0 21:1 22:0 23:1 24:0 25:0 26:0 27:0 28:0 29:0 30:0 31:0 32:0 33:1 34:0 35:0 
1 1:1 2:0.215746 3:-0.0317941 4:0.215746 5:-0.0102445 6:-0.268427 7:-0.0196727 8:-0.00624256 9:0.198255 10:-0.00332328 11:-0.00268771 12:-0.00317909 13:0.0879646 14:0 15:0.0121562 16:0.00471629 17:0 18:0.010692 19:0.00272342 20:0 21:1 22:0 23:1 24:0 25:0 26:0 27:0 28:1 29:0 30:0 31:0 32:0 33:0 34:0 35:0 
1 1:0 2:0.160833 3:-0.0409965 4:0.160833 5:0.0130167 6:-0.0293554 7:0.0137208 8:-0.0025261 9:0.0449738 10:0.0194542 11:-0.00268771 12:-0.00571812 13:-0.0567637 14:0 15:-0.000517298 16:0.0289366 17:0 18:-0.00654345 19:0.000369551 20:0 21:1 22:2 23:0 24:0 25:0 26:0 27:1 28:0 29:0 30:0 31:0 32:0 33:0 34:0 35:0 
1 1:0 2:0.0560197 3:-0.044226 4:0.0560197 5:0.0130167 6:-0.0322884 7:0.0105849 8:0.0100182 9:0.0237717 10:-0.00332328 11:-0.00480468 12:0.0135939 13:0.00123656 14:0 15:-0.000517298 16:0.00471629 17:0 18:-0.00731359 19:0.00404864 20:0 21:1 22:0 23:0 24:0 25:0 26:1 27:1 28:0 29:0 30:0 31:0 32:0 33:0 34:0 35:1 
1 1:0 2:0.369942 3:0.0693642 4:0.369942 5:0.0106812 6:-0.291446 7:0.0161474 8:0.0184523 9:-0.237966 10:-0.00273061 11:-0.00480468 12:0.00155162 13:0.00788948 14:0 15:-0.000517298 16:0.000966796 17:0 18:0.00523986 19:-0.00671981 20:0 21:1 22:0 23:1 24:0 25:0 26:0 27:0 28:0 29:0 30:0 31:0 32:0 33:0 34:0 35:0 
1 1:0 2:0.079635 3:-0.0323517 4:0.079635 5:0.0437735 6:0.0152028 7:-0.00516551 8:0.0100182 9:0.0660524 10:-0.00332328 11:0.00388373 12:0.00218961 13:-0.0731604 14:0 15:-0.00530999 16:-0.0060947 17:0 18:0.0127393 19:-0.00553567 20:0 21:1 22:1 23:0 24:0 25:0 26:0 27:0 28:1 29:0 30:0 31:0 32:0 33:0 34:0 35:0 
1 1:1 2:0.0869565 3:-0.0869565 4:0.0869565 5:0.0437735 6:-0.093276 7:-0.000966364 8:0.0044492 9:0.0215342 10:-0.00325732 11:0.00232889 12:0.00217649 13:0.0235965 14:0 15:-0.000517298 16:0.00605498 17:0 18:0.0184577 19:0.0138395 20:0 21:1 22:0 23:1 24:0 25:0 26:0 27:0 28:1 29:0 30:0 31:0 32:0 33:0 34:0 35:0 
1 1:0 2:0.461643 3:0.0656257 4:0.461643 5:-0.0058672 6:-0.447242 7:0.0105849 8:-0.00566043 9:0.00535773 10:0.0037796 11:-0.00185013 12:0.00677998 13:0.00428942 14:0 15:-0.00251503 16:0.00252779 17:0 18:-0.0277148 19:0.00623806 20:0 21:1 22:0 23:1 24:0 25:0 26:1 27:0 28:0 29:0 30:0 31:0 32:0 33:0 34:0 35:0 
1 1:0 2:0.19478 3:0.0267346 4:0.19478 5:-0.00118857 6:0.00128101 7:0.0105849 8:0.000578213 9:0.138601 10:-0.00123088 11:0.0141877 12:0.0221073 13:-0.0103853 14:0 15:0.0048917 16:-0.00124075 17:0 18:-0.00662347 19:-0.00553567 20:0 21:1 22:1 23:1 24:0 25:0 26:0 27:0 28:0 29:0 30:0 31:0 32:0 33:0 34:0 35:0 
1 1:0 2:0.211405 3:0.00556328 4:0.211405 5:-0.00424959 6:-0.372533 7:0.0137208 8:-0.0025261 9:-0.00448129 10:0.0100219 11:0.00732539 12:-0.00109699 13:0.0125193 14:1 15:-7.70143e-005 16:-0.00347876 17:0 18:-0.0235963 19:0.00404864 20:0 21:1 22:1 23:0 24:0 25:0 26:0 27:0 28:0 29:0 30:0 31:0 32:0 33:0 34:0 35:0 
1 1:0 2:0.180412 3:-0.0103093 4:0.180412 5:0.0129942 6:-0.171539 7:-0.00737515 8:-0.0025261 9:0.0849235 10:0.0194542 11:0.0136848 12:0.0135939 13:-0.0548375 14:0 15:-0.00530999 16:0.00443894 17:0 18:-0.0207092 19:-0.00405298 20:0 21:1 22:3 23:1 24:0 25:0 26:0 27:0 28:0 29:0 30:0 31:0 32:0 33:0 34:0 35:0 
1 1:0 2:0.338462 3:0.0307692 4:0.338462 5:-0.0146811 6:-0.384603 7:0.0161474 8:-0.0025261 9:0.0859194 10:-0.000710021 11:-0.037011 12:-0.000334465 13:-0.0423694 14:0 15:-7.70143e-005 16:0.0289366 17:0 18:-0.00619243 19:-0.00601379 20:0 21:1 22:0 23:0 24:1 25:0 26:0 27:0 28:0 29:1 30:0 31:0 32:1 33:1 34:0 35:0 
1 1:1 2:0.156556 3:-0.0234834 4:0.156556 5:0.00737457 6:-0.224618 7:0.00305708 8:-0.000155678 9:-0.0624651 10:0.00890847 11:-0.000258585 12:-0.000129959 13:-0.0048769 14:0 15:-0.00790929 16:-0.0143477 17:0 18:-0.000561478 19:0.000347898 20:0 21:1 22:0 23:0 24:0 25:0 26:0 27:0 28:1 29:0 30:1 31:0 32:0 33:0 34:0 35:0 
1 1:1 2:0.134579 3:-0.0373832 4:0.134579 5:-0.00573529 6:-0.326022 7:-0.0196727 8:0.00111369 9:0.0436276 10:-0.00667065 11:0.00357244 12:0.00218961 13:-0.0905956 14:0 15:-0.00530999 16:-0.00382903 17:1 18:-0.015779 19:0.0138395 20:0 21:1 22:0 23:1 24:0 25:0 26:0 27:0 28:0 29:0 30:0 31:0 32:0 33:0 34:0 35:0 
1 1:1 2:0.457666 3:0.0686499 4:0.457666 5:0.000589152 6:-0.107469 7:0.0105849 8:-0.0025261 9:0.388278 10:0.0037796 11:-0.00198275 12:0.00677998 13:0.223857 14:1 15:-0.00492854 16:-0.00360034 17:0 18:-0.000893216 19:0.00220689 20:0 21:1 22:0 23:0 24:0 25:0 26:0 27:0 28:0 29:0 30:0 31:0 32:0 33:0 34:0 35:0 
1 1:1 2:0.393939 3:0.0808081 4:0.393939 5:-0.00855676 6:-0.695292 7:-0.0196727 8:-0.00566043 9:-0.332971 10:0.0100219 11:-0.00198275 12:-0.00255595 13:0.0331704 14:0 15:-0.00492854 16:0.00471629 17:1 18:-0.0112818 19:0.000347898 20:0 21:1 22:0 23:0 24:0 25:0 26:0 27:0 28:0 29:0 30:1 31:0 32:0 33:0 34:0 35:0 
1 1:0 2:0.269519 3:0.0213904 4:0.269519 5:0.0130167 6:-0.779018 7:-0.013301 8:-0.0025261 9:-0.560883 10:-0.00286363 11:-0.00480468 12:0.00217649 13:-0.121415 14:0 15:-0.00349054 16:-0.00196836 17:0 18:-0.0276138 19:0.00220689 20:0 21:1 22:0 23:1 24:0 25:0 26:0 27:1 28:0 29:0 30:0 31:0 32:0 33:0 34:0 35:0 
1 1:0 2:0.520548 3:0.0273973 4:0.520548 5:0.0129942 6:-0.840221 7:-0.000665361 8:-0.0025261 9:-0.286148 10:0.00180655 11:0.0136848 12:0.0221073 13:-0.0426156 14:0 15:-0.00349054 16:-0.00360034 17:0 18:-0.00369504 19:0.00404864 20:0 21:2 22:0 23:0 24:0 25:0 26:0 27:0 28:0 29:0 30:0 31:0 32:1 33:0 34:0 35:0 
1 1:0 2:0.115663 3:-0.0481928 4:0.115663 5:0.0106812 6:-0.134361 7:-0.013301 8:-0.0102524 9:-0.188182 10:0.0194542 11:0.00357244 12:-0.000334465 13:-0.0657046 14:0 15:-0.0106865 16:-0.00347876 17:1 18:0.0104507 19:0.000803702 20:0 21:1 22:0 23:0 24:0 25:0 26:0 27:0 28:0 29:0 30:1 31:0 32:0 33:0 34:0 35:0 
1 1:0 2:0.1 3:0 4:0.1 5:0.0130167 6:-0.0107557 7:-0.00516551 8:-0.00624256 9:0.205659 10:-0.00335283 11:0.00232889 12:0.00218961 13:-0.0806873 14:0 15:-0.000517298 16:-0.00124075 17:0 18:-0.00796774 19:0.00276726 20:0 21:1 22:0 23:0 24:0 25:0 26:0 27:1 28:0 29:0 30:0 31:1 32:0 33:0 34:0 35:0 
1 1:1 2:0.522248 3:0.0608899 4:0.522248 5:-0.00573529 6:-0.33112 7:0.0161474 8:-0.0102524 9:-0.0498904 10:0.0194542 11:0.00232889 12:0.00155162 13:0.0821967 14:1 15:-0.00530999 16:0.00252779 17:0 18:-0.0129727 19:-0.00671981 20:0 21:1 22:0 23:0 24:0 25:0 26:0 27:0 28:0 29:0 30:0 31:0 32:0 33:0 34:0 35:0 
1 1:0 2:0.371969 3:0.043175 4:0.371969 5:-0.00174828 6:-0.120107 7:0.0137208 8:-0.00332417 9:0.137957 10:-0.00476114 11:0.0136848 12:0.00218961 13:-0.0794279 14:0 15:-0.00530999 16:0.00471629 17:0 18:0.00514039 19:0.000369551 20:0 21:1 22:1 23:0 24:0 25:0 26:0 27:0 28:0 29:0 30:0 31:0 32:0 33:0 34:0 35:0 
1 1:0 2:0.316613 3:0.0249022 4:0.316613 5:-0.0058672 6:-1.00796 7:0.0105849 8:-0.0102524 9:0.281098 10:0.0194542 11:0.00388373 12:0.0135939 13:-0.151622 14:0 15:0.0012351 16:0.00252779 17:0 18:-0.0239165 19:0.00276726 20:0 21:1 22:0 23:0 24:0 25:0 26:0 27:0 28:0 29:0 30:1 31:0 32:0 33:0 34:0 35:0 
1 1:0 2:0.394602 3:0.0470251 4:0.394602 5:0.00197725 6:-0.292303 7:-0.00166005 8:-0.0018813 9:0.0879933 10:-0.00325732 11:0.0141877 12:-0.00279944 13:0.0180808 14:1 15:-0.00530999 16:-0.0060947 17:0 18:0.00126383 19:-0.013254 20:0 21:2 22:0 23:0 24:0 25:0 26:0 27:0 28:0 29:0 30:0 31:0 32:0 33:0 34:0 35:0 
0.1547744626170402 1:1 2:0.41578 3:0.0522143 4:0.41578 5:0.0437735 6:-0.627266 7:-0.00516551 8:-0.00566043 9:-0.39949 10:-0.00381029 11:-0.037011 12:-0.00279944 13:-0.023819 14:0 15:-0.00492854 16:-0.00293144 17:0 18:0.0296958 19:-0.00671981 20:0 21:1 22:0 23:1 24:0 25:0 26:0 27:0 28:0 29:0 30:0 31:1 32:0 33:1 34:0 35:0 
1 1:0 2:0.139361 3:-0.00746578 4:0.139361 5:-0.0058672 6:-0.171992 7:-0.000966364 8:0.000253862 9:-0.0496118 10:-0.000710021 11:-0.0122162 12:0.0221073 13:-0.117208 14:0 15:0.000310067 16:-0.00360034 17:0 18:0.00594228 19:-0.00405298 20:0 21:1 22:1 23:0 24:1 25:0 26:0 27:0 28:0 29:0 30:0 31:0 32:0 33:0 34:0 35:0 
1 1:0 2:0.306452 3:0.0860215 4:0.306452 5:-0.00118857 6:-0.209246 7:0.0137208 8:-0.0102524 9:0.0523354 10:0.0037796 11:0.0136848 12:-0.00317909 13:-0.00609439 14:0 15:0.00331034 16:0.00605498 17:1 18:-0.0134943 19:0.00958784 20:0 21:1 22:2 23:0 24:1 25:0 26:0 27:0 28:0 29:0 30:0 31:0 32:0 33:0 34:0 35:0 
1 1:0 2:0.217549 3:0.0391588 4:0.217549 5:0.00737457 6:-0.121472 7:0.00305708 8:0.00263785 9:-0.00598124 10:0.00890847 11:0.00357244 12:0.0221073 13:-0.00382481 14:0 15:0.0048917 16:0.00605498 17:0 18:0.0148099 19:-0.00671981 20:0 21:1 22:1 23:1 24:0 25:0 26:0 27:0 28:0 29:0 30:0 31:0 32:0 33:0 34:0 35:1 
0.5048646619847751 1:1 2:0.12517 3:-0.0272109 4:0.12517 5:0.0437735 6:-0.462455 7:0.0105849 8:-0.00566043 9:-0.623297 10:-0.00733484 11:0.0136848 12:0.0221073 13:0.179914 14:0 15:-0.00349054 16:0.0289366 17:1 18:-0.0134867 19:-0.013254 20:0 21:1 22:0 23:1 24:0 25:0 26:0 27:0 28:0 29:0 30:0 31:0 32:0 33:0 34:0 35:0 
1 1:0 2:0.183036 3:-0.00892857 4:0.183036 5:-0.00229984 6:-0.136667 7:0.0161474 8:-0.00210731 9:0.256873 10:0.00890847 11:0.0136848 12:0.00155162 13:0.0747148 14:0 15:0.00331034 16:0.000647573 17:0 18:0.00492099 19:-0.00553567 20:0 21:1 22:1 23:0 24:0 25:0 26:0 27:0 28:0 29:0 30:0 31:0 32:0 33:0 34:0 35:0 
1 1:0 2:0.693642 3:0.16185 4:0.693642 5:-0.00118857 6:-1.08325 7:0.00857851 8:-0.00624256 9:-0.166638 10:-0.00335283 11:0.0141877 12:-0.00279944 13:-0.000489794 14:0 15:0.00646052 16:-0.00483205 17:0 18:0.0081874 19:-0.0057122 20:0 21:1 22:0 23:0 24:1 25:0 26:0 27:0 28:0 29:0 30:0 31:0 32:0 33:0 34:0 35:0 
1 1:0 2:0.187203 3:0.0222105 4:0.187203 5:-0.0181781 6:-0.00133016 7:0.00857851 8:-0.0025261 9:0.400501 10:-0.00733484 11:0.025567 12:0.00218961 13:0.0812662 14:0 15:-0.00251503 16:-0.00382903 17:0 18:0.00295205 19:-0.013254 20:0 21:1 22:1 23:0 24:0 25:0 26:0 27:0 28:0 29:0 30:0 31:0 32:0 33:0 34:0 35:0 
1 1:0 2:0.183972 3:0.0209059 4:0.183972 5:0.0106812 6:-0.64376 7:0.0105849 8:-0.00209975 9:-0.262923 10:0.00128145 11:-0.000258585 12:0.0023707 13:0.000304035 14:0 15:-0.000517298 16:0.00443894 17:1 18:-0.0194347 19:-0.013254 20:0 21:1 22:0 23:0 24:0 25:0 26:0 27:0 28:0 29:0 30:0 31:0 32:1 33:0 34:0 35:0 
1 1:0 2:0.23506 3:0.0159363 4:0.23506 5:0.0130167 6:-0.373353 7:0.000868714 8:-0.0102524 9:0.232811 10:-0.00123088 11:-0.00480468 12:-0.00317909 13:-0.0845355 14:0 15:0.00646052 16:-0.0060947 17:1 18:-0.00707125 19:0.00276726 20:0 21:1 22:0 23:0 24:0 25:0 26:0 27:1 28:0 29:0 30:0 31:0 32:0 33:1 34:0 35:0 
1 1:0 2:0.196137 3:0.0267459 4:0.196137 5:-0.0102445 6:-0.785723 7:-0.00680823 8:-0.0025261 9:-0.0280039 10:-0.00286363 11:0.0136848 12:0.00155162 13:0.0128463 14:0 15:-0.00790929 16:-0.00347876 17:0 18:-0.00312157 19:-0.00601379 20:0 21:1 22:1 23:1 24:0 25:0 26:0 27:0 28:0 29:0 30:0 31:0 32:0 33:1 34:0 35:1 
1 1:1 2:-0.239718 3:-0.232667 4:-0.239718 5:0.00737457 6:0.0658956 7:-0.000966364 8:0.000578213 9:0.420911 10:0.00890847 11:-0.00737899 12:-0.0117779 13:0.0497508 14:0 15:-0.00530999 16:0.00471629 17:0 18:-0.00413597 19:0.00272342 20:0 21:1 22:0 23:0 24:1 25:0 26:0 27:0 28:0 29:0 30:0 31:0 32:0 33:0 34:0 35:0 
0.2216149424061208 1:1 2:0.11056 3:-0.0297661 4:0.11056 5:-0.0181781 6:-0.250229 7:0.0161474 8:-0.000155678 9:0.00605794 10:0.0194542 11:0.00699454 12:-0.00279944 13:-0.0520707 14:0 15:0.0048917 16:-0.0143477 17:1 18:-0.0135642 19:-0.00405298 20:0 21:1 22:1 23:0 24:1 25:0 26:0 27:0 28:0 29:0 30:0 31:0 32:0 33:0 34:0 35:0 
1 1:0 2:0.114094 3:-0.0536913 4:0.114094 5:0.0437735 6:-0.334399 7:0.0161474 8:-0.000155678 9:0.00380117 10:0.00890847 11:0.00357244 12:-0.00279944 13:-0.0191339 14:0 15:0.0142631 16:0.00443894 17:0 18:0.0105102 19:0.00272342 20:0 21:2 22:0 23:0 24:0 25:0 26:0 27:0 28:0 29:0 30:0 31:0 32:0 33:0 34:0 35:0 
1 1:1 2:0.315592 3:0.0240706 4:0.315592 5:-0.0181781 6:-0.20911 7:0.000868714 8:-0.00624256 9:-0.0538034 10:0.0037796 11:-0.00268771 12:-0.00279944 13:-0.0653769 14:1 15:0.0142631 16:0.0289366 17:0 18:0.00173217 19:-0.00671981 20:0 21:1 22:0 23:1 24:1 25:0 26:0 27:0 28:0 29:0 30:0 31:0 32:0 33:0 34:0 35:0 
1 1:0 2:0.0474453 3:-0.0291971 4:0.0474453 5:0.0437735 6:-0.276856 7:-0.000966364 8:-0.0025261 9:0.377967 10:-0.00381029 11:-0.00185013 12:0.0221073 13:0.13551 14:0 15:-0.0106865 16:-0.00483205 17:0 18:-0.0134273 19:0.00404864 20:0 21:1 22:0 23:1 24:0 25:0 26:0 27:0 28:0 29:0 30:0 31:0 32:0 33:0 34:0 35:0 
1 1:1 2:0.240503 3:-0.00273299 4:0.240503 5:0.0437735 6:-0.134174 7:0.00857851 8:-0.00566043 9:-0.0996601 10:0.0100219 11:0.025567 12:-0.00279944 13:-0.0143928 14:1 15:-0.00349054 16:-0.00360034 17:0 18:0.0050424 19:0.00623806 20:0 21:1 22:0 23:1 24:0 25:0 26:0 27:0 28:0 29:0 30:1 31:0 32:0 33:0 34:0 35:0 
1 1:1 2:0.299173 3:0.0190961 4:0.299173 5:-0.00118857 6:-0.595439 7:-0.0196727 8:0.0044492 9:-0.173702 10:0.0100219 11:0.0136848 12:0.0135939 13:-0.0910519 14:0 15:0.0048917 16:0.00732772 17:1 18:0.00765143 19:0.00272342 20:0 21:1 22:0 23:1 24:0 25:0 26:0 27:0 28:1 29:0 30:0 31:0 32:0 33:0 34:0 35:0 
1 1:1 2:0.387899 3:0.0463528 4:0.387899 5:0.0437735 6:-0.540861 7:0.0137208 8:-0.00624256 9:-0.825351 10:-0.00273061 11:-0.00480468 12:0.0221073 13:0.155334 14:0 15:-0.00530999 16:0.00471629 17:0 18:-0.0118554 19:0.00276726 20:0 21:1 22:0 23:1 24:0 25:0 26:0 27:0 28:0 29:0 30:1 31:0 32:0 33:0 34:0 35:0 
1 1:1 2:0.0935875 3:-0.0242634 4:0.0935875 5:0.00115378 6:-0.0617614 7:0.00857851 8:-0.00332417 9:0.335283 10:-0.000710021 11:-0.00268771 12:-0.00109699 13:0.0583061 14:0 15:-0.00036086 16:-0.0060947 17:0 18:0.00187518 19:0.000421736 20:0 21:1 22:0 23:0 24:0 25:0 26:0 27:0 28:2 29:1 30:0 31:0 32:0 33:0 34:0 35:0 
1 1:0 2:0.0555556 3:-0.111111 4:0.0555556 5:0.00115378 6:-0.1556 7:-0.0196727 8:-0.00630459 9:-0.303204 10:-0.00381029 11:-0.0122162 12:0.0023707 13:0.0557027 14:0 15:0.00331034 16:-0.0060947 17:0 18:-0.00868412 19:0.0138395 20:0 21:1 22:0 23:1 24:0 25:0 26:0 27:0 28:1 29:0 30:0 31:0 32:0 33:0 34:0 35:1 
1 1:0 2:0.358368 3:0.0958013 4:0.358368 5:-0.0102445 6:-0.349975 7:0.0105849 8:0.0101539 9:-0.214487 10:-0.00332328 11:0.00699454 12:-0.00279944 13:-0.096065 14:0 15:0.00574903 16:0.00443894 17:0 18:0.0157026 19:-0.00671981 20:0 21:1 22:0 23:0 24:1 25:0 26:0 27:0 28:0 29:0 30:0 31:0 32:0 33:0 34:0 35:0 
1 1:0 2:0.296482 3:0.040201 4:0.296482 5:0.0129942 6:-0.388234 7:0.00305708 8:0.0044492 9:-0.117601 10:-0.00286363 11:0.00357244 12:-0.00279944 13:0.0165076 14:0 15:0.0142631 16:0.00471629 17:0 18:-0.0160901 19:0.00220689 20:1 21:1 22:0 23:1 24:0 25:0 26:0 27:0 28:0 29:0 30:0 31:0 32:0 33:0 34:0 35:0 
1 1:0 2:0.29259 3:0.0721976 4:0.29259 5:0.00197725 6:-0.399759 7:0.0137208 8:-0.0102524 9:-0.0258523 10:-0.00733484 11:0.025567 12:0.00217649 13:-0.00065691 14:1 15:-0.00036086 16:-0.00347876 17:0 18:-0.00132512 19:-0.013254 20:0 21:1 22:0 23:0 24:0 25:0 26:0 27:0 28:0 29:0 30:1 31:0 32:0 33:0 34:0 35:0 
0.5855801530990724 1:1 2:0.390824 3:0.048145 4:0.390824 5:-0.00424959 6:-0.679813 7:0.0161474 8:-0.0025261 9:0.11014 10:-0.000769924 11:-0.00268771 12:0.00217649 13:0.0316142 14:0 15:0.0121562 16:-0.00483205 17:0 18:0.00460257 19:-0.00405298 20:0 21:1 22:1 23:0 24:1 25:0 26:0 27:0 28:0 29:0 30:0 31:0 32:0 33:0 34:0 35:0 
1 1:1 2:0.107914 3:-0.057554 4:0.107914 5:0.00737457 6:-0.0983722 7:0.00305708 8:-0.00566043 9:0.0126017 10:-0.000769924 11:0.00388373 12:-0.0105182 13:-0.0726659 14:0 15:-0.00036086 16:-0.00483205 17:1 18:0.00542965 19:0.00958784 20:0 21:1 22:0 23:1 24:0 25:0 26:0 27:0 28:0 29:1 30:1 31:0 32:0 33:0 34:0 35:0 
1 1:1 2:0.183716 3:-0.00835073 4:0.183716 5:-0.00424959 6:-0.314276 7:-0.00166005 8:-0.00624256 9:0.00691039 10:-0.00325732 11:-0.00268771 12:-0.0105182 13:-0.0716319 14:0 15:0.0142631 16:-0.00483205 17:0 18:-0.0189178 19:0.000347898 20:0 21:1 22:0 23:0 24:1 25:0 26:0 27:0 28:0 29:0 30:0 31:0 32:0 33:0 34:0 35:1 
1 1:0 2:0.126529 3:-0.017714 4:0.126529 5:0.0437735 6:-0.357209 7:-0.013301 8:-0.0102524 9:-0.226018 10:-0.00273061 11:0.00232889 12:0.0135939 13:0.0996191 14:1 15:0.00165974 16:-0.00483205 17:0 18:-0.00466337 19:0.00404864 20:0 21:1 22:0 23:0 24:0 25:0 26:0 27:0 28:0 29:0 30:0 31:0 32:0 33:0 34:0 35:0 
1 1:0 2:0.365381 3:0.0387834 4:0.365381 5:0.0437735 6:-0.681668 7:0.0105849 8:0.00111369 9:-0.0420689 10:-0.00325732 11:0.00388373 12:-0.000129959 13:-0.0118853 14:0 15:0.00646052 16:-0.00479611 17:0 18:-0.00625457 19:0.00958784 20:0 21:1 22:2 23:0 24:0 25:0 26:0 27:0 28:0 29:0 30:0 31:0 32:0 33:0 34:0 35:0 
1 1:0 2:0.2 3:-6.93889e-018 4:0.2 5:0.0130167 6:-0.302612 7:0.0105849 8:0.0044492 9:0.0741857 10:-0.000710021 11:0.0141877 12:-0.00109699 13:-0.0463413 14:0 15:0.00646052 16:-0.00347876 17:1 18:-0.0136349 19:-0.00553567 20:1 21:1 22:0 23:0 24:0 25:0 26:1 27:1 28:0 29:0 30:1 31:0 32:0 33:0 34:0 35:0 
1 1:0 2:0.161209 3:-0.0235097 4:0.161209 5:0.0130167 6:-0.149367 7:0.00305708 8:0.0184523 9:0.161076 10:-0.000710021 11:-0.00737899 12:-0.000129959 13:0.0736094 14:0 15:-0.00349054 16:0.00605498 17:0 18:0.00624837 19:-0.013254 20:0 21:1 22:0 23:0 24:1 25:0 26:0 27:1 28:0 29:0 30:0 31:0 32:0 33:0 34:0 35:0 
1 1:1 2:0.257216 3:0.00285796 4:0.257216 5:0.0129942 6:-0.414357 7:-0.00737515 8:-0.00624256 9:0.0657101 10:-0.000769924 11:-0.00268771 12:0.00218961 13:-0.0177885 14:0 15:-0.00251503 16:-0.00159909 17:1 18:-0.00365435 19:-0.00207511 20:0 21:1 22:0 23:1 24:0 25:0 26:0 27:0 28:1 29:0 30:1 31:0 32:0 33:0 34:0 35:0 
1 1:0 2:0.135957 3:-0.0536673 4:0.135957 5:0.0130167 6:-0.0563109 7:0.00636562 8:-0.0025261 9:0.114128 10:-0.00123088 11:-0.00185013 12:-0.00223244 13:-0.0719487 14:0 15:0.0048917 16:0.0289366 17:0 18:-0.0105889 19:0.0138395 20:0 21:1 22:0 23:0 24:1 25:0 26:0 27:1 28:0 29:0 30:0 31:0 32:0 33:0 34:0 35:0 
1 1:1 2:0.2 3:-2.77556e-017 4:0.2 5:0.00197725 6:-0.210977 7:-0.00516551 8:0.000578213 9:0.250208 10:0.00180655 11:0.00732539 12:0.00677998 13:-0.274453 14:1 15:0.0121562 16:-0.0060947 17:0 18:-0.0254445 19:0.00404864 20:0 21:1 22:0 23:1 24:0 25:0 26:0 27:0 28:0 29:1 30:0 31:0 32:0 33:0 34:0 35:0 
1 1:0 2:0.234057 3:-0.0244233 4:0.234057 5:0.00115378 6:-0.483313 7:-0.000966364 8:-0.00624256 9:-0.0542524 10:-0.000710021 11:0.00232889 12:-0.00279944 13:0.113985 14:0 15:0.0142631 16:-0.00196836 17:0 18:-0.00773719 19:0.00260239 20:0 21:1 22:0 23:0 24:0 25:0 26:0 27:1 28:1 29:0 30:0 31:0 32:0 33:0 34:0 35:0 
1 1:1 2:0.165116 3:-0.0390273 4:0.165116 5:0.0129942 6:-0.0380436 7:0.0105849 8:-0.0025261 9:0.619194 10:-0.000769924 11:-0.00182434 12:0.00218961 13:0.126067 14:1 15:-0.0106865 16:0.00443894 17:1 18:0.0272985 19:0.000803702 20:0 21:1 22:0 23:0 24:0 25:0 26:0 27:0 28:0 29:0 30:0 31:0 32:0 33:0 34:0 35:0 
1 1:1 2:0.301587 3:0.042328 4:0.301587 5:-0.00174828 6:-0.180627 7:0.0105849 8:0.0101539 9:0.616956 10:-0.00325732 11:0.00732539 12:0.0221073 13:0.2958 14:0 15:-0.00790929 16:0.00471629 17:0 18:0.0148156 19:-0.00671981 20:0 21:1 22:1 23:0 24:1 25:0 26:0 27:0 28:0 29:0 30:0 31:0 32:0 33:0 34:0 35:0 
1 1:0 2:0.321732 3:0.0263235 4:0.321732 5:-0.0146811 6:-0.596436 7:0.0161474 8:0.0184523 9:0.156113 10:-0.00123088 11:-0.00185013 12:0.00217649 13:-0.0127625 14:0 15:0.0012351 16:0.0289366 17:0 18:-0.0112641 19:0.00958784 20:0 21:1 22:1 23:0 24:0 25:0 26:0 27:0 28:0 29:0 30:0 31:0 32:0 33:0 34:0 35:0 
1 1:0 2:0.2 3:-5.55112e-017 4:0.2 5:0.00737457 6:-0.119815 7:-0.00347661 8:0.0044492 9:0.271239 10:0.00180655 11:0.00732539 12:0.0135939 13:0.0615159 14:0 15:0.0121562 16:-0.00159909 17:0 18:0.0124197 19:-0.013254 20:0 21:1 22:1 23:0 24:0 25:0 26:0 27:0 28:0 29:0 30:0 31:0 32:0 33:0 34:0 35:0 
1 1:0 2:0.24026 3:0.012987 4:0.24026 5:-0.00118857 6:-0.315781 7:0.0105849 8:-0.0025261 9:-0.015981 10:0.0100219 11:0.025567 12:-0.00279944 13:0.018781 14:0 15:-0.00530999 16:0.00605498 17:0 18:0.0106971 19:0.00958784 20:0 21:2 22:1 23:1 24:0 25:0 26:0 27:1 28:0 29:0 30:0 31:0 32:0 33:0 34:0 35:0 
1 1:0 2:0.455621 3:0.0710059 4:0.455621 5:-0.00573529 6:-0.629307 7:0.0105849 8:-0.0018813 9:0.0744595 10:0.00128145 11:0.0136848 12:0.00217649 13:-0.0214246 14:0 15:-0.000517298 16:-0.00124075 17:0 18:-0.00362308 19:0.000369551 20:0 21:1 22:0 23:0 24:0 25:0 26:0 27:0 28:0 29:0 30:0 31:0 32:0 33:0 34:0 35:0 
1 1:0 2:-0.0160107 3:-0.084056 4:-0.0160107 5:0.00115378 6:-0.0282606 7:0.00857851 8:0.0044492 9:-0.120851 10:0.00128145 11:-0.00185013 12:-0.00109699 13:0.00610524 14:0 15:0.00331034 16:0.00252779 17:0 18:0.0052014 19:0.0138395 20:0 21:1 22:0 23:0 24:0 25:0 26:0 27:0 28:0 29:0 30:0 31:0 32:0 33:0 34:0 35:0 
1 1:0 2:0.40201 3:0.0502513 4:0.40201 5:-0.0181781 6:-0.299363 7:0.0137208 8:-0.00566043 9:-0.032566 10:-0.00123088 11:-0.00268771 12:-0.00317909 13:-0.0771736 14:0 15:-0.00492854 16:0.0289366 17:0 18:0.0160891 19:-0.00601379 20:0 21:1 22:0 23:0 24:0 25:0 26:0 27:0 28:0 29:0 30:0 31:0 32:0 33:1 34:0 35:0 
1 1:0 2:0.148492 3:-0.0278422 4:0.148492 5:0.00115378 6:-0.118814 7:0.0137208 8:-0.00332417 9:0.0357625 10:-0.00332328 11:0.0136848 12:0.0135939 13:-0.00448669 14:0 15:0.00574903 16:-0.00483205 17:0 18:0.00791662 19:0.00958784 20:0 21:1 22:1 23:1 24:0 25:0 26:0 27:0 28:0 29:0 30:0 31:0 32:0 33:0 34:0 35:0 
1 1:0 2:0.0862069 3:-0.103448 4:0.0862069 5:0.0437735 6:-0.0752545 7:0.00636562 8:0.0100182 9:0.0104678 10:0.0194542 11:0.00732539 12:-0.000874371 13:-0.00676266 14:0 15:0.0048917 16:0.00443894 17:0 18:0.0146349 19:-0.00405298 20:0 21:1 22:1 23:0 24:1 25:0 26:0 27:0 28:0 29:0 30:0 31:0 32:0 33:0 34:0 35:0 
1 1:0 2:0.249042 3:0.0153257 4:0.249042 5:0.0129942 6:-0.510635 7:0.0161474 8:-0.00624256 9:-0.152703 10:-0.00733484 11:-0.0122162 12:-0.0117779 13:0.0437331 14:0 15:0.0142631 16:0.00471629 17:0 18:-0.00146351 19:0.000369551 20:0 21:1 22:0 23:1 24:0 25:0 26:0 27:0 28:0 29:0 30:0 31:0 32:0 33:0 34:0 35:0 
1 1:0 2:0.0697674 3:-0.0930233 4:0.0697674 5:0.0106812 6:-0.169047 7:0.0105849 8:-0.0025261 9:0.117447 10:-0.00381029 11:-0.00268771 12:-0.00571812 13:0.0762339 14:0 15:-0.00036086 16:0.0289366 17:0 18:-0.0137573 19:0.00260239 20:0 21:1 22:0 23:0 24:0 25:0 26:0 27:0 28:0 29:0 30:0 31:0 32:0 33:0 34:0 35:0 
1 1:0 2:0.177778 3:0.017094 4:0.177778 5:0.0437735 6:-0.315841 7:-0.00516551 8:-0.0025261 9:-0.0475013 10:0.00128145 11:0.00357244 12:0.0221073 13:-0.0149475 14:0 15:0.0048917 16:0.00471629 17:0 18:-0.000750283 19:-0.00671981 20:0 21:1 22:0 23:1 24:0 25:0 26:0 27:0 28:0 29:0 30:0 31:0 32:0 33:0 34:0 35:0 
1 1:0 2:0.1 3:-6.93889e-018 4:0.1 5:0.0130167 6:-0.124388 7:-0.00347661 8:-0.0025261 9:-0.0416356 10:0.00890847 11:-0.00480468 12:0.00217649 13:-0.11694 14:0 15:0.00165974 16:0.00605498 17:0 18:0.010422 19:-0.00671981 20:0 21:1 22:1 23:0 24:0 25:0 26:0 27:1 28:0 29:0 30:0 31:0 32:0 33:0 34:0 35:1 
1 1:0 2:0.175325 3:-0.012987 4:0.175325 5:0.0106812 6:-0.411997 7:0.0137208 8:0.000253862 9:0.0814746 10:0.0037796 11:-0.00175902 12:-0.0117779 13:-0.0566333 14:0 15:0.00646052 16:-0.0060947 17:0 18:-0.0134431 19:-0.00405298 20:0 21:1 22:1 23:1 24:0 25:0 26:0 27:0 28:0 29:0 30:0 31:0 32:0 33:0 34:0 35:0 
1 1:0 2:0.231343 3:0.0149254 4:0.231343 5:0.0106812 6:-0.383378 7:-0.00174313 8:-0.0025261 9:0.0114878 10:0.0194542 11:-0.00268771 12:-0.00571812 13:0.0275719 14:0 15:0.0048917 16:0.000966796 17:0 18:0.00148102 19:-0.00405298 20:0 21:1 22:1 23:0 24:0 25:0 26:0 27:0 28:0 29:0 30:0 31:0 32:0 33:0 34:0 35:1 
1 1:0 2:0.139361 3:-0.00746578 4:0.139361 5:-0.00424959 6:-0.235364 7:-0.00516551 8:-0.00209975 9:-0.0585407 10:0.00890847 11:-0.0122162 12:0.0221073 13:-0.000376489 14:0 15:0.00646052 16:-0.00293144 17:0 18:-0.00848794 19:0.000347898 20:1 21:1 22:0 23:1 24:0 25:0 26:0 27:0 28:0 29:0 30:0 31:0 32:0 33:0 34:0 35:0 
1 1:0 2:0.11056 3:-0.0297661 4:0.11056 5:0.000589152 6:-0.167302 7:0.0161474 8:-0.00624256 9:-0.0547555 10:0.0194542 11:-0.00737899 12:-0.00279944 13:0.0119032 14:0 15:0.00331034 16:0.00605498 17:0 18:-0.00833983 19:0.00958784 20:0 21:1 22:1 23:0 24:0 25:0 26:0 27:0 28:0 29:0 30:0 31:0 32:0 33:0 34:0 35:1 
1 1:0 2:0.3 3:6.93889e-018 4:0.3 5:-0.00424959 6:-0.198098 7:0.0137208 8:0.0100182 9:-0.0525937 10:-0.00733484 11:-0.00268771 12:0.00155162 13:-0.0211511 14:0 15:-0.0106865 16:-0.00196836 17:0 18:0.00493781 19:0.00623806 20:1 21:1 22:0 23:0 24:0 25:0 26:0 27:0 28:0 29:0 30:0 31:0 32:0 33:0 34:0 35:0 
1 1:0 2:0.180412 3:-0.0103093 4:0.180412 5:-0.00118857 6:-0.198898 7:0.0161474 8:-0.0025261 9:-0.175282 10:0.0194542 11:0.00357244 12:0.0135939 13:-0.00998909 14:0 15:0.0121562 16:-0.0143477 17:0 18:0.00237332 19:-0.00405298 20:0 21:1 22:1 23:0 24:0 25:0 26:0 27:0 28:0 29:0 30:0 31:0 32:0 33:0 34:0 35:0 
1 1:0 2:0.101266 3:-0.039783 4:0.101266 5:-0.0102445 6:-0.177949 7:-0.013301 8:-0.00624256 9:-0.489861 10:0.0194542 11:-0.0122162 12:7.55969e-005 13:0.189733 14:0 15:0.00646052 16:-0.0060947 17:0 18:-0.0070838 19:-0.00671981 20:0 21:1 22:0 23:1 24:0 25:0 26:0 27:0 28:0 29:0 30:0 31:0 32:0 33:0 34:0 35:0 
1 1:0 2:0.19478 3:0.0267346 4:0.19478 5:0.0437735 6:-0.114892 7:0.00636562 8:-0.00459058 9:0.362193 10:-0.00733484 11:0.0136848 12:0.0221073 13:-0.0129143 14:0 15:-0.0106865 16:-0.00483205 17:1 18:-0.0157476 19:0.00623806 20:0 21:1 22:0 23:0 24:0 25:0 26:0 27:0 28:0 29:0 30:0 31:0 32:0 33:1 34:0 35:0 
1 1:0 2:0.196137 3:0.0267459 4:0.196137 5:0.00737457 6:-0.135376 7:0.00636562 8:-0.0025261 9:0.569906 10:0.00128145 11:0.00732539 12:-0.0105182 13:-0.0416052 14:0 15:-0.00492854 16:-0.00360034 17:0 18:0.0294195 19:0.000369551 20:0 21:1 22:0 23:0 24:0 25:0 26:0 27:0 28:0 29:0 30:0 31:0 32:0 33:0 34:0 35:0 
1 1:0 2:0.209205 3:-0.0179319 4:0.209205 5:0.0437735 6:-0.282378 7:0.0161474 8:-0.000155678 9:-0.0949633 10:-0.00273061 11:-0.0122162 12:-0.00279944 13:-0.00188654 14:0 15:-0.00530999 16:0.0289366 17:0 18:0.00104586 19:0.00958784 20:1 21:2 22:1 23:0 24:0 25:0 26:0 27:0 28:0 29:0 30:1 31:0 32:0 33:0 34:0 35:0 
1 1:0 2:0.20284 3:-0.020284 4:0.20284 5:0.00737457 6:-0.148819 7:0.00857851 8:0.0044492 9:0.0251061 10:0.0100219 11:-0.00268771 12:0.0221073 13:0.00286775 14:0 15:-0.00530999 16:-0.00124075 17:0 18:-0.0166051 19:0.0138395 20:1 21:1 22:0 23:0 24:0 25:0 26:0 27:0 28:0 29:0 30:0 31:1 32:0 33:0 34:0 35:0 
1 1:0 2:0.152778 3:-0.0277778 4:0.152778 5:0.0129942 6:-0.309856 7:-0.00680823 8:-0.00332417 9:-0.0977775 10:-0.00381029 11:0.0136848 12:-0.00571812 13:-0.00450274 14:0 15:-0.00251503 16:0.0289366 17:0 18:-0.00214886 19:0.000803702 20:0 21:1 22:1 23:0 24:0 25:0 26:0 27:0 28:0 29:0 30:0 31:1 32:1 33:0 34:0 35:0 
1 1:0 2:0.283186 3:0.0126422 4:0.283186 5:0.00115378 6:-0.428807 7:-0.00737515 8:0.00111369 9:-0.122121 10:-0.00381029 11:-0.00268771 12:-0.00317909 13:-0.0770533 14:0 15:-0.00530999 16:-0.00124075 17:0 18:0.0227274 19:0.000803702 20:0 21:1 22:1 23:0 24:0 25:0 26:0 27:0 28:0 29:0 30:0 31:0 32:1 33:0 34:1 35:0 
1 1:0 2:0.515152 3:0.121212 4:0.515152 5:-0.00573529 6:-0.267982 7:-0.00516551 8:0.0100182 9:-0.242774 10:-0.00332328 11:0.00357244 12:0.00155162 13:-0.0694772 14:0 15:-0.00349054 16:-0.0143477 17:0 18:0.0268378 19:0.000369551 20:0 21:1 22:0 23:0 24:0 25:0 26:0 27:0 28:0 29:0 30:0 31:0 32:0 33:0 34:0 35:0 
1 1:0 2:0.146565 3:-0.0305344 4:0.146565 5:0.0106812 6:-0.38659 7:-0.00680823 8:0.0101539 9:-0.0470777 10:0.0194542 11:0.0141877 12:-0.00571812 13:0.0954535 14:0 15:0.00646052 16:-0.0143477 17:0 18:-0.00603811 19:-0.00405298 20:0 21:1 22:1 23:0 24:0 25:0 26:0 27:0 28:0 29:0 30:0 31:0 32:0 33:0 34:0 35:0 
1 1:0 2:0.576577 3:0.0900901 4:0.576577 5:0.0129942 6:-0.53282 7:0.0105849 8:0.0101539 9:0.000379904 10:0.00890847 11:-0.0122162 12:7.55969e-005 13:-0.233964 14:0 15:0.0121562 16:-0.00479611 17:0 18:0.0247608 19:0.000803702 20:0 21:2 22:0 23:1 24:0 25:0 26:0 27:1 28:0 29:0 30:0 31:0 32:0 33:0 34:0 35:0 
1 1:0 2:0.410962 3:0.0163658 4:0.410962 5:-0.00424959 6:-0.583831 7:0.00636562 8:0.0044492 9:0.124093 10:0.00180655 11:-0.00268771 12:0.0135939 13:-0.0379798 14:0 15:-0.00251503 16:0.00443894 17:0 18:-0.00645562 19:0.00276726 20:0 21:1 22:0 23:0 24:0 25:0 26:0 27:1 28:0 29:0 30:0 31:0 32:0 33:0 34:0 35:0 
1 1:0 2:0.258421 3:0.0563225 4:0.258421 5:0.0130167 6:-0.200623 7:0.00305708 8:-0.0025261 9:0.0856316 10:-0.0025074 11:-0.00198275 12:-0.00615216 13:0.0448917 14:0 15:-0.00588288 16:-0.0042043 17:0 18:-0.00444392 19:-0.00175629 20:0 21:1 22:0 23:0 24:0 25:0 26:0 27:1 28:0 29:0 30:0 31:0 32:0 33:0 34:0 35:0 
1 1:0 2:0.464904 3:0.0698876 4:0.464904 5:-0.0181781 6:-0.705569 7:-0.00516551 8:0.0101539 9:-0.975926 10:0.0194542 11:-0.00198275 12:0.0023707 13:0.130594 14:1 15:-0.00530999 16:-0.00382903 17:0 18:-0.0247399 19:-0.00405298 20:0 21:1 22:1 23:0 24:0 25:0 26:0 27:1 28:0 29:0 30:0 31:0 32:0 33:0 34:0 35:0 
1 1:0 2:0.891892 3:0.216216 4:0.891892 5:0.0437735 6:-1.36114 7:0.00636562 8:-0.0025261 9:0.125465 10:-0.00123088 11:-0.000258585 12:-0.00279944 13:-0.0320246 14:0 15:0.00646052 16:-0.00360034 17:0 18:-0.0137794 19:0.00220689 20:0 21:1 22:0 23:0 24:0 25:0 26:0 27:1 28:0 29:0 30:0 31:0 32:0 33:0 34:0 35:0 
1 1:0 2:0.0813953 3:-0.0697674 4:0.0813953 5:0.0437735 6:-0.232283 7:0.00636562 8:-0.00209975 9:0.0276775 10:0.00890847 11:0.0136848 12:-0.00571812 13:-0.116466 14:0 15:-0.00530999 16:-0.00483205 17:0 18:0.00309635 19:0.00272342 20:0 21:2 22:2 23:0 24:0 25:0 26:0 27:0 28:0 29:0 30:0 31:0 32:0 33:0 34:0 35:0 
1 1:0 2:0.603604 3:0.144144 4:0.603604 5:-0.0058672 6:-0.811151 7:-0.00166005 8:0.0100182 9:0.00497784 10:-0.00273061 11:-0.000258585 12:0.00217649 13:-0.111677 14:0 15:-0.00530999 16:-0.00479611 17:0 18:0.0148355 19:-0.00671981 20:0 21:1 22:0 23:0 24:0 25:0 26:0 27:0 28:0 29:0 30:0 31:0 32:0 33:0 34:0 35:0 
1 1:0 2:0.482861 3:0.0745156 4:0.482861 5:0.00737457 6:-0.36832 7:0.0105849 8:0.0101539 9:-0.0528284 10:-0.00273061 11:0.0136848 12:-0.00279944 13:-0.0803881 14:0 15:0.00165974 16:0.0289366 17:0 18:0.0271752 19:0.000369551 20:0 21:1 22:1 23:0 24:0 25:0 26:0 27:0 28:0 29:0 30:0 31:0 32:0 33:0 34:0 35:0 
1 1:0 2:0.605341 3:0.195846 4:0.605341 5:-0.00118857 6:-0.829741 7:0.00140932 8:-0.0025261 9:-0.54267 10:0.0100219 11:-0.00185013 12:0.00217649 13:0.0496319 14:0 15:-0.00036086 16:-0.00293144 17:0 18:0.0217079 19:0.000369551 20:0 21:1 22:0 23:0 24:0 25:0 26:0 27:0 28:0 29:0 30:1 31:0 32:0 33:1 34:0 35:0 
1 1:0 2:0.0857679 3:-0.115251 4:0.0857679 5:-0.00118857 6:-0.1999 7:0.0137208 8:-0.000155678 9:-0.123263 10:-0.000769924 11:-0.00268771 12:-0.00279944 13:0.0001557 14:1 15:-0.00530999 16:-0.00293144 17:0 18:-0.012047 19:0.00272342 20:0 21:1 22:0 23:0 24:0 25:0 26:0 27:0 28:0 29:0 30:0 31:0 32:0 33:0 34:0 35:0 
1 1:0 2:0.515152 3:0.121212 4:0.515152 5:-0.0102445 6:-1.17432 7:0.00140932 8:-0.00624256 9:-0.690146 10:-0.00286363 11:0.00388373 12:0.00155162 13:0.126901 14:0 15:0.0048917 16:-0.00483205 17:0 18:-0.0165761 19:0.000347898 20:0 21:1 22:0 23:0 24:1 25:0 26:0 27:0 28:0 29:0 30:0 31:0 32:0 33:0 34:0 35:0 
1 1:0 2:0.0252207 3:-0.130307 4:0.0252207 5:0.0129942 6:0.174257 7:-0.0196727 8:-0.0025261 9:-0.122762 10:0.0194542 11:0.025567 12:0.0221073 13:0.0822153 14:0 15:0.0048917 16:-0.00293144 17:0 18:0.0151669 19:0.0138395 20:0 21:1 22:1 23:0 24:0 25:0 26:1 27:0 28:0 29:0 30:0 31:0 32:0 33:0 34:0 35:0 
1 1:0 2:0.462979 3:0.0374665 4:0.462979 5:0.0437735 6:-0.306414 7:-0.00737515 8:-0.0025261 9:0.0697636 10:-0.00332328 11:-0.00268771 12:0.0135939 13:-0.028351 14:0 15:0.00574903 16:-0.00124075 17:0 18:-0.00649181 19:0.00623806 20:0 21:1 22:0 23:1 24:0 25:0 26:0 27:0 28:0 29:0 30:0 31:0 32:0 33:0 34:0 35:0 
1 1:0 2:0.130137 3:-0.0410959 4:0.130137 5:0.0437735 6:-0.250458 7:0.0105849 8:0.0101539 9:-0.163749 10:-0.000710021 11:0.00357244 12:0.00217649 13:0.00456888 14:0 15:0.00165974 16:-0.0060947 17:0 18:-0.0118063 19:0.00260239 20:1 21:1 22:0 23:0 24:0 25:0 26:0 27:0 28:0 29:0 30:0 31:0 32:0 33:0 34:0 35:0 
1 1:0 2:0.383489 3:0.069241 4:0.383489 5:-0.0146811 6:-0.152921 7:0.00857851 8:0.0184523 9:0.0102077 10:0.0037796 11:0.00357244 12:-0.00109699 13:-0.0105605 14:0 15:0.0121562 16:0.00605498 17:0 18:-0.00875382 19:0.00623806 20:0 21:1 22:2 23:0 24:0 25:0 26:0 27:0 28:1 29:0 30:0 31:0 32:0 33:0 34:0 35:0 
1 1:0 2:0.102139 3:-0.044522 4:0.102139 5:-0.0181781 6:-0.112978 7:0.00140932 8:0.000578213 9:0.165254 10:-0.00325732 11:0.00357244 12:0.00155162 13:-0.0364078 14:0 15:-0.00251503 16:-0.00483205 17:0 18:0.01611 19:-0.00601379 20:0 21:1 22:0 23:0 24:0 25:0 26:0 27:0 28:0 29:0 30:0 31:0 32:0 33:1 34:0 35:0 
1 1:0 2:0.391439 3:0.011276 4:0.391439 5:0.0130167 6:-0.397029 7:0.0105849 8:0.0101539 9:0.14625 10:-0.00733484 11:-0.00268771 12:0.0221073 13:0.00726304 14:0 15:-0.00492397 16:-0.00347876 17:0 18:-0.00493799 19:0.00958784 20:0 21:1 22:0 23:0 24:0 25:0 26:0 27:1 28:0 29:0 30:0 31:0 32:0 33:0 34:0 35:0 
1 1:0 2:0.384134 3:0.0751566 4:0.384134 5:-0.00118857 6:-0.368276 7:-0.000966364 8:-0.00624256 9:-0.0145034 10:-0.00332328 11:0.0136848 12:0.00677998 13:-0.0529332 14:0 15:0.000310067 16:0.0289366 17:0 18:-0.0184182 19:0.00276726 20:0 21:1 22:0 23:0 24:0 25:0 26:0 27:0 28:0 29:0 30:0 31:0 32:0 33:0 34:0 35:0 
1 1:0 2:0.156716 3:-0.0149254 4:0.156716 5:0.0437735 6:-0.0551127 7:0.0105849 8:0.000578213 9:0.0874924 10:-0.00381029 11:0.00357244 12:0.00217649 13:-0.0138409 14:0 15:-0.00251503 16:-0.00479611 17:0 18:0.00344649 19:-0.00405298 20:0 21:1 22:1 23:0 24:0 25:0 26:0 27:0 28:0 29:0 30:0 31:0 32:0 33:0 34:0 35:0 
1 1:0 2:0.145107 3:-0.0607424 4:0.145107 5:0.0129942 6:-0.071991 7:0.00140932 8:-0.0025261 9:-0.306325 10:-0.00335283 11:-0.037011 12:0.0221073 13:-0.167024 14:0 15:0.00646052 16:-0.00360034 17:0 18:0.0117874 19:0.00272342 20:0 21:1 22:0 23:0 24:0 25:0 26:0 27:0 28:0 29:0 30:0 31:0 32:0 33:0 34:0 35:0 
1 1:0 2:0.260263 3:0.0604183 4:0.260263 5:0.00737457 6:-0.391502 7:-0.0196727 8:0.0044492 9:-0.155841 10:-0.0025074 11:0.00732539 12:-0.00279944 13:0.0799334 14:0 15:0.0142631 16:-0.0060947 17:0 18:-0.00300704 19:-0.00175629 20:0 21:1 22:0 23:0 24:0 25:0 26:0 27:0 28:1 29:0 30:0 31:0 32:0 33:0 34:0 35:0 
1 1:0 2:0.211405 3:0.00556328 4:0.211405 5:0.00737457 6:-0.456143 7:-0.013301 8:0.000578213 9:-0.670018 10:-0.00381029 11:-0.000258585 12:0.0221073 13:0.0253087 14:0 15:-0.00251503 16:-0.00196836 17:0 18:-0.0121702 19:0.00958784 20:0 21:1 22:0 23:0 24:0 25:0 26:0 27:1 28:2 29:0 30:0 31:0 32:0 33:1 34:0 35:1 
1 1:0 2:0.60989 3:0.0659341 4:0.60989 5:0.0129942 6:-0.765162 7:0.0161474 8:-0.0025261 9:-0.0906603 10:0.0194542 11:-0.0122162 12:0.00677998 13:-0.145505 14:0 15:0.0048917 16:-0.00483205 17:0 18:-0.00555176 19:-0.00405298 20:0 21:2 22:2 23:0 24:0 25:0 26:0 27:0 28:1 29:0 30:0 31:0 32:0 33:0 34:0 35:0 
1 1:0 2:0.144242 3:-0.00232648 4:0.144242 5:0.00115378 6:-0.130949 7:-0.00166005 8:0.0100182 9:0.519138 10:-0.00286363 11:-0.0122162 12:-0.00571812 13:0.00276931 14:0 15:0.0142631 16:-0.00483205 17:0 18:0.00660507 19:-0.00405298 20:0 21:1 22:1 23:1 24:0 25:0 26:0 27:0 28:0 29:0 30:0 31:0 32:0 33:0 34:0 35:0 
1 1:0 2:0.869565 3:0.186335 4:0.869565 5:-0.00118857 6:-1.09726 7:-0.013301 8:0.0100182 9:-0.297879 10:0.0194542 11:0.0136848 12:0.00155162 13:0.0175962 14:0 15:-0.00530999 16:-0.00483205 17:0 18:-0.00372161 19:-0.00405298 20:0 21:1 22:1 23:0 24:0 25:0 26:0 27:0 28:0 29:0 30:1 31:0 32:0 33:0 34:0 35:0 
1 1:0 2:0.166915 3:-0.0178838 4:0.166915 5:-0.00424959 6:-0.133053 7:0.000868714 8:0.000253862 9:0.142543 10:-0.00325732 11:0.0136848 12:0.0023707 13:-0.0692606 14:0 15:-0.00349054 16:-0.0143477 17:0 18:-0.0101738 19:-0.00405298 20:0 21:1 22:2 23:0 24:0 25:0 26:0 27:0 28:1 29:0 30:0 31:0 32:0 33:0 34:0 35:0 
1 1:0 2:0.258832 3:0.00349773 4:0.258832 5:-0.0058672 6:-0.339946 7:-0.0196727 8:0.0184523 9:0.125335 10:-0.000769924 11:0.00357244 12:0.0221073 13:-0.0441868 14:0 15:-0.0106865 16:-0.00483205 17:0 18:-0.00247974 19:-0.00405298 20:0 21:1 22:3 23:0 24:0 25:0 26:0 27:0 28:1 29:0 30:0 31:0 32:0 33:0 34:0 35:0 
1 1:0 2:0.318525 3:0.0251467 4:0.318525 5:-0.0181781 6:-0.306412 7:0.0161474 8:-0.0102524 9:-0.132146 10:0.0100219 11:-0.00268771 12:0.0221073 13:-0.0440354 14:0 15:-0.00790929 16:-0.00196836 17:0 18:0.00501395 19:0.00958784 20:1 21:1 22:1 23:0 24:0 25:0 26:0 27:0 28:0 29:0 30:0 31:0 32:0 33:0 34:0 35:0 
1 1:0 2:0.101266 3:-0.039783 4:0.101266 5:0.0437735 6:-0.0716219 7:0.00305708 8:-0.0025261 9:0.069952 10:0.0194542 11:-0.0122162 12:0.00677998 13:0.000853135 14:0 15:0.00646052 16:-0.00382903 17:0 18:-0.00657011 19:0.00623806 20:0 21:1 22:0 23:1 24:0 25:0 26:0 27:0 28:0 29:0 30:0 31:0 32:0 33:0 34:0 35:0 
1 1:0 2:0.0813008 3:-0.0813008 4:0.0813008 5:0.0130167 6:-0.139058 7:0.00857851 8:-0.00624256 9:0.177643 10:-0.000769924 11:0.0136848 12:0.0135939 13:-0.0901716 14:1 15:0.0048917 16:0.00605498 17:0 18:-0.000302893 19:0.00272342 20:0 21:1 22:0 23:0 24:0 25:0 26:0 27:1 28:0 29:0 30:0 31:0 32:0 33:2 34:0 35:0 
1 1:0 2:0.288288 3:0.036036 4:0.288288 5:-0.0058672 6:-0.277106 7:0.0161474 8:0.0101539 9:-0.0322488 10:-0.00325732 11:-0.00268771 12:-0.00317909 13:-0.155844 14:0 15:0.00165974 16:0.00605498 17:0 18:-0.00544281 19:-0.00405298 20:0 21:1 22:1 23:0 24:0 25:0 26:0 27:0 28:0 29:0 30:0 31:0 32:0 33:1 34:0 35:0 
1 1:0 2:0.29259 3:0.0721976 4:0.29259 5:0.0130167 6:-0.640632 7:-0.013301 8:0.000578213 9:-0.17984 10:0.0100219 11:0.00357244 12:0.00155162 13:0.0571439 14:0 15:0.0048917 16:0.00471629 17:0 18:-0.0146923 19:-0.00405298 20:0 21:1 22:1 23:0 24:0 25:0 26:0 27:1 28:0 29:0 30:0 31:0 32:0 33:0 34:0 35:0 
1 1:0 2:0.360947 3:0.0473373 4:0.360947 5:-0.0102445 6:-0.485774 7:0.00857851 8:0.0184523 9:-0.0784602 10:-0.00325732 11:-0.000258585 12:0.0221073 13:0.00773215 14:0 15:0.00165974 16:0.00471629 17:0 18:-0.00908067 19:0.00958784 20:0 21:1 22:1 23:0 24:0 25:0 26:0 27:0 28:0 29:0 30:0 31:0 32:0 33:1 34:0 35:0 
1 1:0 2:0.244243 3:-0.00232612 4:0.244243 5:-0.00118857 6:-0.240786 7:0.00857851 8:0.00263785 9:-0.191737 10:-0.00381029 11:0.0141877 12:-0.0117779 13:-0.0548254 14:0 15:-0.00530999 16:0.0289366 17:0 18:0.0207597 19:0.000369551 20:0 21:1 22:0 23:0 24:0 25:0 26:0 27:1 28:0 29:0 30:0 31:0 32:0 33:0 34:0 35:0 
1 1:1 2:0.256098 3:0.0243902 4:0.256098 5:0.0130167 6:-0.55274 7:0.000868714 8:-0.00630459 9:-0.134705 10:-0.00123088 11:0.00357244 12:0.0135939 13:0.0508586 14:0 15:0.0048917 16:-0.00483205 17:0 18:-0.0201047 19:-0.00553567 20:0 21:1 22:0 23:0 24:1 25:0 26:0 27:1 28:0 29:0 30:0 31:0 32:0 33:0 34:0 35:0 
1 1:0 2:0.219626 3:0.00934579 4:0.219626 5:-0.00573529 6:-0.23976 7:-0.00737515 8:0.0100182 9:-0.272313 10:-0.00335283 11:-0.00268771 12:-0.00317909 13:0.151797 14:0 15:0.0121562 16:0.0289366 17:0 18:-0.00443844 19:-0.00405298 20:0 21:1 22:1 23:0 24:1 25:0 26:0 27:1 28:0 29:0 30:0 31:0 32:0 33:0 34:0 35:0 
1 1:0 2:0.14096 3:-0.0061287 4:0.14096 5:-0.00118857 6:-0.07803 7:0.0137208 8:-0.0025261 9:-0.153115 10:0.0194542 11:0.0136848 12:0.00155162 13:0.139965 14:0 15:0.0048917 16:-0.00360034 17:0 18:-0.0118527 19:-0.00405298 20:0 21:1 22:2 23:0 24:0 25:0 26:0 27:0 28:0 29:0 30:0 31:0 32:0 33:1 34:0 35:0 
1 1:0 2:0.124107 3:-0.0203084 4:0.124107 5:0.0130167 6:-0.109379 7:-0.013301 8:0.0044492 9:-0.0683506 10:0.0100219 11:0.0141877 12:0.0221073 13:-0.0362842 14:0 15:0.00165974 16:-0.00483205 17:0 18:-0.000258252 19:-0.00671981 20:0 21:1 22:0 23:0 24:0 25:0 26:0 27:1 28:0 29:0 30:0 31:0 32:0 33:0 34:0 35:0 
1 1:0 2:0.168337 3:0.012024 4:0.168337 5:0.0129942 6:-0.226202 7:0.00857851 8:-0.00624256 9:-0.0727666 10:-0.00273061 11:-0.00737899 12:0.0135939 13:-0.0232409 14:0 15:0.0121562 16:-0.00483205 17:0 18:0.00392729 19:0.0138395 20:0 21:1 22:1 23:0 24:0 25:0 26:0 27:0 28:0 29:0 30:0 31:0 32:1 33:0 34:0 35:0 
1 1:0 2:0.23845 3:0.0178838 4:0.23845 5:-0.00118857 6:-0.387996 7:0.00305708 8:-0.0102524 9:0.0262816 10:0.00890847 11:-0.00268771 12:-0.0117779 13:-0.0441612 14:0 15:0.0121562 16:0.00605498 17:0 18:0.00786778 19:-0.00405298 20:0 21:1 22:2 23:0 24:0 25:0 26:0 27:0 28:0 29:0 30:0 31:0 32:0 33:0 34:0 35:0 
1 1:0 2:0.255215 3:0.0245399 4:0.255215 5:0.0130167 6:-0.11066 7:0.00140932 8:-0.00624256 9:-0.148978 10:-0.00332328 11:0.00232889 12:0.00155162 13:-0.217601 14:0 15:0.0012351 16:0.00252779 17:0 18:-0.010455 19:-0.00405298 20:0 21:1 22:1 23:0 24:0 25:0 26:0 27:1 28:0 29:0 30:0 31:0 32:0 33:0 34:0 35:0 
1 1:0 2:0.160643 3:-0.0401606 4:0.160643 5:-0.0102445 6:-0.0135453 7:-0.013301 8:0.0044492 9:0.156137 10:-0.00476114 11:0.00388373 12:0.00677998 13:-0.0768862 14:0 15:-0.00492854 16:0.0289366 17:0 18:-0.00840242 19:0.0138395 20:0 21:2 22:1 23:0 24:0 25:0 26:0 27:0 28:0 29:1 30:0 31:0 32:0 33:0 34:0 35:0 
1 1:0 2:0.421844 3:0.0353172 4:0.421844 5:-0.00118857 6:-0.516612 7:0.0137208 8:0.0044492 9:0.0669878 10:-0.00733484 11:-0.00185013 12:-0.00109699 13:0.0210895 14:0 15:0.00646052 16:-0.00347876 17:0 18:-0.00488432 19:0.00220689 20:0 21:1 22:0 23:1 24:0 25:0 26:1 27:0 28:0 29:0 30:0 31:0 32:0 33:0 34:0 35:0 
1 1:1 2:0.52151 3:0.163301 4:0.52151 5:-0.00174828 6:-0.750725 7:-0.00516551 8:0.0101539 9:-0.16787 10:0.00128145 11:0.00388373 12:0.0135939 13:0.0481598 14:0 15:0.0048917 16:0.00471629 17:0 18:-0.0192319 19:-0.013254 20:0 21:1 22:0 23:0 24:1 25:0 26:0 27:0 28:0 29:0 30:0 31:0 32:0 33:0 34:0 35:0 
1 1:0 2:0.10241 3:-0.0361446 4:0.10241 5:0.0129942 6:0.0429453 7:-0.00166005 8:0.0101539 9:0.302727 10:-0.00335283 11:-0.00185013 12:-0.000874371 13:0.100806 14:0 15:0.0121562 16:-0.00347876 17:0 18:0.0099835 19:0.00958784 20:0 21:1 22:0 23:0 24:0 25:0 26:0 27:0 28:0 29:0 30:0 31:0 32:0 33:0 34:0 35:1 
1 1:0 2:0.124138 3:-0.0188088 4:0.124138 5:0.00737457 6:-0.0975883 7:0.0161474 8:0.00263785 9:0.0455955 10:-0.000710021 11:-0.00268771 12:0.00155162 13:-0.0115212 14:0 15:-0.000517298 16:-0.00124075 17:0 18:0.0135198 19:-0.00671981 20:0 21:1 22:0 23:0 24:0 25:0 26:0 27:0 28:0 29:1 30:0 31:0 32:0 33:0 34:0 35:1 
1 1:0 2:0.381579 3:0.0789474 4:0.381579 5:-0.0102445 6:-0.411858 7:0.0105849 8:0.0101539 9:0.0935137 10:-0.00325732 11:0.00388373 12:0.00217649 13:0.0674296 14:0 15:-0.00492854 16:-0.0060947 17:0 18:0.00312092 19:0.0138395 20:0 21:2 22:0 23:0 24:0 25:0 26:0 27:0 28:0 29:0 30:0 31:0 32:0 33:0 34:0 35:0 
1 1:0 2:0.352049 3:0.0343022 4:0.352049 5:-0.00118857 6:-0.41929 7:-0.00680823 8:-0.00332417 9:-0.171781 10:0.0037796 11:-0.00175902 12:-0.00279944 13:-0.0903885 14:0 15:0.0142631 16:-0.00196836 17:0 18:0.0050932 19:-0.00601379 20:0 21:1 22:0 23:0 24:0 25:0 26:0 27:0 28:0 29:0 30:0 31:0 32:0 33:1 34:0 35:0 
1 1:0 2:0.125353 3:-0.0101637 4:0.125353 5:-0.0146811 6:0.000909468 7:0.0161474 8:-0.0025261 9:0.658745 10:0.0037796 11:0.025567 12:-0.00109699 13:0.0412359 14:0 15:-0.00492854 16:0.0289366 17:0 18:0.000843482 19:-0.00405298 20:0 21:1 22:1 23:0 24:0 25:0 26:0 27:0 28:0 29:0 30:0 31:0 32:0 33:0 34:0 35:0 
1 1:0 2:0.619588 3:0.0809084 4:0.619588 5:0.0437735 6:-0.627564 7:0.00636562 8:0.0101539 9:-0.278834 10:-0.00273061 11:0.00732539 12:0.00155162 13:-0.13525 14:0 15:0.00574903 16:-0.0060947 17:0 18:0.0363908 19:0.000803702 20:0 21:1 22:0 23:0 24:0 25:0 26:0 27:0 28:0 29:0 30:0 31:0 32:0 33:0 34:0 35:0 
1 1:0 2:0.187132 3:-0.0302976 4:0.187132 5:-0.00118857 6:-0.213358 7:0.0161474 8:-0.00209975 9:-0.280202 10:-0.00273061 11:0.00357244 12:0.0221073 13:-0.0912859 14:0 15:-0.00251503 16:-0.00483205 17:0 18:0.0152474 19:-0.013254 20:0 21:2 22:0 23:0 24:0 25:0 26:1 27:1 28:0 29:0 30:0 31:0 32:0 33:0 34:0 35:0 
1 1:0 2:0.084014 3:-0.0303384 4:0.084014 5:0.0129942 6:-0.179993 7:0.00857851 8:0.0184523 9:0.59323 10:-0.00325732 11:0.00732539 12:0.0221073 13:-0.360036 14:0 15:-0.0106865 16:0.00443894 17:0 18:-0.00701336 19:-0.00405298 20:0 21:1 22:1 23:1 24:0 25:0 26:0 27:0 28:0 29:0 30:0 31:0 32:0 33:0 34:0 35:0 
1 1:0 2:0.338129 3:0.057554 4:0.338129 5:-0.00855676 6:-0.340925 7:0.0137208 8:0.0044492 9:-0.164192 10:0.0037796 11:0.025567 12:0.00217649 13:0.00817945 14:0 15:0.0048917 16:0.00471629 17:0 18:-0.0218733 19:0.00623806 20:0 21:1 22:0 23:0 24:0 25:0 26:0 27:0 28:0 29:0 30:0 31:0 32:0 33:0 34:0 35:0 
1 1:0 2:0.143187 3:-0.00461894 4:0.143187 5:0.0129942 6:-0.102658 7:0.0105849 8:-0.0025261 9:-0.155762 10:-0.00733484 11:0.0141877 12:-0.00317909 13:-0.143455 14:0 15:-0.00790929 16:-0.0060947 17:1 18:0.0183443 19:-0.00553567 20:0 21:1 22:1 23:1 24:0 25:0 26:0 27:0 28:1 29:0 30:0 31:1 32:0 33:0 34:0 35:0 
1 1:0 2:0.164682 3:0.0093216 4:0.164682 5:0.00737457 6:-0.717893 7:-0.00516551 8:0.0101539 9:-0.281171 10:0.0037796 11:-0.00268771 12:0.0221073 13:0.0709866 14:0 15:0.0121562 16:-0.0143477 17:0 18:-0.0203467 19:0.000347898 20:0 21:1 22:1 23:0 24:0 25:0 26:0 27:0 28:0 29:0 30:1 31:0 32:0 33:1 34:0 35:0 
1 1:0 2:0.246073 3:0.0209424 4:0.246073 5:0.00737457 6:-0.327218 7:0.0161474 8:-0.00566043 9:-0.152572 10:-0.00335283 11:-0.00737899 12:-0.00571812 13:-0.0162455 14:0 15:-0.00492854 16:0.0289366 17:0 18:0.00504142 19:0.000369551 20:0 21:1 22:0 23:0 24:0 25:0 26:0 27:1 28:0 29:0 30:1 31:0 32:0 33:0 34:0 35:0 
1 1:0 2:0.0601504 3:-0.0902256 4:0.0601504 5:0.0106812 6:-0.201131 7:0.00305708 8:-0.0025261 9:-0.143553 10:-0.00332328 11:-0.00480468 12:-0.00255595 13:-0.0195531 14:0 15:-0.00343388 16:0.0289366 17:0 18:0.0224328 19:0.0138395 20:0 21:2 22:0 23:0 24:0 25:0 26:0 27:0 28:0 29:0 30:0 31:0 32:0 33:0 34:0 35:0 
1 1:0 2:0.23796 3:0.0509915 4:0.23796 5:0.0106812 6:-0.120258 7:0.00636562 8:0.0100182 9:-0.0829198 10:-0.000710021 11:-0.000258585 12:-0.0105182 13:0.0308103 14:0 15:-0.00790929 16:-0.00483205 17:1 18:-0.00389832 19:-0.00553567 20:0 21:1 22:0 23:0 24:0 25:0 26:0 27:0 28:0 29:0 30:1 31:0 32:0 33:1 34:0 35:0 
1 1:0 2:0.00715564 3:-0.078712 4:0.00715564 5:0.00737457 6:-0.090407 7:0.0137208 8:-0.0025261 9:0.563969 10:0.00890847 11:0.00232889 12:-0.00571812 13:0.0379055 14:0 15:-0.00530999 16:-0.00483205 17:0 18:-8.19369e-005 19:0.00272342 20:0 21:1 22:1 23:0 24:0 25:0 26:0 27:0 28:0 29:0 30:0 31:0 32:0 33:0 34:0 35:0 
1 1:0 2:0.150754 3:-0.0502513 4:0.150754 5:0.0437735 6:-0.155623 7:-0.013301 8:-0.0025261 9:-0.053363 10:0.0194542 11:-0.00268771 12:-0.00223244 13:-0.0781943 14:1 15:-0.00492854 16:-0.0060947 17:0 18:-0.011584 19:-0.013254 20:0 21:1 22:0 23:1 24:0 25:0 26:0 27:0 28:0 29:0 30:0 31:0 32:0 33:0 34:0 35:0 
1 1:0 2:0.437255 3:0.0392157 4:0.437255 5:-0.0102445 6:-0.623365 7:-0.013301 8:0.0101539 9:-0.361362 10:0.0194542 11:-0.00268771 12:0.0135939 13:0.00836732 14:0 15:-0.00790929 16:-0.00479611 17:0 18:-0.0123983 19:0.00623806 20:0 21:1 22:0 23:0 24:0 25:0 26:0 27:0 28:1 29:0 30:0 31:0 32:0 33:0 34:0 35:0 
-1 1:0 2:0.255663 3:0.00224266 4:0.255663 5:-0.0181781 6:-0.200276 7:0.00636562 8:-0.0102524 9:0.0901655 10:-0.00325732 11:-0.00198275 12:0.00677998 13:-0.00627665 14:0 15:-7.70143e-005 16:-0.00293144 17:0 18:-0.00110829 19:0.00623806 20:0 21:1 22:0 23:0 24:0 25:0 26:0 27:0 28:0 29:0 30:0 31:0 32:0 33:0 34:0 35:0 
-1 1:0 2:0.475751 3:0.143187 4:0.475751 5:-0.0146811 6:-0.436205 7:-0.000966364 8:-0.0025261 9:0.198794 10:-0.00123088 11:0.00388373 12:-0.00571812 13:-0.111929 14:0 15:-7.70143e-005 16:-0.00483205 17:0 18:-0.0249036 19:-0.00405298 20:0 21:1 22:1 23:1 24:0 25:0 26:0 27:0 28:0 29:0 30:0 31:0 32:0 33:0 34:0 35:0 
-1 1:0 2:0.176829 3:-0.0121951 4:0.176829 5:-0.00644929 6:-0.18907 7:-0.0196727 8:-0.0102524 9:0.247869 10:-0.00325732 11:0.00732539 12:7.55969e-005 13:-0.0585034 14:0 15:0.0142631 16:0.0289366 17:0 18:-0.0139929 19:-0.00601379 20:0 21:1 22:0 23:0 24:0 25:0 26:0 27:0 28:0 29:0 30:0 31:0 32:0 33:1 34:0 35:0 
-1 1:0 2:0.562321 3:0.0490915 4:0.562321 5:-0.00855676 6:-0.771553 7:0.0105849 8:0.0101539 9:-0.479834 10:-0.0025074 11:-0.0122162 12:-0.00615216 13:0.0790892 14:1 15:-0.00251503 16:-0.0042043 17:0 18:-0.0108013 19:-0.00175629 20:0 21:1 22:0 23:1 24:0 25:0 26:0 27:1 28:0 29:0 30:0 31:0 32:0 33:0 34:0 35:0 
-0.06226788850139051 1:0 2:0.315654 3:0.00513259 4:0.315654 5:-0.0181781 6:-0.906977 7:0.0105849 8:0.0101539 9:-0.571384 10:0.00890847 11:-0.037011 12:0.00677998 13:0.0156791 14:0 15:0.0048917 16:0.00443894 17:0 18:0.00493927 19:0.00272342 20:0 21:1 22:0 23:1 24:0 25:0 26:0 27:0 28:2 29:0 30:0 31:0 32:0 33:0 34:0 35:0 
-1 1:0 2:0.469757 3:0.0373092 4:0.469757 5:-0.00855852 6:-0.527947 7:-0.00737515 8:-0.0102524 9:0.164594 10:-0.00733484 11:-0.00148109 12:-0.000334465 13:0.0190668 14:0 15:0.00646052 16:0.00732772 17:0 18:0.00602302 19:-0.00601379 20:0 21:2 22:0 23:0 24:1 25:0 26:0 27:1 28:0 29:1 30:0 31:0 32:0 33:1 34:0 35:0 
-1 1:0 2:-0.100661 3:-0.154137 4:-0.100661 5:-0.0181781 6:0.141783 7:0.00140932 8:-0.00459058 9:-0.174539 10:-0.000769924 11:0.0136848 12:0.0023707 13:-0.109032 14:0 15:-0.000517298 16:-0.00196836 17:0 18:0.00867722 19:0.0138395 20:1 21:1 22:0 23:0 24:0 25:0 26:0 27:1 28:0 29:0 30:0 31:1 32:0 33:0 34:0 35:0 
-1 1:0 2:0.154461 3:-0.0159787 4:0.154461 5:-0.0146811 6:-0.250229 7:-0.00680823 8:-0.00630459 9:0.0249822 10:0.0100219 11:-0.037011 12:-0.00279944 13:-0.0345441 14:0 15:-0.00036086 16:-0.00196836 17:0 18:0.00911031 19:0.00272342 20:0 21:1 22:0 23:0 24:0 25:0 26:0 27:0 28:0 29:0 30:1 31:0 32:0 33:0 34:0 35:0 
-1 1:0 2:0.0945559 3:-0.00573066 4:0.0945559 5:0.0129942 6:-0.215003 7:-0.013301 8:-0.00624256 9:-0.0944543 10:-0.00733484 11:-0.00480468 12:-0.0117779 13:0.00593836 14:0 15:-0.00036086 16:-0.00159909 17:0 18:0.0153437 19:-0.00671981 20:0 21:1 22:0 23:0 24:0 25:0 26:0 27:0 28:0 29:0 30:1 31:0 32:0 33:0 34:0 35:0 
-1 1:0 2:0.159806 3:0.00622622 4:0.159806 5:-0.0181781 6:-0.189699 7:0.00140932 8:-0.00459058 9:0.202121 10:-0.00381029 11:-0.037011 12:-0.000334465 13:0.00256077 14:0 15:-0.00530999 16:0.00471629 17:0 18:-0.00254916 19:-0.00405298 20:0 21:1 22:1 23:0 24:0 25:0 26:0 27:0 28:0 29:0 30:0 31:0 32:0 33:0 34:0 35:0 
-1 1:0 2:0.120235 3:0.0175953 4:0.120235 5:-0.00118857 6:-0.130587 7:-0.013301 8:0.000578213 9:-0.0851249 10:0.0037796 11:-0.0122162 12:0.00677998 13:0.0578393 14:0 15:-0.00492854 16:0.00605498 17:0 18:0.00258546 19:-0.00175629 20:0 21:1 22:0 23:1 24:0 25:0 26:0 27:0 28:0 29:0 30:0 31:0 32:0 33:0 34:0 35:0 
-0.06054935278146731 1:0 2:0.275168 3:0.120805 4:0.275168 5:-0.00118857 6:-0.175793 7:0.00140932 8:-0.00459058 9:0.0961984 10:-0.00381029 11:-0.000258585 12:0.0023707 13:-0.00643778 14:0 15:0.00646052 16:-0.00382903 17:0 18:-0.0104812 19:0.00276726 20:0 21:1 22:0 23:0 24:0 25:0 26:0 27:0 28:0 29:0 30:0 31:0 32:0 33:0 34:0 35:0 
-1 1:0 2:0.516 3:0.048 4:0.516 5:-0.00229984 6:-0.78728 7:0.0105849 8:-0.00624256 9:-0.479403 10:-0.00332328 11:0.00388373 12:-0.0105182 13:0.022024 14:0 15:0.00165974 16:0.000647573 17:0 18:-0.0144547 19:-0.00553567 20:0 21:1 22:0 23:0 24:0 25:0 26:0 27:1 28:1 29:0 30:0 31:0 32:0 33:0 34:0 35:0 
-1 1:0 2:0.770061 3:0.147535 4:0.770061 5:-0.0102445 6:-0.908309 7:0.00140932 8:-0.00566043 9:-0.637987 10:-0.00123088 11:-0.00268771 12:-0.0117779 13:0.0933692 14:0 15:0.0142631 16:-0.00293144 17:0 18:-0.00222621 19:-0.00405298 20:0 21:1 22:1 23:0 24:2 25:0 26:1 27:1 28:0 29:0 30:1 31:0 32:0 33:0 34:0 35:0 
-1 1:0 2:0.18269 3:-0.0205526 4:0.18269 5:-0.00424959 6:-0.186489 7:-0.00737515 8:0.00263785 9:-0.337392 10:0.0194542 11:-0.00268771 12:-0.000129959 13:0.113462 14:0 15:-0.0106865 16:-0.00360034 17:0 18:-0.00201079 19:-0.00671981 20:0 21:1 22:0 23:0 24:2 25:0 26:1 27:1 28:0 29:0 30:1 31:0 32:0 33:1 34:0 35:0 
-1 1:0 2:0.770061 3:0.147535 4:0.770061 5:-0.0102445 6:-0.827805 7:0.00140932 8:-0.00566043 9:-0.600019 10:-0.00123088 11:-0.00268771 12:-0.0117779 13:0.0934577 14:0 15:0.0142631 16:-0.00293144 17:0 18:-0.00169689 19:-0.00405298 20:0 21:1 22:1 23:0 24:2 25:0 26:1 27:1 28:0 29:0 30:1 31:0 32:0 33:0 34:0 35:0 
-0.6378315600062555 1:0 2:0.18269 3:-0.0205526 4:0.18269 5:-0.00424959 6:-0.186489 7:-0.00737515 8:0.00263785 9:-0.337392 10:0.0194542 11:-0.00268771 12:-0.000129959 13:0.113462 14:0 15:-0.0106865 16:-0.00360034 17:0 18:-0.00201079 19:-0.00671981 20:0 21:1 22:0 23:0 24:2 25:0 26:1 27:1 28:0 29:0 30:1 31:0 32:0 33:1 34:0 35:0 
-1 1:0 2:0.770061 3:0.147535 4:0.770061 5:-0.0102445 6:-0.737628 7:0.00140932 8:-0.00566043 9:-0.552737 10:-0.00286363 11:-0.00268771 12:-0.0117779 13:0.0276617 14:0 15:0.0142631 16:-0.00293144 17:0 18:0.00161199 19:-0.00405298 20:0 21:1 22:1 23:0 24:2 25:0 26:1 27:1 28:0 29:0 30:1 31:0 32:0 33:0 34:0 35:0 
-1 1:0 2:0.288719 3:-0.00382409 4:0.288719 5:0.0130167 6:-0.568383 7:0.0161474 8:0.00263785 9:-0.351331 10:-0.000769924 11:0.00388373 12:0.00217649 13:0.0406548 14:0 15:-0.00251503 16:-0.00483205 17:0 18:0.00201058 19:-0.00207511 20:1 21:1 22:0 23:0 24:1 25:0 26:0 27:1 28:0 29:0 30:1 31:1 32:0 33:0 34:0 35:0 
-1 1:0 2:0.625786 3:0.0880503 4:0.625786 5:-0.00855852 6:-0.816387 7:0.00140932 8:-0.00566043 9:-0.713298 10:-0.00381029 11:-0.00268771 12:-0.0117779 13:0.103466 14:0 15:0.0142631 16:0.000647573 17:0 18:0.00549413 19:-0.00405298 20:0 21:1 22:1 23:0 24:1 25:0 26:0 27:1 28:0 29:0 30:1 31:0 32:0 33:0 34:0 35:0 
-1 1:0 2:-0.0276243 3:-0.0773481 4:-0.0276243 5:-0.00855852 6:-0.0946864 7:0.0105849 8:-0.0102524 9:0.243499 10:-0.00325732 11:-0.00268771 12:-0.0105182 13:-0.0782532 14:0 15:0.00574903 16:0.00471629 17:0 18:-0.013385 19:0.000803702 20:0 21:1 22:0 23:0 24:0 25:0 26:0 27:0 28:0 29:0 30:0 31:0 32:0 33:0 34:0 35:0 
-1 1:0 2:0.275168 3:0.120805 4:0.275168 5:-0.00855676 6:-0.0914636 7:-0.0196727 8:0.000578213 9:0.242105 10:-0.0025074 11:-0.00268771 12:-0.00615216 13:0.239703 14:0 15:-0.00588288 16:-0.0042043 17:0 18:0.00539616 19:-0.00175629 20:0 21:1 22:0 23:0 24:0 25:0 26:0 27:0 28:0 29:0 30:0 31:0 32:0 33:0 34:0 35:1 
-1 1:0 2:0.324324 3:0.036036 4:0.324324 5:0.00197725 6:-0.21147 7:-0.00680823 8:0.00111369 9:0.167808 10:-0.00733484 11:0.00232889 12:0.00677998 13:-0.11017 14:1 15:0.0121562 16:-0.00382903 17:0 18:0.00892614 19:-0.00405298 20:0 21:1 22:1 23:0 24:0 25:0 26:0 27:0 28:0 29:0 30:1 31:0 32:0 33:0 34:0 35:0 
-1 1:0 2:0.200176 3:-0.0644403 4:0.200176 5:-0.0181781 6:-0.17359 7:-0.0196727 8:-0.0102524 9:0.0671825 10:-0.00325732 11:-0.000258585 12:-0.00279944 13:-0.126526 14:1 15:0.0012351 16:0.00732772 17:0 18:-0.0121389 19:0.00404864 20:0 21:1 22:0 23:0 24:0 25:0 26:0 27:1 28:0 29:0 30:0 31:0 32:0 33:0 34:0 35:0 
-1 1:0 2:0.268055 3:-0.0266488 4:0.268055 5:-0.00229984 6:-0.296542 7:-0.013301 8:-0.0025261 9:-0.174269 10:0.0100219 11:-0.00185013 12:-0.0117779 13:-0.0629018 14:1 15:-7.70143e-005 16:-0.0143477 17:0 18:0.0252632 19:0.00272342 20:0 21:1 22:1 23:0 24:0 25:0 26:0 27:0 28:1 29:0 30:0 31:0 32:0 33:0 34:0 35:0 
-1 1:0 2:0.413892 3:0.0169249 4:0.413892 5:0.0106812 6:-0.657242 7:0.00857851 8:-0.00459058 9:-0.458711 10:0.00890847 11:-0.037011 12:-0.0105182 13:0.0351837 14:1 15:-0.00251503 16:0.00605498 17:0 18:0.00254516 19:-0.000837017 20:0 21:1 22:1 23:0 24:0 25:0 26:0 27:0 28:1 29:0 30:0 31:0 32:0 33:0 34:0 35:0 
-1 1:0 2:0.0631229 3:-0.0199336 4:0.0631229 5:-0.00855676 6:-0.18486 7:0.000933507 8:-0.0025261 9:0.0611255 10:-0.00286363 11:0.0136848 12:-0.00255595 13:-0.057739 14:0 15:-0.00251503 16:-0.00269397 17:0 18:-0.0240814 19:0.00623806 20:0 21:1 22:0 23:0 24:0 25:0 26:0 27:0 28:0 29:0 30:0 31:1 32:0 33:0 34:0 35:0 
-1 1:0 2:0.328583 3:-0.0201174 4:0.328583 5:-0.0102445 6:-0.367039 7:0.0161474 8:-0.0025261 9:0.0786249 10:-0.00325732 11:-0.0122162 12:0.00677998 13:-0.0296283 14:0 15:0.0012351 16:0.0289366 17:0 18:-0.00740125 19:-0.00671981 20:0 21:1 22:0 23:0 24:0 25:0 26:0 27:0 28:0 29:0 30:0 31:0 32:0 33:0 34:0 35:0 
-1 1:0 2:0.0342466 3:-0.109589 4:0.0342466 5:-0.00174828 6:-0.113172 7:-0.000428978 8:0.00111814 9:0.11096 10:0.0194542 11:-0.00148109 12:-0.0105182 13:-0.109082 14:0 15:-0.0106865 16:-0.00159909 17:0 18:-0.00554677 19:-0.00405298 20:0 21:1 22:1 23:0 24:0 25:0 26:0 27:0 28:0 29:0 30:0 31:0 32:0 33:0 34:0 35:0 
-1 1:0 2:0.120907 3:-0.0237496 4:0.120907 5:-0.00118857 6:-0.142512 7:-0.013301 8:-0.000155678 9:0.111967 10:-0.00123088 11:-0.00175902 12:-0.00279944 13:-0.0620763 14:0 15:0.0142631 16:0.00605498 17:0 18:-0.0132734 19:-0.013254 20:0 21:1 22:0 23:0 24:1 25:0 26:0 27:1 28:0 29:0 30:0 31:0 32:0 33:0 34:0 35:0 
-0.382092739203731 1:0 2:0.144242 3:-0.00232648 4:0.144242 5:-0.0181781 6:-0.297651 7:0.000868714 8:-0.00624256 9:-0.130797 10:-0.00325732 11:-0.037011 12:-0.00279944 13:0.128468 14:0 15:0.0142631 16:0.00252779 17:0 18:-0.0279367 19:0.000369551 20:0 21:1 22:0 23:0 24:0 25:0 26:0 27:0 28:0 29:0 30:1 31:0 32:0 33:0 34:0 35:0 
-1 1:0 2:0.218709 3:-0.0131752 4:0.218709 5:-0.00229984 6:-0.319488 7:-0.013301 8:0.000578213 9:-0.0350453 10:-0.000710021 11:-0.000258585 12:-0.00223244 13:-0.0211097 14:0 15:-0.000517298 16:-0.00483205 17:0 18:0.00363116 19:0.00272342 20:0 21:1 22:0 23:0 24:0 25:0 26:0 27:0 28:0 29:0 30:0 31:0 32:0 33:0 34:0 35:0 
-0.693519649642717 1:0 2:0.23796 3:0.0509915 4:0.23796 5:-0.00174828 6:-0.0971844 7:0.00857851 8:0.000253862 9:0.199662 10:-0.00381029 11:-0.00737899 12:-0.0117779 13:0.00635412 14:0 15:-0.00492397 16:-0.00483205 17:0 18:0.0112895 19:0.000369551 20:0 21:1 22:0 23:0 24:1 25:0 26:0 27:0 28:0 29:0 30:0 31:1 32:0 33:0 34:0 35:1 
-1 1:0 2:0.120879 3:-0.043956 4:0.120879 5:-0.00855676 6:-0.499497 7:0.000868714 8:-0.00624256 9:0.0366659 10:0.00180655 11:-0.000258585 12:-0.000334465 13:0.029295 14:0 15:0.0121562 16:-0.00360034 17:0 18:0.00320779 19:-0.013254 20:0 21:1 22:0 23:0 24:0 25:0 26:0 27:0 28:0 29:0 30:0 31:0 32:0 33:0 34:0 35:0 
-1 1:0 2:0.167598 3:0.0111732 4:0.167598 5:0.00115378 6:-0.347311 7:-0.00680823 8:-0.00363048 9:0.0914104 10:-0.00733484 11:-0.00268771 12:0.00217649 13:-0.141286 14:0 15:0.00331034 16:-0.00483205 17:0 18:-0.0044811 19:-0.00405298 20:0 21:1 22:2 23:0 24:1 25:0 26:0 27:0 28:1 29:0 30:0 31:0 32:0 33:0 34:0 35:0 
-1 1:0 2:0.148492 3:-0.0278422 4:0.148492 5:-0.00118857 6:-0.12044 7:-0.00516551 8:0.000578213 9:-0.0112517 10:-0.00733484 11:-0.00268771 12:-0.00317909 13:0.0237419 14:0 15:-0.00036086 16:-0.00483205 17:0 18:-0.0224997 19:0.00260239 20:0 21:1 22:0 23:0 24:0 25:0 26:0 27:0 28:0 29:0 30:0 31:0 32:0 33:0 34:0 35:0 
-1 1:0 2:0.171795 3:-0.0512821 4:0.171795 5:-0.0146811 6:-0.279213 7:-0.00680823 8:-0.00624256 9:-0.162269 10:0.0194542 11:-0.0122162 12:0.0221073 13:0.0306702 14:0 15:0.0048917 16:-0.00479611 17:0 18:-0.010918 19:-0.00405298 20:0 21:1 22:1 23:0 24:2 25:0 26:0 27:1 28:0 29:0 30:0 31:0 32:0 33:0 34:0 35:0 
-1 1:0 2:0.221662 3:0.0100756 4:0.221662 5:-0.0181781 6:-0.312565 7:0.00140932 8:-0.00209975 9:-0.00902816 10:-0.00273061 11:-0.00268771 12:-0.00279944 13:-0.0973156 14:0 15:-0.00790929 16:0.00471629 17:0 18:0.00545615 19:-0.00405298 20:0 21:1 22:1 23:1 24:0 25:0 26:0 27:0 28:0 29:0 30:0 31:0 32:0 33:0 34:0 35:0 
-1 1:0 2:0.120235 3:0.0175953 4:0.120235 5:0.0106812 6:-0.106789 7:-0.00347661 8:0.0184523 9:0.487296 10:-0.00733484 11:-0.0122162 12:-0.0117779 13:-0.0372285 14:0 15:-0.00530999 16:0.00443894 17:0 18:0.00624807 19:-0.00671981 20:0 21:1 22:0 23:1 24:0 25:0 26:0 27:0 28:0 29:1 30:0 31:0 32:0 33:1 34:0 35:0 
-1 1:0 2:0.621372 3:0.101054 4:0.621372 5:-0.0058672 6:-1.01164 7:0.0161474 8:-0.0102524 9:-0.10646 10:-0.00667065 11:-0.00268771 12:-0.0105182 13:-0.0127389 14:0 15:0.00574903 16:-0.0143477 17:0 18:0.000483486 19:-0.00553567 20:0 21:1 22:0 23:0 24:0 25:0 26:0 27:0 28:0 29:0 30:0 31:0 32:0 33:0 34:0 35:0 
-1 1:0 2:0.0973411 3:-0.0513745 4:0.0973411 5:-0.00855676 6:-0.149488 7:-0.013301 8:-0.00209975 9:-0.0024967 10:-0.00733484 11:-0.00353261 12:0.0221073 13:5.89806e-017 14:0 15:-0.00492397 16:-0.00483205 17:0 18:-0.0287518 19:0.00623806 20:0 21:1 22:1 23:0 24:0 25:0 26:0 27:0 28:0 29:0 30:0 31:0 32:0 33:0 34:0 35:0 
-1 1:0 2:0.290909 3:0.040404 4:0.290909 5:-0.00424959 6:-0.212953 7:-0.013301 8:0.0101539 9:-0.0284247 10:-0.000769924 11:0.00232889 12:-0.0105182 13:0.134551 14:0 15:0.0121562 16:-0.00159909 17:0 18:0.0112893 19:-0.00671981 20:0 21:1 22:1 23:1 24:0 25:0 26:0 27:0 28:1 29:0 30:0 31:0 32:0 33:0 34:0 35:0 
-1 1:0 2:0.364776 3:0.0196292 4:0.364776 5:-0.0181781 6:-0.436883 7:-0.0196727 8:-0.0025261 9:-0.115492 10:-0.00273061 11:-0.0122162 12:-0.00109699 13:0.00220446 14:0 15:-0.00349054 16:-0.00483205 17:0 18:0.0191813 19:0.00276726 20:0 21:1 22:0 23:0 24:0 25:0 26:0 27:0 28:0 29:0 30:0 31:0 32:0 33:0 34:0 35:0 
-1 1:0 2:0.475751 3:0.143187 4:0.475751 5:-0.0102445 6:-0.366849 7:-0.013301 8:-0.0025261 9:0.225765 10:-0.00325732 11:-0.00198275 12:0.00155162 13:-0.104261 14:0 15:-0.00530999 16:-0.00347876 17:0 18:-0.0120921 19:0.000803702 20:0 21:1 22:0 23:0 24:0 25:0 26:0 27:0 28:0 29:0 30:0 31:0 32:0 33:0 34:0 35:0 
-1 1:0 2:0.248869 3:0.0633484 4:0.248869 5:-0.0102445 6:-0.0862935 7:-0.0196727 8:-0.0025261 9:0.374684 10:-0.00335283 11:0.00232889 12:-0.0105182 13:0.114495 14:0 15:0.00574903 16:-0.0060947 17:0 18:0.0121834 19:0.00958784 20:0 21:1 22:0 23:0 24:0 25:0 26:0 27:0 28:0 29:0 30:0 31:0 32:0 33:1 34:0 35:0 
-1 1:0 2:0.0945559 3:-0.00573066 4:0.0945559 5:-0.00118857 6:-0.180512 7:-0.000428978 8:0.00111814 9:-0.0170622 10:-0.00286363 11:0.00388373 12:-0.00571812 13:-0.0733885 14:0 15:0.0048917 16:0.00443894 17:0 18:-0.00842246 19:-0.00405298 20:0 21:1 22:1 23:0 24:0 25:0 26:0 27:0 28:0 29:0 30:0 31:0 32:0 33:0 34:0 35:0 
-1 1:0 2:0.429916 3:0.0585093 4:0.429916 5:-0.00118857 6:-0.740578 7:-0.00737515 8:-0.00624256 9:-0.721458 10:-0.000710021 11:-0.037011 12:-0.000334465 13:0.101086 14:0 15:-0.00349054 16:-0.00483205 17:0 18:-0.0152749 19:0.00958784 20:0 21:1 22:0 23:0 24:0 25:0 26:0 27:0 28:2 29:0 30:0 31:0 32:1 33:0 34:0 35:0 
-1 1:0 2:0.156051 3:0.0254777 4:0.156051 5:-0.00855676 6:-0.0748983 7:-0.00347661 8:0.0044492 9:0.0550671 10:0.00128145 11:-0.00737899 12:0.00155162 13:-0.00639037 14:0 15:-0.00349054 16:-0.0143477 17:0 18:-0.0168853 19:0.000347898 20:0 21:1 22:0 23:0 24:0 25:0 26:0 27:0 28:0 29:0 30:0 31:0 32:0 33:0 34:0 35:0 
-1 1:0 2:0.251462 3:0.0233918 4:0.251462 5:-0.00855676 6:-0.0670741 7:0.00305708 8:0.0100182 9:0.16597 10:-0.000710021 11:-0.037011 12:-0.00317909 13:-0.00637157 14:0 15:-0.00530999 16:0.00732772 17:0 18:0.00430295 19:0.00958784 20:0 21:1 22:1 23:1 24:0 25:0 26:0 27:0 28:0 29:0 30:0 31:0 32:0 33:0 34:0 35:0 
-1 1:0 2:0.275168 3:0.120805 4:0.275168 5:-0.00118857 6:-0.448432 7:-0.00680823 8:-0.00624256 9:-0.00247638 10:-0.00286363 11:-0.00185013 12:-0.0117779 13:0.0217232 14:0 15:-0.000517298 16:0.00443894 17:0 18:-0.00471835 19:-0.00405298 20:0 21:1 22:1 23:0 24:0 25:0 26:0 27:0 28:0 29:0 30:0 31:0 32:0 33:0 34:0 35:0 
-1 1:0 2:0.143223 3:-0.0306905 4:0.143223 5:0.0129942 6:-0.561752 7:0.000933507 8:-0.00209975 9:0.257297 10:0.0194542 11:0.00232889 12:-0.000874371 13:-0.16529 14:0 15:-0.00530999 16:0.00471629 17:0 18:-0.00981285 19:-0.00405298 20:1 21:1 22:2 23:0 24:0 25:0 26:0 27:0 28:0 29:0 30:0 31:0 32:0 33:0 34:0 35:0 
-1 1:0 2:0.143223 3:-0.0306905 4:0.143223 5:0.0129942 6:-0.561752 7:0.000933507 8:-0.00209975 9:0.257297 10:0.0194542 11:0.00232889 12:-0.000874371 13:-0.16529 14:0 15:-0.00530999 16:0.00471629 17:0 18:-0.00981285 19:-0.00405298 20:1 21:1 22:2 23:0 24:0 25:0 26:0 27:0 28:0 29:0 30:0 31:0 32:0 33:0 34:0 35:0 
-1 1:0 2:0.143223 3:-0.0306905 4:0.143223 5:0.0129942 6:-0.561752 7:0.000933507 8:-0.00209975 9:0.257297 10:0.0194542 11:0.00232889 12:-0.000874371 13:-0.16529 14:0 15:-0.00530999 16:0.00471629 17:0 18:-0.00981285 19:-0.00405298 20:1 21:1 22:2 23:0 24:0 25:0 26:0 27:0 28:0 29:0 30:0 31:0 32:0 33:0 34:0 35:0 
-1 1:0 2:0.143223 3:-0.0306905 4:0.143223 5:0.0129942 6:-0.561752 7:0.000933507 8:-0.00209975 9:0.257297 10:0.0194542 11:0.00232889 12:-0.000874371 13:-0.16529 14:0 15:-0.00530999 16:0.00471629 17:0 18:-0.00981285 19:-0.00405298 20:1 21:1 22:2 23:0 24:0 25:0 26:0 27:0 28:0 29:0 30:0 31:0 32:0 33:0 34:0 35:0 
