svm_type c_svc
kernel_type rbf
gamma 0.0285714
nr_class 2
total_sv 598
rho -3.67109
label 1 -1
nr_sv 301 297
SV
1 1:0 2:0.0680454 3:-0.084056 4:0.0680454 5:-0.00118857 6:-0.26758 7:-0.0196727 8:0.00263785 9:-0.291567 10:-0.00325732 11:-0.00185013 12:0.0135939 13:0.0425907 14:0 15:0.00165974 16:-0.00479611 17:0 18:-0.00297059 19:0.00272342 20:0 21:0 22:0 23:1 24:0 25:0 26:0 27:0 28:1 29:0 30:0 31:0 32:0 33:0 34:0 35:1 
1 1:0 2:0.233696 3:0.0108696 4:0.233696 5:-0.0102445 6:-0.318784 7:-0.0196727 8:0.0184523 9:-0.204514 10:0.0037796 11:-0.00198275 12:-0.000129959 13:-0.0252364 14:0 15:-0.00790929 16:-0.00360034 17:0 18:0.00584728 19:-0.013254 20:0 21:0 22:0 23:1 24:0 25:0 26:0 27:0 28:1 29:0 30:0 31:0 32:0 33:0 34:0 35:0 
1 1:0 2:0.19478 3:0.0267346 4:0.19478 5:0.00115378 6:-0.013652 7:0.0137208 8:-0.00363048 9:0.0395455 10:-0.00286363 11:0.0136848 12:0.0221073 13:0.00303521 14:0 15:0.0121562 16:-0.00347876 17:0 18:-0.0165636 19:-0.00671981 20:0 21:0 22:0 23:1 24:0 25:0 26:0 27:0 28:0 29:0 30:0 31:0 32:0 33:0 34:0 35:0 
1 1:1 2:0.0766423 3:-0.0291971 4:0.0766423 5:0.00737457 6:-0.11063 7:0.000868714 8:0.0184523 9:0.268333 10:-0.00733484 11:0.00357244 12:-0.000129959 13:-0.00932595 14:0 15:0.0048917 16:-0.00159909 17:0 18:0.0115078 19:0.000369551 20:0 21:0 22:0 23:1 24:0 25:0 26:0 27:0 28:0 29:0 30:0 31:0 32:0 33:0 34:0 35:0 
1 1:0 2:0.232924 3:0.044226 4:0.232924 5:0.00197725 6:-0.0743138 7:-0.00516551 8:0.00263785 9:0.78149 10:-0.0025074 11:0.00232889 12:0.00218961 13:0.160145 14:1 15:-0.0106865 16:-0.0042043 17:0 18:0.0115731 19:-0.00175629 20:0 21:0 22:0 23:1 24:0 25:0 26:0 27:0 28:0 29:0 30:0 31:0 32:0 33:0 34:0 35:0 
1 1:0 2:0.167421 3:-0.0180995 4:0.167421 5:0.00737457 6:-0.286491 7:0.0161474 8:0.0100182 9:-0.17713 10:-0.00286363 11:-0.00480468 12:-0.00571812 13:-0.0301644 14:0 15:-0.00251503 16:-0.00360034 17:0 18:-0.010075 19:0.00623806 20:0 21:0 22:0 23:1 24:0 25:0 26:0 27:0 28:0 29:0 30:0 31:0 32:0 33:0 34:0 35:0 
1 1:0 2:0.118403 3:-0.024782 4:0.118403 5:0.0437735 6:-0.107314 7:0.00636562 8:-0.00630459 9:0.145517 10:-0.00325732 11:-0.00268771 12:0.00155162 13:-0.017186 14:1 15:0.00646052 16:0.0289366 17:0 18:0.0120577 19:0.00623806 20:0 21:0 22:0 23:1 24:0 25:0 26:0 27:0 28:0 29:1 30:0 31:0 32:0 33:0 34:0 35:0 
1 1:0 2:0.137733 3:-0.00860832 4:0.137733 5:-0.00855676 6:-0.106815 7:0.00857851 8:0.000578213 9:0.0257507 10:-0.00332328 11:-0.00185013 12:-0.000334465 13:-0.0343312 14:0 15:-0.00349054 16:-0.00483205 17:0 18:0.0198595 19:-0.00553567 20:0 21:0 22:0 23:1 24:0 25:0 26:0 27:0 28:0 29:0 30:0 31:0 32:0 33:0 34:0 35:0 
1 1:0 2:0.183716 3:-0.00835073 4:0.183716 5:0.00197725 6:-0.133968 7:-0.000966364 8:-0.0102524 9:-0.00574776 10:-0.00733484 11:0.025567 12:0.0023707 13:-0.0719366 14:1 15:0.00646052 16:-0.0060947 17:0 18:0.000204381 19:0.00272342 20:0 21:0 22:0 23:1 24:1 25:0 26:0 27:0 28:0 29:1 30:0 31:0 32:0 33:0 34:0 35:0 
1 1:0 2:0.408062 3:0.0522518 4:0.408062 5:-0.00118857 6:-0.458438 7:0.0161474 8:0.0100182 9:-0.0435057 10:-0.00733484 11:0.0136848 12:-0.00109699 13:-0.169117 14:0 15:-0.00492854 16:0.0289366 17:0 18:0.0218974 19:-0.00671981 20:0 21:0 22:0 23:1 24:0 25:0 26:0 27:0 28:0 29:0 30:0 31:0 32:0 33:0 34:0 35:0 
1 1:0 2:0.2 3:0 4:0.2 5:0.0106812 6:-0.379568 7:-0.00347661 8:0.0101539 9:-0.13522 10:0.0100219 11:0.00732539 12:-0.00317909 13:-0.0486507 14:0 15:-0.00530999 16:-0.00196836 17:0 18:-0.0151645 19:0.00272342 20:0 21:0 22:0 23:1 24:0 25:0 26:0 27:0 28:0 29:0 30:0 31:0 32:0 33:0 34:0 35:0 
1 1:0 2:0.0723227 3:-0.0500695 4:0.0723227 5:-0.00118857 6:0.122986 7:-0.000966364 8:0.00263785 9:0.0610716 10:-0.00273061 11:0.0136848 12:-0.00279944 13:-0.170599 14:0 15:0.0121562 16:0.00443894 17:0 18:0.00487997 19:0.00220689 20:0 21:0 22:1 23:1 24:0 25:0 26:0 27:0 28:0 29:0 30:0 31:0 32:0 33:0 34:0 35:0 
1 1:0 2:0.215827 3:-0.0143885 4:0.215827 5:-0.00118857 6:-0.147497 7:-0.0196727 8:0.0044492 9:-0.0689329 10:-0.00667065 11:0.00357244 12:-0.0117779 13:-0.0221263 14:1 15:-0.00790929 16:0.00732772 17:0 18:0.0156191 19:-0.013254 20:0 21:0 22:0 23:1 24:0 25:1 26:0 27:0 28:1 29:0 30:0 31:0 32:0 33:0 34:0 35:0 
1 1:0 2:0.257919 3:0.0180995 4:0.257919 5:0.00197725 6:-0.0638545 7:0.00636562 8:-0.0025261 9:0.10807 10:-0.00733484 11:-0.00480468 12:-0.0117779 13:-0.0879308 14:1 15:-0.00251503 16:-0.0060947 17:0 18:0.0203503 19:-0.00671981 20:0 21:0 22:0 23:1 24:1 25:0 26:0 27:0 28:0 29:0 30:0 31:0 32:0 33:0 34:0 35:0 
1 1:0 2:0.181818 3:0.0189959 4:0.181818 5:0.00115378 6:-0.277084 7:-0.0196727 8:-0.00566043 9:-0.164457 10:-0.00286363 11:0.025567 12:-0.00223244 13:-0.0674153 14:0 15:-7.70143e-005 16:-0.0143477 17:0 18:0.00421672 19:-0.00601379 20:0 21:0 22:0 23:1 24:0 25:0 26:0 27:0 28:0 29:0 30:0 31:0 32:0 33:1 34:0 35:0 
1 1:0 2:0.365243 3:0.0648012 4:0.365243 5:-0.0181781 6:-0.454415 7:0.00140932 8:0.0184523 9:-0.436419 10:-0.00270045 11:-0.00185013 12:-0.0117779 13:0.0263552 14:0 15:0.0142631 16:0.00443894 17:0 18:-0.0110475 19:0.00220689 20:0 21:0 22:0 23:1 24:0 25:0 26:0 27:0 28:0 29:0 30:0 31:0 32:0 33:0 34:0 35:0 
1 1:0 2:0.12846 3:-0.0156658 4:0.12846 5:0.0129942 6:-0.164514 7:0.00140932 8:0.00111369 9:-0.0315662 10:-0.00332328 11:0.00357244 12:0.00677998 13:-0.139874 14:0 15:0.0121562 16:0.00732772 17:0 18:0.0369486 19:0.000803702 20:1 21:0 22:0 23:1 24:0 25:0 26:0 27:0 28:0 29:0 30:0 31:0 32:0 33:0 34:0 35:0 
1 1:0 2:0.155143 3:0.00337268 4:0.155143 5:-0.00118857 6:0.013318 7:0.00140932 8:-0.00566043 9:0.096408 10:-0.00123088 11:0.00232889 12:0.00155162 13:0.00385841 14:0 15:0.00165974 16:0.00471629 17:0 18:-0.00493993 19:0.000803702 20:0 21:0 22:0 23:1 24:0 25:0 26:0 27:0 28:1 29:0 30:0 31:0 32:0 33:0 34:0 35:0 
1 1:0 2:0.179197 3:0.0185376 4:0.179197 5:0.0437735 6:-0.0127894 7:0.00857851 8:-0.00209975 9:0.257002 10:-0.00123088 11:0.00357244 12:-0.000334465 13:-0.00284627 14:0 15:0.00165974 16:-0.0060947 17:0 18:-0.00471462 19:0.00404864 20:0 21:0 22:0 23:2 24:0 25:0 26:0 27:0 28:1 29:0 30:0 31:0 32:0 33:0 34:0 35:0 
1 1:0 2:0.174734 3:-0.0354191 4:0.174734 5:0.0437735 6:-0.126505 7:0.00140932 8:-0.0102524 9:-0.0364361 10:0.0037796 11:-0.00737899 12:0.00155162 13:0.0793945 14:1 15:0.0012351 16:0.00732772 17:0 18:-0.0132431 19:0.00404864 20:0 21:0 22:0 23:1 24:0 25:0 26:0 27:0 28:0 29:0 30:1 31:0 32:0 33:0 34:0 35:0 
1 1:0 2:0.338462 3:0.0307692 4:0.338462 5:-0.00118857 6:-0.24941 7:-0.00737515 8:-0.00210731 9:-0.172034 10:-0.000710021 11:-0.0122162 12:-0.0117779 13:-0.0165567 14:0 15:0.00165974 16:0.00732772 17:0 18:0.00383016 19:-0.0057122 20:0 21:0 22:0 23:2 24:1 25:0 26:0 27:0 28:0 29:0 30:0 31:0 32:0 33:0 34:0 35:0 
1 1:0 2:0.111987 3:-0.0323517 4:0.111987 5:-0.0181781 6:-0.20948 7:-0.0196727 8:-0.00624256 9:-0.259427 10:-0.00332328 11:0.00357244 12:0.00155162 13:-0.0365212 14:0 15:-0.00790929 16:-0.00196836 17:0 18:-0.00417277 19:-0.00671981 20:0 21:0 22:0 23:1 24:1 25:0 26:0 27:0 28:0 29:0 30:0 31:0 32:0 33:0 34:0 35:0 
1 1:0 2:0.114094 3:-0.0536913 4:0.114094 5:0.0129942 6:-0.165346 7:0.0161474 8:0.0100182 9:0.310877 10:0.0100219 11:-0.00353261 12:-0.0105182 13:0.12261 14:0 15:-0.00251503 16:0.00471629 17:0 18:0.00912608 19:0.0138395 20:0 21:0 22:0 23:1 24:0 25:0 26:0 27:0 28:0 29:0 30:0 31:1 32:1 33:0 34:0 35:0 
1 1:0 2:0.298063 3:0.0417288 4:0.298063 5:0.0106812 6:-0.0459102 7:-0.000665361 8:0.0184523 9:0.273796 10:-0.000710021 11:0.00357244 12:0.00677998 13:-0.156443 14:0 15:0.00646052 16:-0.0060947 17:0 18:-0.0208307 19:0.00404864 20:0 21:0 22:0 23:1 24:0 25:0 26:0 27:0 28:0 29:0 30:0 31:0 32:0 33:0 34:0 35:0 
1 1:0 2:0.301471 3:0.0441176 4:0.301471 5:0.0129942 6:-0.225057 7:-0.00347661 8:0.000578213 9:-0.124443 10:-0.00335283 11:-0.0122162 12:0.00218961 13:-0.0285459 14:0 15:0.0048917 16:0.00732772 17:0 18:0.00644333 19:0.000369551 20:0 21:0 22:0 23:1 24:0 25:0 26:0 27:0 28:0 29:0 30:0 31:0 32:0 33:0 34:0 35:0 
1 1:0 2:0.26699 3:0.0291262 4:0.26699 5:-0.00855676 6:-0.164795 7:0.0105849 8:-0.00210731 9:0.367298 10:-0.0025074 11:0.00357244 12:-0.000129959 13:0.110038 14:0 15:-0.00790929 16:-0.0042043 17:0 18:0.00698414 19:-0.00175629 20:0 21:0 22:0 23:1 24:0 25:0 26:0 27:0 28:1 29:0 30:0 31:0 32:0 33:0 34:0 35:0 
1 1:0 2:0.109146 3:-0.0333502 4:0.109146 5:-0.0058672 6:-0.0450493 7:-0.00516551 8:-0.0102524 9:0.0322144 10:-0.00733484 11:-0.00268771 12:0.00155162 13:-0.00630881 14:1 15:-0.00492397 16:0.00471629 17:0 18:-0.0115759 19:0.000803702 20:0 21:0 22:0 23:1 24:0 25:0 26:0 27:0 28:0 29:0 30:0 31:0 32:0 33:0 34:0 35:0 
1 1:0 2:0.260983 3:0.0548064 4:0.260983 5:-0.0058672 6:-0.313977 7:0.0161474 8:-0.0018813 9:-0.0924216 10:0.0037796 11:0.0136848 12:-0.00109699 13:0.0603985 14:0 15:-0.00036086 16:-0.00196836 17:0 18:-0.0152825 19:0.00220689 20:0 21:0 22:0 23:1 24:0 25:0 26:0 27:0 28:0 29:0 30:0 31:0 32:0 33:0 34:0 35:0 
1 1:0 2:0.1 3:-6.93889e-018 4:0.1 5:0.0130167 6:0.11021 7:0.0105849 8:0.0184523 9:0.421748 10:-0.00325732 11:-0.00268771 12:0.00155162 13:0.045696 14:0 15:-0.00492854 16:-0.00196836 17:0 18:-0.00418941 19:0.00623806 20:0 21:0 22:1 23:1 24:0 25:0 26:0 27:1 28:0 29:0 30:0 31:0 32:0 33:0 34:0 35:0 
1 1:0 2:0.225201 3:0.0390655 4:0.225201 5:0.0106812 6:-0.0584552 7:-0.00737515 8:-0.0025261 9:0.113179 10:0.0100219 11:0.0136848 12:0.00217649 13:-0.0184976 14:0 15:-0.000517298 16:-0.00196836 17:0 18:-0.00643147 19:-0.00405298 20:0 21:0 22:1 23:1 24:0 25:0 26:0 27:1 28:0 29:0 30:0 31:0 32:0 33:0 34:0 35:0 
1 1:0 2:0.29259 3:0.0721976 4:0.29259 5:0.00197725 6:-0.659139 7:0.00857851 8:-0.00624256 9:0.109057 10:0.00890847 11:0.00232889 12:-0.00279944 13:-0.0125762 14:1 15:0.00165974 16:-0.00293144 17:0 18:-0.00084472 19:0.00276726 20:0 21:0 22:0 23:1 24:0 25:0 26:0 27:0 28:0 29:0 30:0 31:0 32:0 33:0 34:0 35:1 
1 1:0 2:0.217331 3:-0.0137552 4:0.217331 5:0.0106812 6:-0.370644 7:-0.0196727 8:-0.00630459 9:-0.266934 10:-0.000769924 11:-0.00148109 12:-0.00255595 13:0.0640851 14:1 15:0.00646052 16:-0.0060947 17:0 18:-0.00789843 19:0.00404864 20:0 21:0 22:0 23:1 24:0 25:0 26:0 27:0 28:0 29:0 30:0 31:0 32:0 33:0 34:0 35:0 
1 1:0 2:0.111252 3:-0.0657396 4:0.111252 5:0.00197725 6:-0.148803 7:0.0137208 8:-0.000155678 9:-0.389628 10:0.0194542 11:-0.00480468 12:0.0221073 13:0.076676 14:1 15:-0.0106865 16:0.00252779 17:0 18:-0.0211604 19:-0.00553567 20:0 21:0 22:0 23:1 24:0 25:0 26:0 27:0 28:0 29:0 30:0 31:0 32:0 33:0 34:0 35:0 
1 1:0 2:0.238361 3:0.0484171 4:0.238361 5:0.0129942 6:-0.105715 7:-0.013301 8:0.00263785 9:0.101317 10:-0.00325732 11:0.0136848 12:-0.00279944 13:0.0602034 14:0 15:-0.00790929 16:-0.0060947 17:0 18:0.0242309 19:-0.00601379 20:0 21:0 22:1 23:1 24:0 25:0 26:0 27:0 28:0 29:0 30:0 31:0 32:0 33:1 34:0 35:0 
1 1:0 2:0.0791367 3:-0.0863309 4:0.0791367 5:0.0129942 6:-0.090955 7:0.0105849 8:0.0184523 9:0.0242303 10:-0.000769924 11:-0.00480468 12:0.00155162 13:-0.0576574 14:1 15:-0.00790929 16:-0.00293144 17:0 18:0.0176084 19:0.00276726 20:0 21:0 22:1 23:1 24:0 25:0 26:0 27:0 28:0 29:0 30:0 31:0 32:0 33:0 34:0 35:0 
1 1:0 2:0.183716 3:-0.00835073 4:0.183716 5:-0.0058672 6:-0.709935 7:-0.00347661 8:-0.00624256 9:0.0367767 10:0.000771071 11:-0.00480468 12:0.0135939 13:-0.00540802 14:0 15:-0.00251503 16:-0.0143477 17:0 18:-0.0107274 19:-0.00601379 20:0 21:0 22:0 23:1 24:0 25:0 26:0 27:0 28:0 29:0 30:0 31:0 32:0 33:1 34:0 35:0 
1 1:0 2:0.080756 3:-0.0756014 4:0.080756 5:0.0130167 6:-0.057055 7:-0.00347661 8:0.0184523 9:-0.0380689 10:0.0037796 11:0.00388373 12:-0.000874371 13:-0.0447522 14:0 15:-0.0106865 16:-0.00479611 17:0 18:-0.0096888 19:0.0138395 20:0 21:0 22:1 23:1 24:0 25:0 26:0 27:1 28:0 29:0 30:0 31:0 32:0 33:0 34:0 35:0 
1 1:0 2:0.1 3:-6.93889e-018 4:0.1 5:0.00197725 6:-0.00942167 7:-0.013301 8:-0.00332417 9:0.104696 10:-0.00273061 11:-0.00185013 12:0.00677998 13:-0.0127073 14:1 15:0.00165974 16:0.00471629 17:0 18:-0.00543258 19:-0.00405298 20:0 21:0 22:2 23:1 24:0 25:0 26:0 27:0 28:0 29:0 30:0 31:0 32:0 33:0 34:0 35:0 
1 1:0 2:0.317664 3:0.00569801 4:0.317664 5:-0.0146811 6:-0.0988835 7:0.000933507 8:-0.00566043 9:0.129598 10:-0.00325732 11:-0.037011 12:-0.00109699 13:-0.0522929 14:0 15:0.00574903 16:0.00732772 17:0 18:-0.0106887 19:0.00623806 20:0 21:0 22:0 23:1 24:0 25:0 26:0 27:0 28:0 29:0 30:0 31:0 32:0 33:0 34:0 35:0 
1 1:0 2:0.209329 3:0.00455063 4:0.209329 5:0.00115378 6:-0.123326 7:0.0161474 8:-0.00459058 9:-0.0949174 10:-0.00335283 11:-0.037011 12:-0.00279944 13:-0.0872097 14:0 15:-0.00349054 16:0.0289366 17:0 18:0.0061159 19:-0.00671981 20:0 21:0 22:1 23:1 24:0 25:0 26:0 27:0 28:0 29:0 30:0 31:0 32:0 33:0 34:0 35:0 
1 1:0 2:0.394228 3:-0.0128953 4:0.394228 5:-0.00855852 6:-0.143437 7:0.00636562 8:-0.00624256 9:0.715422 10:-0.00325732 11:-0.00185013 12:0.0221073 13:0.296896 14:0 15:-0.00251503 16:0.0289366 17:0 18:0.00867259 19:0.00272342 20:0 21:0 22:0 23:1 24:0 25:0 26:0 27:1 28:0 29:0 30:0 31:0 32:0 33:0 34:0 35:0 
1 1:0 2:0.0766423 3:-0.0291971 4:0.0766423 5:0.0129942 6:0.00934637 7:0.00305708 8:0.0184523 9:0.0300962 10:-0.00123088 11:0.00232889 12:0.0221073 13:-0.151609 14:0 15:0.0121562 16:-0.00196836 17:0 18:-0.0166465 19:-0.00405298 20:0 21:0 22:2 23:1 24:0 25:0 26:0 27:0 28:0 29:0 30:0 31:0 32:0 33:0 34:0 35:0 
1 1:0 2:0.0527704 3:0.00527704 4:0.0527704 5:-0.0102445 6:0.0675426 7:-0.000428978 8:0.00111814 9:0.323091 10:-0.00733484 11:0.0136848 12:0.00217649 13:0.0352878 14:0 15:0.00646052 16:-0.00360034 17:0 18:0.00826292 19:0.000369551 20:0 21:0 22:0 23:1 24:0 25:0 26:0 27:0 28:0 29:0 30:0 31:0 32:0 33:0 34:0 35:0 
0.08027127639545018 1:0 2:0.1 3:-6.93889e-018 4:0.1 5:0.0130167 6:-0.230594 7:0.00305708 8:0.000578213 9:0.126406 10:-0.00667065 11:0.0141877 12:-0.0105182 13:0.0652859 14:0 15:0.0121562 16:-0.00124075 17:0 18:-0.0243468 19:-0.00553567 20:0 21:0 22:1 23:1 24:0 25:0 26:0 27:1 28:0 29:0 30:0 31:1 32:0 33:0 34:0 35:0 
1 1:0 2:0.090584 3:-0.0429082 4:0.090584 5:-0.00118857 6:-0.257237 7:0.00857851 8:-0.00624256 9:0.155798 10:-0.00123088 11:-0.037011 12:0.0135939 13:-0.0995029 14:1 15:-0.00790929 16:0.00732772 17:0 18:-0.0102075 19:-0.00405298 20:0 21:0 22:1 23:1 24:0 25:0 26:0 27:0 28:0 29:0 30:0 31:0 32:0 33:0 34:0 35:0 
1 1:0 2:0.0396367 3:-0.133774 4:0.0396367 5:0.0437735 6:-0.240516 7:-0.000966364 8:-0.000155678 9:-0.100328 10:-0.00381029 11:0.0136848 12:-0.000129959 13:0.0158197 14:0 15:-0.00530999 16:-0.00196836 17:0 18:-0.0111328 19:0.0138395 20:0 21:0 22:0 23:2 24:0 25:0 26:0 27:0 28:0 29:0 30:0 31:0 32:0 33:0 34:0 35:0 
1 1:0 2:0.152381 3:-0.0272109 4:0.152381 5:-0.0102445 6:-0.382746 7:-0.00347661 8:-0.00566043 9:0.0883246 10:-0.00325732 11:-0.00185013 12:0.0221073 13:0.0895258 14:0 15:-0.00492854 16:0.00732772 17:0 18:-0.0118743 19:-0.00671981 20:0 21:1 22:0 23:3 24:0 25:0 26:0 27:0 28:0 29:0 30:0 31:0 32:0 33:0 34:0 35:0 
1 1:0 2:0.400716 3:0.078712 4:0.400716 5:-0.0181781 6:-0.39185 7:0.00857851 8:0.0100182 9:-0.0700705 10:0.0100219 11:-0.00185013 12:0.0221073 13:0.0464208 14:0 15:0.0048917 16:0.00605498 17:0 18:-0.0200711 19:0.000421736 20:1 21:0 22:0 23:1 24:0 25:0 26:0 27:0 28:0 29:0 30:0 31:0 32:0 33:0 34:0 35:0 
1 1:1 2:0.092437 3:-0.0672269 4:0.092437 5:0.0129942 6:-0.0653866 7:0.0105849 8:-0.0102524 9:0.183563 10:0.0194542 11:-0.00268771 12:-0.0105182 13:0.12087 14:0 15:-7.70143e-005 16:0.00732772 17:0 18:0.00438814 19:0.00276726 20:0 21:0 22:0 23:1 24:0 25:0 26:0 27:0 28:0 29:0 30:0 31:0 32:0 33:0 34:0 35:0 
1 1:0 2:0.026087 3:-0.173913 4:0.026087 5:-0.0102445 6:-0.164744 7:-0.013301 8:-0.00209975 9:-0.300063 10:0.0194542 11:0.00388373 12:-0.00279944 13:0.115382 14:0 15:0.0048917 16:0.00605498 17:0 18:-0.00626873 19:0.00272342 20:0 21:0 22:0 23:1 24:0 25:0 26:0 27:0 28:0 29:0 30:0 31:0 32:0 33:0 34:0 35:0 
1 1:0 2:0.0610169 3:-0.101695 4:0.0610169 5:0.0106812 6:0.0113759 7:-0.013301 8:0.0184523 9:0.105592 10:-0.000769924 11:-0.00268771 12:-0.000874371 13:-0.0453495 14:0 15:0.0121562 16:-0.00483205 17:0 18:-0.00939349 19:-0.013254 20:0 21:0 22:0 23:2 24:0 25:0 26:0 27:0 28:0 29:0 30:0 31:0 32:0 33:0 34:0 35:0 
0.7997288844179824 1:0 2:0.291601 3:0.0158479 4:0.291601 5:-0.00855676 6:-0.11001 7:-0.000665361 8:0.0184523 9:-0.0143478 10:-0.00273061 11:-0.00268771 12:0.00677998 13:-0.0359549 14:0 15:-0.00492854 16:0.0289366 17:0 18:0.00565409 19:0.00220689 20:0 21:0 22:0 23:2 24:0 25:0 26:0 27:1 28:0 29:0 30:0 31:0 32:0 33:0 34:0 35:0 
1 1:0 2:0.183588 3:-0.00556328 4:0.183588 5:0.0130167 6:-0.0720389 7:0.00636562 8:-0.0102524 9:0.265721 10:0.0100219 11:-0.00737899 12:0.00677998 13:0.0608285 14:0 15:0.00165974 16:0.00471629 17:0 18:0.0142413 19:0.000803702 20:0 21:0 22:0 23:1 24:0 25:0 26:0 27:1 28:0 29:0 30:0 31:0 32:0 33:0 34:0 35:0 
1 1:0 2:0.229621 3:0.0137773 4:0.229621 5:-0.0181781 6:0.00567916 7:0.00636562 8:-0.00332417 9:0.120916 10:0.00890847 11:0.0136848 12:0.00677998 13:-0.0178967 14:0 15:0.0012351 16:-0.00382903 17:0 18:-6.8474e-006 19:0.000369551 20:0 21:0 22:0 23:1 24:0 25:0 26:0 27:0 28:0 29:0 30:0 31:0 32:0 33:0 34:0 35:0 
1 1:0 2:0.0945559 3:-0.00573066 4:0.0945559 5:0.0106812 6:0.342638 7:0.00636562 8:0.0100182 9:0.768099 10:0.00890847 11:-0.00268771 12:0.00217649 13:0.0390467 14:0 15:0.000310067 16:-0.00483205 17:0 18:0.00492887 19:-0.00207511 20:0 21:0 22:1 23:1 24:0 25:0 26:0 27:0 28:0 29:0 30:0 31:0 32:0 33:0 34:0 35:0 
1 1:0 2:0.0625 3:-0.125 4:0.0625 5:-0.00118857 6:-0.0479269 7:0.00140932 8:0.00263785 9:-0.154464 10:-0.00325732 11:-0.00268771 12:0.00218961 13:0.175762 14:0 15:-0.00492854 16:0.000647573 17:0 18:-0.00955531 19:0.0138395 20:0 21:0 22:0 23:1 24:0 25:0 26:0 27:0 28:0 29:0 30:0 31:0 32:0 33:0 34:0 35:1 
1 1:0 2:0.378814 3:0.045598 4:0.378814 5:-0.00855676 6:-1.06144 7:-0.0196727 8:0.000253862 9:-0.00449563 10:-0.00381029 11:-0.00268771 12:0.00218961 13:-0.0455032 14:0 15:0.00165974 16:-0.00483205 17:0 18:0.00710203 19:-0.00671981 20:0 21:0 22:1 23:1 24:0 25:0 26:0 27:0 28:0 29:0 30:0 31:0 32:0 33:0 34:0 35:0 
1 1:0 2:0.347245 3:0.0601002 4:0.347245 5:-0.00424959 6:-0.508232 7:0.0137208 8:-0.0025261 9:-0.0341825 10:-0.00381029 11:0.00388373 12:-0.000129959 13:0.00159584 14:0 15:-0.00530999 16:-0.0060947 17:0 18:0.00130361 19:-0.00405298 20:0 21:0 22:2 23:1 24:0 25:0 26:0 27:0 28:0 29:0 30:0 31:0 32:0 33:0 34:0 35:0 
1 1:0 2:0.422833 3:0.122622 4:0.422833 5:0.00737457 6:-0.187888 7:0.00140932 8:-0.00566043 9:-0.0776959 10:-0.00273061 11:0.00732539 12:-0.00279944 13:0.055933 14:0 15:-0.00492854 16:-0.00360034 17:0 18:0.00935757 19:0.00623806 20:0 21:0 22:1 23:1 24:0 25:0 26:0 27:0 28:0 29:0 30:0 31:0 32:0 33:0 34:0 35:0 
1 1:0 2:0.0928571 3:-0.0714286 4:0.0928571 5:-0.00855852 6:-0.00324884 7:0.0161474 8:0.0044492 9:-0.173867 10:-0.000769924 11:-0.00185013 12:-0.00109699 13:-0.150987 14:0 15:0.0121562 16:0.00732772 17:0 18:0.014568 19:0.000369551 20:0 21:0 22:0 23:1 24:0 25:1 26:0 27:0 28:0 29:0 30:0 31:0 32:0 33:1 34:0 35:0 
1 1:0 2:0.220588 3:0.00980392 4:0.220588 5:-0.0181781 6:-0.162797 7:0.00857851 8:0.00111369 9:-0.258811 10:-0.00381029 11:0.025567 12:-0.000129959 13:-0.0230239 14:0 15:0.00165974 16:0.00471629 17:0 18:0.000354727 19:-0.00671981 20:0 21:0 22:0 23:1 24:0 25:0 26:0 27:0 28:0 29:0 30:1 31:0 32:0 33:0 34:0 35:0 
1 1:0 2:0.314393 3:-0.0105501 4:0.314393 5:0.00197725 6:-0.440595 7:-0.000966364 8:-0.00624256 9:-0.0694148 10:0.00180655 11:-0.00268771 12:0.0023707 13:-0.0511556 14:1 15:0.00165974 16:0.00732772 17:0 18:0.00490745 19:0.000369551 20:0 21:0 22:0 23:1 24:0 25:1 26:0 27:0 28:0 29:0 30:0 31:0 32:0 33:0 34:0 35:0 
1 1:0 2:0.421341 3:0.0191518 4:0.421341 5:-0.0102445 6:-0.615879 7:-0.0196727 8:-0.000155678 9:-0.141463 10:-0.00273061 11:0.00232889 12:-0.00279944 13:-0.0576535 14:1 15:0.00331034 16:-0.00360034 17:0 18:-0.00978206 19:0.00220689 20:0 21:0 22:0 23:1 24:0 25:0 26:0 27:0 28:0 29:0 30:0 31:0 32:0 33:0 34:0 35:0 
1 1:0 2:0.390135 3:0.0269058 4:0.390135 5:-0.00424959 6:-0.353079 7:0.00305708 8:-0.0025261 9:-0.0463715 10:-0.00332328 11:-0.037011 12:-0.00109699 13:-0.156644 14:1 15:-0.00251503 16:-0.00360034 17:0 18:0.00684374 19:0.000803702 20:0 21:0 22:0 23:1 24:0 25:0 26:0 27:0 28:0 29:0 30:0 31:0 32:0 33:0 34:0 35:0 
1 1:0 2:0.241706 3:0.0189573 4:0.241706 5:-0.0102445 6:-0.143236 7:-0.0196727 8:0.0101539 9:0.116439 10:-0.000710021 11:-0.00185013 12:-0.00347617 13:-0.0435874 14:0 15:0.00646052 16:-0.0143477 17:0 18:0.00274438 19:0.000803702 20:0 21:0 22:0 23:1 24:0 25:0 26:0 27:0 28:0 29:0 30:0 31:0 32:0 33:0 34:0 35:0 
1 1:0 2:0.183972 3:0.0209059 4:0.183972 5:-0.0058672 6:-0.193881 7:0.00857851 8:-0.00209975 9:-0.180164 10:-0.000710021 11:0.00732539 12:-0.0105182 13:0.0552078 14:0 15:-0.00349054 16:-0.00124075 17:0 18:-0.00560868 19:0.000369551 20:0 21:0 22:0 23:1 24:0 25:0 26:0 27:0 28:0 29:0 30:0 31:0 32:0 33:0 34:0 35:0 
1 1:0 2:0.309805 3:0.0223571 4:0.309805 5:-0.00118857 6:-0.194132 7:0.00636562 8:-0.00363048 9:-0.0803452 10:-0.00286363 11:0.0136848 12:-0.00109699 13:-0.0920324 14:0 15:0.0048917 16:-0.00293144 17:0 18:0.0157537 19:0.0138395 20:0 21:0 22:0 23:1 24:0 25:0 26:0 27:0 28:0 29:0 30:0 31:0 32:0 33:1 34:0 35:0 
1 1:0 2:0.254777 3:0.0254777 4:0.254777 5:0.0106812 6:-0.619608 7:0.0161474 8:0.00111369 9:-0.335279 10:-0.00325732 11:0.025567 12:-0.0105182 13:0.0338909 14:0 15:0.0121562 16:-0.00483205 17:0 18:0.0114537 19:0.00272342 20:0 21:0 22:0 23:1 24:0 25:0 26:0 27:0 28:0 29:0 30:0 31:0 32:0 33:0 34:0 35:0 
1 1:0 2:0.624182 3:0.117852 4:0.624182 5:-0.0181781 6:-0.404351 7:0.0161474 8:0.0184523 9:0.00679854 10:0.0194542 11:0.0136848 12:0.00218961 13:0.000693959 14:0 15:-0.000517298 16:-0.00382903 17:0 18:0.00772684 19:0.00404864 20:0 21:0 22:0 23:1 24:0 25:0 26:0 27:0 28:1 29:0 30:0 31:0 32:0 33:0 34:0 35:0 
1 1:1 2:0.14096 3:-0.0061287 4:0.14096 5:-0.00855676 6:-0.00294912 7:0.00140932 8:-0.00459058 9:0.240024 10:0.0194542 11:0.00732539 12:-0.00317909 13:-0.00390347 14:0 15:-0.00349054 16:-0.00483205 17:1 18:0.00588591 19:0.000803702 20:0 21:0 22:0 23:1 24:0 25:0 26:0 27:0 28:0 29:0 30:0 31:0 32:0 33:0 34:0 35:0 
1 1:0 2:0.250687 3:0.0362837 4:0.250687 5:0.00737457 6:-0.111391 7:0.00857851 8:0.0184523 9:0.022569 10:-0.0025074 11:0.00732539 12:-0.00615216 13:-0.0142938 14:0 15:-0.00588288 16:-0.0042043 17:0 18:0.00240917 19:-0.00175629 20:0 21:0 22:0 23:1 24:0 25:0 26:0 27:0 28:0 29:0 30:0 31:0 32:0 33:1 34:0 35:0 
1 1:0 2:0.143187 3:-0.00461894 4:0.143187 5:-0.00424959 6:-0.48836 7:-0.00347661 8:0.00111369 9:-0.317092 10:-0.00733484 11:-0.00198275 12:0.0135939 13:0.00378911 14:0 15:0.00165974 16:-0.00483205 17:0 18:-0.00550112 19:0.00220689 20:0 21:0 22:0 23:2 24:0 25:0 26:0 27:0 28:0 29:0 30:0 31:0 32:0 33:0 34:0 35:0 
1 1:1 2:0.18552 3:0.0633484 4:0.18552 5:-0.00424959 6:-0.157114 7:-0.00166005 8:0.0044492 9:0.249265 10:-0.0025074 11:-0.00737899 12:-0.00571812 13:0.0410459 14:0 15:-0.00530999 16:-0.0042043 17:1 18:-0.0022037 19:-0.00175629 20:0 21:0 22:0 23:1 24:0 25:0 26:0 27:0 28:0 29:0 30:0 31:0 32:0 33:0 34:0 35:0 
1 1:1 2:0.18552 3:0.0633484 4:0.18552 5:0.0106812 6:0.0208407 7:0.00636562 8:0.0184523 9:0.226994 10:-0.00123088 11:0.00732539 12:0.00677998 13:0.00159124 14:0 15:-0.00492854 16:0.00443894 17:1 18:0.005334 19:-0.0057122 20:0 21:0 22:0 23:1 24:0 25:0 26:0 27:0 28:0 29:0 30:1 31:0 32:0 33:0 34:0 35:0 
0.2746583849088413 1:1 2:0.204826 3:0.0317834 4:0.204826 5:-0.00573529 6:0.113916 7:0.0105849 8:-0.0025261 9:0.47714 10:-0.00270045 11:0.0136848 12:0.00217649 13:0.270403 14:0 15:-0.00251503 16:0.00252779 17:0 18:-0.00854801 19:-0.0057122 20:0 21:0 22:0 23:1 24:0 25:0 26:0 27:0 28:0 29:0 30:0 31:0 32:1 33:0 34:0 35:0 
1 1:1 2:0.130573 3:0.0254777 4:0.130573 5:-0.00573529 6:-0.184749 7:-0.00166005 8:0.00111814 9:0.279533 10:0.0100219 11:0.00732539 12:-0.0105182 13:0.0287343 14:0 15:0.00165974 16:0.00605498 17:0 18:0.0149026 19:-0.00671981 20:0 21:0 22:0 23:1 24:0 25:0 26:0 27:0 28:0 29:0 30:0 31:0 32:0 33:0 34:0 35:0 
0.08297474638952025 1:0 2:0.242061 3:-0.0218636 4:0.242061 5:0.0129942 6:-0.480323 7:0.0161474 8:0.0100182 9:-0.159183 10:-0.00270045 11:-0.0122162 12:-0.000874371 13:0.0164076 14:0 15:0.0142631 16:0.00732772 17:0 18:-0.00611588 19:-0.00405298 20:0 21:0 22:1 23:1 24:0 25:0 26:0 27:0 28:1 29:0 30:0 31:0 32:0 33:0 34:0 35:0 
1 1:0 2:0.0122574 3:-0.18999 4:0.0122574 5:0.0106812 6:-0.119474 7:-0.00680823 8:-0.00209975 9:-0.140026 10:-0.00325732 11:-0.00185013 12:0.0135939 13:0.00945914 14:0 15:0.00165974 16:0.00732772 17:0 18:-0.00360026 19:0.00272342 20:0 21:0 22:0 23:1 24:0 25:0 26:0 27:0 28:0 29:0 30:0 31:0 32:0 33:0 34:0 35:0 
1 1:0 2:0.204826 3:0.0317834 4:0.204826 5:0.0129942 6:-0.236171 7:-0.00680823 8:0.000578213 9:-0.139858 10:-0.00273061 11:0.00732539 12:-0.0105182 13:-0.0253402 14:0 15:-0.00251503 16:0.00252779 17:0 18:-0.00690879 19:0.00220689 20:0 21:0 22:0 23:1 24:0 25:0 26:0 27:0 28:0 29:0 30:0 31:0 32:0 33:0 34:0 35:0 
1 1:0 2:0.422879 3:0.056221 4:0.422879 5:-0.0181781 6:-0.329648 7:-0.00347661 8:0.00263785 9:-0.178324 10:-0.00733484 11:-0.00268771 12:0.00217649 13:-0.0676926 14:0 15:-0.00251503 16:-0.0143477 17:0 18:0.00810695 19:-0.013254 20:0 21:0 22:0 23:2 24:0 25:0 26:0 27:0 28:0 29:0 30:0 31:0 32:0 33:0 34:0 35:0 
1 1:0 2:0.166667 3:-0.0114943 4:0.166667 5:0.00737457 6:-0.399792 7:0.0137208 8:-0.00624256 9:-0.238317 10:0.00890847 11:0.00357244 12:-0.000129959 13:0.0154339 14:1 15:-0.00492397 16:0.00471629 17:0 18:0.00751204 19:0.00958784 20:0 21:0 22:0 23:1 24:0 25:0 26:0 27:0 28:0 29:1 30:0 31:0 32:0 33:0 34:0 35:0 
1 1:0 2:0.154359 3:0.0028585 4:0.154359 5:0.000589152 6:-0.214778 7:-0.00737515 8:-0.0025261 9:-0.0597241 10:-0.00332328 11:0.00388373 12:0.0221073 13:0.0205323 14:0 15:-0.00790929 16:0.00443894 17:0 18:-0.00195371 19:0.000347898 20:0 21:0 22:0 23:1 24:0 25:0 26:0 27:0 28:0 29:0 30:0 31:0 32:0 33:0 34:0 35:0 
1 1:0 2:0.356899 3:0.0672843 4:0.356899 5:0.0437735 6:-0.192718 7:-0.00737515 8:0.0184523 9:-0.0800072 10:-0.00332328 11:-0.00737899 12:-0.0105182 13:-0.0170662 14:0 15:-0.00530999 16:-0.00382903 17:1 18:0.00456224 19:0.00958784 20:0 21:0 22:0 23:1 24:0 25:0 26:0 27:0 28:0 29:0 30:0 31:0 32:0 33:0 34:0 35:0 
1 1:0 2:0.0989918 3:-0.0384968 4:0.0989918 5:-0.00424959 6:-0.109843 7:-0.00680823 8:-0.00566043 9:0.00120649 10:0.0037796 11:0.025567 12:-0.00109699 13:0.00100855 14:0 15:-0.00530999 16:-0.00124075 17:0 18:0.010818 19:0.00272342 20:0 21:0 22:0 23:1 24:0 25:0 26:0 27:0 28:0 29:0 30:0 31:0 32:0 33:0 34:0 35:0 
1 1:0 2:0.0989918 3:-0.0384968 4:0.0989918 5:0.0106812 6:-0.174201 7:0.0105849 8:-0.00566043 9:-0.134265 10:-0.00325732 11:0.025567 12:-0.00109699 13:-0.0452779 14:0 15:0.00165974 16:0.00252779 17:0 18:0.0113017 19:0.00272342 20:0 21:0 22:0 23:1 24:1 25:0 26:0 27:0 28:0 29:0 30:0 31:0 32:0 33:0 34:0 35:0 
1 1:0 2:0.278564 3:0.0108814 4:0.278564 5:0.00115378 6:-0.19085 7:0.0105849 8:-0.00332417 9:-0.102393 10:-0.00325732 11:0.00388373 12:0.0135939 13:-0.0601065 14:0 15:-0.00251503 16:-0.00360034 17:1 18:0.00282159 19:0.00220689 20:0 21:0 22:0 23:2 24:0 25:0 26:0 27:0 28:0 29:0 30:0 31:0 32:0 33:0 34:0 35:0 
1 1:0 2:0.214669 3:0.00715564 4:0.214669 5:0.00737457 6:-0.248992 7:0.00305708 8:-0.0025261 9:0.0417318 10:-0.00476114 11:0.00388373 12:-0.00279944 13:-0.107136 14:0 15:0.00574903 16:-0.00382903 17:0 18:-0.0149573 19:0.0138395 20:0 21:0 22:1 23:1 24:0 25:0 26:0 27:0 28:1 29:0 30:0 31:0 32:0 33:0 34:0 35:0 
1 1:1 2:0.117851 3:-0.0242634 4:0.117851 5:-0.00118857 6:-0.188703 7:-0.00166005 8:-0.0102524 9:-0.000299314 10:-0.00332328 11:0.0141877 12:-0.00255595 13:0.208052 14:0 15:-0.00790929 16:-0.00483205 17:1 18:-0.00362796 19:0.00623806 20:0 21:0 22:0 23:1 24:0 25:0 26:0 27:0 28:0 29:0 30:0 31:0 32:0 33:0 34:0 35:0 
1 1:0 2:0.125353 3:-0.0101637 4:0.125353 5:0.0437735 6:-0.119857 7:0.0161474 8:0.0184523 9:0.108533 10:-0.00325732 11:0.00388373 12:0.0135939 13:-0.0204856 14:0 15:0.0121562 16:0.0289366 17:0 18:-0.00832352 19:-0.00671981 20:0 21:0 22:0 23:1 24:0 25:0 26:0 27:0 28:0 29:0 30:0 31:0 32:0 33:1 34:0 35:0 
1 1:0 2:0.184971 3:-0.00770713 4:0.184971 5:0.0106812 6:-0.175768 7:0.000868714 8:-0.00332417 9:0.105353 10:-0.000769924 11:0.0141877 12:0.0135939 13:0.0239438 14:0 15:-0.000517298 16:-0.00483205 17:0 18:-0.0133198 19:0.00623806 20:1 21:0 22:0 23:1 24:0 25:0 26:0 27:0 28:1 29:0 30:0 31:0 32:0 33:0 34:0 35:0 
1 1:0 2:0.0759975 3:-0.0721976 4:0.0759975 5:0.00197725 6:-0.0821195 7:-0.013301 8:0.00263785 9:0.0266306 10:0.00128145 11:-0.00185013 12:-0.00223244 13:0.000140812 14:1 15:-0.00349054 16:-0.0060947 17:0 18:0.00458977 19:0.00260239 20:0 21:0 22:0 23:1 24:0 25:0 26:0 27:0 28:0 29:0 30:0 31:0 32:0 33:0 34:0 35:0 
1 1:0 2:0.455581 3:0.100228 4:0.455581 5:-0.00855852 6:-0.0773945 7:-0.013301 8:-0.0025261 9:0.25332 10:-0.00270045 11:-0.00185013 12:0.0135939 13:0.0271625 14:0 15:0.0048917 16:-0.00293144 17:0 18:0.00504559 19:0.00623806 20:0 21:0 22:0 23:1 24:0 25:0 26:0 27:0 28:0 29:0 30:0 31:0 32:1 33:0 34:0 35:0 
1 1:0 2:0.43741 3:0.0863309 4:0.43741 5:0.00197725 6:-0.295337 7:0.00636562 8:-0.00332417 9:0.100825 10:-0.00286363 11:0.0136848 12:-0.00109699 13:-0.00731627 14:1 15:-0.00492854 16:0.00443894 17:0 18:0.00372618 19:0.00276726 20:0 21:0 22:0 23:1 24:0 25:0 26:0 27:0 28:0 29:0 30:0 31:0 32:0 33:0 34:0 35:0 
1 1:0 2:0.395939 3:0.0507614 4:0.395939 5:0.0129942 6:-0.36905 7:-0.00737515 8:-0.0025261 9:-0.241978 10:-0.00332328 11:-0.037011 12:0.00155162 13:0.00998729 14:0 15:-0.0106865 16:-0.00483205 17:1 18:0.00167839 19:0.00272342 20:0 21:0 22:1 23:1 24:0 25:0 26:0 27:0 28:1 29:0 30:0 31:0 32:0 33:0 34:0 35:0 
1 1:1 2:0.2 3:-5.55112e-017 4:0.2 5:0.00197725 6:-0.177257 7:-0.000966364 8:-0.0025261 9:0.491176 10:-0.00325732 11:-0.00148109 12:-0.0117779 13:0.032049 14:1 15:0.00165974 16:-0.00479611 17:0 18:0.0080631 19:0.0138395 20:0 21:0 22:0 23:1 24:0 25:0 26:0 27:0 28:0 29:0 30:0 31:0 32:0 33:0 34:0 35:0 
1 1:0 2:-0.0656455 3:-0.118162 4:-0.0656455 5:0.0129942 6:0.0581184 7:0.00305708 8:0.0044492 9:-0.0253143 10:-0.000769924 11:-0.00737899 12:-0.00317909 13:-0.132151 14:0 15:-0.0106865 16:-0.00196836 17:0 18:0.0316443 19:-0.00671981 20:0 21:0 22:0 23:1 24:0 25:0 26:0 27:0 28:0 29:0 30:0 31:0 32:0 33:0 34:0 35:1 
1 1:0 2:0.458904 3:0.0958904 4:0.458904 5:0.00737457 6:-0.609534 7:0.00140932 8:-0.00624256 9:-0.467289 10:-0.0025074 11:0.00699454 12:-0.00615216 13:0.0718692 14:0 15:-0.00588288 16:-0.0042043 17:0 18:-0.0165527 19:-0.00175629 20:0 21:0 22:0 23:1 24:0 25:0 26:0 27:0 28:0 29:0 30:0 31:0 32:0 33:0 34:0 35:0 
1 1:1 2:0.0474453 3:-0.0291971 4:0.0474453 5:-0.0102445 6:-0.0103705 7:0.000868714 8:0.00263785 9:0.0201314 10:0.0100219 11:-0.00480468 12:-0.000129959 13:-0.0968403 14:0 15:-0.000517298 16:0.00252779 17:1 18:0.00483317 19:-0.00553567 20:0 21:0 22:0 23:1 24:0 25:0 26:0 27:0 28:0 29:0 30:0 31:0 32:0 33:0 34:0 35:1 
1 1:0 2:0.2 3:1.38778e-017 4:0.2 5:0.0106812 6:-0.195457 7:0.0105849 8:-0.0102524 9:0.0174149 10:0.00890847 11:-0.00480468 12:-0.000129959 13:-0.0269195 14:0 15:0.00646052 16:0.00605498 17:0 18:0.00529876 19:-0.00175629 20:0 21:0 22:1 23:1 24:0 25:0 26:0 27:0 28:0 29:0 30:0 31:0 32:0 33:0 34:0 35:0 
1 1:0 2:0.148492 3:-0.0278422 4:0.148492 5:-0.00118857 6:-0.0654488 7:0.0105849 8:0.0100182 9:-0.0269257 10:-0.00335283 11:0.0136848 12:0.00677998 13:-0.0861276 14:0 15:-0.0106865 16:-0.00196836 17:0 18:2.10881e-005 19:0.00272342 20:0 21:0 22:1 23:1 24:0 25:0 26:0 27:0 28:0 29:0 30:0 31:0 32:0 33:0 34:0 35:0 
1 1:0 2:0.301587 3:0.042328 4:0.301587 5:0.00737457 6:-0.499353 7:0.0105849 8:-0.00624256 9:-0.150871 10:0.0037796 11:-0.037011 12:0.0135939 13:-0.216158 14:0 15:-0.00251503 16:-0.00382903 17:0 18:-0.0089815 19:0.00404864 20:1 21:0 22:0 23:1 24:0 25:0 26:0 27:0 28:0 29:0 30:0 31:0 32:0 33:0 34:0 35:0 
1 1:0 2:0.296482 3:0.040201 4:0.296482 5:0.00737457 6:-0.119128 7:0.00305708 8:0.0044492 9:0.746672 10:-0.00273061 11:-0.00268771 12:-0.0117779 13:0.0555345 14:0 15:0.0142631 16:0.00471629 17:0 18:0.0272494 19:-0.00601379 20:0 21:0 22:0 23:1 24:0 25:0 26:0 27:0 28:0 29:0 30:0 31:0 32:0 33:1 34:0 35:0 
1 1:0 2:0.336587 3:0.0235611 4:0.336587 5:-0.00424959 6:-0.525642 7:-0.00347661 8:-0.00566043 9:-0.298398 10:0.00890847 11:0.0136848 12:-0.00279944 13:0.0746267 14:1 15:0.00646052 16:0.00732772 17:0 18:-0.0197799 19:0.000347898 20:0 21:0 22:0 23:1 24:0 25:0 26:0 27:0 28:0 29:0 30:0 31:0 32:0 33:0 34:0 35:0 
1 1:1 2:0.109285 3:-0.0346513 4:0.109285 5:-0.00229984 6:-0.0444811 7:0.00140932 8:0.000253862 9:0.30159 10:0.00890847 11:0.00232889 12:0.00155162 13:-0.0359724 14:0 15:0.00646052 16:0.0289366 17:0 18:0.00122053 19:0.00404864 20:0 21:0 22:0 23:1 24:0 25:0 26:0 27:0 28:0 29:0 30:0 31:0 32:0 33:0 34:0 35:0 
1 1:0 2:0.32267 3:0.0500695 4:0.32267 5:-0.00424959 6:-0.0285566 7:0.000868714 8:0.0100182 9:0.0794256 10:0.0037796 11:-0.00185013 12:0.0023707 13:-0.0823861 14:0 15:0.0012351 16:-0.00360034 17:0 18:-0.00513801 19:-0.013254 20:0 21:0 22:0 23:1 24:0 25:0 26:0 27:0 28:0 29:1 30:0 31:0 32:0 33:0 34:0 35:0 
1 1:0 2:0.193722 3:0.0269058 4:0.193722 5:0.0437735 6:-0.135946 7:0.00140932 8:0.0184523 9:-0.28761 10:-0.00123088 11:-0.00175902 12:0.00217649 13:-0.00244223 14:0 15:-0.00790929 16:0.00732772 17:0 18:-0.00106267 19:-0.00671981 20:0 21:0 22:0 23:1 24:0 25:0 26:0 27:0 28:0 29:0 30:0 31:0 32:0 33:0 34:0 35:0 
1 1:1 2:0.177795 3:0.0165942 4:0.177795 5:-0.0181781 6:-0.0284817 7:-0.000665361 8:-0.000155678 9:0.465275 10:-0.00381029 11:0.00732539 12:-0.00255595 13:0.0523066 14:0 15:0.00331034 16:0.00605498 17:0 18:0.0113468 19:-0.00405298 20:0 21:0 22:1 23:1 24:0 25:0 26:0 27:0 28:0 29:0 30:0 31:0 32:0 33:0 34:0 35:0 
1 1:1 2:0.251465 3:0.0513745 4:0.251465 5:0.0129942 6:-0.0883123 7:0.00636562 8:-0.0025261 9:0.361029 10:-0.00270045 11:-0.037011 12:0.0135939 13:-0.0893501 14:0 15:0.0121562 16:-0.00293144 17:0 18:0.00959408 19:0.000803702 20:0 21:0 22:0 23:1 24:0 25:0 26:0 27:0 28:0 29:0 30:0 31:0 32:0 33:0 34:0 35:0 
1 1:0 2:0.204826 3:0.0317834 4:0.204826 5:-0.00118857 6:-0.11881 7:0.00636562 8:-0.00332417 9:0.24801 10:-0.0025074 11:-0.00737899 12:-0.0105182 13:-0.0041489 14:0 15:0.0142631 16:-0.0042043 17:0 18:0.00505136 19:-0.00175629 20:0 21:0 22:0 23:1 24:0 25:0 26:0 27:0 28:0 29:1 30:0 31:0 32:0 33:0 34:0 35:0 
1 1:0 2:0.156271 3:0.00411241 4:0.156271 5:-0.00118857 6:-0.231275 7:-0.013301 8:0.000578213 9:-1.38778e-017 10:0.000771071 11:0.00388373 12:-0.0117779 13:-0.0362505 14:0 15:0.00646052 16:0.0289366 17:0 18:-0.00832042 19:-0.00405298 20:0 21:0 22:1 23:1 24:0 25:0 26:0 27:0 28:0 29:0 30:0 31:0 32:0 33:0 34:0 35:0 
1 1:0 2:0.458056 3:0.0905459 4:0.458056 5:-0.0102445 6:-0.24669 7:-0.00347661 8:-0.00566043 9:-0.108184 10:-0.00332328 11:-0.037011 12:0.00218961 13:-0.0288416 14:0 15:-7.70143e-005 16:0.00443894 17:0 18:0.00441291 19:0.00404864 20:0 21:0 22:0 23:1 24:1 25:0 26:0 27:0 28:0 29:0 30:0 31:0 32:0 33:0 34:0 35:0 
1 1:0 2:0.213239 3:0.0346513 4:0.213239 5:-0.00229984 6:-0.0738855 7:0.000868714 8:0.0044492 9:0.270269 10:-0.0025074 11:0.00388373 12:-0.00615216 13:0.0352047 14:0 15:-0.00588288 16:-0.0042043 17:0 18:0.00103719 19:-0.00175629 20:0 21:0 22:1 23:1 24:0 25:0 26:0 27:0 28:1 29:0 30:0 31:0 32:0 33:0 34:0 35:0 
0.8761704889475772 1:0 2:0.296482 3:0.040201 4:0.296482 5:-0.00118857 6:-0.19386 7:0.0105849 8:-0.0025261 9:-0.11783 10:-0.00273061 11:-0.00198275 12:0.00217649 13:-0.0777806 14:0 15:-0.00251503 16:-0.0060947 17:0 18:0.00784457 19:0.00958784 20:0 21:0 22:0 23:2 24:0 25:0 26:0 27:0 28:0 29:0 30:1 31:0 32:0 33:0 34:0 35:0 
1 1:0 2:0.185063 3:-0.0198282 4:0.185063 5:0.0106812 6:-0.0468806 7:0.0137208 8:-0.0025261 9:-0.0576502 10:-0.00335283 11:-0.00148109 12:0.0221073 13:-0.00967932 14:0 15:0.0048917 16:0.0289366 17:0 18:-0.0103903 19:-0.00405298 20:0 21:0 22:2 23:1 24:0 25:0 26:0 27:0 28:0 29:0 30:0 31:0 32:0 33:0 34:0 35:0 
1 1:0 2:0.292546 3:0.0393812 4:0.292546 5:-0.00174828 6:-0.384829 7:-0.0196727 8:-0.00630459 9:-0.0499525 10:0.00128145 11:-0.037011 12:-0.000129959 13:0.0420577 14:0 15:-0.00530999 16:0.00605498 17:0 18:-0.00691395 19:0.00276726 20:0 21:0 22:0 23:1 24:0 25:0 26:0 27:0 28:1 29:0 30:0 31:0 32:0 33:0 34:0 35:0 
1 1:0 2:0.22561 3:0.0121951 4:0.22561 5:-0.00855676 6:-0.31289 7:-0.000665361 8:-0.00566043 9:0.0481336 10:-0.000769924 11:0.00357244 12:-0.000334465 13:0.0325068 14:0 15:-0.00530999 16:-0.00124075 17:0 18:0.0130433 19:0.00958784 20:0 21:0 22:0 23:1 24:0 25:0 26:0 27:0 28:0 29:0 30:1 31:0 32:0 33:0 34:0 35:0 
1 1:0 2:0.0518519 3:-0.148148 4:0.0518519 5:-0.00573529 6:-0.116313 7:-0.000428978 8:0.00111814 9:0.206012 10:-0.00325732 11:-0.000757374 12:0.0221073 13:-0.00126153 14:0 15:-0.00790929 16:0.000647573 17:0 18:0.00241397 19:0.00272342 20:0 21:0 22:0 23:1 24:0 25:0 26:0 27:0 28:0 29:0 30:0 31:0 32:0 33:0 34:0 35:0 
1 1:1 2:0.153783 3:0.00248036 4:0.153783 5:-0.0102445 6:-0.0433148 7:-0.00347661 8:-0.000155678 9:0.256172 10:-0.00325732 11:-0.00268771 12:0.00155162 13:-0.0676932 14:0 15:0.0142631 16:-0.0143477 17:0 18:0.00713008 19:0.000369551 20:0 21:0 22:0 23:1 24:0 25:0 26:0 27:0 28:0 29:0 30:0 31:0 32:0 33:0 34:0 35:0 
1 1:1 2:0.138482 3:-0.0372836 4:0.138482 5:-0.0181781 6:-0.0932708 7:-0.00737515 8:-0.0025261 9:0.976524 10:-0.00733484 11:-0.000258585 12:-0.00317909 13:0.201179 14:0 15:-0.000517298 16:0.0289366 17:0 18:0.0177043 19:-0.00405298 20:0 21:0 22:1 23:1 24:0 25:0 26:0 27:0 28:0 29:0 30:0 31:0 32:0 33:0 34:0 35:0 
1 1:0 2:0.0896191 3:-0.0492905 4:0.0896191 5:-0.0146811 6:-0.222549 7:-0.013301 8:0.0184523 9:-0.0613611 10:0.0100219 11:0.025567 12:-0.00317909 13:-0.103921 14:0 15:-0.0106865 16:-0.00483205 17:0 18:0.00551458 19:0.00272342 20:0 21:0 22:0 23:1 24:0 25:0 26:0 27:0 28:0 29:0 30:0 31:0 32:0 33:0 34:0 35:0 
1 1:0 2:0.136571 3:-0.0091047 4:0.136571 5:-0.00855676 6:-0.106394 7:0.0137208 8:-0.000155678 9:-0.247266 10:-0.00325732 11:0.0136848 12:0.0135939 13:0.0452344 14:0 15:0.0048917 16:-0.00382903 17:0 18:-0.0180625 19:0.0138395 20:0 21:0 22:0 23:1 24:0 25:0 26:0 27:0 28:0 29:0 30:0 31:0 32:0 33:1 34:0 35:0 
1 1:0 2:0.23168 3:-0.00755477 4:0.23168 5:0.00197725 6:-0.328179 7:0.0137208 8:-0.00332417 9:-0.0553257 10:0.0100219 11:-0.00480468 12:0.0221073 13:-0.168719 14:1 15:-7.70143e-005 16:0.0289366 17:0 18:-0.00216385 19:0.00220689 20:0 21:0 22:0 23:1 24:0 25:0 26:0 27:0 28:0 29:0 30:0 31:0 32:0 33:0 34:0 35:0 
1 1:0 2:0.258832 3:0.00349773 4:0.258832 5:-0.0102445 6:-0.123164 7:0.000868714 8:0.000578213 9:-0.132372 10:-0.000769924 11:0.00232889 12:0.0221073 13:-0.0154595 14:0 15:-0.00530999 16:-0.0060947 17:0 18:0.0176478 19:-0.0057122 20:0 21:0 22:0 23:1 24:1 25:0 26:0 27:0 28:0 29:0 30:0 31:0 32:0 33:0 34:0 35:1 
1 1:0 2:0.0884676 3:-0.0600316 4:0.0884676 5:-0.00424959 6:-0.133709 7:-0.0196727 8:0.0184523 9:-0.308183 10:0.00128145 11:0.0141877 12:0.0135939 13:0.147838 14:0 15:-0.00530999 16:0.00605498 17:0 18:-0.0270438 19:0.000347898 20:0 21:0 22:1 23:1 24:0 25:0 26:0 27:0 28:0 29:0 30:0 31:0 32:0 33:0 34:0 35:0 
1 1:0 2:0.0401003 3:-0.110276 4:0.0401003 5:0.0437735 6:-0.132688 7:0.00636562 8:-0.00566043 9:-0.11172 10:-0.00381029 11:0.00388373 12:0.0135939 13:0.0236714 14:0 15:0.00574903 16:-0.00483205 17:0 18:0.00824291 19:0.0138395 20:0 21:0 22:0 23:1 24:1 25:0 26:0 27:0 28:0 29:0 30:0 31:0 32:0 33:0 34:0 35:0 
1 1:0 2:0.248397 3:0.0524781 4:0.248397 5:0.00737457 6:-0.150123 7:0.00305708 8:-0.0025261 9:0.0734817 10:-0.0025074 11:0.00357244 12:-0.00615216 13:-0.0152339 14:0 15:-0.00588288 16:-0.0042043 17:0 18:-0.00560597 19:-0.00175629 20:0 21:0 22:0 23:1 24:1 25:0 26:0 27:0 28:0 29:0 30:0 31:0 32:0 33:0 34:0 35:0 
1 1:0 2:0.0879232 3:-0.0636685 4:0.0879232 5:0.0129942 6:-0.255203 7:0.00305708 8:0.0100182 9:-0.244194 10:-0.00332328 11:-0.00185013 12:-0.000129959 13:-0.00495618 14:0 15:-7.70143e-005 16:0.00732772 17:0 18:0.0088737 19:-0.00405298 20:0 21:0 22:1 23:2 24:0 25:0 26:0 27:0 28:0 29:0 30:0 31:0 32:0 33:0 34:0 35:0 
1 1:0 2:0.146565 3:-0.0305344 4:0.146565 5:-0.0146811 6:-0.182327 7:0.00305708 8:-0.0102524 9:-0.158979 10:-0.0025074 11:-0.000258585 12:-0.0117779 13:-0.0267768 14:1 15:-0.00790929 16:0.00732772 17:0 18:0.00861528 19:-0.00175629 20:0 21:0 22:0 23:1 24:0 25:0 26:0 27:0 28:1 29:0 30:0 31:0 32:0 33:0 34:0 35:0 
1 1:0 2:0.105263 3:-0.0350877 4:0.105263 5:-0.0181781 6:-0.133964 7:0.0137208 8:0.00111369 9:-0.169521 10:-0.000769924 11:-0.00480468 12:-0.00109699 13:-0.225609 14:0 15:-0.0106865 16:-0.00479611 17:0 18:0.00627622 19:-0.00553567 20:0 21:0 22:0 23:1 24:0 25:0 26:0 27:0 28:0 29:0 30:0 31:0 32:0 33:0 34:0 35:0 
1 1:0 2:0.106195 3:-0.0353982 4:0.106195 5:0.0437735 6:-0.0892032 7:0.0105849 8:0.0100182 9:-0.0367897 10:0.0100219 11:0.00732539 12:0.0135939 13:-0.0538436 14:0 15:-0.00251503 16:-0.00347876 17:0 18:0.0131653 19:0.00958784 20:0 21:0 22:0 23:1 24:0 25:0 26:0 27:0 28:0 29:0 30:1 31:0 32:0 33:0 34:0 35:0 
1 1:0 2:0.274194 3:0.0322581 4:0.274194 5:0.0130167 6:-0.298527 7:0.00857851 8:-0.0102524 9:-0.127076 10:-0.00123088 11:0.00232889 12:-0.0117779 13:-0.0295507 14:0 15:-0.00251503 16:-0.0143477 17:0 18:0.0146228 19:-0.00671981 20:0 21:0 22:0 23:1 24:0 25:0 26:0 27:1 28:0 29:0 30:0 31:0 32:0 33:0 34:0 35:0 
1 1:0 2:0.228152 3:0.0440294 4:0.228152 5:-0.00118857 6:-0.195625 7:0.00140932 8:0.0100182 9:0.125106 10:0.00890847 11:-0.00185013 12:0.00677998 13:-0.0687852 14:0 15:0.0142631 16:-0.00347876 17:0 18:-0.00363636 19:-0.00405298 20:0 21:0 22:1 23:1 24:0 25:0 26:0 27:0 28:0 29:0 30:0 31:0 32:0 33:0 34:0 35:0 
1 1:0 2:0.270968 3:0.0645161 4:0.270968 5:-0.0102445 6:-0.266079 7:0.00636562 8:0.00263785 9:0.164019 10:-0.00381029 11:-0.00737899 12:-0.000334465 13:-0.055195 14:0 15:-0.00790929 16:-0.0143477 17:0 18:0.0140018 19:0.00623806 20:0 21:0 22:0 23:1 24:0 25:0 26:0 27:0 28:0 29:0 30:0 31:1 32:0 33:0 34:0 35:0 
1 1:0 2:0.0474453 3:-0.0291971 4:0.0474453 5:0.0106812 6:-0.00365386 7:0.000868714 8:-0.00630459 9:-0.0184321 10:-0.00332328 11:-0.00268771 12:-0.000874371 13:-0.0714496 14:0 15:0.0048917 16:-0.00360034 17:0 18:0.0246513 19:0.00958784 20:0 21:0 22:0 23:1 24:0 25:0 26:0 27:0 28:0 29:0 30:0 31:1 32:0 33:0 34:0 35:1 
1 1:0 2:0.226034 3:0.012109 4:0.226034 5:0.0106812 6:-0.208445 7:0.0137208 8:0.00263785 9:-0.303483 10:0.00890847 11:0.025567 12:0.00155162 13:0.0424209 14:1 15:0.00646052 16:0.00443894 17:0 18:-0.00125291 19:0.00220689 20:0 21:0 22:0 23:1 24:0 25:0 26:0 27:0 28:0 29:0 30:0 31:0 32:0 33:0 34:0 35:0 
1 1:0 2:0.197734 3:0.0185376 4:0.197734 5:-0.00855676 6:-6.07195e-005 7:0.0137208 8:0.000578213 9:0.0270517 10:-0.00273061 11:0.0136848 12:-0.0117779 13:-0.122506 14:0 15:-0.00790929 16:0.00605498 17:0 18:0.00483544 19:-0.00601379 20:0 21:0 22:1 23:1 24:0 25:0 26:0 27:0 28:0 29:0 30:0 31:0 32:0 33:1 34:0 35:0 
1 1:0 2:0.232389 3:-0.00726216 4:0.232389 5:-0.00855676 6:-0.369041 7:-0.00737515 8:0.0101539 9:-0.327952 10:0.00180655 11:-0.00185013 12:0.0135939 13:0.031851 14:0 15:0.0012351 16:0.00443894 17:0 18:0.0106377 19:-0.0057122 20:0 21:0 22:0 23:1 24:0 25:0 26:0 27:0 28:0 29:0 30:0 31:0 32:0 33:0 34:0 35:0 
1 1:0 2:0.212077 3:0.00589102 4:0.212077 5:0.0437735 6:-0.165543 7:0.00305708 8:-0.000155678 9:-0.0107314 10:-0.00273061 11:-0.000258585 12:0.0135939 13:-0.0400699 14:0 15:0.00574903 16:-0.00483205 17:0 18:0.0177935 19:0.00220689 20:0 21:0 22:0 23:1 24:0 25:0 26:0 27:0 28:0 29:0 30:0 31:0 32:1 33:0 34:0 35:0 
1 1:0 2:0.227273 3:0.012987 4:0.227273 5:-0.0181781 6:-0.227856 7:-0.00516551 8:-0.00209975 9:-0.193152 10:-0.000769924 11:0.00232889 12:-0.00255595 13:-0.0623424 14:0 15:0.00165974 16:-0.00360034 17:0 18:0.0159315 19:0.00958784 20:0 21:0 22:0 23:1 24:0 25:0 26:0 27:0 28:0 29:0 30:0 31:0 32:0 33:0 34:0 35:0 
1 1:0 2:0.327645 3:0.0500569 4:0.327645 5:-0.00229984 6:-0.397127 7:-0.00680823 8:-0.000155678 9:-0.0195776 10:0.0037796 11:-0.037011 12:0.00217649 13:0.0577252 14:0 15:0.0048917 16:0.00252779 17:0 18:-0.0396498 19:0.00404864 20:0 21:0 22:0 23:1 24:0 25:0 26:0 27:0 28:0 29:0 30:1 31:0 32:0 33:0 34:0 35:0 
1 1:0 2:0.1 3:-6.93889e-018 4:0.1 5:0.00197725 6:-0.0233665 7:-0.00680823 8:0.0184523 9:-0.0652806 10:-0.00335283 11:-0.00185013 12:0.00218961 13:0.120999 14:1 15:0.00646052 16:0.00443894 17:0 18:-0.00811368 19:-0.00553567 20:0 21:0 22:0 23:1 24:0 25:0 26:0 27:0 28:0 29:0 30:0 31:0 32:0 33:1 34:0 35:0 
1 1:1 2:0 3:-0.137931 4:0 5:-0.00118857 6:0.149938 7:-0.00680823 8:0.0184523 9:0.016166 10:0.0194542 11:-0.00198275 12:-0.00279944 13:-0.0099871 14:0 15:-0.00492397 16:0.00443894 17:0 18:0.016839 19:0.0138395 20:0 21:0 22:0 23:1 24:0 25:0 26:0 27:0 28:0 29:0 30:0 31:0 32:0 33:0 34:0 35:0 
1 1:0 2:0.206235 3:0.0335731 4:0.206235 5:-0.0058672 6:-0.136581 7:-0.013301 8:-0.00332417 9:0.0384867 10:0.0100219 11:0.0136848 12:-0.0117779 13:-0.189061 14:0 15:0.00165974 16:-0.00293144 17:0 18:0.00180892 19:0.00220689 20:0 21:0 22:0 23:2 24:0 25:0 26:0 27:0 28:0 29:0 30:0 31:0 32:0 33:0 34:0 35:0 
1 1:1 2:0.14386 3:0.0350877 4:0.14386 5:0.0106812 6:-0.137421 7:0.0161474 8:-0.00363048 9:0.577931 10:-0.00325732 11:-0.00268771 12:-0.00571812 13:0.246334 14:0 15:0.0048917 16:0.00252779 17:0 18:0.0120722 19:0.00404864 20:0 21:0 22:0 23:1 24:0 25:0 26:0 27:0 28:0 29:0 30:0 31:0 32:0 33:0 34:0 35:0 
1 1:0 2:0.22561 3:0.0121951 4:0.22561 5:-0.0058672 6:-0.226069 7:-0.00737515 8:-0.00566043 9:-0.226954 10:0.0194542 11:0.0141877 12:0.0023707 13:-0.0214574 14:1 15:0.00646052 16:-0.00196836 17:0 18:-0.0171654 19:-0.0057122 20:0 21:0 22:0 23:1 24:0 25:0 26:0 27:0 28:0 29:0 30:0 31:0 32:0 33:0 34:0 35:0 
1 1:0 2:0.130137 3:-0.0410959 4:0.130137 5:0.00737457 6:-0.264854 7:-0.000966364 8:-0.00566043 9:-0.20911 10:-0.00325732 11:-0.00175902 12:0.00677998 13:0.0380863 14:0 15:-7.70143e-005 16:0.00605498 17:0 18:-0.00407404 19:0.00272342 20:0 21:0 22:0 23:1 24:0 25:0 26:0 27:0 28:0 29:0 30:0 31:0 32:0 33:0 34:0 35:0 
0.5924742385282777 1:1 2:-0.0501044 3:-0.104384 4:-0.0501044 5:-0.00118857 6:0.274255 7:-0.00166005 8:-0.00209975 9:-0.121808 10:0.0194542 11:0.025567 12:0.00677998 13:0.116433 14:0 15:-0.00530999 16:-0.00124075 17:1 18:-0.02829 19:0.0138395 20:0 21:0 22:0 23:1 24:0 25:0 26:0 27:0 28:1 29:0 30:0 31:0 32:0 33:0 34:0 35:0 
1 1:1 2:0.0693878 3:-0.0408163 4:0.0693878 5:0.0129942 6:-0.0467018 7:0.00636562 8:-0.00209975 9:-0.00264508 10:0.0100219 11:-0.000258585 12:-0.00279944 13:-0.0336397 14:0 15:0.00646052 16:-0.00124075 17:1 18:-0.00662065 19:0.00958784 20:0 21:0 22:1 23:1 24:0 25:0 26:0 27:0 28:0 29:0 30:0 31:0 32:0 33:0 34:0 35:0 
1 1:0 2:0.328767 3:0.0547945 4:0.328767 5:0.0437735 6:-0.478457 7:-0.0196727 8:0.0184523 9:-0.487735 10:-0.00325732 11:0.00388373 12:-0.0105182 13:0.116288 14:0 15:-0.00790929 16:0.0289366 17:1 18:-0.00686849 19:-0.00671981 20:0 21:0 22:0 23:1 24:0 25:0 26:0 27:0 28:0 29:0 30:0 31:0 32:0 33:0 34:0 35:0 
1 1:0 2:0.121704 3:-0.0666473 4:0.121704 5:0.0129942 6:-0.288006 7:-0.000966364 8:-0.00624256 9:-0.228421 10:-0.000769924 11:-0.00185013 12:0.00677998 13:-0.0115608 14:0 15:-0.00251503 16:0.0289366 17:1 18:0.00607162 19:0.00958784 20:0 21:0 22:0 23:1 24:0 25:0 26:0 27:0 28:1 29:0 30:0 31:0 32:0 33:0 34:0 35:0 
1 1:0 2:0.0989918 3:-0.0384968 4:0.0989918 5:-0.00118857 6:-0.0389138 7:0.0137208 8:0.0101539 9:0.0935485 10:-0.00381029 11:0.00388373 12:-0.000334465 13:0.0714127 14:0 15:0.00165974 16:0.00443894 17:0 18:-0.010682 19:0.00260239 20:0 21:0 22:0 23:1 24:0 25:0 26:0 27:0 28:0 29:0 30:0 31:0 32:0 33:0 34:0 35:0 
1 1:0 2:0.247001 3:-0.0196292 4:0.247001 5:0.00197725 6:-0.222317 7:0.0105849 8:0.0044492 9:-0.0477706 10:-0.000769924 11:0.025567 12:0.00218961 13:-0.0171191 14:1 15:-0.00530999 16:-0.00479611 17:0 18:-0.00467172 19:0.00404864 20:0 21:0 22:0 23:1 24:0 25:0 26:0 27:1 28:0 29:0 30:0 31:0 32:0 33:0 34:0 35:0 
1 1:1 2:0.105263 3:-0.0350877 4:0.105263 5:-0.00855676 6:-0.141167 7:0.00636562 8:-0.0102524 9:0.118781 10:-0.000769924 11:0.0136848 12:-0.0117779 13:0.0463864 14:0 15:-0.00492854 16:-0.00479611 17:1 18:0.00593914 19:0.00276726 20:0 21:0 22:0 23:1 24:0 25:0 26:0 27:0 28:0 29:0 30:0 31:0 32:0 33:0 34:0 35:0 
1 1:0 2:0.32 3:0.0533333 4:0.32 5:0.00115378 6:-0.253454 7:0.0137208 8:-0.0018813 9:-0.128706 10:-0.00325732 11:0.00388373 12:0.00218961 13:0.0202902 14:0 15:0.0121562 16:-0.00479611 17:0 18:-0.000406346 19:0.00272342 20:0 21:0 22:1 23:1 24:1 25:0 26:0 27:0 28:0 29:0 30:0 31:0 32:0 33:0 34:0 35:0 
1 1:0 2:0.143223 3:-0.0306905 4:0.143223 5:-0.00174828 6:-0.216591 7:0.00140932 8:0.000578213 9:-0.0301132 10:-0.000769924 11:-0.00480468 12:-0.000129959 13:-0.163931 14:0 15:-0.00790929 16:-0.0060947 17:0 18:0.0221812 19:-0.0057122 20:0 21:0 22:0 23:1 24:0 25:0 26:0 27:0 28:1 29:0 30:0 31:0 32:0 33:0 34:0 35:1 
1 1:0 2:0.186866 3:-0.0195764 4:0.186866 5:0.00197725 6:-0.158323 7:-0.000665361 8:-0.00332417 9:0.153642 10:-0.00667065 11:0.00232889 12:-0.00317909 13:-0.0550506 14:1 15:-0.00251503 16:0.000647573 17:0 18:0.0055438 19:-0.00405298 20:0 21:0 22:1 23:1 24:0 25:0 26:0 27:0 28:0 29:0 30:0 31:0 32:0 33:0 34:0 35:0 
1 1:0 2:0.406946 3:0.0314548 4:0.406946 5:0.00737457 6:-0.0865574 7:-0.00737515 8:-0.0025261 9:0.262618 10:0.0037796 11:0.0141877 12:7.55969e-005 13:0.0102055 14:1 15:-7.70143e-005 16:0.000647573 17:0 18:-0.00134997 19:0.000803702 20:0 21:0 22:0 23:1 24:0 25:0 26:0 27:0 28:0 29:0 30:0 31:0 32:0 33:0 34:1 35:0 
0.3342410960979868 1:0 2:0.0894533 3:-0.0563225 4:0.0894533 5:0.0130167 6:-0.313315 7:-0.00347661 8:-0.00624256 9:0.108784 10:-0.000769924 11:0.00232889 12:-0.00317909 13:0.0800167 14:0 15:-0.00492854 16:-0.00124075 17:0 18:0.0101243 19:0.00623806 20:0 21:0 22:0 23:1 24:0 25:0 26:0 27:1 28:0 29:0 30:0 31:0 32:0 33:1 34:0 35:0 
1 1:0 2:0.117851 3:-0.0242634 4:0.117851 5:0.0106812 6:-0.185088 7:0.0105849 8:-0.00624256 9:0.0890278 10:-0.00325732 11:0.00732539 12:-0.00109699 13:0.009205 14:0 15:-0.00492854 16:-0.00483205 17:0 18:-0.000254455 19:-0.00405298 20:0 21:0 22:1 23:1 24:0 25:0 26:0 27:0 28:1 29:0 30:0 31:0 32:0 33:0 34:0 35:0 
1 1:1 2:0.146082 3:-0.00265604 4:0.146082 5:-0.00424959 6:-0.0861304 7:-0.013301 8:-0.00459058 9:0.0798911 10:-0.00123088 11:0.00357244 12:0.0221073 13:-0.00115108 14:0 15:0.00646052 16:0.00471629 17:1 18:0.00645521 19:0.00220689 20:0 21:0 22:0 23:1 24:1 25:0 26:0 27:0 28:0 29:0 30:0 31:0 32:0 33:0 34:0 35:0 
1 1:1 2:0.278929 3:0.0636685 4:0.278929 5:0.00737457 6:0.211524 7:-0.00516551 8:-0.0025261 9:0.169152 10:-0.00335283 11:-0.00182434 12:-0.00279944 13:-0.149978 14:0 15:0.00165974 16:-0.0143477 17:1 18:0.00746488 19:-0.00553567 20:0 21:0 22:0 23:1 24:0 25:0 26:0 27:0 28:0 29:0 30:0 31:0 32:0 33:0 34:0 35:0 
1 1:0 2:0.256901 3:0.00273299 4:0.256901 5:0.0129942 6:-0.299492 7:-0.000966364 8:0.0101539 9:-0.0882555 10:-0.000769924 11:-0.00185013 12:-0.000334465 13:-0.0328929 14:0 15:-0.00251503 16:-0.00293144 17:1 18:-0.00427583 19:0.00623806 20:0 21:0 22:0 23:1 24:0 25:0 26:0 27:1 28:0 29:0 30:0 31:0 32:1 33:0 34:0 35:0 
1 1:0 2:0.250489 3:0.0234834 4:0.250489 5:-0.00855676 6:-0.219601 7:0.00636562 8:-0.00209975 9:-0.187591 10:0.0194542 11:-0.037011 12:0.0135939 13:-0.0635594 14:0 15:0.0121562 16:0.00605498 17:1 18:-0.00114979 19:-0.00553567 20:0 21:0 22:0 23:1 24:0 25:0 26:0 27:0 28:0 29:0 30:1 31:0 32:0 33:0 34:0 35:0 
1 1:0 2:0.122867 3:-0.0204778 4:0.122867 5:-0.00573529 6:-0.0904726 7:-0.00347661 8:-0.00210731 9:0.0982176 10:-0.00286363 11:-0.037011 12:-0.0105182 13:0.161598 14:0 15:-0.00530999 16:0.00732772 17:0 18:0.00422456 19:0.000803702 20:0 21:0 22:0 23:1 24:1 25:0 26:0 27:0 28:0 29:0 30:0 31:0 32:0 33:0 34:0 35:0 
1 1:0 2:0.457666 3:0.0686499 4:0.457666 5:0.0437735 6:-0.374267 7:0.0137208 8:-0.000155678 9:-0.123928 10:-0.000769924 11:0.00232889 12:-0.00571812 13:-0.0509165 14:0 15:-0.00036086 16:-0.00347876 17:0 18:0.00406435 19:0.000369551 20:0 21:0 22:0 23:1 24:0 25:0 26:0 27:0 28:0 29:0 30:0 31:0 32:0 33:0 34:0 35:0 
1 1:0 2:0.103774 3:-0.0566038 4:0.103774 5:0.0129942 6:-0.158815 7:0.00305708 8:0.0044492 9:-0.0434539 10:-0.00733484 11:-0.00480468 12:-0.000129959 13:-0.0998674 14:0 15:-0.000517298 16:-0.00483205 17:0 18:0.00438321 19:0.00272342 20:0 21:0 22:0 23:1 24:1 25:0 26:0 27:0 28:0 29:0 30:0 31:0 32:0 33:0 34:0 35:0 
1 1:0 2:0.168776 3:-0.0168776 4:0.168776 5:-0.00573529 6:-0.0976871 7:0.000933507 8:-0.0025261 9:-0.0256915 10:-0.00332328 11:-0.00185013 12:-0.0117779 13:-0.0710226 14:0 15:-0.00251503 16:0.0289366 17:0 18:0.0194492 19:0.00958784 20:0 21:0 22:0 23:1 24:0 25:0 26:0 27:0 28:0 29:0 30:0 31:1 32:0 33:0 34:0 35:0 
1 1:0 2:0.23796 3:0.0509915 4:0.23796 5:0.0106812 6:-0.516798 7:-0.000966364 8:-0.00624256 9:-0.220658 10:0.0100219 11:0.00732539 12:0.0135939 13:0.220496 14:0 15:0.00646052 16:-0.00124075 17:0 18:-0.00432672 19:0.000369551 20:0 21:0 22:0 23:1 24:0 25:0 26:0 27:0 28:0 29:0 30:1 31:0 32:0 33:0 34:0 35:0 
1 1:0 2:0.368286 3:0.0716113 4:0.368286 5:0.000589152 6:-0.639834 7:-0.000402756 8:0.0184523 9:0.237787 10:0.00180655 11:0.00357244 12:-0.00255595 13:-0.153823 14:0 15:0.0121562 16:-0.00347876 17:0 18:0.000439972 19:0.00623806 20:0 21:0 22:0 23:1 24:0 25:0 26:0 27:0 28:0 29:0 30:0 31:0 32:0 33:0 34:0 35:0 
1 1:0 2:0.295936 3:0.0168571 4:0.295936 5:-0.00118857 6:-0.256507 7:-0.0196727 8:-0.000155678 9:0.0390399 10:-0.000710021 11:-0.037011 12:-0.00109699 13:0.0473051 14:0 15:-0.00530999 16:0.00732772 17:0 18:-0.0130629 19:-0.00405298 20:0 21:0 22:1 23:1 24:0 25:0 26:0 27:0 28:0 29:0 30:0 31:0 32:0 33:0 34:0 35:0 
1 1:0 2:0.112797 3:-0.0661221 4:0.112797 5:0.00197725 6:0.0946382 7:0.000933507 8:0.0184523 9:0.0135291 10:-0.00273061 11:-0.000258585 12:-0.0105182 13:-0.076416 14:1 15:0.00331034 16:-0.00479611 17:0 18:0.0166043 19:0.00272342 20:0 21:0 22:1 23:1 24:0 25:0 26:0 27:0 28:0 29:0 30:1 31:0 32:0 33:0 34:0 35:0 
1 1:0 2:0.13913 3:-0.0347826 4:0.13913 5:0.0129942 6:-0.189639 7:0.00636562 8:-0.00209975 9:-0.098954 10:-0.000769924 11:-0.00268771 12:0.0135939 13:0.0556799 14:0 15:0.0142631 16:-0.00293144 17:0 18:-0.00613849 19:-0.00207511 20:0 21:0 22:0 23:1 24:0 25:0 26:0 27:0 28:0 29:0 30:0 31:0 32:0 33:1 34:0 35:0 
1 1:0 2:0.196137 3:0.0267459 4:0.196137 5:-0.0058672 6:-0.196373 7:0.0105849 8:0.0044492 9:0.138836 10:-0.0025074 11:0.0136848 12:-0.0105182 13:0.0602029 14:0 15:0.00574903 16:-0.0042043 17:0 18:-0.00119506 19:-0.00175629 20:0 21:0 22:1 23:1 24:0 25:0 26:0 27:0 28:0 29:0 30:0 31:0 32:0 33:0 34:0 35:0 
1 1:0 2:0.117121 3:-0.0268402 4:0.117121 5:0.0130167 6:-0.11089 7:0.0137208 8:-0.0025261 9:0.0925861 10:-0.00476114 11:0.00357244 12:-0.00279944 13:-0.053637 14:0 15:-0.00790929 16:-0.00347876 17:0 18:-0.00453073 19:0.00276726 20:0 21:0 22:1 23:1 24:0 25:0 26:0 27:1 28:0 29:0 30:0 31:0 32:0 33:0 34:0 35:0 
1 1:0 2:0.599553 3:0.111857 4:0.599553 5:-0.00855676 6:-0.146133 7:0.0137208 8:-0.0018813 9:0.182168 10:-0.00273061 11:-0.00480468 12:-0.00571812 13:0.155552 14:0 15:-0.00343388 16:-0.00483205 17:0 18:0.0115796 19:0.0138395 20:0 21:0 22:0 23:1 24:0 25:0 26:0 27:0 28:0 29:1 30:0 31:0 32:0 33:0 34:0 35:0 
1 1:0 2:0.133706 3:-0.0738376 4:0.133706 5:-0.00424959 6:-0.139443 7:-0.00166005 8:0.000578213 9:-0.346749 10:-0.000769924 11:0.00388373 12:-0.0105182 13:0.173236 14:0 15:-0.00251503 16:-0.00347876 17:1 18:-0.01757 19:-0.00175629 20:0 21:0 22:0 23:1 24:0 25:0 26:0 27:0 28:0 29:0 30:0 31:0 32:0 33:0 34:0 35:0 
1 1:0 2:0.154867 3:-0.0265487 4:0.154867 5:0.0106812 6:-0.108824 7:0.0105849 8:-0.0102524 9:0.186806 10:-0.00476114 11:-0.00198275 12:-0.000874371 13:-0.0886353 14:0 15:0.0121562 16:-0.00269397 17:0 18:-0.0253724 19:0.00623806 20:0 21:0 22:0 23:1 24:0 25:0 26:0 27:0 28:0 29:0 30:0 31:0 32:0 33:0 34:0 35:0 
1 1:1 2:0.026087 3:-0.173913 4:0.026087 5:-0.0146811 6:-0.122021 7:-0.0196727 8:-0.00630459 9:-0.0213514 10:-0.000769924 11:-0.00353261 12:0.0023707 13:-0.00670327 14:0 15:-0.00530999 16:-0.00360034 17:1 18:-0.00073478 19:0.00260239 20:0 21:0 22:0 23:1 24:1 25:0 26:0 27:0 28:0 29:0 30:0 31:0 32:0 33:0 34:0 35:0 
1 1:0 2:0.212833 3:0.00625978 4:0.212833 5:0.00737457 6:-0.147778 7:0.00857851 8:-0.00459058 9:0.0638821 10:0.00180655 11:-0.037011 12:-0.00571812 13:-0.00329282 14:0 15:-0.00349054 16:-0.0060947 17:0 18:0.000443232 19:-0.00601379 20:0 21:0 22:0 23:1 24:0 25:0 26:0 27:0 28:0 29:0 30:0 31:0 32:1 33:1 34:0 35:0 
1 1:0 2:0.135517 3:-0.0101637 4:0.135517 5:-0.0102445 6:-0.179634 7:-0.00737515 8:0.000578213 9:0.121252 10:-0.00325732 11:-0.00268771 12:0.00155162 13:-0.0359452 14:0 15:-0.000517298 16:0.0289366 17:0 18:-0.0106748 19:-0.00405298 20:0 21:0 22:1 23:1 24:0 25:0 26:0 27:0 28:0 29:0 30:0 31:0 32:0 33:0 34:0 35:0 
1 1:0 2:0.395101 3:0.0513631 4:0.395101 5:0.0129942 6:-0.290509 7:0.0137208 8:-0.000155678 9:-0.369373 10:-0.00286363 11:-0.00185013 12:-0.0117779 13:0.0320461 14:0 15:-0.00251503 16:0.00605498 17:1 18:-0.0138275 19:0.00404864 20:0 21:0 22:0 23:1 24:0 25:0 26:0 27:0 28:0 29:0 30:0 31:0 32:0 33:0 34:0 35:0 
1 1:0 2:0.28169 3:0.0684105 4:0.28169 5:0.0106812 6:-0.260805 7:-0.000966364 8:-0.00630459 9:-0.168206 10:0.00128145 11:0.00232889 12:0.00155162 13:0.0417176 14:0 15:-7.70143e-005 16:0.00605498 17:0 18:-0.00244372 19:0.000803702 20:0 21:0 22:0 23:1 24:0 25:0 26:0 27:0 28:1 29:0 30:0 31:0 32:0 33:0 34:0 35:0 
1 1:0 2:0.349736 3:0.0366002 4:0.349736 5:0.0129942 6:-0.408114 7:0.00305708 8:0.00111369 9:-4.16334e-017 10:-0.000769924 11:0.025567 12:0.00217649 13:0.00728215 14:0 15:-0.00251503 16:-0.00124075 17:0 18:-0.0116019 19:0.00404864 20:0 21:0 22:0 23:2 24:0 25:0 26:0 27:0 28:0 29:0 30:0 31:0 32:0 33:0 34:0 35:0 
1 1:1 2:0.120235 3:0.0175953 4:0.120235 5:0.00737457 6:-0.0668476 7:0.00140932 8:-0.00209975 9:0.171724 10:-0.00273061 11:-0.037011 12:0.00677998 13:-0.000407438 14:0 15:0.00646052 16:-0.00483205 17:1 18:0.00208286 19:0.00276726 20:0 21:0 22:0 23:1 24:0 25:0 26:0 27:0 28:0 29:1 30:0 31:0 32:0 33:0 34:0 35:0 
1 1:1 2:0.0676819 3:-0.115059 4:0.0676819 5:0.0106812 6:-0.203405 7:0.00636562 8:0.00111369 9:0.236597 10:0.00128145 11:0.025567 12:0.00218961 13:-0.0114193 14:0 15:-0.00530999 16:0.0289366 17:0 18:-0.00272356 19:0.0138395 20:0 21:0 22:0 23:1 24:0 25:0 26:0 27:0 28:0 29:0 30:0 31:0 32:0 33:0 34:0 35:0 
1 1:0 2:0.199147 3:-0.059744 4:0.199147 5:0.00197725 6:-0.0199598 7:-0.013301 8:0.000578213 9:0.218791 10:0.00180655 11:0.00232889 12:0.00677998 13:0.0229172 14:1 15:-0.00492854 16:0.00732772 17:0 18:0.00412274 19:-0.013254 20:0 21:0 22:0 23:1 24:0 25:0 26:0 27:0 28:0 29:0 30:0 31:0 32:0 33:0 34:0 35:0 
1 1:0 2:0.102139 3:-0.044522 4:0.102139 5:-0.00855676 6:-0.285818 7:-0.00516551 8:-0.0025261 9:0.0219852 10:-0.00325732 11:-0.000258585 12:0.00218961 13:0.0731852 14:0 15:0.0142631 16:0.00471629 17:0 18:-0.0170053 19:-0.0057122 20:0 21:0 22:0 23:1 24:0 25:0 26:0 27:0 28:0 29:0 30:0 31:0 32:0 33:1 34:0 35:1 
1 1:0 2:0.0935193 3:-0.0442986 4:0.0935193 5:-0.0102445 6:-0.218854 7:0.0161474 8:-0.00624256 9:-0.0133304 10:-0.000710021 11:-0.00185013 12:-0.0117779 13:0.0570963 14:0 15:-0.00492854 16:-0.00347876 17:0 18:0.00196866 19:0.0138395 20:0 21:0 22:0 23:1 24:0 25:0 26:0 27:0 28:0 29:0 30:0 31:0 32:0 33:0 34:0 35:0 
1 1:1 2:0.0945559 3:-0.00573066 4:0.0945559 5:-0.00424959 6:-0.118439 7:0.00305708 8:0.0100182 9:0.179932 10:-0.0025074 11:0.025567 12:-0.00615216 13:0.114499 14:0 15:-0.00588288 16:-0.0042043 17:0 18:0.00218973 19:-0.00175629 20:0 21:0 22:0 23:1 24:0 25:0 26:0 27:0 28:0 29:0 30:0 31:0 32:0 33:0 34:0 35:0 
1 1:0 2:0.204769 3:0.0308555 4:0.204769 5:0.0437735 6:-0.205677 7:0.000868714 8:-0.00209975 9:-0.128129 10:0.00890847 11:0.0141877 12:0.00677998 13:0.0173371 14:0 15:0.00646052 16:-0.00196836 17:0 18:-0.0235163 19:0.00220689 20:0 21:0 22:0 23:1 24:0 25:0 26:0 27:0 28:0 29:0 30:0 31:0 32:0 33:0 34:0 35:0 
1 1:1 2:0.144534 3:-0.00370599 4:0.144534 5:0.0129942 6:-0.268341 7:-0.00347661 8:0.0101539 9:0.000586361 10:-0.00123088 11:0.025567 12:0.0135939 13:-0.0416633 14:0 15:-0.0106865 16:0.00732772 17:1 18:0.00419577 19:0.000347898 20:0 21:0 22:0 23:1 24:0 25:0 26:0 27:0 28:0 29:0 30:0 31:0 32:0 33:0 34:0 35:0 
1 1:0 2:0.166667 3:-0.0196078 4:0.166667 5:0.0130167 6:-0.10069 7:-0.013301 8:0.0044492 9:0.301463 10:0.0100219 11:0.0136848 12:-0.000129959 13:0.0884132 14:0 15:0.00165974 16:-0.00124075 17:0 18:0.0146317 19:-0.013254 20:0 21:0 22:0 23:1 24:0 25:0 26:0 27:1 28:0 29:0 30:1 31:0 32:0 33:0 34:0 35:0 
1 1:0 2:0.278409 3:0.0340909 4:0.278409 5:-0.00424959 6:-0.274535 7:0.0137208 8:0.00263785 9:-0.067675 10:-0.00325732 11:0.025567 12:0.00677998 13:-0.0258743 14:0 15:0.0121562 16:0.00443894 17:0 18:0.0143555 19:-0.00175629 20:0 21:0 22:1 23:1 24:0 25:0 26:0 27:0 28:0 29:0 30:0 31:0 32:0 33:0 34:0 35:1 
1 1:0 2:0.0889571 3:-0.0122699 4:0.0889571 5:0.0437735 6:-0.0513387 7:0.0105849 8:0.000578213 9:0.0145981 10:-0.00273061 11:-0.00185013 12:0.00218961 13:0.106545 14:0 15:-0.00790929 16:-0.00347876 17:0 18:-0.0306084 19:-0.00207511 20:0 21:0 22:0 23:1 24:1 25:0 26:0 27:0 28:0 29:0 30:0 31:0 32:0 33:0 34:0 35:0 
1 1:0 2:0.140496 3:-0.0330579 4:0.140496 5:-0.00855676 6:-0.212146 7:-0.013301 8:0.0184523 9:-0.257002 10:-0.00273061 11:-0.00480468 12:-0.00279944 13:0.104269 14:0 15:0.00574903 16:-0.0060947 17:0 18:-0.0198444 19:0.00623806 20:0 21:0 22:0 23:1 24:0 25:0 26:0 27:0 28:1 29:0 30:0 31:0 32:0 33:0 34:0 35:0 
1 1:0 2:0.232924 3:0.044226 4:0.232924 5:0.00197725 6:-0.545452 7:0.00305708 8:-0.0025261 9:0.0222747 10:0.0100219 11:0.0141877 12:-0.00279944 13:3.86757e-005 14:1 15:-0.00530999 16:-0.00196836 17:0 18:-0.0138196 19:-0.00671981 20:0 21:0 22:0 23:1 24:0 25:0 26:0 27:0 28:0 29:0 30:0 31:0 32:0 33:0 34:0 35:0 
1 1:0 2:0.147959 3:-0.0306122 4:0.147959 5:0.0437735 6:-0.202108 7:0.0161474 8:-0.0025261 9:-0.00112154 10:-0.000710021 11:0.0136848 12:-0.000129959 13:0.0817859 14:0 15:-0.00530999 16:0.000647573 17:0 18:0.00233053 19:0.000369551 20:0 21:0 22:0 23:1 24:0 25:0 26:0 27:0 28:0 29:1 30:0 31:0 32:0 33:0 34:0 35:0 
1 1:1 2:-0.0276243 3:-0.0773481 4:-0.0276243 5:-0.00855676 6:-0.0852726 7:0.00305708 8:0.0184523 9:0.278856 10:0.000771071 11:0.0136848 12:-0.00109699 13:-0.2793 14:0 15:-0.0106865 16:-0.00483205 17:0 18:-0.0272358 19:0.00623806 20:0 21:0 22:0 23:1 24:0 25:0 26:0 27:0 28:0 29:0 30:0 31:0 32:0 33:0 34:0 35:0 
1 1:0 2:0.111266 3:-0.0611961 4:0.111266 5:-0.00118857 6:-0.0934199 7:0.0105849 8:0.000578213 9:0.113084 10:0.0100219 11:-0.037011 12:0.0135939 13:0.0340968 14:0 15:-0.000517298 16:0.000647573 17:0 18:0.0120917 19:0.000803702 20:0 21:0 22:0 23:1 24:0 25:0 26:0 27:0 28:0 29:0 30:0 31:0 32:0 33:0 34:0 35:0 
1 1:0 2:0.555773 3:0.0978474 4:0.555773 5:-0.0058672 6:-0.419758 7:-0.00737515 8:0.0100182 9:-0.423794 10:-0.000769924 11:0.00388373 12:-0.00109699 13:0.0689294 14:0 15:0.00331034 16:-0.00360034 17:0 18:0.00184361 19:0.000347898 20:0 21:0 22:0 23:1 24:0 25:0 26:0 27:0 28:0 29:0 30:0 31:0 32:0 33:0 34:0 35:0 
0.8559112416692501 1:1 2:0.0759494 3:-0.0759494 4:0.0759494 5:0.00115378 6:0.0357989 7:0.0137208 8:0.0100182 9:0.102099 10:-0.000769924 11:-0.00185013 12:0.00218961 13:-0.0139937 14:0 15:0.00646052 16:0.00471629 17:0 18:-0.00847716 19:0.000369551 20:0 21:0 22:0 23:1 24:0 25:0 26:0 27:0 28:0 29:0 30:0 31:0 32:0 33:0 34:0 35:0 
1 1:0 2:0.130481 3:-0.0147317 4:0.130481 5:0.0130167 6:-0.0588152 7:-0.00347661 8:0.00263785 9:0.0226512 10:-0.00123088 11:-0.00737899 12:-0.00317909 13:0.0123504 14:0 15:0.0012351 16:0.00443894 17:0 18:0.012933 19:-0.0057122 20:0 21:0 22:0 23:1 24:0 25:0 26:0 27:1 28:0 29:0 30:0 31:0 32:0 33:0 34:0 35:0 
1 1:1 2:0.12846 3:-0.0156658 4:0.12846 5:-0.0146811 6:-0.0279717 7:0.0105849 8:-0.0025261 9:0.257652 10:-0.00273061 11:-0.00268771 12:-0.00223244 13:0.173659 14:0 15:-0.000517298 16:0.0289366 17:1 18:0.0245301 19:0.00958784 20:0 21:0 22:0 23:1 24:0 25:0 26:0 27:0 28:0 29:0 30:0 31:0 32:1 33:0 34:0 35:0 
1 1:0 2:0.162437 3:-0.0203046 4:0.162437 5:0.0129942 6:-0.303602 7:-0.0196727 8:0.000253862 9:-0.0869652 10:-0.00325732 11:0.00388373 12:-0.00279944 13:-0.0248615 14:0 15:-0.00251503 16:-0.00347876 17:0 18:0.00826537 19:0.000369551 20:0 21:0 22:0 23:1 24:0 25:0 26:0 27:0 28:1 29:0 30:0 31:0 32:0 33:0 34:0 35:0 
1 1:0 2:0.35605 3:0.0611961 4:0.35605 5:-0.0181781 6:-0.489674 7:-0.00737515 8:-0.00624256 9:-0.249571 10:0.00890847 11:-0.00185013 12:-0.00571812 13:0.0678457 14:0 15:-0.000517298 16:-0.00347876 17:0 18:-0.0121759 19:0.00623806 20:0 21:0 22:0 23:1 24:0 25:0 26:0 27:0 28:1 29:0 30:0 31:0 32:0 33:0 34:0 35:0 
1 1:0 2:0.117851 3:-0.0242634 4:0.117851 5:-0.00118857 6:-0.36704 7:0.0105849 8:-0.00624256 9:-0.307036 10:-0.000710021 11:0.0141877 12:0.00217649 13:-0.0356092 14:0 15:-0.00036086 16:-0.0060947 17:0 18:-0.00295123 19:0.000803702 20:0 21:0 22:0 23:1 24:0 25:0 26:0 27:0 28:1 29:0 30:0 31:0 32:0 33:0 34:0 35:0 
1 1:0 2:0.166667 3:-0.0175439 4:0.166667 5:0.0106812 6:-0.0576504 7:0.0105849 8:0.0100182 9:-0.0493318 10:-0.00335283 11:0.025567 12:-0.0105182 13:0.0193888 14:0 15:0.0048917 16:0.00471629 17:1 18:-0.0072765 19:0.0138395 20:0 21:0 22:0 23:1 24:0 25:0 26:0 27:0 28:0 29:0 30:0 31:0 32:0 33:0 34:0 35:0 
0.9116930318489079 1:1 2:0.187203 3:0.0222105 4:0.187203 5:0.0437735 6:-0.151062 7:-0.00680823 8:-0.0025261 9:0.0973414 10:-0.0025074 11:0.00232889 12:-0.00279944 13:-0.0149609 14:0 15:-0.00251503 16:-0.0042043 17:1 18:0.00320714 19:-0.00175629 20:0 21:0 22:1 23:1 24:0 25:0 26:0 27:0 28:0 29:0 30:0 31:0 32:0 33:0 34:0 35:0 
1 1:0 2:0.143187 3:-0.00461894 4:0.143187 5:0.0437735 6:-0.361333 7:0.00305708 8:-0.00624256 9:-0.223029 10:0.0100219 11:0.0141877 12:-0.0105182 13:-0.0224803 14:0 15:-7.70143e-005 16:-0.00382903 17:0 18:-0.00308269 19:0.00276726 20:0 21:0 22:0 23:1 24:0 25:0 26:0 27:0 28:0 29:0 30:0 31:0 32:0 33:0 34:0 35:0 
1 1:0 2:0.146082 3:-0.00265604 4:0.146082 5:0.0437735 6:-0.255672 7:-0.000966364 8:-0.00459058 9:-0.0659544 10:-0.00381029 11:0.0141877 12:-0.000129959 13:-0.0692964 14:0 15:-0.00530999 16:0.00443894 17:1 18:0.0205398 19:0.00958784 20:0 21:0 22:0 23:1 24:0 25:0 26:0 27:0 28:0 29:0 30:0 31:0 32:0 33:1 34:0 35:0 
1 1:1 2:0.28169 3:0.0684105 4:0.28169 5:-0.0181781 6:0.0559032 7:-0.00516551 8:0.0044492 9:0.539026 10:0.0100219 11:-0.00268771 12:0.00218961 13:0.063952 14:0 15:-0.000517298 16:-0.00347876 17:0 18:0.00823711 19:-0.013254 20:0 21:0 22:1 23:1 24:0 25:0 26:0 27:0 28:0 29:0 30:0 31:0 32:0 33:0 34:0 35:0 
1 1:1 2:0.158033 3:0.00526778 4:0.158033 5:-0.0058672 6:-0.153873 7:-0.00166005 8:-0.00332417 9:-0.0923818 10:-0.00273061 11:0.0136848 12:-0.00109699 13:-0.0147023 14:0 15:-0.00530999 16:0.00471629 17:1 18:-8.48667e-005 19:0.000347898 20:0 21:0 22:0 23:1 24:0 25:0 26:0 27:0 28:0 29:0 30:0 31:0 32:0 33:0 34:0 35:0 
1 1:0 2:0.194872 3:0.017094 4:0.194872 5:0.0129942 6:-0.342318 7:-0.013301 8:0.0100182 9:-0.110332 10:-0.00286363 11:0.025567 12:-0.000129959 13:0.00285183 14:0 15:-7.70143e-005 16:-0.00483205 17:0 18:-0.0190621 19:0.00404864 20:0 21:0 22:0 23:1 24:0 25:0 26:0 27:0 28:0 29:0 30:0 31:1 32:0 33:0 34:0 35:1 
1 1:1 2:0.156271 3:0.00411241 4:0.156271 5:-0.00855676 6:-0.139248 7:0.0105849 8:0.0100182 9:0.0383452 10:-0.00325732 11:0.0141877 12:-0.00255595 13:-0.00563553 14:0 15:-0.00492397 16:0.00732772 17:1 18:0.00463995 19:0.000369551 20:0 21:0 22:0 23:1 24:0 25:0 26:0 27:0 28:0 29:0 30:0 31:0 32:0 33:0 34:0 35:0 
1 1:0 2:0.184971 3:-0.00770713 4:0.184971 5:0.00737457 6:-0.084562 7:0.00857851 8:-0.000155678 9:0.0936725 10:0.00890847 11:0.00357244 12:-0.000129959 13:-0.0340406 14:0 15:0.00646052 16:0.00732772 17:1 18:-0.0166006 19:-0.00207511 20:0 21:0 22:0 23:1 24:0 25:0 26:0 27:0 28:0 29:0 30:0 31:0 32:0 33:0 34:0 35:0 
1 1:1 2:-0.100193 3:-0.146435 4:-0.100193 5:0.0106812 6:0.213769 7:0.000868714 8:-0.00624256 9:0.010283 10:-0.00270045 11:-0.00480468 12:-0.00279944 13:-0.10452 14:0 15:-0.000517298 16:-0.0060947 17:0 18:-0.00359464 19:0.0138395 20:0 21:0 22:0 23:1 24:0 25:0 26:0 27:0 28:0 29:0 30:0 31:0 32:0 33:0 34:0 35:0 
1 1:0 2:0.170355 3:0.0125261 4:0.170355 5:-0.00174828 6:-0.488161 7:-0.00737515 8:0.0184523 9:-0.11728 10:0.0100219 11:0.00232889 12:-0.00279944 13:0.1993 14:0 15:-0.00790929 16:0.00471629 17:0 18:-0.00292002 19:-0.013254 20:0 21:0 22:0 23:1 24:0 25:0 26:0 27:0 28:0 29:0 30:0 31:0 32:0 33:1 34:0 35:0 
1 1:0 2:0.261018 3:0.00427899 4:0.261018 5:0.00197725 6:-0.0881967 7:0.0105849 8:-0.00566043 9:0.0731583 10:-0.0025074 11:0.0136848 12:-0.00615216 13:0.0475688 14:1 15:-0.0106865 16:-0.0042043 17:0 18:0.0192796 19:-0.00175629 20:0 21:0 22:1 23:1 24:0 25:0 26:0 27:0 28:0 29:0 30:0 31:0 32:0 33:0 34:0 35:0 
1 1:0 2:0.303605 3:0.0189753 4:0.303605 5:-0.00229984 6:-0.130979 7:0.0137208 8:-0.0025261 9:0.0826894 10:-0.0025074 11:-0.00268771 12:-0.00615216 13:0.0100382 14:1 15:-0.00588288 16:-0.0042043 17:0 18:0.0092432 19:-0.00175629 20:0 21:0 22:1 23:1 24:0 25:0 26:0 27:0 28:0 29:0 30:0 31:0 32:0 33:0 34:0 35:0 
1 1:0 2:0.0830565 3:-0.0199336 4:0.0830565 5:-0.0146811 6:-0.0219474 7:-0.0196727 8:-0.00459058 9:0.122411 10:-0.00273061 11:-0.00268771 12:-0.0117779 13:0.00510839 14:0 15:0.0142631 16:0.00443894 17:0 18:-0.00343248 19:-0.00405298 20:0 21:0 22:2 23:1 24:0 25:0 26:0 27:0 28:0 29:0 30:0 31:0 32:0 33:0 34:0 35:0 
1 1:0 2:0.176829 3:-0.0121951 4:0.176829 5:0.0129942 6:0.0112705 7:-0.000966364 8:0.0100182 9:-0.10997 10:-0.00273061 11:0.00732539 12:-0.0105182 13:-0.102946 14:0 15:0.0142631 16:0.0289366 17:0 18:0.0188855 19:-0.00671981 20:0 21:0 22:0 23:1 24:0 25:0 26:0 27:0 28:0 29:0 30:0 31:1 32:0 33:0 34:0 35:0 
1 1:0 2:0.170355 3:0.0125261 4:0.170355 5:-0.00118857 6:-0.381914 7:0.0161474 8:-0.0102524 9:-0.0417338 10:0.00890847 11:0.00388373 12:-0.00255595 13:-0.160934 14:0 15:-0.0106865 16:0.00443894 17:0 18:0.0314747 19:0.000803702 20:0 21:0 22:0 23:1 24:0 25:0 26:0 27:0 28:0 29:0 30:0 31:0 32:0 33:0 34:0 35:1 
1 1:0 2:0.358368 3:0.0958013 4:0.358368 5:0.00115378 6:-0.0555151 7:-0.0196727 8:-0.0018813 9:-0.0915371 10:0.0037796 11:-0.00198275 12:0.0135939 13:-0.143611 14:0 15:-0.00530999 16:-0.00483205 17:0 18:-0.0019849 19:-0.00405298 20:0 21:0 22:2 23:1 24:0 25:0 26:0 27:0 28:0 29:0 30:0 31:0 32:0 33:0 34:0 35:0 
1 1:0 2:0.0529412 3:-0.0588235 4:0.0529412 5:0.0437735 6:-0.317054 7:-0.0196727 8:-0.0025261 9:-0.19075 10:-0.00335283 11:0.025567 12:-0.00279944 13:0.0405943 14:0 15:0.0121562 16:0.0289366 17:0 18:0.00379452 19:-0.00405298 20:0 21:0 22:1 23:1 24:0 25:0 26:0 27:0 28:1 29:0 30:0 31:0 32:0 33:0 34:0 35:0 
1 1:0 2:0.236287 3:0.0168776 4:0.236287 5:0.0437735 6:-0.229339 7:-0.00737515 8:0.0101539 9:0.0909346 10:-0.00335283 11:-0.00185013 12:0.00217649 13:0.0465372 14:0 15:-0.00530999 16:-0.00483205 17:0 18:-0.00178725 19:0.00623806 20:0 21:0 22:1 23:1 24:0 25:0 26:0 27:0 28:0 29:0 30:0 31:1 32:0 33:0 34:0 35:0 
1 1:0 2:0.238361 3:0.0484171 4:0.238361 5:-0.0058672 6:-0.248589 7:0.0105849 8:-0.00459058 9:0.173153 10:-0.00286363 11:-0.00268771 12:-0.00279944 13:-0.120901 14:0 15:0.0048917 16:-0.00483205 17:0 18:-0.0157473 19:0.00276726 20:0 21:0 22:0 23:1 24:0 25:0 26:0 27:0 28:0 29:0 30:0 31:1 32:0 33:0 34:0 35:0 
1 1:0 2:0.0631229 3:-0.0199336 4:0.0631229 5:-0.0181781 6:-0.375378 7:0.0105849 8:-0.00209975 9:-0.149654 10:-0.00273061 11:0.00388373 12:0.00677998 13:0.0246909 14:0 15:-0.00251503 16:-0.00479611 17:0 18:0.00572416 19:0.000803702 20:0 21:0 22:0 23:1 24:0 25:0 26:0 27:0 28:0 29:0 30:0 31:0 32:0 33:0 34:0 35:0 
1 1:0 2:0.244641 3:0.0479193 4:0.244641 5:-0.00424959 6:-0.186277 7:-0.00680823 8:-0.00566043 9:0.0100903 10:0.00890847 11:0.0141877 12:0.00677998 13:-0.00781879 14:0 15:-0.00492854 16:-0.00483205 17:0 18:0.00806255 19:-0.0057122 20:0 21:0 22:0 23:1 24:0 25:0 26:0 27:0 28:0 29:0 30:0 31:0 32:0 33:0 34:0 35:0 
1 1:0 2:0.189825 3:0.0230868 4:0.189825 5:-0.00855852 6:-0.180111 7:0.0137208 8:-0.00566043 9:-0.379774 10:0.0100219 11:-0.00185013 12:-0.0105182 13:0.0421517 14:0 15:0.0048917 16:0.00471629 17:0 18:-0.00881994 19:0.000369551 20:0 21:0 22:0 23:1 24:0 25:0 26:0 27:0 28:0 29:0 30:0 31:0 32:0 33:0 34:0 35:0 
1 1:0 2:0.176829 3:-0.0121951 4:0.176829 5:-0.00118857 6:-0.206727 7:0.00636562 8:-0.00624256 9:-0.0264903 10:0.0037796 11:0.0136848 12:-0.0117779 13:-0.0585146 14:0 15:0.0142631 16:0.0289366 17:0 18:0.0102194 19:0.00958784 20:1 21:0 22:0 23:1 24:0 25:0 26:0 27:0 28:0 29:0 30:0 31:1 32:0 33:0 34:0 35:0 
1 1:0 2:0.272228 3:0.0307355 4:0.272228 5:-0.00118857 6:-0.168903 7:-0.00737515 8:-0.00566043 9:-0.0828763 10:-0.00733484 11:0.0136848 12:-0.00571812 13:-0.0252376 14:1 15:0.0142631 16:0.00605498 17:0 18:0.00321913 19:0.00958784 20:0 21:0 22:0 23:1 24:0 25:0 26:0 27:0 28:0 29:0 30:0 31:0 32:0 33:0 34:0 35:0 
1 1:1 2:0.145436 3:-0.00309438 4:0.145436 5:0.0129942 6:-0.0737242 7:0.0161474 8:-0.00332417 9:0.397388 10:-0.00270045 11:0.00699454 12:-0.00279944 13:0.0741541 14:0 15:-0.00530999 16:0.00252779 17:1 18:0.000348128 19:0.00276726 20:0 21:0 22:0 23:1 24:0 25:0 26:0 27:0 28:0 29:0 30:0 31:0 32:0 33:0 34:0 35:0 
1 1:0 2:0.147959 3:-0.0306122 4:0.147959 5:-0.0146811 6:-0.075079 7:0.0161474 8:0.000578213 9:-0.0649536 10:-0.00286363 11:0.0136848 12:0.0221073 13:-0.0542424 14:0 15:0.0048917 16:0.0289366 17:0 18:0.000546898 19:-0.00601379 20:0 21:0 22:0 23:1 24:0 25:0 26:0 27:0 28:0 29:0 30:0 31:0 32:0 33:1 34:0 35:0 
1 1:0 2:0.116201 3:-0.0670391 4:0.116201 5:-0.00118857 6:-0.0784311 7:0.0137208 8:-0.00209975 9:-0.0275716 10:0.0100219 11:-0.00185013 12:0.0135939 13:-0.0200751 14:0 15:0.0012351 16:0.0289366 17:0 18:-0.0146697 19:0.000347898 20:0 21:0 22:0 23:1 24:0 25:0 26:0 27:0 28:0 29:0 30:0 31:0 32:0 33:0 34:0 35:0 
1 1:0 2:0.615147 3:0.108192 4:0.615147 5:-0.00118857 6:-0.961296 7:0.00857851 8:-0.0018813 9:0.0222598 10:-0.00335283 11:0.0141877 12:0.0221073 13:-0.0106166 14:0 15:0.00331034 16:-0.00483205 17:0 18:-0.0139793 19:0.00220689 20:0 21:0 22:0 23:1 24:0 25:0 26:0 27:0 28:0 29:0 30:0 31:0 32:0 33:0 34:0 35:0 
1 1:0 2:0.168498 3:0.00732601 4:0.168498 5:-0.0058672 6:0.139665 7:0.0137208 8:0.0044492 9:0.00118531 10:0.0194542 11:0.00232889 12:0.00218961 13:0.00148997 14:0 15:0.00331034 16:-0.00360034 17:0 18:-0.00258165 19:0.00220689 20:1 21:0 22:0 23:2 24:0 25:0 26:0 27:0 28:0 29:0 30:0 31:0 32:0 33:0 34:0 35:0 
1 1:0 2:0.0985453 3:-0.0478649 4:0.0985453 5:-0.00424959 6:-0.192201 7:0.0137208 8:0.0184523 9:-0.0865821 10:-0.00381029 11:-0.00480468 12:-0.00109699 13:-0.0645224 14:0 15:0.00574903 16:0.00732772 17:0 18:0.00563052 19:0.00958784 20:0 21:0 22:0 23:1 24:0 25:1 26:0 27:0 28:0 29:0 30:0 31:0 32:0 33:1 34:0 35:0 
1 1:0 2:0.128492 3:-0.0446927 4:0.128492 5:-0.0146811 6:-0.227029 7:-0.00680823 8:-0.00624256 9:-0.138418 10:-0.000769924 11:0.00357244 12:0.00217649 13:-0.0117747 14:0 15:-0.00251503 16:0.00605498 17:0 18:0.0035114 19:0.00623806 20:0 21:0 22:0 23:1 24:0 25:0 26:0 27:0 28:0 29:0 30:0 31:0 32:0 33:1 34:0 35:0 
1 1:0 2:0.0766423 3:-0.0291971 4:0.0766423 5:-0.0146811 6:-0.183676 7:-0.00166005 8:0.00111814 9:0.234023 10:0.00890847 11:-0.000258585 12:0.0221073 13:0.0913748 14:0 15:0.00646052 16:-0.00196836 17:0 18:-0.00116221 19:0.00958784 20:0 21:0 22:0 23:1 24:0 25:0 26:0 27:0 28:0 29:0 30:0 31:0 32:0 33:0 34:0 35:0 
1 1:0 2:0.142341 3:-0.00309438 4:0.142341 5:-0.00118857 6:0.0416825 7:-0.00737515 8:0.0184523 9:0.0319698 10:0.0100219 11:-0.00268771 12:0.0135939 13:0.00431531 14:0 15:0.00646052 16:0.00443894 17:0 18:0.00410953 19:-0.00671981 20:0 21:0 22:0 23:1 24:0 25:0 26:0 27:0 28:0 29:0 30:0 31:0 32:0 33:1 34:0 35:0 
1 1:0 2:0.18393 3:-0.0290416 4:0.18393 5:-0.00424959 6:-0.070982 7:0.0105849 8:0.000578213 9:0.489273 10:0.0037796 11:-0.00185013 12:0.00217649 13:0.0451396 14:0 15:-0.00251503 16:-0.00483205 17:0 18:-0.00291477 19:0.0138395 20:0 21:0 22:0 23:1 24:0 25:0 26:0 27:0 28:0 29:0 30:0 31:0 32:0 33:0 34:0 35:0 
1 1:0 2:0.161172 3:0.00732601 4:0.161172 5:-0.0102445 6:-0.398805 7:0.0137208 8:-0.00630459 9:-0.0295329 10:0.00180655 11:0.00732539 12:0.0135939 13:0.00529996 14:0 15:-0.00349054 16:0.00443894 17:0 18:0.0060059 19:-0.00601379 20:0 21:0 22:0 23:1 24:0 25:0 26:0 27:0 28:0 29:0 30:0 31:0 32:0 33:1 34:0 35:0 
1 1:0 2:0.203576 3:-0.0137552 4:0.203576 5:0.00115378 6:-0.388842 7:0.0161474 8:-0.0025261 9:-0.418763 10:0.0037796 11:0.025567 12:0.0135939 13:0.143209 14:0 15:0.0121562 16:0.0289366 17:0 18:-0.00698661 19:0.000803702 20:0 21:0 22:0 23:1 24:0 25:0 26:0 27:0 28:0 29:0 30:1 31:0 32:0 33:0 34:0 35:0 
1 1:0 2:0.0527704 3:0.00527704 4:0.0527704 5:0.00737457 6:-0.0198136 7:0.000868714 8:0.0044492 9:0.0653001 10:-0.0025074 11:0.00732539 12:-0.00571812 13:0.0105755 14:0 15:-7.70143e-005 16:-0.0042043 17:0 18:-0.00670467 19:-0.00175629 20:0 21:0 22:0 23:1 24:0 25:0 26:0 27:0 28:0 29:0 30:0 31:0 32:0 33:1 34:0 35:0 
0.5708518574797302 1:0 2:0.283747 3:-0.00550964 4:0.283747 5:-0.0181781 6:-0.372417 7:-0.000665361 8:0.00263785 9:-0.560129 10:-0.000710021 11:-0.00148109 12:-0.00109699 13:0.10879 14:1 15:-0.00790929 16:0.00732772 17:0 18:-0.00228019 19:0.0138395 20:0 21:0 22:0 23:1 24:0 25:0 26:0 27:0 28:0 29:0 30:0 31:0 32:0 33:0 34:0 35:0 
1 1:0 2:0.283186 3:0.0353982 4:0.283186 5:0.0106812 6:-0.349198 7:0.0137208 8:0.00111369 9:-0.175961 10:-0.00286363 11:-0.00268771 12:-0.00571812 13:-0.0594947 14:1 15:0.0012351 16:0.00471629 17:0 18:-0.0147451 19:0.00220689 20:0 21:0 22:0 23:1 24:0 25:0 26:0 27:0 28:0 29:0 30:0 31:0 32:0 33:0 34:0 35:0 
1 1:0 2:0.231343 3:0.0149254 4:0.231343 5:-0.0181781 6:-0.17526 7:0.00857851 8:-0.00209975 9:0.0120995 10:0.0194542 11:-0.00268771 12:0.0135939 13:0.0481044 14:1 15:-0.00790929 16:0.00605498 17:0 18:-0.0101729 19:0.00623806 20:0 21:0 22:0 23:1 24:0 25:0 26:0 27:0 28:0 29:0 30:0 31:0 32:0 33:0 34:0 35:0 
1 1:0 2:0.109742 3:-0.0357853 4:0.109742 5:0.0129942 6:-0.130807 7:0.000868714 8:-0.000155678 9:-0.0290841 10:0.00890847 11:0.025567 12:-0.000129959 13:-0.0645335 14:0 15:0.0142631 16:-0.0060947 17:0 18:-0.00649921 19:0.000369551 20:0 21:0 22:0 23:1 24:0 25:0 26:0 27:0 28:0 29:0 30:0 31:1 32:0 33:0 34:0 35:1 
1 1:0 2:0.119048 3:-0.047619 4:0.119048 5:0.00115378 6:-0.0607632 7:0.00305708 8:-0.00363048 9:0.249687 10:-0.00332328 11:-0.00268771 12:0.00218961 13:0.0585488 14:1 15:-0.00492854 16:0.00732772 17:0 18:0.0021712 19:0.00276726 20:0 21:0 22:0 23:1 24:0 25:0 26:0 27:0 28:0 29:0 30:0 31:0 32:0 33:0 34:0 35:0 
1 1:0 2:0.157218 3:0.0028585 4:0.157218 5:-0.00118857 6:-0.139874 7:-0.00737515 8:-0.0025261 9:0.162741 10:-0.00123088 11:-0.00353261 12:0.0221073 13:-0.114357 14:0 15:-0.000517298 16:0.00471629 17:0 18:0.00184943 19:-0.0057122 20:1 21:0 22:0 23:1 24:0 25:0 26:0 27:0 28:0 29:1 30:0 31:0 32:0 33:0 34:1 35:0 
1 1:0 2:0.278058 3:-0.0075662 4:0.278058 5:0.00737457 6:-0.496432 7:-0.013301 8:-0.0018813 9:-0.16754 10:-0.00325732 11:0.0136848 12:-0.000129959 13:0.0321082 14:0 15:0.0012351 16:0.00732772 17:0 18:-0.00351567 19:0.000803702 20:0 21:0 22:0 23:1 24:0 25:0 26:0 27:0 28:0 29:0 30:0 31:0 32:0 33:0 34:0 35:0 
1 1:0 2:0.0527704 3:0.00527704 4:0.0527704 5:-0.00424959 6:-0.0751305 7:-0.00516551 8:-0.00624256 9:0.0435247 10:-0.00381029 11:0.0141877 12:-0.0117779 13:0.0359465 14:0 15:-0.0106865 16:-0.00360034 17:0 18:-0.0236047 19:0.00623806 20:0 21:0 22:0 23:1 24:0 25:0 26:0 27:0 28:0 29:0 30:0 31:1 32:0 33:0 34:0 35:1 
1 1:0 2:0.14386 3:0.0350877 4:0.14386 5:-0.0102445 6:-0.110925 7:-0.00737515 8:-0.0025261 9:0.06207 10:-0.0025074 11:-0.00198275 12:0.00677998 13:-0.00446731 14:0 15:0.00165974 16:0.00443894 17:0 18:-0.000385879 19:-0.00175629 20:0 21:0 22:0 23:1 24:0 25:0 26:0 27:0 28:0 29:0 30:0 31:0 32:0 33:0 34:1 35:0 
1 1:0 2:0.213104 3:-0.0158694 4:0.213104 5:0.0130167 6:-0.186153 7:-0.013301 8:-0.0025261 9:0.0694155 10:-0.00273061 11:-0.00268771 12:0.00677998 13:-0.0108936 14:0 15:-0.00251503 16:-0.00196836 17:0 18:-0.00398795 19:0.00404864 20:0 21:0 22:0 23:1 24:0 25:0 26:0 27:1 28:0 29:0 30:0 31:0 32:0 33:0 34:0 35:0 
1 1:0 2:0.244335 3:0.0197044 4:0.244335 5:-0.0102445 6:-0.21642 7:-0.00737515 8:0.000578213 9:0.0502202 10:0.0037796 11:-0.00148109 12:-0.00109699 13:0.0648429 14:0 15:0.0012351 16:-0.0060947 17:0 18:-0.0148797 19:0.00220689 20:0 21:0 22:0 23:1 24:0 25:0 26:0 27:1 28:0 29:0 30:0 31:0 32:0 33:0 34:1 35:0 
1 1:0 2:0.153341 3:0.00219058 4:0.153341 5:-0.0146811 6:0.0114788 7:-0.013301 8:0.0100182 9:0.151096 10:-0.00286363 11:-0.00182434 12:0.0135939 13:-0.00441038 14:0 15:0.0121562 16:0.00471629 17:0 18:-0.00762155 19:0.000803702 20:0 21:0 22:0 23:2 24:0 25:0 26:0 27:0 28:0 29:0 30:0 31:0 32:0 33:0 34:0 35:0 
1 1:0 2:0.212077 3:0.00589102 4:0.212077 5:-0.00118857 6:-0.0891315 7:0.0105849 8:-0.0018813 9:0.519593 10:0.0194542 11:0.00232889 12:0.00677998 13:0.178956 14:0 15:0.00646052 16:0.00443894 17:0 18:0.0167929 19:-0.013254 20:0 21:0 22:0 23:2 24:0 25:0 26:0 27:0 28:0 29:0 30:0 31:0 32:0 33:0 34:0 35:1 
1 1:0 2:0.107097 3:-0.140813 4:0.107097 5:-0.00174828 6:-0.0407339 7:0.00857851 8:-0.00459058 9:-0.293884 10:0.0194542 11:-0.00198275 12:-0.000129959 13:-0.0946365 14:0 15:0.0142631 16:-0.00293144 17:0 18:-0.00734707 19:0.0138395 20:0 21:0 22:0 23:1 24:0 25:0 26:0 27:1 28:0 29:0 30:0 31:0 32:0 33:0 34:0 35:0 
1 1:0 2:0.0601504 3:-0.0902256 4:0.0601504 5:0.00737457 6:-0.0977737 7:0.00857851 8:0.000578213 9:-0.00564268 10:-0.00733484 11:0.0136848 12:0.00677998 13:0.0970979 14:0 15:0.0048917 16:0.000647573 17:0 18:-0.0183797 19:0.0138395 20:0 21:0 22:1 23:1 24:0 25:0 26:0 27:0 28:0 29:0 30:0 31:0 32:0 33:0 34:0 35:0 
1 1:0 2:0.118372 3:-0.0221948 4:0.118372 5:0.0106812 6:-0.0412528 7:0.0137208 8:0.0184523 9:0.180432 10:0.00890847 11:0.0136848 12:-0.00571812 13:0.0598726 14:0 15:-0.000517298 16:0.00443894 17:0 18:0.00945272 19:0.0138395 20:0 21:0 22:0 23:1 24:0 25:0 26:0 27:0 28:0 29:0 30:0 31:0 32:0 33:0 34:0 35:0 
1 1:0 2:0.132323 3:-0.0124052 4:0.132323 5:-0.0102445 6:-0.0419083 7:-0.0196727 8:0.0101539 9:0.160084 10:0.00890847 11:-0.00185013 12:0.00677998 13:0.0926249 14:0 15:-0.00492397 16:0.00443894 17:0 18:0.0188824 19:0.00958784 20:0 21:0 22:0 23:1 24:0 25:0 26:0 27:0 28:0 29:0 30:0 31:0 32:0 33:0 34:0 35:0 
1 1:0 2:0.136571 3:-0.0091047 4:0.136571 5:0.0106812 6:-0.0934467 7:-0.00166005 8:0.000578213 9:0.195816 10:-0.00325732 11:-0.00480468 12:0.00155162 13:0.0025837 14:0 15:-0.00790929 16:-0.00483205 17:0 18:0.000974368 19:0.0138395 20:0 21:0 22:0 23:1 24:0 25:0 26:0 27:0 28:0 29:0 30:0 31:0 32:0 33:0 34:0 35:0 
1 1:0 2:0.111646 3:-0.0346487 4:0.111646 5:0.00197725 6:-0.0849631 7:-0.00166005 8:0.0100182 9:0.484544 10:-0.00273061 11:0.00732539 12:-0.000334465 13:0.0576064 14:1 15:0.00574903 16:0.0289366 17:0 18:0.00612363 19:0.00276726 20:0 21:0 22:0 23:1 24:0 25:0 26:0 27:0 28:0 29:0 30:0 31:0 32:0 33:0 34:0 35:0 
1 1:0 2:0.407002 3:0.118162 4:0.407002 5:-0.00118857 6:-0.700678 7:0.000933507 8:-0.00210731 9:-0.00139161 10:0.0037796 11:0.0141877 12:0.00677998 13:-8.68767e-005 14:0 15:-0.000517298 16:-0.00347876 17:0 18:0.00228828 19:0.000803702 20:0 21:0 22:0 23:1 24:0 25:0 26:0 27:0 28:0 29:0 30:0 31:0 32:0 33:0 34:0 35:0 
1 1:0 2:0.366102 3:0.101695 4:0.366102 5:0.00115378 6:-0.238314 7:-0.00166005 8:0.0100182 9:0.0308427 10:-0.00325732 11:-0.0122162 12:-0.0105182 13:0.0133653 14:0 15:0.00165974 16:0.00471629 17:0 18:-0.0107934 19:-0.00671981 20:0 21:0 22:0 23:1 24:0 25:0 26:0 27:0 28:1 29:0 30:0 31:0 32:0 33:0 34:0 35:0 
1 1:0 2:0.228152 3:0.0440294 4:0.228152 5:-0.00118857 6:-0.37386 7:-0.0196727 8:0.0184523 9:-0.218662 10:-0.00332328 11:-0.00185013 12:-0.00571812 13:-0.023673 14:0 15:0.0142631 16:-0.00360034 17:0 18:-0.00398585 19:0.00958784 20:0 21:0 22:0 23:1 24:0 25:0 26:0 27:0 28:0 29:0 30:0 31:0 32:0 33:0 34:0 35:0 
1 1:1 2:0.0877193 3:-0.0935673 4:0.0877193 5:0.00115378 6:0.0668397 7:0.0105849 8:0.0184523 9:0.441007 10:0.0037796 11:-0.00175902 12:-0.000129959 13:0.0595041 14:0 15:0.0048917 16:0.00471629 17:0 18:-0.00805745 19:0.00272342 20:0 21:0 22:1 23:1 24:0 25:0 26:0 27:0 28:0 29:0 30:0 31:0 32:0 33:0 34:0 35:0 
1 1:0 2:0.0680454 3:-0.084056 4:0.0680454 5:-0.0181781 6:-0.0457493 7:-0.00166005 8:0.00111814 9:0.0864358 10:0.0100219 11:0.00232889 12:-0.00279944 13:-0.0868235 14:0 15:0.0121562 16:-0.0060947 17:0 18:0.0098397 19:0.00272342 20:0 21:0 22:0 23:1 24:0 25:0 26:0 27:0 28:1 29:0 30:0 31:0 32:0 33:0 34:0 35:0 
1 1:0 2:0.112964 3:-0.0290479 4:0.112964 5:-0.00118857 6:-0.101106 7:0.00305708 8:-0.0102524 9:0.0755315 10:-0.00273061 11:-0.037011 12:-0.0117779 13:-0.0150767 14:0 15:-0.00492854 16:0.00605498 17:0 18:0.00579276 19:0.00404864 20:0 21:0 22:0 23:1 24:0 25:0 26:0 27:0 28:1 29:0 30:0 31:0 32:0 33:0 34:0 35:0 
1 1:0 2:0.286778 3:0.0484171 4:0.286778 5:0.0437735 6:-0.0981006 7:-0.00516551 8:-0.0025261 9:0.0624482 10:-0.00123088 11:0.00699454 12:-0.00255595 13:-0.00629603 14:0 15:-0.00530999 16:-0.0143477 17:0 18:-0.0136556 19:0.00220689 20:0 21:0 22:0 23:1 24:0 25:0 26:0 27:0 28:0 29:0 30:0 31:0 32:0 33:0 34:0 35:0 
1 1:1 2:0.168582 3:-0.0383142 4:0.168582 5:-0.00229984 6:0.126996 7:0.00636562 8:0.0100182 9:0.433253 10:0.00180655 11:0.0136848 12:-0.00317909 13:0.00749141 14:0 15:0.00646052 16:-0.00382903 17:0 18:0.00527731 19:0.00276726 20:0 21:0 22:1 23:1 24:0 25:0 26:0 27:0 28:0 29:0 30:0 31:0 32:0 33:0 34:0 35:0 
1 1:0 2:0.265174 3:0.00589275 4:0.265174 5:0.0130167 6:-0.255401 7:0.00140932 8:0.000578213 9:-0.0759533 10:0.0100219 11:-0.00480468 12:-0.00317909 13:0.00894555 14:0 15:-0.00530999 16:-0.00269397 17:0 18:0.00701256 19:0.000803702 20:0 21:0 22:1 23:1 24:0 25:0 26:0 27:1 28:0 29:0 30:0 31:0 32:0 33:0 34:0 35:0 
1 1:0 2:0.106806 3:-0.0314136 4:0.106806 5:-0.0146811 6:0.0114148 7:0.00857851 8:-0.00624256 9:0.0149866 10:0.00890847 11:-0.00185013 12:0.00217649 13:-0.0145309 14:0 15:0.00165974 16:-0.00382903 17:0 18:-0.00109423 19:0.0138395 20:0 21:0 22:0 23:1 24:0 25:0 26:0 27:0 28:0 29:0 30:0 31:0 32:0 33:0 34:0 35:0 
1 1:0 2:0.245049 3:-0.0014247 4:0.245049 5:0.00115378 6:-0.343288 7:-0.00516551 8:-0.00459058 9:-0.0966337 10:0.0037796 11:-0.00268771 12:-0.00109699 13:0.071262 14:1 15:0.0012351 16:-0.0060947 17:0 18:-0.0400493 19:0.00623806 20:0 21:0 22:0 23:1 24:0 25:0 26:0 27:0 28:1 29:0 30:0 31:0 32:0 33:0 34:0 35:0 
1 1:0 2:0.04375 3:-0.0625 4:0.04375 5:-0.0181781 6:0.0960732 7:0.0137208 8:0.0184523 9:0.0456432 10:0.0194542 11:0.0141877 12:-0.00279944 13:-0.205031 14:0 15:0.00165974 16:-0.0060947 17:0 18:0.000606784 19:-0.00553567 20:0 21:0 22:1 23:1 24:1 25:0 26:0 27:0 28:0 29:0 30:0 31:0 32:0 33:0 34:0 35:0 
1 1:0 2:0.191433 3:-0.0263221 4:0.191433 5:0.00197725 6:-0.419182 7:0.0105849 8:-0.000155678 9:-0.00078956 10:-0.00325732 11:-0.00737899 12:-0.0105182 13:0.0334965 14:1 15:-0.00530999 16:0.00252779 17:0 18:-0.0270478 19:0.00260239 20:0 21:0 22:0 23:1 24:0 25:0 26:0 27:0 28:0 29:0 30:0 31:0 32:0 33:0 34:0 35:0 
1 1:0 2:0.171642 3:-0.0149254 4:0.171642 5:0.00197725 6:-0.0941744 7:0.00857851 8:0.0100182 9:-0.121829 10:-0.00325732 11:-0.000258585 12:-0.00109699 13:-0.027432 14:1 15:-0.000517298 16:-0.0060947 17:1 18:0.0322657 19:0.00272342 20:0 21:0 22:0 23:1 24:0 25:0 26:0 27:0 28:0 29:0 30:0 31:0 32:1 33:0 34:0 35:0 
1 1:0 2:0.140496 3:-0.0330579 4:0.140496 5:0.0437735 6:-0.10618 7:0.0105849 8:-0.0025261 9:-0.0858712 10:-0.00325732 11:0.00388373 12:-0.000334465 13:-0.0201653 14:0 15:-0.000517298 16:-0.0060947 17:0 18:0.0392456 19:0.00272342 20:0 21:0 22:1 23:2 24:1 25:0 26:0 27:0 28:0 29:0 30:0 31:0 32:0 33:0 34:0 35:0 
1 1:0 2:0.181818 3:0.0189959 4:0.181818 5:0.0437735 6:-0.194083 7:0.0105849 8:-0.00566043 9:0.0079172 10:-0.00325732 11:0.00388373 12:-0.00223244 13:-0.0145668 14:0 15:0.00574903 16:-0.0060947 17:0 18:-0.00327366 19:-0.00601379 20:0 21:0 22:0 23:1 24:0 25:0 26:0 27:0 28:1 29:0 30:0 31:0 32:0 33:1 34:0 35:0 
1 1:0 2:0.2 3:0 4:0.2 5:0.0437735 6:-0.23739 7:-0.013301 8:-0.00566043 9:-0.073772 10:-0.00325732 11:-0.00268771 12:-0.0117779 13:-0.0432763 14:1 15:-0.00251503 16:-0.00483205 17:0 18:-0.00601243 19:0.00220689 20:0 21:0 22:0 23:1 24:0 25:0 26:0 27:0 28:0 29:0 30:0 31:0 32:0 33:0 34:0 35:0 
1 1:0 2:0.435927 3:0.0411899 4:0.435927 5:-0.00855676 6:-0.536158 7:-0.00737515 8:-0.0025261 9:-0.113665 10:-0.00381029 11:0.00388373 12:0.00677998 13:-0.0710179 14:0 15:-0.00036086 16:-0.00196836 17:0 18:0.00210834 19:0.00272342 20:0 21:0 22:0 23:1 24:0 25:0 26:0 27:0 28:0 29:0 30:1 31:0 32:0 33:0 34:0 35:0 
1 1:0 2:0.210351 3:-0.0166945 4:0.210351 5:0.0129942 6:0.0400423 7:-0.00737515 8:-0.0025261 9:0.0713107 10:0.0194542 11:0.0136848 12:-0.0105182 13:-0.0937272 14:0 15:0.00165974 16:0.00732772 17:0 18:-0.00139214 19:-0.00671981 20:0 21:0 22:0 23:2 24:0 25:0 26:0 27:0 28:0 29:0 30:0 31:0 32:0 33:0 34:0 35:0 
1 1:1 2:0.322068 3:0.0198807 4:0.322068 5:0.00115378 6:-0.325339 7:0.0105849 8:0.0100182 9:0.0982359 10:0.00890847 11:-0.00737899 12:-0.000334465 13:-0.0299493 14:0 15:-0.00251503 16:-0.00124075 17:1 18:0.00796981 19:0.00272342 20:0 21:0 22:0 23:1 24:0 25:0 26:0 27:0 28:0 29:0 30:0 31:0 32:0 33:0 34:0 35:0 
1 1:1 2:0.164179 3:-0.0199005 4:0.164179 5:0.0437735 6:-0.245128 7:0.00857851 8:0.0101539 9:-0.0603317 10:-0.00270045 11:0.0141877 12:0.0221073 13:-0.141 14:0 15:-0.0106865 16:-0.0060947 17:1 18:0.00465326 19:-0.00671981 20:0 21:0 22:0 23:1 24:0 25:0 26:0 27:0 28:0 29:0 30:0 31:0 32:0 33:0 34:0 35:0 
1 1:0 2:0.00379987 3:-0.0721976 4:0.00379987 5:0.00197725 6:-0.0704902 7:0.0105849 8:0.0184523 9:0.0508824 10:-0.00273061 11:0.025567 12:0.00218961 13:-0.11227 14:1 15:0.0048917 16:-0.00293144 17:1 18:0.0188616 19:0.00272342 20:0 21:0 22:1 23:1 24:0 25:0 26:0 27:0 28:0 29:0 30:0 31:0 32:0 33:0 34:0 35:0 
1 1:0 2:0.0601504 3:-0.0902256 4:0.0601504 5:0.0129942 6:-0.0408696 7:0.0105849 8:0.0184523 9:-0.0531683 10:-0.00335283 11:0.00732539 12:0.0135939 13:-0.147462 14:0 15:-0.00790929 16:0.00732772 17:0 18:0.0282768 19:0.00272342 20:0 21:0 22:1 23:1 24:0 25:0 26:0 27:0 28:1 29:0 30:0 31:0 32:0 33:0 34:0 35:0 
1 1:0 2:0.0601504 3:-0.0902256 4:0.0601504 5:0.0106812 6:-0.121054 7:-0.0196727 8:0.0100182 9:-0.173168 10:-0.00381029 11:0.025567 12:-0.00109699 13:-0.0821869 14:0 15:0.00574903 16:0.00732772 17:0 18:0.00556535 19:0.00272342 20:0 21:0 22:0 23:1 24:0 25:0 26:0 27:0 28:0 29:0 30:0 31:0 32:0 33:0 34:0 35:0 
1 1:0 2:0.0601504 3:-0.0902256 4:0.0601504 5:0.0106812 6:-0.128594 7:-0.0196727 8:0.0100182 9:-0.21189 10:-0.00381029 11:0.025567 12:-0.00109699 13:-0.071359 14:0 15:0.0121562 16:0.00732772 17:1 18:0.024061 19:0.00272342 20:0 21:0 22:0 23:1 24:0 25:0 26:0 27:0 28:0 29:0 30:0 31:0 32:0 33:0 34:0 35:0 
1 1:0 2:0.0283019 3:-0.132075 4:0.0283019 5:-0.00118857 6:-0.0173034 7:0.00636562 8:0.000578213 9:-0.300859 10:0.0194542 11:0.00388373 12:0.00217649 13:-0.0360319 14:0 15:-0.0106865 16:0.00605498 17:0 18:0.0063658 19:0.0138395 20:0 21:0 22:0 23:1 24:0 25:0 26:0 27:0 28:0 29:0 30:0 31:0 32:0 33:0 34:0 35:0 
1 1:0 2:0.301428 3:0.0729773 4:0.301428 5:0.0106812 6:-0.286293 7:0.0137208 8:0.0184523 9:-0.012029 10:-0.00733484 11:-0.00185013 12:0.00155162 13:0.00138515 14:0 15:0.0121562 16:0.00605498 17:0 18:0.00238875 19:0.00404864 20:0 21:0 22:0 23:1 24:0 25:0 26:0 27:0 28:0 29:0 30:0 31:0 32:0 33:0 34:0 35:0 
1 1:0 2:0.191126 3:-0.00455063 4:0.191126 5:-0.00118857 6:-0.0984619 7:0.0105849 8:-0.0025261 9:0.0323974 10:0.0037796 11:-0.037011 12:-0.00571812 13:-0.030896 14:1 15:0.00646052 16:-0.0060947 17:0 18:-0.00992021 19:0.00404864 20:0 21:0 22:0 23:1 24:0 25:0 26:0 27:0 28:0 29:0 30:0 31:0 32:0 33:0 34:0 35:0 
1 1:0 2:0.180712 3:-0.0104257 4:0.180712 5:0.0129942 6:-0.14068 7:0.00305708 8:0.0100182 9:0.131595 10:-0.00123088 11:-0.00182434 12:-0.00571812 13:0.0459404 14:0 15:0.0142631 16:-0.0143477 17:0 18:0.00364739 19:0.00220689 20:0 21:0 22:1 23:1 24:0 25:0 26:0 27:1 28:0 29:0 30:0 31:0 32:0 33:0 34:0 35:0 
1 1:0 2:0.481928 3:0.0766703 4:0.481928 5:-0.0058672 6:-0.890756 7:0.0161474 8:0.0100182 9:-0.0809493 10:-0.00381029 11:-0.00480468 12:-0.00279944 13:0.0902361 14:0 15:-0.00530999 16:-0.00196836 17:0 18:-0.0166992 19:0.00272342 20:0 21:0 22:0 23:1 24:1 25:0 26:0 27:0 28:0 29:0 30:0 31:0 32:0 33:0 34:0 35:0 
1 1:0 2:0.38472 3:0.046058 4:0.38472 5:-0.00174828 6:-0.260138 7:0.0105849 8:-0.00566043 9:-0.0325405 10:-0.000769924 11:0.025567 12:-0.0105182 13:-0.0880466 14:0 15:0.00574903 16:-0.00124075 17:0 18:0.00839785 19:0.000369551 20:0 21:0 22:0 23:2 24:0 25:0 26:0 27:0 28:0 29:0 30:0 31:0 32:1 33:0 34:0 35:0 
1 1:0 2:0.365824 3:0.0625752 4:0.365824 5:0.0130167 6:-0.446422 7:-0.00347661 8:0.0101539 9:0.0117839 10:-0.00332328 11:0.025567 12:-0.000334465 13:0.0372271 14:0 15:0.0048917 16:-0.0060947 17:0 18:0.0181503 19:0.000369551 20:0 21:0 22:0 23:1 24:0 25:0 26:0 27:1 28:0 29:0 30:0 31:0 32:0 33:0 34:0 35:0 
1 1:0 2:0.4295 3:0.0593388 4:0.4295 5:0.0129942 6:-0.424848 7:0.0105849 8:-0.00566043 9:-0.00363656 10:-0.00123088 11:-0.00268771 12:0.00155162 13:0.00170452 14:1 15:-0.00530999 16:0.0289366 17:0 18:0.00379621 19:-0.00207511 20:0 21:0 22:0 23:1 24:0 25:0 26:0 27:0 28:0 29:0 30:0 31:0 32:0 33:0 34:0 35:0 
1 1:0 2:0.190114 3:-0.0263235 4:0.190114 5:0.00197725 6:-0.482734 7:-0.00516551 8:-0.0025261 9:-0.211904 10:-0.00286363 11:0.0141877 12:-0.0105182 13:0.0834318 14:1 15:0.0142631 16:0.00605498 17:1 18:-0.0210102 19:0.00272342 20:0 21:0 22:1 23:1 24:0 25:0 26:0 27:0 28:0 29:0 30:1 31:0 32:0 33:0 34:0 35:0 
1 1:0 2:0.150754 3:-0.0502513 4:0.150754 5:0.00115378 6:-0.274148 7:-0.00166005 8:0.0044492 9:-0.0405474 10:0.00180655 11:-0.00268771 12:0.00218961 13:0.0990117 14:1 15:-0.00349054 16:0.00605498 17:1 18:-0.0139441 19:0.00220689 20:0 21:0 22:0 23:1 24:0 25:0 26:0 27:0 28:0 29:0 30:0 31:0 32:0 33:0 34:0 35:0 
1 1:0 2:0.0846154 3:-0.0769231 4:0.0846154 5:-0.00855676 6:-0.00685314 7:0.0161474 8:-0.00209975 9:-0.0688167 10:-0.00381029 11:0.00357244 12:-0.000334465 13:-0.0718529 14:0 15:0.00646052 16:-0.0143477 17:0 18:0.0150208 19:0.0138395 20:0 21:0 22:0 23:1 24:0 25:0 26:0 27:0 28:0 29:1 30:0 31:0 32:0 33:0 34:0 35:0 
1 1:0 2:0.119836 3:-0.0409965 4:0.119836 5:0.0106812 6:-0.0271271 7:0.0105849 8:0.0044492 9:-0.173034 10:-0.000769924 11:0.0136848 12:0.00155162 13:-0.127017 14:0 15:0.00165974 16:0.00443894 17:0 18:0.00666458 19:0.000803702 20:0 21:0 22:0 23:1 24:0 25:0 26:0 27:0 28:0 29:0 30:0 31:0 32:0 33:0 34:0 35:0 
1 1:0 2:0.2 3:-6.93889e-018 4:0.2 5:-0.0102445 6:-0.0469108 7:-0.000665361 8:0.0184523 9:0.217751 10:0.0100219 11:-0.037011 12:0.00217649 13:0.0457226 14:0 15:0.0121562 16:-0.00293144 17:0 18:0.0182472 19:-0.00405298 20:0 21:0 22:1 23:1 24:0 25:0 26:0 27:0 28:0 29:0 30:0 31:0 32:0 33:1 34:0 35:0 
-1 1:0 2:0.122951 3:0.010929 4:0.122951 5:-0.0146811 6:-0.124088 7:0.00140932 8:-0.00209975 9:0.153677 10:-0.00332328 11:-0.00268771 12:-0.00279944 13:0.0289638 14:1 15:-0.00343388 16:-0.0060947 17:0 18:-0.00188474 19:0.00220689 20:0 21:0 22:1 23:1 24:0 25:0 26:0 27:0 28:0 29:0 30:0 31:0 32:0 33:0 34:0 35:0 
-1 1:0 2:0.222222 3:-0.0116959 4:0.222222 5:-0.00424959 6:-0.1373 7:0.0137208 8:0.0100182 9:0.202876 10:-0.00733484 11:-0.00268771 12:-0.00279944 13:-0.04181 14:1 15:0.00165974 16:0.000647573 17:0 18:0.0149154 19:-0.013254 20:0 21:0 22:0 23:1 24:0 25:0 26:0 27:0 28:0 29:0 30:0 31:0 32:0 33:0 34:0 35:0 
-1 1:0 2:0.167722 3:-0.0189873 4:0.167722 5:0.00197725 6:-0.244182 7:0.00140932 8:0.0044492 9:0.131941 10:-0.00123088 11:-0.00737899 12:-0.00279944 13:-0.025696 14:1 15:-0.00251503 16:-0.00347876 17:0 18:-0.0198654 19:-0.00553567 20:0 21:0 22:0 23:1 24:0 25:0 26:0 27:0 28:0 29:0 30:0 31:0 32:0 33:0 34:0 35:0 
-1 1:0 2:0.130163 3:-0.0450563 4:0.130163 5:-0.00855676 6:-0.15785 7:-0.00347661 8:-0.0025261 9:0.0188446 10:-0.00335283 11:-0.00182434 12:-0.000874371 13:-0.0538397 14:0 15:-0.00349054 16:-0.0060947 17:0 18:-0.015065 19:0.00404864 20:0 21:0 22:0 23:1 24:0 25:0 26:0 27:0 28:0 29:0 30:0 31:0 32:0 33:0 34:0 35:0 
-1 1:0 2:0.120235 3:0.0175953 4:0.120235 5:0.0106812 6:-0.00972382 7:0.0105849 8:0.00263785 9:-0.00641488 10:-0.00286363 11:-0.00182434 12:0.00155162 13:-0.10357 14:0 15:-0.00349054 16:-0.00196836 17:0 18:0.00215295 19:-0.013254 20:0 21:0 22:0 23:1 24:0 25:0 26:0 27:0 28:0 29:0 30:0 31:0 32:0 33:0 34:0 35:0 
-1 1:0 2:0.243655 3:0.0203046 4:0.243655 5:-0.00229984 6:0.009599 7:-0.00347661 8:-0.0025261 9:0.448155 10:0.00128145 11:-0.00185013 12:-0.00347617 13:0.0516181 14:0 15:-0.00492854 16:0.00732772 17:0 18:0.00199558 19:-0.00601379 20:0 21:0 22:0 23:1 24:0 25:0 26:0 27:0 28:0 29:0 30:0 31:0 32:0 33:1 34:0 35:0 
-1 1:0 2:0.1 3:-6.93889e-018 4:0.1 5:0.00197725 6:-0.048967 7:0.00636562 8:-0.0025261 9:0.222778 10:-0.00667065 11:-0.00268771 12:-0.00255595 13:-0.0246445 14:1 15:-7.70143e-005 16:-0.00269397 17:0 18:0.00170852 19:-0.00405298 20:0 21:0 22:1 23:1 24:0 25:0 26:0 27:0 28:0 29:0 30:0 31:0 32:0 33:0 34:0 35:0 
-1 1:0 2:0.0848875 3:-0.0578778 4:0.0848875 5:-0.0181781 6:-0.0206206 7:0.000868714 8:-0.0025261 9:0.251476 10:-0.00325732 11:-0.00268771 12:-0.0117779 13:0.0138357 14:1 15:-0.0106865 16:-0.00159909 17:0 18:0.00987497 19:0.00272342 20:0 21:0 22:0 23:2 24:0 25:0 26:0 27:0 28:0 29:0 30:0 31:0 32:0 33:0 34:0 35:0 
-1 1:0 2:0.14386 3:0.0350877 4:0.14386 5:0.0129942 6:-0.178631 7:-0.000665361 8:-0.000155678 9:0.152336 10:-0.00273061 11:0.00232889 12:0.00218961 13:-0.00806673 14:0 15:0.00574903 16:-0.00347876 17:0 18:-0.0126907 19:0.00220689 20:0 21:0 22:0 23:1 24:0 25:0 26:0 27:0 28:0 29:0 30:0 31:0 32:0 33:0 34:0 35:0 
-1 1:0 2:0.14386 3:0.0350877 4:0.14386 5:-0.0102445 6:-0.00566628 7:-0.00737515 8:-0.00630459 9:0.113162 10:-0.0025074 11:0.00388373 12:-0.00615216 13:-0.0407798 14:0 15:-0.00588288 16:-0.0042043 17:0 18:-0.00217096 19:-0.00175629 20:0 21:0 22:1 23:1 24:0 25:0 26:0 27:0 28:0 29:0 30:0 31:0 32:0 33:0 34:0 35:0 
-1 1:0 2:0.228296 3:0.0128617 4:0.228296 5:-0.00424959 6:0.0603839 7:0.0105849 8:0.0044492 9:0.190047 10:-0.00381029 11:-0.00737899 12:-0.000334465 13:0.0216194 14:0 15:-0.0106865 16:-0.00293144 17:0 18:0.0135353 19:0.00404864 20:0 21:0 22:0 23:1 24:0 25:0 26:0 27:0 28:0 29:0 30:0 31:0 32:0 33:0 34:0 35:0 
-1 1:0 2:0.0285714 3:-0.0408163 4:0.0285714 5:0.000589152 6:0.0504275 7:-0.00516551 8:-0.00332417 9:-0.0196133 10:-0.00273061 11:-0.00185013 12:-0.00317909 13:-0.116011 14:0 15:-0.00492397 16:-0.00196836 17:0 18:-0.010057 19:0.000803702 20:0 21:0 22:0 23:1 24:0 25:0 26:0 27:0 28:0 29:0 30:0 31:0 32:0 33:0 34:0 35:0 
-1 1:0 2:0.225373 3:-0.0298507 4:0.225373 5:-0.00229984 6:-0.156019 7:0.00305708 8:-0.00459058 9:0.026594 10:-0.000769924 11:0.00699454 12:0.00677998 13:-0.00187626 14:0 15:0.0012351 16:-0.00360034 17:0 18:0.00319682 19:-0.0057122 20:0 21:0 22:0 23:1 24:0 25:0 26:0 27:0 28:0 29:0 30:0 31:0 32:0 33:0 34:0 35:0 
-1 1:0 2:0.0527704 3:0.00527704 4:0.0527704 5:-0.00424959 6:0.0462299 7:-0.00680823 8:0.000253862 9:0.0216249 10:-0.00332328 11:-0.00268771 12:-0.000334465 13:-0.0957154 14:0 15:-0.000517298 16:-0.00360034 17:0 18:0.0178676 19:0.000369551 20:0 21:0 22:0 23:1 24:0 25:0 26:0 27:0 28:0 29:0 30:0 31:0 32:0 33:0 34:0 35:0 
-1 1:0 2:0.1 3:-6.93889e-018 4:0.1 5:0.00197725 6:-0.25418 7:-0.000966364 8:-0.00209975 9:0.17797 10:-0.00335283 11:-0.00480468 12:-0.00279944 13:-0.0807754 14:1 15:0.00331034 16:-0.00483205 17:0 18:-0.0172279 19:0.000347898 20:0 21:0 22:0 23:1 24:0 25:0 26:0 27:0 28:0 29:0 30:0 31:0 32:0 33:0 34:0 35:0 
-1 1:0 2:0.0527704 3:0.00527704 4:0.0527704 5:-0.0181781 6:-0.0533155 7:0.000933507 8:-0.0025261 9:0.170722 10:0.0100219 11:0.00388373 12:0.00218961 13:-0.0762451 14:0 15:0.0048917 16:0.00471629 17:0 18:-0.00837283 19:-0.00671981 20:0 21:0 22:1 23:1 24:0 25:0 26:0 27:0 28:0 29:0 30:0 31:0 32:0 33:0 34:0 35:0 
-1 1:0 2:0.0828062 3:-0.0655549 4:0.0828062 5:-0.00644929 6:-0.12026 7:0.00140932 8:-0.00332417 9:0.0542592 10:0.00180655 11:0.00388373 12:-0.0117779 13:-0.00374355 14:0 15:-0.00492854 16:-0.0143477 17:0 18:-0.0222101 19:0.00623806 20:0 21:0 22:0 23:1 24:0 25:0 26:0 27:0 28:0 29:0 30:0 31:0 32:0 33:0 34:0 35:0 
-1 1:0 2:0.0889571 3:-0.0122699 4:0.0889571 5:-0.00573529 6:-0.0272485 7:0.00857851 8:0.000578213 9:0.075992 10:-0.00273061 11:0.00357244 12:0.00155162 13:0.0267539 14:0 15:-0.00790929 16:0.00252779 17:0 18:-0.00584526 19:-0.00405298 20:0 21:0 22:1 23:1 24:0 25:0 26:0 27:0 28:0 29:0 30:0 31:0 32:0 33:0 34:0 35:0 
-1 1:0 2:0.0693878 3:-0.0408163 4:0.0693878 5:-0.0181781 6:-0.0491025 7:0.0137208 8:0.000253862 9:-0.0468709 10:-0.00332328 11:0.0141877 12:0.00677998 13:-0.095141 14:0 15:-0.00530999 16:-0.00479611 17:0 18:0.00725503 19:-0.00671981 20:0 21:0 22:0 23:1 24:0 25:0 26:0 27:0 28:0 29:0 30:0 31:0 32:0 33:0 34:0 35:0 
-1 1:0 2:0.105263 3:-0.0350877 4:0.105263 5:0.00737457 6:-0.220241 7:0.000868714 8:-0.000155678 9:-0.0596395 10:-0.000769924 11:0.00357244 12:-0.00255595 13:-0.0111579 14:0 15:0.00646052 16:-0.00483205 17:0 18:0.00463592 19:-0.00671981 20:0 21:0 22:0 23:1 24:0 25:0 26:0 27:0 28:0 29:0 30:0 31:0 32:0 33:0 34:0 35:0 
-1 1:0 2:0.124107 3:-0.0203084 4:0.124107 5:0.0130167 6:-0.140286 7:0.000868714 8:-0.00624256 9:0.38067 10:-0.000710021 11:-0.00268771 12:-0.000129959 13:0.0316677 14:0 15:-0.00492854 16:-0.00382903 17:0 18:-0.000372515 19:-0.000837017 20:0 21:0 22:0 23:1 24:0 25:0 26:0 27:1 28:0 29:0 30:0 31:0 32:0 33:0 34:0 35:0 
